407 64
0 -0.57031244 -0.5391223 -0.052800693 0.855888 0.5072248 -0.06287876 0.61309016 0.5314534 0.07003647 0.2296566 -0.6228849 -0.2077565 -0.45584273 -0.17162304 0.145055 0.40827584 -0.10650624 0.21584238 0.7231649 -0.5250056 -0.48370224 -0.73772025 -0.39836407 0.5876077 0.411419 0.3225651 0.42156205 -0.7668344 0.5302191 -0.016734615 0.22253948 -0.16608933 -0.01757586 0.086664096 -0.6660973 0.8128401 0.2828139 -0.07569568 0.16488302 0.034463763 0.21110266 -0.7060858 -0.86333793 0.7431934 -0.17942923 -0.12329829 0.017708 0.18330462 -0.34817696 -0.18045178 0.18868616 -0.38935524 -0.3053763 -0.28910846 -0.23471181 0.5962663 -0.11792109 -0.05887828 0.111602545 0.40224853 -0.70910144 0.12597165 0.63042474 -0.6222284
1 0.14168586 -0.10640657 -0.2618414 0.12714884 -0.023249082 -0.21602386 -0.024883509 0.18026891 0.15805551 -0.31395143 -0.32763323 -0.12345009 -0.2240603 -0.75145125 -0.040376082 0.39131373 0.24643683 -0.007904667 -0.17745587 -0.58511436 -0.03263767 0.3645972 0.12411165 0.30025333 0.084008776 -0.18124147 0.4292394 0.14424668 0.13719071 -0.0031346083 -0.29234648 0.37035143 0.4249888 0.072585374 -0.009483382 -0.22248915 0.024499074 -0.05981905 -0.56743205 0.034733117 0.465841 0.19469564 -0.6278882 -0.112931564 0.5434807 0.027794734 0.02356296 -0.55393654 0.14428528 0.098059386 0.5386767 0.28676438 0.28679812 -0.13528265 0.05575177 0.04635857 -0.33145583 0.17154692 -0.58931255 0.022290312 -0.5395645 -0.034059882 -0.025277697 -0.38968134
2 -0.16225693 -0.22122392 0.021128766 0.25723338 0.15882792 0.015641095 0.0179482 0.21680143 -0.1221904 0.4761523 0.10092882 -0.34963164 -0.18198326 0.16779444 -0.25964063 -0.093517594 0.40370312 0.23438948 0.31677955 0.338093 -0.05293276 -0.12533307 0.21661331 -0.10388949 0.10946593 0.11076476 0.42391667 0.43962106 -0.02557141 0.057781816 -0.18203348 -0.07623015 -0.06063365 0.1834943 0.38736165 -1.2772849 -0.7563585 -0.09147006 0.15126097 0.15614572 0.035830166 -0.049796738 0.041723773 0.14622557 -0.075022936 0.2727595 0.102179244 -0.32680434 0.22176363 -0.061930962 -0.43129528 -0.030659817 -0.18846749 0.35994864 0.0827415 -0.10241345 0.0064213006 0.1225365 0.0024833102 -0.26399922 -0.27799466 -0.027058363 0.17658319 0.009459203
3 0.3916824 -0.8630377 0.4720834 -0.28203562 0.40942696 0.16533688 -0.32044762 0.0951377 -0.31649828 -0.10795198 -0.004458651 0.5918844 -0.22098155 -0.1469014 0.52918476 0.7918523 -0.5511148 -0.015304923 0.62531745 0.037269916 -0.9254351 0.15314426 0.23889706 0.4241084 -0.13584802 0.38344267 -0.19227916 0.23632368 -0.57492465 -0.065946296 -0.33883077 -0.4430653 -0.90904456 0.2765401 0.022539362 0.46416637 0.0953287 0.009039149 0.24566706 0.4794423 -0.43892825 -0.17696306 0.24434748 -0.20774776 0.08962268 -0.11055656 0.19191422 -0.15171549 0.25685605 -0.023241758 0.199457 -0.10725668 0.37108195 0.09395292 0.43788958 0.028515466 0.318967 -0.35180098 0.3792134 0.2375224 0.4066683 0.08729964 0.5500394 0.18642113
4 -0.57798487 -0.44016245 -0.37816116 -0.43370926 -0.46195734 0.2603234 -0.80913496 -0.1571253 -0.53504866 -0.09802391 0.23978004 -0.43293327 0.17806676 -0.18108739 0.7736651 0.16648757 -0.28700787 -0.12606905 0.0650454 0.4450183 0.4531271 -0.20241901 -0.33349004 -0.427681 0.50595725 0.2977224 -0.06949899 0.40773684 -0.1435704 0.08345769 0.14184782 0.26569945 -0.2798035 -0.15018696 0.4982546 -0.43675488 -0.70439255 0.12545955 0.346376 -0.33736578 0.355173 -0.16170713 -0.124533206 -0.13597733 0.23908526 -0.16131164 -0.3438031 -0.214278 -0.10703963 -0.0065071583 0.65427464 -0.36689886 -0.055178612 0.5682715 -0.21276617 -0.0040552914 0.13463758 -0.41265073 -0.015869379 0.004081607 0.0021752864 -0.34926978 0.028199658 0.09090841
5 0.09215844 0.2724986 -0.35408396 0.3580251 0.26087886 -0.03318648 0.2663807 -0.15776353 0.24276619 -0.25131214 0.23488331 -0.3556173 0.405676 -0.0976139 0.13298875 -0.25711665 0.89161974 -0.36676556 -0.22126392 -1.2199855 -0.019814946 0.2356838 -0.24641846 -0.3143927 -0.2764185 0.16679072 0.18837374 -0.14695993 -0.22303666 0.7085351 0.29047272 -0.25040326 0.6371008 0.0807105 -0.5322881 -0.75331175 -0.39578307 -0.16208604 -0.14926682 -0.35991076 0.39731163 -0.12206596 -0.039335903 -0.11876456 -0.16598168 -0.14556244 -0.1580659 -0.14629942 0.29889008 -0.16654274 -0.06891282 0.31607124 0.1500527 -0.14759831 -0.010605797 0.6500772 -0.056291543 0.10324368 0.017029643 -0.15500411 1.5127655 -0.09009077 0.18871373 0.20584562
6 0.10801838 0.3248737 0.1721172 -0.40855527 0.418681 0.44765508 -0.24404001 -0.20464209 -0.016893134 0.09274712 0.36467052 0.4548808 -0.5154859 -0.7261596 -0.05958441 0.51627874 -0.028473407 0.143662 -0.33421907 0.30904838 -0.22341025 0.23356445 0.3932875 0.8129567 -0.3309263 -0.40562016 0.31931797 -0.14757478 0.69609594 -0.018019214 -0.3150875 0.6313636 -0.23801613 0.14542384 -0.27101365 0.710307 -0.37358275 0.67848206 0.1577345 -0.46708554 -0.17941034 0.38957506 -0.32553574 -0.48137853 0.4611628 -1.192778 0.29292542 0.052906044 -0.78709185 -0.39001018 -0.54674417 0.3579692 -0.13521309 -0.3501825 0.053622082 -0.47523102 0.5531398 -0.46698278 0.19059134 0.41364217 -0.30888498 0.39908093 -0.26257354 -0.31885225
7 0.4166512 0.54413414 -0.15680566 0.027013376 0.35785362 0.071581595 -0.072967544 0.23917374 0.38658866 0.13086145 -0.08793581 -0.068595946 -0.1949129 0.56973314 -0.29307148 -0.023109447 0.4091209 -0.08213788 -0.1384979 -0.053069428 0.1229861 -0.38767058 -0.2988791 -0.31148794 0.004017245 0.16316155 -0.07569545 0.12242856 0.15809473 0.0006054267 0.12810753 -0.07722242 0.32530522 0.9151695 -0.23942707 -1.0593815 -0.6109529 -0.05352482 -0.06796568 0.17721167 -0.2386058 -0.16285658 -0.3200602 0.33750403 0.255111 0.47520638 -0.20659424 -0.37164712 0.472525 -0.32694924 -0.574368 -0.059803963 -0.15953481 0.21564454 -0.21363342 0.0760195 -0.35045534 0.19311485 -0.08108634 -0.24056447 0.53070885 -0.15013959 0.53198713 -0.343703
8 -0.22937751 0.41785938 0.2852474 0.29840803 0.29769462 0.4681036 0.01925832 -0.33642173 -0.37359548 0.37886736 0.054554313 -0.314988 0.25100243 0.06731328 0.017443493 -0.38260832 0.42279142 -0.052776933 0.12490769 0.22653165 0.19061562 -0.6363658 -0.14698227 -0.32583052 0.09553178 -0.028837472 -0.26992267 0.047117427 0.33989546 -0.24033046 -0.13114622 -0.051646486 0.8287294 0.5074522 0.2235575 -0.6471353 -0.634035 0.019737713 0.029134445 -0.06259157 -0.093573645 0.08156996 -0.12665269 -0.42597225 0.19030207 0.13278654 -0.35186118 -0.40219477 0.12472863 -0.14107199 -0.51063114 0.025964133 -0.08943121 -0.12029144 -0.030791879 0.33505395 -0.10527552 0.2576444 -0.35964084 -0.7057252 -0.13393207 -0.22472382 -0.10903989 0.35246533
9 0.032344554 0.3949167 0.09108877 -0.24717394 -0.2675309 -0.03778756 -0.14248112 -0.29770473 0.34544563 0.31725484 0.04751759 0.1563304 -0.7909564 0.102548085 -0.5166014 0.24150464 0.501788 -0.47124135 0.015808746 -0.21575788 0.057414085 -0.24816878 0.029383138 0.4021265 0.22474517 -0.43355095 0.06796281 0.31331015 -0.31198302 0.11423188 0.18493009 -0.38691118 -0.28814104 0.6972817 -0.63949513 -0.21969146 0.2775932 0.107335895 -0.12131085 0.83330244 -0.64895964 -0.549953 -0.08938741 0.1217379 0.38785383 0.14046106 0.32428902 -0.1598781 -0.5573834 0.91823924 -0.4463397 0.16505052 0.05148693 0.37755424 0.053469867 -0.4839071 0.41361523 0.6363198 -0.041876245 -0.21352579 -0.6843887 0.10210234 -0.26024777 -0.14623189
10 0.2322996 -0.35128155 0.11022892 0.1070709 0.30870813 0.011476897 0.26854256 -0.0049161613 0.12640911 -0.24128288 -0.13273966 -0.840175 -0.17560245 0.021303646 -0.028919771 -0.16451919 -0.09147096 -0.04129301 0.16834924 0.51455384 -0.15744016 -0.024617575 -0.048206117 -0.7956378 0.15225145 -0.119868785 0.26628268 0.31999043 0.20919746 0.27722463 0.37657169 -0.1341473 -0.05191745 0.101985544 0.42354614 -0.5337095 -0.6531305 0.36883032 -0.45146832 0.18064708 0.065307304 0.25229216 -0.55207175 -0.52591854 -0.21691985 0.5271968 0.20565766 -0.35231873 -0.4381937 -0.03676988 -0.23227373 -0.3186778 -0.61265343 -0.15139194 0.06262199 0.18018743 -0.1840342 0.02595482 0.22191031 0.06908921 -0.15512058 0.22500256 -0.3160786 0.3233811
11 -0.03322462 0.0051163286 -0.15793787 -0.20036985 0.07728398 -0.032702662 0.391607 -0.4758396 -0.27547017 -0.25071993 -0.06089501 -0.12975337 0.07866059 0.19471018 -0.5514021 -0.051945798 0.59274817 0.19495955 -0.040164668 -0.0895904 -0.28564164 -0.4994848 -0.22563866 -0.13128284 0.16750364 -0.090030596 -0.08028866 0.18202719 -0.2077555 0.066876605 0.13402587 -0.13033476 0.2488227 0.9450721 0.0715031 -1.431472 -0.87421805 0.024477124 0.2002512 -0.12957408 -0.20706424 -0.041017868 0.06015488 -0.020019736 -0.043174766 -0.1348874 -0.21233228 -0.25093856 -0.19727266 0.20611623 -0.32298797 0.028222874 -0.14822084 0.12964788 0.26598543 -0.16131236 0.14158683 0.40923017 0.0052072257 -0.41229013 0.3218065 -0.045900162 -0.082787454 0.37771
12 -0.27997458 0.45318538 0.22257063 -0.13854946 -0.13026798 0.51429075 -0.03228411 -0.1312352 0.0012129918 -0.43568173 -0.1847497 -0.14089362 0.3947685 0.30960804 -0.54406834 -0.5180227 0.49966732 0.034770366 -0.02353431 -0.94350266 0.055621766 0.048448917 -0.2485991 0.025739014 -0.38714156 -0.22351821 0.12502916 -0.085359626 0.09224086 0.007824749 0.06297341 -0.0497455 0.22814801 -0.46128678 -0.2866407 -0.82845926 -0.22273949 -0.010434985 -0.20762992 0.5010765 0.31463927 0.19454184 0.27360618 -0.3018924 -0.12735437 -0.20122269 -0.29258218 -0.23014508 0.08825809 -0.27240965 0.49417108 0.3533898 -0.19113131 -0.16218306 0.2153805 -0.39039862 -0.033780143 -0.68943405 0.13225624 -0.2971019 1.155937 -0.37615114 0.2416043 0.2547592
13 0.16803043 0.47557247 -0.021825472 0.16981749 0.29296976 0.19828923 -0.09744995 -0.20658486 0.06319847 -0.0022232085 0.14431918 -0.4205641 1.127968 -0.19656354 0.016341638 0.025650242 0.32543045 0.12798628 0.25879684 1.5085504 0.12586425 -0.05623761 -0.06348383 -0.12447504 1.0680233 -0.18256474 -0.21798651 0.31397247 -0.03976174 -0.05421852 -0.038225353 0.37453198 0.16902119 -1.0359247 -0.42644808 2.2124205 0.6580803 0.14483358 -0.23698609 -0.14159872 0.30422738 0.063894674 -0.017914113 0.13256134 -0.14873488 0.37216213 0.21992543 -0.119901195 0.29174477 -0.27856594 -0.44360024 -0.7935379 -0.63879263 -0.2035929 -0.24513184 0.4659535 0.093223125 0.3804368 0.10037959 -0.25602716 -0.60718524 0.3161746 0.33679232 0.011662344
14 -0.02833552 1.0860646 0.09767109 -0.3922105 -0.36724722 -0.28704786 0.13676572 0.19016175 0.4427828 0.23551741 0.24093518 0.81755465 -0.46166623 0.09490248 -0.6652003 -0.23998198 0.22029318 -0.54128 -0.81382704 -0.28565085 0.21925822 -0.03352513 0.36608833 0.31219682 -0.34925255 -0.4726204 0.4868359 0.11213425 -0.20331067 0.18426825 -0.43028435 -0.24934095 -1.0185239 0.13851196 -0.12771143 0.005795818 0.12741335 0.23861611 -0.25974998 0.10583596 -0.7315298 0.03168469 0.190623 0.022706255 -0.0013250783 0.041685775 -0.2896606 -0.417104 0.43095696 0.6114349 -0.54507494 0.29579777 0.4496423 0.064151585 0.19261326 0.03445679 -0.44215545 0.7237483 -0.11973997 -0.011871181 -0.49076694 0.19684651 0.027527586 0.119083874
15 0.1268796 0.22155543 -0.33641228 0.1707951 0.38430268 0.07744078 0.32027388 0.13814345 -0.32320744 0.045683816 -0.58471656 -0.21100222 0.21807747 0.09777119 0.6517767 -0.7143976 -0.77817285 -0.044237807 0.28632027 0.27698576 0.2563365 0.1932268 -0.8398455 -0.014562756 -0.34448236 0.6294949 0.0783056 -0.100770354 0.41063616 -0.1977588 0.5286951 -0.11827626 -0.018366724 0.37412757 0.5324635 0.3225623 -0.10232817 -0.88836896 0.29694498 0.05634561 0.5059317 0.5886457 0.14734301 0.21844417 -0.03192116 -0.04208435 -0.32752314 0.89714074 -0.99491227 -0.020512566 0.11391218 0.3145572 -0.2898109 -0.24478513 0.24589822 -0.36234957 -0.05193019 0.2605053 0.23960483 -0.3067085 -0.11727431 -0.17167908 -0.1780372 0.09678075
16 -0.001130864 0.44889873 0.14608876 -0.12319429 0.29323065 0.43231 0.0934192 -0.13512447 0.07899001 0.09278388 -0.03385558 -0.2501058 0.28259242 -0.3216042 -0.6728262 -0.070818916 0.38466147 0.13593912 0.13978583 0.26903462 0.108036555 -0.34214127 -0.37202555 -0.6362528 0.24112904 -0.031721115 -0.07619347 0.59161067 -0.25236383 -0.18045527 0.013845045 0.03504844 0.2075113 0.60091794 -0.45541146 -0.71529 -0.5917566 0.22017606 -0.008644998 -0.006002672 -0.9106214 0.23424487 -0.14684597 0.28602844 -0.43886268 0.25709587 -0.31459445 -0.13089493 -0.023181155 -0.025637373 -0.77179253 0.035252728 -0.39673674 0.11858861 0.15457983 0.44129813 0.079707876 0.2859514 0.53806454 -0.053427786 0.19721507 0.022098467 -0.032209463 -0.038049757
17 0.20872915 0.2794211 0.213267 0.13725656 0.07669187 0.22946018 0.25453725 -0.2907857 0.050965786 -0.14180447 -0.19753166 -0.34646276 0.22829382 -0.015345499 -0.39018327 -0.28372592 0.62774074 -0.04488521 -0.21371835 -0.6888575 -0.13457838 0.07869454 0.017852843 -0.43717232 -0.26758432 0.189091 0.2805724 0.10637684 0.08760257 0.34489313 -0.025266655 -0.25682932 0.1928581 0.40538192 -0.3498238 -1.023028 -0.30897978 0.082223475 0.022001375 0.118652776 0.092347786 0.33653143 -0.17323887 -0.18163967 -0.3874461 0.19055316 0.14802302 -0.1823694 0.11378303 -0.24280062 -0.250982 0.12400839 0.28043064 -0.093117245 0.19926935 0.10195398 -0.026858019 0.45994002 0.14958304 -0.22197992 1.0326827 -0.10264139 0.13866745 -0.09958398
18 0.011802011 -0.13227566 0.1291672 0.020176865 -0.35409844 0.20045881 -0.18153787 -0.004475833 0.58798194 -0.5157951 -0.16214496 0.2011409 0.007184416 0.053913966 -0.50071174 0.29428893 0.59426105 0.26121706 -0.3294845 -0.20929949 -0.82390314 0.15086417 -0.7208371 0.008111052 0.5665294 -0.387528 -0.03684695 -0.19148287 0.32446352 -0.07702564 0.5984703 -0.121520266 0.28927726 -0.42667907 -0.6558624 -0.48308584 0.10522478 0.026573211 0.0843173 0.6509587 0.27144098 -0.29865694 -0.018527135 0.18082729 0.32298014 0.28865355 -0.11715195 -0.39861488 -0.29836306 -0.5218197 -0.16946305 -0.59963185 -0.6394601 0.026229233 -0.5290475 -0.038573418 -0.1706982 -0.35108158 0.2502285 -0.43537217 0.9609138 0.269584 -0.37108046 1.37589
19 0.17717569 0.4448674 0.100133 0.095577955 0.032078363 -0.685218 0.68123746 0.66633236 0.01871518 0.27312034 -0.011471242 0.6187433 -0.48705497 0.18823738 -0.37742084 -0.24640882 -0.5576354 -0.24182785 0.15387914 -0.042669054 -0.006660588 -0.11968662 0.2304158 0.2198697 -0.6235018 0.09649054 0.38763678 -0.11751701 -0.22174668 -0.065092035 -0.3375273 -0.4278495 -0.2884169 0.03227268 0.4254498 0.54781514 0.19156887 -0.40728948 0.43529886 -0.0613375 -0.6027919 -0.026367128 -0.10112349 0.17295593 0.046865672 0.14098868 -0.097496 0.35775992 -0.3846133 0.5614606 -0.4845301 0.49702564 0.052205145 0.54153657 -0.08342072 -0.69755936 -0.17922843 0.007032715 0.085811794 -0.4282425 -0.93039215 -0.22321841 -0.053910293 -0.27190658
20 -0.3506833 -0.48713365 -0.22242086 -0.14401728 0.12886077 -0.04070793 0.06839903 -0.38478774 -0.32915017 -0.3839302 0.28028443 -0.09410563 0.30927125 -0.17066428 0.26719606 0.121102884 -0.34629598 0.3173784 -0.24090353 0.35364246 0.032274276 0.08520986 0.5573724 0.08180718 0.25692433 0.33886802 0.09826795 0.17905135 -0.36101282 0.04095424 -0.003456466 -0.20634091 0.8020562 0.05473814 0.2621613 -0.55345666 -0.58705634 0.17127275 0.115463324 -0.41600564 0.4407965 0.25873095 0.10651262 -0.06889162 -0.44972673 -0.29640245 0.019347623 -0.14395225 0.52934575 0.30262238 0.55631065 0.15059167 0.006349966 0.34218875 -0.016027376 0.08956194 0.1591619 -0.62920725 0.009050243 0.48760918 -0.21299139 -0.25707626 -0.38167512 0.30208722
21 -0.0118585825 -0.37062404 -0.029076204 0.22458926 -0.24060749 -0.20361203 0.12826738 -0.44880497 -0.17511562 0.29505983 0.1427435 -0.7492095 -0.07647593 0.15805484 0.16897896 0.115196586 0.07144664 -0.013253212 -0.06031537 0.45217478 0.32048106 -0.5278143 0.21872061 -0.22353098 0.23750448 0.06647661 0.48999682 0.26462713 0.120742366 0.19067892 0.0012517422 -0.090829544 0.28767055 0.11110647 -0.1330019 -0.7257667 -0.73572695 -0.132255 0.2005735 0.2732209 0.19603777 0.059982754 -0.07712293 0.11484943 -0.4718563 0.040899932 -0.33791125 0.05794841 0.04042079 0.040480025 0.03855659 -0.14714347 -0.227043 0.110083655 -0.20812088 0.17854197 0.36596906 -0.4478913 0.18067305 0.078668185 0.07819402 -0.0020670816 -0.09694716 0.09522924
22 -0.08537808 0.23418759 -0.22381379 -0.14223976 0.030383065 0.24861929 -0.008892819 -0.1098985 0.20498571 0.0772708 0.31417504 -0.25379503 0.3760879 0.20972374 -1.3407819 -0.4608907 0.30252686 -0.13541284 -0.31084928 -0.058402464 0.39631143 -0.3479572 0.0040050745 0.09445724 0.16937883 -0.054537535 -0.33228657 -0.31056142 0.31478566 0.33297044 0.5705707 -0.37715906 0.31599838 0.7590012 -0.0822096 -0.92775774 -0.57075 -0.3682031 -0.16599369 0.21338692 -0.44459188 0.124074705 -0.544467 -0.096690394 -0.16746736 0.045177236 -0.24739605 0.055611372 0.35765553 -0.27441996 -0.625036 0.29221386 -0.5198148 -0.274979 0.083592564 0.03605633 0.019507326 0.07557707 0.27960157 -0.18617012 0.24238212 -0.23194426 -0.37687442 -0.36095518
23 -0.23953176 -0.6295655 -0.7444845 -0.50963473 0.17408192 -0.1800378 -0.20301044 0.1588015 -0.1453943 -0.022806928 -0.6108204 0.11532815 0.6432574 0.7660357 0.11347609 -0.16918498 0.092726335 0.4251604 0.6478161 0.24535403 -0.23735648 0.7004675 -0.476341 0.14351463 -0.24293992 -0.22104889 -0.11713604 -0.5125885 0.3908758 -0.45119053 -0.19446403 -0.17513633 -0.09822518 -0.122107506 -0.112028 0.13488385 -0.05652772 -0.072016574 0.63103956 -0.40650487 -0.009568911 -0.9078357 -0.34231243 -0.24318865 -0.20091638 0.16434631 0.1892559 -0.17640257 0.18450642 -0.32937846 0.20287421 -0.022400327 -1.02538 0.60441875 -0.31102717 -0.5811781 0.50496495 -0.37056664 -0.26519406 0.25042847 0.40867186 0.34806225 -0.31752288 0.86901087
24 0.24321902 0.16596526 -0.7180287 0.3415449 0.26479822 -0.40290576 -0.15828967 -0.47599605 0.34584966 0.42213836 0.06848724 0.41292316 -0.12954271 -0.01131998 0.0014383197 0.2246154 0.70342755 0.00776878 -0.18315035 0.21133961 0.1645303 0.2490201 -0.27304196 -0.11079456 0.38636184 0.040622488 0.72233564 0.49740535 0.61483616 -0.1373464 0.7937835 -0.14532542 0.1450516 0.15968414 -0.30443013 -0.17957214 -0.05035697 0.16415773 0.33816144 -0.030673325 -0.26177052 -0.014583033 -0.51886153 0.19075613 0.1696904 -0.37187403 0.111790664 -0.31218585 0.22834088 -0.25506103 -0.36217898 0.1629215 -0.0719628 0.4029348 0.084806815 -0.30457658 0.3758739 0.0072364807 0.34390035 0.0931188 0.19447201 0.027895581 0.62697774 0.19109938
25 -0.07111193 0.08729259 -0.26044488 0.116380095 0.46032664 -0.32740626 0.8621398 0.46153957 0.49170572 0.44404554 -0.30680722 0.3361165 -0.3633774 0.1343964 0.06883913 -0.31128365 -0.9349642 -0.68397194 -0.15220273 0.3685496 0.0643819 -0.4151792 -0.49306753 0.022796988 -0.81056213 0.47532186 0.32343176 -0.21128473 0.24274929 -0.30035543 -0.51363325 -0.13233358 0.18810527 0.36428353 0.3997529 0.011096388 -0.012796 -0.8734498 0.16647163 -0.31759042 -0.04586096 0.026422456 0.4532181 0.040065914 -0.08700948 -0.1907689 -0.16305152 0.95909274 -0.22251783 0.16897649 -0.4009248 -0.34140363 -0.25675505 0.18741262 -0.08595162 -0.29373172 -0.14501008 0.032913536 -0.097373694 -0.70114684 -0.2542164 -1.177675 -0.019410819 -0.3886872
26 -0.21970145 0.32975549 0.5940161 -0.9225931 -0.7662214 -0.12376045 -0.016327899 0.55723566 -0.21863097 0.4722234 0.2505122 -0.5277377 -0.21425906 -0.11951967 0.3754962 0.41245097 0.26101995 -0.11286682 0.24535632 0.82322687 -0.31522503 -0.016507085 -0.14250109 -0.040394083 0.4304703 0.15130441 0.14679593 0.363379 -0.35725302 -0.28390312 0.36923477 0.2299752 0.04963836 0.24724308 0.34895217 -0.43132406 -0.5583618 -0.034862682 0.25454327 -0.21722522 0.04370831 0.35998306 0.21851064 0.4937754 0.3535945 -0.4032528 -0.12273744 -0.0767897 -0.4190806 -0.22853638 -0.5149007 0.12673923 0.021931782 -0.047673147 -0.12696745 0.61651415 -0.337522 -0.18582311 0.17920181 -0.55358946 0.07969385 -0.5966035 0.02396587 -0.002946347
27 0.14248788 0.20557758 -0.1897092 0.13926533 -0.12518522 0.10631837 0.2987269 0.20375362 0.48121858 0.6530658 0.29170612 0.092750214 0.51329106 -0.37647492 -0.89220893 -0.9460904 -0.09561071 -0.41620925 -0.51928854 -0.55232704 0.14062104 0.1143353 0.44546643 -0.24165852 0.017282687 -0.15682875 -0.2151351 -0.055541247 -0.20086113 0.058723286 0.29962432 0.6068826 0.073467776 0.124131426 -0.22289473 -0.05971746 -0.4422532 0.37574682 0.5527733 0.53545576 0.3378951 -0.37909517 0.884549 0.014535757 -0.19162096 0.97736526 0.23339283 0.6330879 0.21757337 0.27468544 -0.2817318 -0.47934502 0.2761644 -0.5313963 0.22380844 0.84323335 0.023640126 -0.0996186 0.00889501 0.50031626 -0.66841686 -0.6596252 0.020902932 0.44944507
28 0.16715974 -0.6373888 -0.58274347 -0.8503261 -1.0492909 0.38996273 -0.15004398 0.028565988 -0.05846622 -0.03783475 0.0069377497 -0.078028925 -0.054056704 -0.039352253 -0.068510756 -0.5052558 0.022012964 -0.5539186 0.24658072 -0.59570885 0.19982326 0.23592013 -0.43395358 -0.052687064 0.5980561 -0.42593464 0.587974 0.8102501 -0.55689347 -0.3649729 -0.051036537 0.28711498 -0.45746848 -0.60202456 0.04085502 -0.34634417 -0.13675004 -0.0981857 -0.069254786 0.05468023 0.278752 -0.71376455 0.3794363 0.26107597 -0.63558125 -0.49268487 0.41918576 0.47734872 0.5534237 0.98997307 0.17888705 -0.15428245 -0.20411937 0.30730978 0.28637868 0.27635506 -0.44809464 -0.042345967 0.13002828 0.010403484 -0.8172844 -0.47569388 -0.357328 0.29367274
29 0.01544806 -0.1922277 0.17710468 -0.24231 -0.14634651 0.13753757 -0.2682526 -0.16642469 -0.25114217 -0.42367053 0.19596133 0.007947624 0.1853212 0.10691878 0.3083379 -0.07269022 0.50925094 -0.03498598 0.10738268 0.012146559 -0.5450694 -0.3533628 -0.2878063 -0.20190944 0.63157225 0.04620084 -0.17942156 -0.051861674 0.012054868 -0.00038205087 0.0012729913 0.24322703 0.038851216 0.9375764 0.35693792 -1.0368497 -0.8515587 0.46409518 0.13599332 -0.025505584 -0.6442814 -0.17572032 0.07789528 0.12969323 -0.30242544 -0.3696245 -0.94569165 -0.4700159 -0.093528025 0.19111766 -0.20126145 0.25173807 -0.40695143 -0.2100071 0.1258911 -0.22425373 0.09197521 0.26745808 -0.21951124 -0.011873484 0.6200436 -0.3501301 -0.28012526 0.3093537
30 0.09188439 0.054615498 -0.12761444 -0.14731407 0.14117756 0.34196135 0.33909854 -0.29253912 0.005753927 0.16067332 -0.057061225 -0.5125334 0.036518127 0.32140696 -0.14201912 0.28346494 0.3603592 0.20819937 0.0038197003 -0.368676 0.052826367 -0.21573122 -0.31752753 -0.07367061 0.11345426 -0.056990348 -0.24221393 0.18208109 0.07696968 0.47134712 0.27299872 -0.33654594 0.23703238 0.7411265 0.029498626 -1.1929183 -0.3681456 0.0775205 0.052529078 0.18234602 -0.45759895 0.31006077 -0.031743042 0.29064092 -0.08217924 0.23643559 0.17401312 -0.3036416 -0.03516382 -0.3764801 -0.3724586 0.297568 -0.073614165 0.19241865 0.06812351 -0.1375271 -0.22130896 0.46740276 0.35786873 -0.6299108 0.2849707 0.014366342 -0.2191443 -0.124563865
31 -0.16974 0.17866883 -0.31043917 0.1779168 0.08959848 0.26600087 0.159535 -0.14720497 -0.2825432 -0.17377111 -0.19100174 -0.17479888 0.100134805 0.5338761 -0.19994125 -0.15040196 0.55355227 0.29277197 0.09130202 0.09749231 -0.08027315 -0.24263369 0.061812684 -0.3270611 0.17110959 -0.29258063 -0.15171307 0.17103173 0.23432654 0.4687004 0.4596861 -0.6133212 0.11291281 0.75421184 -0.3161527 -1.5010288 -0.8513333 0.24403328 0.12082942 -0.12247644 -0.5748066 -0.057371587 0.13756987 -0.03637314 0.36868364 0.14289406 0.63016737 -0.24932204 0.07265498 -0.2632537 -0.51419 0.0897394 0.034050956 -0.19916713 -0.21315017 0.15173733 0.23534986 0.2409463 -0.0517063 -0.51301426 0.16772725 0.24751118 -0.30700374 -0.3046286
32 -0.33572856 -0.6907448 -0.1474449 -0.075846136 -0.6678158 -0.15331501 -0.870371 0.023433924 -0.5403507 0.16021328 0.03444703 -1.3244224 -0.16344932 -0.24672672 0.6802604 -0.117490865 -0.01908052 -0.07478734 0.32669526 0.39621767 0.5196773 -0.77811444 0.24752247 0.022825703 0.22326101 0.32929227 -0.20860673 0.2851363 -0.5172186 -0.118886225 -0.022655308 0.31867224 -0.28682745 0.035807326 0.2574677 -0.5124861 -0.4706005 0.30969203 0.29027605 -0.4528942 0.36706185 -0.23911664 -0.007269215 -0.108129814 -0.15527798 0.11000858 -0.22387609 0.0004586652 -0.13361765 0.41595262 -0.09423235 0.0971501 -0.008211881 0.02575478 -0.061219074 0.33603087 0.2794753 0.12213966 0.24719357 0.5439304 -0.43635607 0.060720615 0.24871242 0.28033498
33 -0.09198538 -0.28228003 -0.555097 0.39243582 -0.63235474 0.48661953 -0.6172168 -0.38226753 -0.121184915 -0.22514899 0.012254827 -0.26551712 0.1641266 -0.10645611 0.47159776 0.32892036 -0.0703295 -0.15413575 0.25978038 0.06316629 0.272336 0.1610677 0.4968096 -0.43617716 0.58918285 0.25538287 0.07915571 0.24205345 -0.59690404 -0.6159722 -0.19583806 -0.029742405 0.19216704 -0.3247603 0.38529742 -0.30424693 -0.7491878 0.33807456 0.0045512766 -0.22655673 0.32321906 -0.43724018 0.00041231327 -0.042285576 0.03291084 0.08940362 -0.2946788 -0.085794985 0.14915647 0.6589534 0.3427071 -0.04559941 0.04291621 0.2701162 -0.26483792 0.17236307 -0.09712414 -0.015721962 -0.14141643 0.27377075 -0.63234806 0.13814434 -0.4295786 0.2954851
34 -0.30835992 0.21880695 -0.4595494 0.09104445 0.13833097 0.10657949 0.16320096 -0.12364267 -0.0014488697 -0.058774956 0.13709211 0.19549805 -0.16690773 0.009175263 -0.07236448 0.06404735 -0.5744276 0.04795064 0.03262634 0.107871115 0.4027341 0.329716 -0.3514422 0.037152488 0.06464182 0.23247443 0.048719116 -0.2866671 0.44899374 0.07612525 0.10609208 0.113437705 0.13505736 0.04274349 -0.2855488 -0.037457317 0.22431009 0.017800637 0.30324882 -0.07320261 -0.33441982 -0.49906906 0.34011146 0.13259482 0.1619569 -0.10430603 0.34644073 0.12553057 0.39331618 -0.16825283 0.4134848 0.20466599 0.08205788 -0.03810978 -0.50488067 0.10676627 0.066900365 -0.14077777 0.18543045 0.037001237 -0.09446996 0.040451586 0.18770719 -0.19122598
35 0.07455803 -0.08413634 0.12374483 0.24552915 0.22768995 0.20028941 0.18125463 0.18127117 0.18827659 -0.17780386 -0.061192248 -0.052697495 -0.40738553 -0.15220287 -0.6114776 -0.30440223 0.60639274 0.20638971 -0.09480891 0.24947205 0.119766876 -0.3338186 0.2942563 0.20069946 0.20919348 -0.10203411 0.061205056 0.33404636 0.009377763 -0.1480809 -0.044281542 -0.26398185 0.2946718 0.75322306 -0.14495778 -1.0652027 -0.6105391 0.24468279 -0.07096368 -0.3401201 -0.5009285 0.28028557 -0.009965926 -0.17394063 0.16157354 0.5672713 0.07250254 -0.5193471 -0.07303032 0.18181472 -0.38522762 0.3214392 0.00639832 0.06629979 0.07941133 -0.33971953 -0.2634653 0.6919731 -0.23058324 -0.2418446 0.1302385 0.23360023 -0.038816776 0.02750846
37 -0.06545934 -0.035927746 -0.18537346 0.12888733 0.3388148 -0.41794014 0.5414653 0.4427582 -0.38533854 0.03969337 -0.11046266 0.4162987 0.021206483 0.3972259 -0.41745776 -0.7203474 -0.8903862 -0.3634827 -0.01805459 0.28248304 0.13320112 -0.45341223 -0.2403595 -0.12968165 -1.0699372 0.36260265 0.37911165 -0.40375602 0.55571806 -0.0041545555 -0.3044446 -0.23103368 0.4521827 -0.110868976 0.8193034 0.3554402 -0.37137112 -0.41290146 0.42422062 0.21253112 -0.17911063 -0.11738953 -0.13337263 -0.18341558 0.5486687 -0.42665744 0.10134424 0.70815057 -0.51612496 0.005223453 -0.38139617 0.3764003 -0.42008665 -0.1646494 -0.21067993 -0.49379602 -0.23435308 -0.08426922 -0.10568564 -0.4053239 -0.274862 -0.94222987 0.38921952 0.15710625
38 -0.4716029 -0.087066464 0.029710963 0.016995298 0.3806991 0.018651068 0.2574675 0.25554717 -0.11744052 0.23007314 -0.098320395 0.30372602 0.37830698 -0.097946644 -0.32429177 -0.34559596 -0.7680611 -0.22841892 0.1397165 0.48774806 0.15836 0.0151501745 -0.27716258 -0.32685024 -0.8193096 1.023013 0.22526942 -0.12774162 0.900774 0.06921985 -0.5566352 0.07443118 -0.021452263 0.3826618 0.4912975 0.3543017 -0.27306837 -0.673535 0.021056786 0.38572407 -0.34183526 0.28671718 0.06579933 -0.17093484 -0.872488 0.26398692 0.15258598 0.46790674 -0.0009432435 0.20410219 -0.022304133 -0.20984219 -0.55882025 -0.029173017 0.07877052 0.0504532 -0.19991325 0.29888892 0.15867329 -0.27364552 -0.17692325 -0.43230653 0.008835807 -0.27945906
39 -0.15590739 -0.4347235 -0.35114574 -0.3670205 -0.21646434 -0.09448047 0.7865057 -0.31803757 -0.37660727 -0.34501463 0.13452238 -0.34308758 -0.31548652 0.20487878 -0.33374432 -0.032223105 0.09744105 -0.57952845 0.3087312 0.15706901 -0.34076577 0.13313974 0.035560302 -0.31113386 0.6933565 0.022450417 -0.026119545 -0.2973336 -0.04436063 0.3308536 0.073703334 -0.11315306 0.71646225 0.13905056 0.26694363 -0.668555 -0.28277326 -0.38901198 -0.051169366 -0.0032168478 -0.78341407 -0.060710087 -0.37277606 -0.49297625 -0.08581267 -0.5905889 -0.5872997 -0.31764954 -0.29091847 0.07599546 0.30259767 0.17599891 0.17622009 0.6381454 0.079499856 0.051694643 0.3359454 -0.12116014 0.22325465 0.12085715 0.19048694 0.074833445 -0.52097964 0.38236415
40 -0.32579172 0.062262103 -0.0481096 0.55718875 -0.19184914 0.23183809 -0.44612256 -0.202826 0.28171527 0.015302373 0.010147069 -0.3495361 0.29510993 0.7351999 0.45709 0.025184982 0.538617 0.029932493 0.29743367 -0.62869644 -0.4223037 0.08287583 -0.9403245 0.052346617 0.3010247 -0.15658565 0.030154264 -0.18403265 -0.8370608 0.14588234 0.19431546 0.09553502 0.18575093 0.4250215 -0.066415094 -0.98680145 -0.25279278 -0.20646232 0.24908987 0.26660717 -0.66212153 0.187276 0.031762682 -0.67889863 -0.78250504 0.022910781 0.5719422 -0.2030643 0.0017509721 -0.107255146 -0.7053579 0.28990728 -0.093090124 -0.094104856 0.16518044 0.3477667 -0.61130345 0.4781772 0.38227916 -0.51401144 0.37323812 0.28824726 0.051330432 -1.2438998
41 0.67487085 0.93281645 -0.06329539 -0.34478924 0.5676234 -0.4868753 0.1707193 0.51378673 0.58908886 -0.112766534 0.25592571 -0.48202017 0.04659167 0.45934656 -0.3833314 0.17661873 0.03717795 -0.40306664 -0.24178988 -0.6399917 0.5091255 -0.7764893 -0.4048553 -0.30277562 0.43633842 -0.20879738 -0.3025286 0.016197972 0.17453964 0.1447932 0.46637708 -0.289468 -0.54320645 0.6157964 -0.6254566 -0.6334599 -0.09264007 -0.00088836066 -0.41243696 -0.09208262 0.08022693 -0.39766118 0.08619724 -0.6608516 0.14472558 0.03738843 0.047011197 -0.60879827 -0.030161161 -0.4916575 -0.20812905 0.40116718 0.15834652 -0.7436763 0.6777261 -0.40454736 0.36254755 -0.0075312704 -0.4724176 -0.5514604 0.82725346 0.24007337 0.5994003 -0.6074391
42 0.17585716 0.41621655 -0.151304 0.18415503 0.4475749 0.0062114336 -0.3648979 0.015713995 -0.19544941 0.089990065 -0.5941702 -0.14416853 -0.042766377 0.026537526 0.50778735 0.26818714 0.35729024 -0.4720787 -0.27384818 -0.041295618 0.15794197 0.86117756 -0.25980628 -0.28789085 -0.28397992 -0.05021334 -0.034056973 -0.24733631 0.42428192 0.15813482 0.27682 -0.05409965 -0.1810418 0.01776021 -0.3714316 -0.32931116 0.0913247 -0.26403686 0.28625262 0.06839243 -0.36617166 -0.21100923 0.026197307 -0.013198957 0.31547636 0.68567014 0.2292452 -0.14636335 0.6231541 -0.22829029 0.3388307 0.84621334 -0.081808984 -0.13909133 -0.46135765 -0.15995367 0.15344238 -0.27571553 0.040304624 0.42084274 0.16707823 -0.3750383 0.10001086 0.051882744
43 0.10519728 -0.13090506 -0.09646753 -0.20407088 -0.99238795 0.9759289 -0.33195823 0.24623315 -0.1930577 0.15738282 -0.70291036 0.14663625 -0.3572163 -0.19064523 -0.15318324 -0.38497734 -0.11314401 -0.61575675 -0.09320993 -0.58256894 0.07086624 0.39510816 -0.38416594 0.13676189 -0.008816287 -0.653868 0.12958348 0.39683658 0.017339587 -0.11251171 -0.20365432 0.34155518 -0.15109938 -0.20005254 -0.48154432 -0.15651701 -0.1769834 0.1448254 0.63091046 0.12588659 0.36478502 -0.4418819 0.33488366 0.24124578 -0.28806317 0.29158252 0.029560775 0.7109933 0.2866384 1.5556799 0.18764567 -0.17114592 0.04779238 0.3780498 -0.31046945 0.16475894 -0.54837877 0.074546136 0.31658363 0.20718761 -1.1759934 0.17464861 -0.7905303 0.068828285
44 0.23172574 0.53853965 0.73749864 0.53331864 0.13503644 0.17210796 -0.14038289 -0.49552906 -0.06437594 -0.08491723 -0.13129704 -0.052776515 0.14338952 0.23484537 -0.364299 0.052783385 0.6814736 -0.19898355 0.08525486 0.023898445 0.029576672 -0.10197048 0.017367914 -0.8016857 0.077042624 -0.026464857 0.20837983 -0.24334857 0.17186639 0.062337197 -0.093104675 -0.063323244 0.12068341 0.46212316 -0.30420953 -1.2579813 -0.33118927 -0.43078578 -0.01147272 0.06300632 -0.4051901 0.09094764 -0.19475907 -0.35611838 -0.19742893 0.71093285 -0.25471094 -0.7048519 -0.17765197 0.09145298 -0.3947438 -0.19775194 -0.5093901 -0.12904765 0.030552663 -0.11803081 0.25654364 0.50687754 0.40358946 -0.23313737 0.23020099 0.033946894 -0.1720008 0.032314993
45 0.2232078 0.39684254 -0.19014458 0.14909598 -0.23572516 0.15574947 0.49628475 -0.16586727 -0.14695787 -0.14049529 -0.012171544 0.069441766 -0.50267506 0.07063618 -0.08278054 0.035195246 -0.5425111 0.24442798 0.08790843 0.08588601 0.48227513 -0.10517426 0.15403962 -0.29978228 0.4164909 0.045165524 0.41451997 -0.0375496 0.2624368 -0.38987127 -0.23192729 0.41706863 0.8786086 -0.011857986 0.24510568 -0.07145158 0.09876439 -0.05604164 0.62494063 -0.2141254 -0.44595385 0.22579308 -0.10993041 0.13611998 -0.25751007 -0.31076992 -0.17825189 0.19139642 0.45893598 -0.14181307 -0.11386526 0.27304944 0.4674244 -0.16866982 -0.21908414 -0.6133528 0.44145006 -0.21488135 0.17417668 -0.23417051 0.15341008 -0.109839946 0.05693089 -0.0760298
46 0.31553268 0.22552525 0.0045375824 -0.2967674 0.03975023 0.33785528 -0.05739594 0.18927126 -0.16675025 -0.09844954 -0.25272462 0.08973687 -0.16082752 -0.0050174445 0.39934206 0.17628181 -0.13679367 0.32003888 0.33364296 -1.1015645 -0.32806268 0.16384012 -0.06585318 -0.38276482 -0.23405096 0.056873135 0.014917947 -0.117315054 -0.20541874 0.0135196 0.07464787 -0.2789321 0.07728924 -0.25706565 -0.10643016 0.15794666 0.36432555 -0.11696839 0.13527042 0.245188 0.39778277 -0.2575017 0.028516546 -0.09158622 0.15001933 -0.46272388 0.07633049 0.11717602 0.010665573 0.16500488 0.5672107 0.35408753 0.5489337 0.059466805 -0.1028686 0.33201596 0.11471411 -0.13211249 0.30011094 0.05845058 1.2216026 0.18589547 0.3896258 0.5737951
47 0.11855885 -0.4704034 0.41472575 -0.48798466 0.113443345 0.18387352 -0.7809612 0.29414505 -0.5892507 0.5387144 0.07779852 -0.20994675 -0.8671632 0.17714888 0.82510084 -0.5208597 -0.26231968 0.005497232 -0.13652015 0.018952206 0.12830696 1.0433388 0.47209418 0.6431291 0.14063086 -0.19031535 -0.7350942 0.28787047 0.17655784 0.021885172 -0.22671573 -0.16432542 0.09118231 0.067276776 -0.30738187 0.11257759 0.5735229 0.22428648 0.6097115 0.39310655 -0.060574234 0.60527784 -0.29325616 0.8026643 0.35270637 -0.06609161 0.35626036 0.51432776 0.33253354 0.0026361346 0.0483149 0.53762907 0.3663748 -0.8296881 0.052213944 0.21456921 -0.3626686 0.37481537 -0.1553877 0.24392335 0.60644996 -0.7651874 0.19311807 -0.05189252
48 -0.24022648 0.47155812 -0.48395815 0.15149423 -0.14341636 -0.4016137 0.4889554 0.18616508 0.16571744 -0.03066156 -0.11689702 0.72576845 -0.48066238 0.40599075 -0.5743731 -0.29001346 -0.231318 -0.6140637 -0.43556914 -0.21342224 0.12940034 -0.31200892 -0.28224435 0.22216551 -0.8051222 0.22162648 0.45065063 -0.06516421 0.07337163 -0.0990765 -0.20759979 -0.4277508 -0.42951155 0.005164802 0.29736483 0.24457681 0.02056615 0.04874286 0.11673708 0.91665757 -0.32958782 -0.172078 -0.027858859 -0.2710392 0.58013785 0.20903343 -0.28467116 0.10432638 -0.5993486 0.6581099 -0.7727837 0.4774846 -0.21761191 0.32390374 0.31957155 -0.8010851 -0.3033795 0.33212143 0.43536195 -0.15287761 -0.49867785 -0.27579904 0.094592914 -0.27727532
49 -0.6152665 -0.060509242 -0.4697597 0.6647601 0.019442469 -0.5679697 -0.065722525 0.01940772 -0.22559994 -0.76029384 0.24037297 -0.7257991 0.75798833 -0.17056653 -0.24520132 0.0020394027 -0.7928832 0.03473571 0.24405399 0.01579155 0.25113943 -0.62042886 -0.46811405 0.27668652 -0.11756392 0.070808634 -0.045931786 -0.4892794 0.21755004 0.028586706 0.029123336 -0.52783555 0.5256347 0.11446352 0.5180258 -0.10281201 0.32412446 0.1256589 -0.23645662 -0.19462714 -0.5639014 -0.41957211 0.6341106 -0.34994197 -0.2973169 -0.03842481 0.63088524 0.18532018 -1.6129518 0.40678635 0.3666142 0.5152779 0.19402519 0.5263233 -0.3249567 -0.08658733 0.23456705 -0.06975334 0.4234483 -0.053381316 0.319298 0.7689064 0.53084016 0.22785926
50 0.055189326 -0.0153442025 -0.64262104 -0.11006722 0.11488709 -0.1422668 -0.25715324 -0.16968225 -0.2573936 -0.3790313 -0.80555576 0.19307306 0.5486711 0.19253872 0.9013363 -0.5629269 -0.008544147 0.26762262 -0.16672406 -0.09836431 0.23373075 0.28032503 -0.4405418 0.021711878 0.29638934 0.09711384 0.18083331 -0.60062844 0.143114 -0.077904746 0.124230385 -0.2708431 -0.2449811 -0.41346055 -0.52596974 0.1920875 0.3702101 -0.14644288 0.40243948 -0.95484 -0.09165 0.06796375 -0.52988404 0.04139262 -0.1402755 0.33567932 -0.08794917 0.0689705 0.03716214 -0.48524988 0.5520471 -0.0432623 -1.158449 0.74612737 -1.007016 -0.1959382 0.27362227 -0.0580163 0.1344307 0.042892247 0.2242789 0.41387308 0.034305133 0.23358083
51 0.17723316 0.5874883 -0.3715443 -0.12250146 -0.29709256 0.04721913 0.1054013 0.2682734 -0.18431737 0.020599961 0.18090752 0.16578236 -0.41019243 0.4249428 0.13262172 -0.3703105 0.1605223 0.09797072 0.19896606 -0.1370782 0.6008094 0.019324034 -0.033046216 -0.12399423 -0.4601207 0.7626078 0.1330111 0.1468907 0.2053593 -0.13522911 -0.45938367 -0.05290559 -0.112766355 0.50451225 0.26021993 -0.58768004 -0.31655332 -0.7449948 0.1014664 -0.33016348 0.071890056 -0.5564129 -0.17509374 0.44334877 -0.41074443 -0.037359327 0.13277332 -0.2766375 -0.3757683 -0.15743709 -0.64929366 -0.34740168 -0.34423998 0.17000805 0.15517591 -0.45291007 0.52635336 0.40930325 0.7005955 -0.71770936 -0.021904591 -0.6103086 0.03912776 -0.45691633
52 0.029375136 -0.18161452 0.2593545 0.5403293 0.83819515 -0.5217148 -0.27166367 0.120486274 0.7116351 1.0280961 -0.007964477 -0.56635374 -0.23128161 0.13987814 0.52041614 -0.549338 -0.14321253 0.35867596 0.27217034 -0.1205626 -0.11754817 -0.023085877 -0.10606547 0.7061846 -0.48966175 -0.40993348 -0.013691752 0.863696 -0.58870095 0.46942726 -0.28445765 -0.37732443 0.364804 0.23052388 0.22318617 0.31019822 0.28092277 -0.08765824 0.12349845 -0.5660285 -0.5434785 -0.45203105 0.2140873 0.067934826 0.4167443 -0.06775378 0.5119699 -0.39241043 0.4324359 -0.4236588 0.293763 0.28016168 0.61224157 0.3854343 0.224536 0.20400348 0.38269323 -0.25411373 0.81923985 0.3819679 0.39254338 0.0010120645 0.26017082 0.26486686
53 0.1587263 0.12242743 0.48582357 -0.49413002 -0.15961197 -0.014172591 -0.29232427 -0.003998503 -0.4394001 0.012195393 0.9254967 0.11498037 0.16168606 0.0514228 -0.6463853 0.119598836 -0.22706647 0.51311696 -0.3041196 -0.10472116 0.3365023 -0.085171804 -0.36494392 0.10393154 -0.12888527 -0.48825198 0.2553339 -0.69694304 0.5617368 -0.5708869 0.31709176 0.63020486 -0.21686365 -0.05733023 -0.55944747 0.12903024 -0.20658562 0.026027305 0.2758004 -0.4456606 -0.06705651 -0.29501247 -0.24698919 -0.11519137 0.4939105 0.11609822 -0.21753944 0.17087412 0.40791953 -0.518363 -0.060256757 0.73992914 -0.12671398 -0.33799067 -0.18922445 -0.17753871 0.4541977 -0.2907704 -0.07405493 0.7626092 -0.12096596 -0.23279512 0.26757926 -0.6644597
54 -0.16440243 0.49684262 0.1532505 -0.35138708 -0.26300716 0.7015805 0.40002465 -0.37213835 -0.44883093 -0.40504414 0.22394001 0.39762306 0.18656278 0.060483642 0.13813132 0.25531372 -0.15888926 -0.374996 0.16442612 -1.1314275 0.6312353 0.6801126 0.7696235 0.20871177 -0.23935485 0.008878566 -0.39302906 -0.5214475 -0.83019996 0.16791967 -0.7814865 -0.8189509 -0.079464555 -0.77870464 -1.1409478 0.32746044 0.033622026 0.43011093 0.6965888 -0.6182791 0.80387074 0.1423841 -0.28541213 0.12637635 -0.07414752 -0.07911987 -0.33546644 0.22582737 0.1553332 -0.25658005 0.3197179 0.08794507 0.5164898 -0.22170526 0.06552232 0.46051627 -0.07735027 0.53899527 -0.25128365 -0.46652183 1.4345319 0.099305496 -0.12211013 0.092092745
55 -0.1365699 -0.00027784705 -0.53750753 -0.02550488 0.18929341 -0.12724926 -0.0021759719 -0.2836777 0.09827143 -0.09748419 0.03672207 -0.23543476 -0.014998019 -0.0058523044 -0.08112848 0.7415159 0.30589357 -0.03102465 -0.46271604 -0.22684658 0.18396126 0.17949332 0.07920721 -0.033146515 0.08308627 0.27905434 -0.10406978 0.35781133 -0.14124772 0.61303633 0.8159366 0.23248352 0.110631086 0.36121917 0.12401356 -0.73361 -0.77459633 -0.024618242 -0.029935036 0.10440081 -0.51959926 -0.44022393 -0.36044818 -0.8314428 -0.22173122 0.48057604 -0.19805506 -0.760642 0.040556185 -0.28115755 0.21214238 0.29014334 -0.46762308 0.016412126 0.119149655 0.13382845 0.37876418 0.21279874 -0.2801254 -0.46962386 0.14812669 -0.096202254 -0.25661537 0.28160843
56 -0.022966892 0.15844074 -0.45687383 -0.72835016 -0.620523 1.0139257 0.087502316 0.14890322 -0.07231326 -0.15538493 -0.910935 0.4301641 -0.20885351 0.5169531 0.15101281 -0.125409 -0.16242267 -0.57550704 0.5814052 -0.31146017 -0.08083937 -0.07303591 -0.17173965 0.446036 -0.365857 -0.21162331 0.5039506 0.2502819 0.21833566 0.4300192 -0.20954321 -0.6940098 -0.09008386 -0.38939747 -0.3377901 -0.38983312 1.2048671 -0.45114416 0.19099484 0.5567294 0.90612304 0.7723447 0.4744881 -0.0330615 -0.22887696 -0.1297751 0.052178834 -0.047885932 -0.080928504 0.7431554 -0.22956045 0.038681388 -0.37113878 0.84629256 -0.13414909 0.7619293 0.6879323 0.40337023 0.26923507 0.24958223 -0.004137039 0.17060418 -0.21960892 0.21873729
57 0.8203886 -0.46275967 0.16299844 -0.42203897 0.41083196 -0.33586198 -0.25434825 -0.43121284 0.9196355 0.39897656 -0.512142 0.30208948 0.11552927 -1.1847851 0.15583225 -0.6833901 -0.8607585 -0.29585403 0.116945475 0.35588527 -0.062930875 -0.098040804 0.41564405 0.655684 0.049689114 -0.7400645 -0.30410072 -1.0421149 -0.36113554 -0.4022026 0.16660047 0.31023017 0.03191153 -0.18849787 -0.23315506 0.06959553 -0.18591684 -0.01963269 0.0655412 0.42451704 -0.00983043 0.4403335 -0.059308335 0.21945769 -0.51476306 -0.21810476 -0.3700032 -0.12509069 -0.060110264 0.3740426 0.16222015 0.042487334 -0.25535232 -0.00517942 -1.0672112 -0.44465768 0.15764585 -0.0057833083 -0.25131822 -0.47381437 0.35693246 0.17191225 -0.2670392 0.057141937
58 0.4170119 0.2762959 -0.5285133 -0.16691253 0.4710486 0.09894183 -0.046837464 0.14483625 0.86215305 0.14845759 -1.4194112 0.6386898 -0.50485575 0.16697298 -0.94357294 0.31613946 0.070525795 -0.676792 -0.20544365 -0.6160367 0.29863906 0.004119452 0.5346013 0.2723493 -0.30443037 -0.38974348 -0.052273713 0.22669382 0.45328426 0.4823012 0.021949247 -0.17157972 -0.9017854 0.090812184 -0.33952314 0.65740633 0.25784218 -0.082925305 0.29968512 0.56478876 -0.27464116 -0.08056095 0.15817164 -0.24047376 -0.7527339 0.26414856 -0.026916832 -0.7936114 0.0646547 1.2257782 -0.36933115 0.16663288 0.070131645 0.44997126 0.06268972 -0.430182 0.50281316 0.9463464 -0.36091807 -0.2423559 -0.7638706 -0.009886278 -0.071682096 -0.025947686
59 0.0030256584 0.06331814 -0.30908632 -0.05988211 -0.030442748 -0.16073947 0.11386548 0.008389711 -0.41845694 -0.21615428 -0.13280083 0.35611367 -0.36039734 -0.14272657 0.17082343 -0.4094113 -0.22890754 0.2198785 -0.26594746 -0.21163662 0.14976856 0.04542832 -0.074231006 -0.16330352 -0.39776596 -0.33936772 -0.101041436 -0.43170992 0.03550087 -0.4613046 -0.42230988 0.03164308 -0.03086108 -0.07192687 0.07329878 0.10886178 0.13490847 -0.12970431 0.11160076 0.23252417 0.05467694 -0.17151034 -0.5168388 -0.03234442 -0.22803274 -0.05401005 -0.06778972 -0.14469586 0.22686529 -0.12186311 -0.112279564 0.9891083 -0.12873353 0.16086808 -0.1934061 -0.3622042 0.2341195 -0.23887289 -0.098284274 -0.38004065 0.17385384 0.04447987 0.04982069 -0.46298796
60 -0.25247005 -0.1869217 -0.027965203 -0.033846967 0.15446006 -0.22667596 0.25301382 0.6515031 -0.18256184 -0.3809073 -0.05117261 0.18845028 0.21260127 0.17618261 0.15827027 -0.12014511 -0.43176705 0.13850702 0.14018974 0.3057645 0.20442604 -0.13985506 -0.24064374 -0.22606075 -0.93780935 0.57812464 -0.0077652633 -0.41018054 0.31447226 0.09282608 -0.032672614 -0.05455853 -0.08936681 -0.5554278 0.1981408 0.09598186 -0.029242057 -0.90991896 0.32212523 -0.04112643 0.06853163 0.3989804 0.13764125 0.006665107 0.17510352 0.0276514 -0.39348185 0.7228112 -0.24684374 0.03406388 0.010710135 -0.19072467 -0.84816146 0.14800823 0.38922647 -0.42997465 -0.02494096 -0.30070615 0.3461403 -0.51309276 0.060739726 -0.7971442 0.2906514 -0.028158396
61 -0.14083415 -0.0544883 0.08502372 -0.16016477 -0.5413483 -0.056764983 0.5080489 0.84195375 0.050445206 0.14368717 0.43699908 -0.12092 0.5289292 0.08172053 0.7362795 -0.16430008 0.07565928 0.3779633 -0.5085403 -0.16704558 -0.1427726 0.4671489 -0.13615614 -0.30344126 -0.40761352 0.24358237 -0.26263896 -0.44014043 0.00039048307 -0.26877952 -0.6438103 0.61215603 0.41846764 -1.0186875 -0.13635175 0.125689 0.45830235 -0.73819745 0.067681685 0.10578762 0.45412493 0.5254011 0.23306352 -0.38577127 -0.10351201 -0.6612298 -0.14301771 0.48779643 0.44055986 0.036811225 0.4154071 -0.46476653 -0.08133134 -0.101045236 -0.036040395 0.4465401 0.5436665 -0.07298285 -0.19343758 -0.2517404 0.24001959 -0.12772802 0.10181399 -0.09181194
62 -0.30725113 -0.6223391 0.09460707 -0.66154957 -0.38972092 -0.17794806 0.24637559 0.07220486 0.12796214 -0.29672685 0.485026 -0.05166731 0.39650032 -0.31027317 -0.554391 -0.12572895 -0.090978265 0.48387206 -0.1374199 0.45921543 -0.32101953 0.14699212 -0.455952 -0.53472036 -0.03741458 -0.19715038 0.65782493 0.25529653 0.6996336 -0.33207986 0.27854326 0.5555478 -0.09586891 -0.6788573 -0.1743913 -0.16781983 0.0014618933 -0.28807852 0.0076450408 0.6687435 0.75707835 -0.8314182 -0.06271212 0.52345586 1.1223686 0.033078298 0.21754433 0.060140237 -0.09966959 -0.19396272 0.14991438 -0.11858632 -0.8909384 -0.45288777 0.35274452 -0.18399484 0.33640546 0.03933578 0.5083993 -1.0054576 0.20111169 -0.68522865 0.6963132 -0.8326916
63 -0.40714306 0.3246417 -0.12949842 -0.0402143 -0.07147361 -0.13393995 0.32778195 -0.000709787 -0.35716045 -0.15244526 0.5715387 -0.035801247 0.6192646 0.13473219 -0.16987889 -0.20695776 0.18148732 -0.083212316 -0.13926387 -0.71684694 -0.030859012 0.11093584 -0.1046776 -0.9559182 -0.89709353 0.2824613 0.04846324 -0.007783264 -0.16702372 -0.230651 -0.112346075 0.2627874 0.025193438 -0.9574375 -0.6027185 -0.059557825 0.34696847 -0.29888588 -0.0058314577 0.7954895 1.0032691 -0.2100085 0.25456035 -0.17216294 -0.44424206 -0.08454609 -0.22395496 0.22635396 -0.06344853 -0.1797142 -0.013343036 0.10953476 -0.079414785 0.43234563 0.19326119 0.4162266 -0.14874406 -0.011235446 -0.15793748 0.03888817 1.3453966 -0.21234103 0.46464396 0.18197612
64 -0.23027648 -0.18070734 0.7402786 -0.26950988 -0.13888074 -0.31863528 0.35770774 0.77302086 -0.29037625 0.0057697855 -0.070882484 0.7962504 1.2193639 -0.2601064 0.25661704 -0.24731092 0.48695162 -0.025919884 -0.7526615 0.038198978 -0.34628773 -0.57363474 0.09415923 0.8981572 -0.66355896 0.14018773 0.063291624 0.011266187 -1.0235276 -0.04339573 -0.6349836 0.488645 -0.06590812 -0.7596723 -0.5158171 -0.7558613 0.45853153 0.08170407 -0.27583164 -0.5313594 0.7681838 0.060300447 0.18657267 0.4718413 0.018888347 -0.25925446 -0.64037323 0.5223529 -0.17983997 0.03662014 -0.1589028 -1.0415856 -0.13702399 0.45923296 0.7133805 -0.033438012 0.4035018 -0.22138709 0.70331514 -0.24327996 0.5020724 0.04327637 0.36609325 -0.30157202
65 -0.1813935 -0.15488435 -0.14646532 -0.18922375 0.05139911 0.19384329 -0.054263487 0.9858903 -0.23415855 -0.1876832 0.023069814 0.2689083 0.5732231 -0.43086308 -0.030541353 -0.43745175 0.30728975 0.058328897 0.51556873 -0.99959314 -0.33476514 0.44984806 0.14575191 -0.38599336 -0.51122195 -0.030696899 -0.44918394 -0.45724916 -0.04946077 -0.23662739 -0.15538281 -0.27401584 -0.044265985 -0.8875062 -0.7827672 0.054969832 0.096374005 0.061523154 0.1521357 0.46200287 0.6682942 0.40747762 0.19715531 -0.20198722 0.36529854 -0.49486366 -0.12489124 0.15134814 -0.019166432 -0.1546371 0.19854239 0.34916154 0.2396464 0.3270648 0.4633561 0.20588925 -0.43235353 0.40126497 -0.027053215 -0.75386643 1.1342217 -0.2275974 0.3135243 0.48956925
66 -0.21973072 0.43171448 -0.097286746 -0.015227962 -0.61529386 -0.1445714 -0.31304827 -0.25535408 -0.060701463 0.14939177 0.28615373 0.24163663 0.008780271 -0.30130887 -0.6209748 -0.10913357 0.55186605 -0.40975064 -0.6664914 -1.4945968 -0.57431346 0.5861541 -0.07662758 -0.3892309 -0.06971809 0.06602926 -0.5923295 -0.8290803 0.13059825 -0.15228203 0.35376787 0.054608956 -0.33971956 -0.15054017 -1.029613 -0.15365563 -0.08950733 -0.13922258 -0.33107504 0.124876976 0.53567266 0.21678501 -0.38754135 0.14600949 -0.25202927 -0.24504553 0.09021319 0.38218915 -0.06681335 0.08997179 0.17357023 0.31131732 0.37162438 -0.0052966923 0.22762296 0.43134558 -0.28745586 0.014427334 0.26544994 0.08457582 1.1004001 -0.083963156 0.074865654 -0.13742879
67 -0.40817752 0.17261466 0.38962382 0.10991826 -0.59611225 0.048987955 -0.008394275 -0.08811334 0.05615577 -0.11202942 0.71174276 0.39107764 0.3297116 -0.34184688 -0.5170843 -0.70803565 0.4482643 0.767783 0.17580232 -1.4164578 0.10807106 0.7917241 0.30106091 -0.30982533 -0.6311277 -0.18882626 0.03410442 -0.8176116 -0.123411536 -0.034710914 0.18147239 -0.10355367 0.08867308 -1.4520473 -0.8552445 -0.24605152 0.29432273 0.13425504 -0.38504595 0.2290368 0.69081205 0.39888096 -0.51421714 0.09216143 -0.19719109 -0.2489949 -0.08408036 0.9262272 -0.21879062 -0.44708255 0.25236082 0.30947387 0.5915628 0.471753 0.1318592 -0.54362905 -0.48932692 -0.11340909 -0.09568838 0.104033805 1.5232446 -0.14195353 0.3084136 0.17202657
68 -0.349411 0.65340126 0.32518765 0.054711714 0.19437006 0.28079265 0.24998343 -0.32780948 0.28708714 -0.4041944 0.060383275 0.06384505 0.104047984 0.20410685 -0.37005106 -0.21918598 0.9376957 -0.12540454 0.19601615 -0.8684839 -0.24380746 0.19413397 0.28656974 -0.36604103 -0.67489314 -0.16366658 -0.45891947 -0.46381173 -0.22541712 0.18196255 0.3389953 -0.011419535 0.24346071 -0.18327463 -0.04600814 -0.9191258 -0.2974148 -0.11977471 0.17640552 -0.06522463 0.0902541 -0.066344425 -0.1479033 -0.4814038 -0.19587839 -0.08577564 -0.65815324 -0.26832274 0.24632329 0.4238172 -0.26797718 0.8562511 0.26908726 -0.21333082 0.10615882 -0.13666105 0.3034055 -0.2127254 0.121561825 -0.4902606 1.3100317 -0.006646719 0.3586657 -0.14822206
69 -0.29236108 0.5094367 -0.2074075 -0.26815283 -0.56883276 0.060480945 0.37746882 0.22691265 0.2942633 0.055045888 -0.2884861 0.6171041 -0.648872 -0.16964468 -0.3010854 -0.61382353 0.22878581 -0.7729987 -0.21832532 -0.6163412 0.38386023 0.18731916 0.28464922 0.35174683 0.1219843 -0.6381881 -0.09208025 0.26037416 0.2948702 0.30762604 0.13175224 -0.24561225 -0.9396001 -0.32315722 -0.16477844 0.15892282 0.33021665 0.4363883 0.053483725 -0.10735461 -0.35995018 0.016120449 0.33083335 -0.18989015 0.07589347 -0.204035 0.5368127 -0.5276437 -0.07997707 0.81253976 -0.51094127 0.4217815 0.29883918 0.6537937 0.2437143 -0.3510309 -0.28984836 -0.19404879 -0.17312461 -0.37191528 -0.8163106 0.08657348 -0.22688112 0.123209044
70 0.34220818 -0.6670621 -0.9574324 -0.67920345 -0.43360382 0.54593045 0.6116513 -0.12849489 -0.9819522 -0.25910714 0.1912475 0.3306151 -0.51761305 -0.09977832 0.16253181 -0.5823213 0.11701639 -0.560554 0.31682146 -0.015070587 0.1906626 0.13194832 -0.656776 -0.46420926 0.23569323 0.13770601 -0.2736727 -0.068158925 -0.64975905 -0.62301135 -0.2822821 0.90148526 -0.4345073 -0.7053051 0.41470936 -0.47709382 -0.35615206 0.031152345 -0.76860416 0.18617927 0.3903237 -0.7934116 0.23153217 -0.2822621 -0.053529665 0.53469974 -0.20789254 0.76471436 -0.2686429 0.8602286 0.6826074 0.17151745 -0.25117657 0.033727724 0.11731951 0.34234542 -0.17532954 -0.20635131 -0.331233 0.40896702 -0.84472346 -0.35851046 -1.1000358 0.3570937
71 0.12650444 0.12346232 -0.266354 0.22621426 -0.011268139 -0.45101228 0.33960196 -0.08868021 -0.065913394 0.104913935 -0.14461297 0.1701619 -0.24418993 0.3481836 -0.09099552 -0.37623104 -0.43545973 0.011476472 0.17262629 0.38618213 -0.0065541044 -0.4581298 -0.06318472 -0.31079108 -0.8142396 0.86032254 0.38789555 0.22893272 0.18765892 -0.18894231 -0.3850745 -0.10463807 0.31819868 0.22479409 0.88228434 -0.20613165 -0.89958525 -0.4550556 0.31002274 0.14187261 -0.6387302 0.3717025 0.114044905 -0.40036416 0.14253667 0.033469014 -0.12262896 0.5765445 -0.45331588 -0.005240321 -0.60947746 0.49661934 -0.53042006 0.5176361 -0.1807667 -0.45653287 -0.05358012 0.0690697 0.21537727 -0.4200892 -0.12756798 -0.80968064 0.095922336 0.13483186
72 -0.3863789 0.54077935 0.07333875 0.33343896 -0.21861699 0.20818123 0.050667822 -0.4876783 0.14303812 -0.062159095 -0.21832868 -0.46662563 -0.56665456 -0.3026955 0.072205186 0.7101931 0.17340411 -0.12654397 0.40749252 0.19537759 0.0037030876 -0.19761615 -0.2043088 -0.8481469 -0.11669634 0.093461394 0.5435786 0.5057519 0.2568499 -0.54012746 0.35198253 -0.3525318 0.5529891 0.6596145 -0.47955132 -1.1693666 -0.819762 0.08845133 0.3472548 -0.02811889 -0.016716957 -0.17656024 -0.07782443 0.6781671 0.090467036 -0.035411775 -0.43889022 -0.32155833 -0.36338738 0.0928387 -0.4057789 -0.13949771 -0.36408108 -0.5111058 0.4664761 -0.38874713 0.12473482 0.4125621 0.27528787 -0.6766906 0.251728 0.032828044 0.5165423 0.031034933
73 0.0797071 -0.028348222 -0.33145452 -0.17571487 -0.047236223 -0.14135477 0.08940777 0.11634584 -0.020512342 0.054041386 -0.09772283 0.24187124 -0.30811608 0.1518817 -0.055741332 -0.2466463 0.043021828 -0.09166975 -0.038483255 -0.27464783 0.1730797 0.052119505 0.17504871 0.1952149 0.06378028 -0.1926783 -0.050793655 -0.2691571 0.23178384 -0.028898567 -0.05859205 -0.047381826 0.18363091 -0.05706477 0.017020173 -0.22962803 0.017579135 0.15801084 -0.11848357 0.23160514 0.33407924 -0.011898635 -0.3379875 0.22291681 0.19563308 0.5492115 0.11359339 -0.1845954 0.23793906 0.09523746 -0.07932827 0.24451405 0.27351284 0.12470261 -0.19562995 -0.057945535 -0.10706669 -0.32384163 0.44198343 0.039368756 -0.2576944 0.08179896 0.18854308 -0.05407644
74 -0.40953898 -0.10564721 0.009212479 0.38761547 -0.16361037 -0.2305427 -0.43542385 0.24665023 -0.017494828 0.46244434 0.1334821 -0.5180861 0.115558766 0.020713694 0.2889039 -0.08016673 0.34976214 0.24854653 -0.61160785 0.38556767 0.64384437 0.30525196 0.48164886 0.39038765 0.3301247 0.4336697 0.6025867 -0.36984345 0.07805489 -0.45101315 0.108296394 0.16529366 0.29512084 -0.22180188 0.66491294 -0.1904411 -0.22886479 -0.064405 -0.20073348 -0.39099517 0.057431594 -0.49775344 -0.46528623 -0.61599314 0.15529418 0.42620248 -0.013988689 -0.22254246 -0.05570039 0.4066201 0.48254654 0.037996035 0.23319516 0.026756763 -0.4951925 0.37209463 0.32865962 -0.683154 -0.3811562 -0.009278059 0.33792186 -0.6825451 -0.0046946555 0.33968192
75 -0.42761895 -0.021587517 0.20662108 0.011247605 0.24140128 0.5178706 -0.63120335 -0.23325561 -0.19216561 -0.5557129 0.062798455 -0.4510001 -0.008252233 0.04698948 -0.05046203 -0.28188288 0.02148661 -0.030641459 -0.48862472 0.24454373 -0.39154398 -0.45358068 -0.09876418 -0.17447664 0.21568096 0.29562658 0.12299206 0.53885025 -0.2537393 -0.22031935 0.6123637 -0.6957992 0.021435946 0.41388047 0.06788322 -1.0339893 -0.21235362 0.059792884 0.16739723 -0.6255712 -0.5784277 -0.23373917 -0.59482676 -0.19446318 -0.37624884 -0.014663681 -0.4832252 -0.03397593 0.0643961 0.16513893 -0.11619279 -0.01874531 -0.19825557 0.08922704 -0.4291994 0.4411672 0.34035733 0.03955149 0.09780072 0.038103938 -0.004008293 -0.38604966 -0.67835456 0.1398458
76 -0.33898807 0.04158662 -0.12237397 0.8837848 0.10619091 -0.057287008 -0.089131415 0.38326275 0.14659198 0.46252018 -0.12361409 -0.10759374 -0.41316146 0.3625469 0.37508732 0.03101354 0.2933939 0.0524323 0.43745548 0.059937194 0.22862197 0.5743048 0.5592908 0.30725834 0.2415174 0.5913543 0.6777015 0.22612071 0.32682237 0.045890506 -0.13783544 -0.349665 0.37282422 -0.059933912 0.11369489 0.417108 -0.18830773 -0.3271393 -0.3137452 -0.18976438 0.45138752 -0.17937882 -0.38587838 0.16662614 -0.1006874 -0.06606053 -0.32499588 -0.2451861 0.6495841 -0.20911296 0.4090158 0.23815614 0.47590947 0.3621124 -0.58049285 -0.3408811 -0.061440602 -0.28998193 -0.7334024 0.31520936 -0.43827254 0.006956011 0.13708475 -0.41750327
77 0.1787552 -0.17339516 0.53146935 0.3827421 -0.55391884 -0.24574089 -0.16717032 0.19372053 -0.39331928 0.27645135 -1.2530363 -0.26707193 0.14758416 -0.057319053 -0.016896337 0.37509018 -0.49733853 -0.7579298 -0.005964488 0.23998924 -0.6316677 0.12072502 0.50049615 -0.08186221 -0.257178 0.11787552 0.036236532 0.053815402 -0.3132728 0.030879555 -0.26439196 -0.26698735 -0.19745167 0.32400876 0.57174706 0.6589629 0.21522287 -0.008120343 0.7723107 0.47224018 -0.07838869 -0.015915029 -0.27359176 -0.49301195 0.8145744 0.3990417 0.866472 -0.2044271 -0.2930525 0.3642103 0.04251361 -0.22156204 0.735291 0.062989525 0.12537938 -0.11649205 -0.08743603 -0.45071852 0.109604 0.3989717 0.4822318 -0.2737391 -0.01258716 0.22840527
78 0.5663688 0.027018234 0.1434003 -0.1237908 0.45191598 0.1439433 0.18625738 0.33675468 -0.36943752 0.16676275 -0.7202926 0.3955763 -0.026175277 0.06091848 -0.29382098 -0.05938378 -0.6600399 0.3686329 0.038078763 0.20220095 0.30742761 0.04185226 -0.5264282 0.0048734993 -0.856766 0.79615754 -0.027296364 -0.73639476 0.00042542815 -0.25070694 -0.70937586 0.04462087 -0.44049597 0.17184581 -0.18849477 0.33728737 -0.7743914 -1.2035125 0.28906775 -0.109922566 -0.83037984 0.31770337 0.15105902 -0.3876019 0.0919479 -0.14726403 -0.113683216 0.48391584 -0.05411908 0.069338985 -0.040873766 0.23402801 -0.5823766 0.8104943 0.12908873 -0.83186847 -0.10102526 -0.23515052 -0.35190228 0.2180565 -0.08324887 -1.1916113 0.067745745 0.5288407
79 -0.04144627 0.15048775 0.22735357 -0.5003098 0.22506711 0.3304585 0.41115364 -0.03344676 -0.2742427 0.25261495 0.81463635 -0.50250435 0.46509328 0.033019926 -0.14245246 0.008625165 0.29769653 0.14277476 0.05024579 0.50094396 -0.001228963 -0.088917635 -0.055423975 -0.19929074 -0.24956816 0.21587114 -0.3466872 0.15338814 0.2809481 -0.2971639 -0.043055758 -0.073559865 0.12919378 0.2626203 0.27082422 -0.8846623 -0.1102999 -0.39114207 0.03565005 0.6922588 -0.35261425 0.043186847 0.27149782 0.18758571 -0.34560007 0.37125552 0.19695115 0.21701023 0.0010948367 0.21815935 -0.37989593 -0.001655668 -0.18512487 0.07459913 0.505731 0.17511994 -0.014904711 0.0627076 -0.51352066 -0.33528832 0.11158578 -0.2502272 0.12577389 0.12706381
80 0.28550053 -0.122129604 -0.5945958 0.27723062 0.62122166 -1.0456687 0.78917354 0.6758386 -0.7643142 -0.3341229 0.56899226 -0.026405048 0.102855004 0.8015694 0.018697403 -0.09676555 -0.84034353 -0.5150617 0.7395985 0.17490089 0.1525289 -0.2580214 -0.5797086 -0.124850675 -0.53721106 0.29500672 1.0473299 -0.18747608 0.091973424 -0.039636124 0.059004962 -0.15095168 0.22826737 0.6530652 1.1485221 0.3790757 0.026278071 -0.57747936 0.4251442 0.20930427 0.03372467 -0.32496557 -0.29482707 -0.02002702 0.445112 -0.4391582 -0.14925526 0.44291583 0.026716754 0.30937937 -0.21338795 0.40740576 -0.4991827 0.009604916 0.3410285 -0.4234885 0.121493444 -0.43332496 -0.37267163 -0.62128055 -0.36263523 -0.5455805 -0.03672251 0.53703773
81 -0.22121274 -0.24982437 -0.22011715 0.49306178 0.25714314 -0.19444853 0.5807634 0.23991352 -0.41498858 -0.41232306 -0.40637785 0.2546555 -0.36556172 0.47569096 -0.13907693 -0.9894561 -0.8895905 -0.09705572 0.15637204 0.70481634 -0.14905727 -0.17514434 -0.1976057 -0.09978455 -1.286731 0.47758174 0.15711272 -0.35424054 0.5239337 0.043262698 0.080498904 -0.6573677 0.11549644 -0.14043017 0.67606175 0.31963632 -0.3403737 -0.40473044 0.54541546 0.09621973 -0.2937585 0.69842607 0.33460516 -0.44461778 0.26091668 -0.062406316 0.09728035 0.6820161 -0.5774009 -0.05872886 -0.7830602 -0.23904508 -0.39819294 0.595773 0.32980624 -0.5707745 -0.2398037 -0.5940806 0.18240269 -0.2942519 -0.5027723 -0.21174026 -0.0471071 0.08808252
82 -0.0063036885 0.4106172 0.20014681 0.063014284 -0.33748764 0.23446825 0.21300596 0.1365015 -0.52205783 -0.9612535 0.006737873 0.106611006 0.37818694 0.26708227 -0.020313561 -0.42642787 -0.3523811 -0.12316758 -0.047187973 0.85610497 0.54219836 0.46696413 -0.36935404 0.34037048 -0.11045767 -0.05951196 -0.47915545 0.31491077 0.18474269 0.24096262 -0.45591062 0.6964501 0.67542505 -0.048800066 -0.26801395 0.16546546 0.28084567 -0.45022213 -0.36985868 -0.085759774 0.13366821 -0.25547215 0.59486043 0.4007633 0.37357634 0.39978454 -0.08340457 1.0549762 0.68546474 0.54339826 -0.09311935 -0.39455178 -0.14265512 -0.81476057 0.9258451 -0.5991198 0.717991 0.5593383 -0.13049649 -0.2192063 -0.64992964 -0.35439086 0.33158296 -0.76899457
83 0.015372813 -0.18565236 -0.44750953 0.20523298 0.07649468 0.10839069 0.6070765 0.8214029 0.04223551 0.18323313 -0.4073311 0.38203076 -0.17354444 0.43104282 -0.15427436 -0.37482643 -0.9957563 0.09103371 0.008215323 0.28030202 0.0052692294 -0.13918015 -0.30761507 -0.17421998 -1.241209 0.5728239 0.51683635 -0.48576537 0.28815216 0.16580835 -0.42184657 -0.060363144 0.017739698 0.29384118 0.46619385 0.36515868 -0.32968152 -0.38884652 0.1570042 0.17757016 -0.043493643 0.2569756 -0.045056302 -0.21170133 0.061151534 -0.24260932 0.0058133006 1.0244857 -0.50345516 0.1875908 -0.5967892 -0.09022303 -0.7048261 -0.012753487 0.20006095 -0.36509854 -0.59526527 -0.18837479 0.10240317 -0.37192014 -0.37421098 -0.4853384 0.44350928 -0.39119098
84 -0.25471798 0.07787988 -0.18872723 0.3579724 0.07239027 0.23737906 -0.45255935 -0.5703989 -0.3972272 0.10629166 -0.29721233 -0.2798255 0.18468657 0.1817033 -0.38433033 -0.30727726 0.50625443 -0.26727238 -0.09273784 0.028121226 0.17479266 0.5778 -0.14309049 -0.3964024 0.16592744 -0.07080896 0.18670708 0.22151582 0.2317611 -0.05769693 -0.07524144 -0.14378154 0.21368983 0.3857625 -0.2738614 -0.89359796 -0.48627332 -0.03158816 0.10888526 -0.31484556 -0.1292182 0.06326333 -0.38913125 -0.31025863 -0.103114024 0.035834566 -0.34811622 -0.19080362 -0.3813061 -0.1639448 -0.5801553 0.27031752 0.0728707 0.12781844 0.37538624 -0.025720214 0.09497082 0.47641945 0.047850847 -0.18374825 -0.06464712 -0.35838753 -0.27477187 0.20187247
85 -0.2062538 -0.09337399 -0.58387804 -0.8282015 0.42136794 0.03101705 -0.14805225 -0.25081465 -0.2220926 -0.108498156 0.033988826 -0.33895943 0.3283952 -0.30089465 0.56080616 0.4823246 0.103069484 -0.29492304 -0.03227988 0.17903021 0.020243585 0.19772755 0.0237137 0.19505212 0.07159656 0.48050833 -0.28717914 -1.1428761 0.07408443 0.06669483 0.7012789 -0.29080525 -0.10899341 0.26370716 0.31153104 -0.28786352 0.34069684 0.024575245 -0.48953664 -0.02090464 -0.050097242 -0.4169374 0.1865084 0.10265647 -0.111640185 -0.21942939 0.16126764 -0.20027526 -0.7565565 0.19081946 0.7919463 0.38049358 -0.045153394 -0.059676915 0.023606975 -0.59707236 0.54280865 -0.75214005 -0.017972782 0.040479057 0.24938755 0.39408037 0.3043476 0.3143193
86 0.5464628 -0.6698691 0.0174473 0.012818925 -0.15994711 0.31358865 -0.2439824 -0.32534802 0.014248267 -0.17210922 -0.1315305 -0.19942203 -0.3501749 -0.10600904 -0.1846087 -0.39929324 -0.13852067 0.1038367 0.62896264 0.38572907 -0.11925358 -0.010589877 -0.16104287 -0.089822955 0.32531264 -0.16356796 -0.24873492 -0.2385582 0.49966797 0.0807918 0.32721227 0.11676921 -0.33092016 0.41049102 0.18521109 -0.22212964 -0.29507458 -0.12000741 0.52883947 0.3838721 -0.18743128 -0.19195029 0.025611974 -0.40364745 -0.30653 -0.001546979 0.16859908 0.20733182 -0.12848954 0.061870098 -0.47757262 -0.07412714 -0.028707996 -0.36150357 0.29614463 0.040991165 0.37982297 -0.23814651 0.64789313 -0.35956883 -0.10026495 -0.0017704442 -0.0573399 0.372695
87 -0.08354722 -0.41226134 0.09181187 -0.14720428 -0.8005371 0.50146526 -0.21897516 -0.3811632 0.36855415 0.22738814 -0.15808491 -0.2298556 0.30001187 -0.25210145 -0.3572561 -0.47949883 -0.033344522 -0.72835743 0.21648364 -0.029082108 -0.055116437 0.0585476 0.13594761 -0.2997114 -0.83394754 -0.27880007 0.03680654 -0.033533946 -0.6091573 -0.2613721 0.47781652 0.41679466 0.24241939 0.29782698 0.24129573 0.25624204 -0.19524086 0.18895835 0.3420125 0.30390772 0.2827587 -0.41872102 0.08911654 -0.2863387 -0.25761783 0.09288338 -0.1697396 0.42313075 0.8954798 0.47252673 -0.20215972 -0.6827675 0.044301067 -0.2967812 0.7190613 0.7793169 -0.51879346 0.81839126 -0.23243764 -0.06003038 -0.10760039 -0.5771827 -0.39749867 0.28571784
88 0.38351417 -0.30123758 -0.868787 0.49330068 -0.6629253 0.54872245 -0.5563387 -0.2258279 0.28348175 -0.19521958 -0.14414786 -0.36816475 0.030604348 -0.14684558 -0.25560668 -0.37647462 -0.12158476 -0.533138 0.42679003 -0.60280085 0.4096229 0.123876445 -0.18157467 -0.3568436 -0.05388783 -0.6181247 0.709752 0.31902516 -0.37056085 0.18050987 -0.2664461 0.47276974 -0.39317584 -0.016732812 -0.59075916 -0.53793085 -0.51333743 -0.16111957 0.10022169 -0.07141979 0.1173127 -0.5867742 0.2316739 0.09982441 0.52818704 -0.34698322 -0.008306503 0.54331553 -0.3149258 0.98607457 -0.07347553 -0.10505827 -0.06396671 0.6008245 -0.44924366 0.42315295 -0.32982275 -0.14839599 -0.05357796 0.17031324 -0.71499056 -0.3904422 -0.9005748 -0.14475739
89 0.12325459 -0.16075228 0.20565799 -0.3476436 -0.17358194 0.39357364 0.024219774 -0.31948575 0.5336705 0.37901685 0.03289306 -0.66391575 -0.47063416 0.1357186 -0.06410506 0.025950447 0.4650154 -0.42711323 0.16169739 -0.00908155 0.30678183 0.0024595708 0.12831056 -0.25738552 0.28487974 -0.66078687 -0.00069078803 0.09412517 -0.19812128 -0.14023751 0.36937645 -0.006413795 -0.045332983 0.13748321 -0.19776656 -0.5813981 -0.2909366 0.00085229427 0.35694328 0.09589442 0.063438326 -0.36280876 0.2737658 -0.038371235 -0.4478987 0.3542826 0.046734374 0.3949926 0.045775123 0.15672538 -0.1722016 -0.27724552 -0.013960563 -0.3953807 0.19749604 0.15992299 -0.08513571 0.055983767 0.03884927 0.15762141 -0.317751 -0.43285632 0.26252443 -0.53354084
90 0.36170053 -0.20882168 0.13834047 -0.0058556534 -0.41237187 0.41424608 -0.42990685 0.0030539185 0.035159573 -0.04852265 -0.2755118 -0.04079674 0.24324675 0.32067478 -0.015276067 -0.36845914 0.344772 0.029678568 0.3033986 0.27086228 -0.030167095 -0.27344173 -0.040326297 -0.026463304 0.022772253 -0.531194 0.10847259 0.27932876 0.09449811 0.00010994822 -0.014502712 0.057777904 -0.17399228 -0.025827646 -0.19893721 0.4082179 -0.15713608 -0.112966426 -0.04282893 -0.033542052 -0.12335223 0.11231175 -0.08599294 0.33294892 -0.41782224 0.17469679 0.42518574 0.2121688 0.32836735 0.5798917 0.0015697181 -0.8093846 -0.22083914 -0.4346577 0.09753796 0.82551634 -0.6029837 0.07235651 -0.22003031 -0.12827383 -0.42765635 -0.059450384 -0.16356838 -0.074861154
91 -0.12604508 -0.25005668 0.56690145 0.24096082 -0.19826189 -0.1749252 0.3680169 -0.25392798 -0.29755086 0.3299188 -0.1656695 -0.18121904 0.088961184 -0.28712124 -0.07782036 0.089518815 -0.27074283 -0.061874956 0.28783762 0.5452356 0.42150676 -0.07629307 -0.13719046 -0.26974177 0.31391257 0.15036997 -0.016284935 -0.32835895 0.12321033 -0.08751269 -0.002403073 0.14679864 0.53595674 0.27864045 -0.13565122 0.22477663 -0.2197808 -0.2455432 0.086092606 -0.10296414 -0.66973627 -0.28692308 0.089948505 -0.14458874 -0.58882034 -0.088934466 0.0052597336 -0.1274381 0.038942784 -0.34919092 -0.21332236 -0.64149153 -0.43627906 0.27110434 -0.16866086 0.24642842 -0.6721818 0.40982682 -0.14325878 -0.48115888 0.031217098 0.06518097 0.3609823 0.25061822
92 -0.02988334 0.022635728 -0.0646213 0.10130639 -0.0015928596 0.23611736 -0.044235244 0.4221434 0.19461945 -0.18657167 0.7162011 -0.35023513 0.34421825 0.34057194 -0.21482271 -0.49558285 -0.14749137 0.35973856 0.2729079 0.7015926 0.1876851 -0.076604754 -0.055665895 -0.64345694 0.116045386 0.1646989 0.27093542 0.075507335 -0.093441784 -0.13606827 0.27169585 -0.091886744 -0.18390374 -0.5216684 0.056911357 0.65564847 -0.35846144 -0.16929162 -0.17447543 -0.26666662 -0.053908538 -0.15995425 -0.21239538 -0.0071547925 0.02329667 0.06749359 0.49898162 0.20178562 -0.43910503 -0.18201452 -0.3717311 -0.30769077 -0.50207937 0.24175322 0.04279556 -0.12777019 -0.12583457 0.0664265 0.0192976 -0.097713694 -0.18041562 -0.4041466 0.16615298 -0.027825078
93 0.03470183 0.62627846 -0.2999073 -0.19863519 -0.43211126 -0.19770047 0.2439748 -0.07014544 0.43861675 0.41955388 -0.060712345 0.2834283 -0.39457735 0.17788059 -0.44603097 0.074066624 0.08338396 -0.58164084 0.27616602 -0.09069134 -0.042298455 -0.52873933 0.4228601 0.15628837 -0.020720173 -0.0442946 -0.019108802 -0.2872676 -0.062467024 0.42430872 -0.36342624 -0.4257713 -0.19740325 0.34451345 -0.28387848 0.555873 0.81482136 -0.15130371 0.23498923 0.39779383 -0.63285124 0.0043163337 0.09613457 -0.13602415 0.040461324 -0.21971272 -0.31612068 -0.55360085 -0.3181303 0.1029543 -0.17363426 0.15910944 0.20068347 0.3000548 0.17759188 -0.7603136 0.5710888 0.38484964 -0.086702526 0.0684379 -0.54531324 0.3765365 0.17613295 0.19511421
94 -0.048140287 0.045288563 -0.45039976 -0.29831737 -0.22063659 -0.16609444 -0.27718073 0.21763362 -0.42787868 -0.4012541 -0.2330094 0.18114784 0.55198485 0.5706165 0.069580875 0.25200877 0.26189765 -0.3988612 -0.02420254 0.089953765 -0.02114994 0.093024485 -0.38410038 -0.05905775 0.33771417 0.17005387 -0.22442494 0.16464302 -0.04939349 -0.025746055 0.29408523 -0.054336794 0.1373337 -0.41490692 -0.6431986 0.03206565 0.12904005 -0.15886277 0.9109772 0.05377823 0.14983158 -0.18246236 -0.7060951 -0.10843676 -0.48142248 0.19378161 -0.14080743 -0.38319078 -0.40862635 -0.28226742 -0.007912141 -0.08962766 -1.146671 0.34316683 -1.2940195 0.033663794 -0.27258745 -0.15834749 0.12981617 0.4614581 0.40577614 -0.14700136 -0.15591969 0.5089749
95 0.3168918 -0.28801548 -0.4293708 -0.01840458 -0.117883444 -0.3784792 -0.26175588 0.1899589 0.19430977 0.31146017 0.02929908 -0.17984562 0.4568895 -0.35899118 0.7080084 -0.29639018 0.2783524 -0.3863626 0.031975478 0.14605749 0.48982602 0.16906664 -0.7245346 -0.27181137 -0.024555668 -0.04356931 -0.3657086 -0.641207 0.3973943 -0.45091623 0.5529843 -0.4609584 0.3943132 -0.2607356 -0.14957741 -0.16745304 -0.15880845 0.35968357 0.7502533 -0.08969866 -0.5137701 -0.20943497 0.05523652 -0.15650648 -0.7152571 -0.40146592 -0.43777394 -0.98119605 -0.7624467 -0.61500466 -0.44997597 0.01624526 -0.5882908 0.52820325 -0.47017434 0.035761774 -0.014773656 -0.45104972 0.050150134 0.1838699 0.21106213 -0.21986605 -0.14777704 1.0051831
96 0.025769547 -0.12901668 -0.69734496 -0.13084945 0.004636213 -0.18974595 -0.20517801 0.20080389 0.14746267 -0.36483973 0.12216574 -0.30101803 0.5418287 0.11836971 0.6132058 0.2423055 0.29053473 -0.17964919 -0.6265436 -0.21671218 -0.08125311 0.33025804 -0.5510347 0.24673527 0.3552723 -0.29278484 0.08533427 -0.09065126 0.06872818 -0.22092928 0.55192363 -0.36961162 -0.08982372 -0.319779 -0.66827697 0.18544912 0.48006183 -0.008193098 0.4463753 0.08489062 0.0916797 0.37920982 -0.71609145 0.039452948 -0.0113882795 0.6517564 -0.05946704 -0.45374835 0.19503722 -0.52544683 0.4427302 0.49228173 -0.87324494 -0.096667886 -0.33566028 -0.28535447 0.14117157 -0.20766352 0.40586418 0.48020297 0.21126166 0.3367292 0.36665738 0.24445763
97 0.1841729 -0.48861045 -0.38522142 -0.014995083 -0.41888106 0.11173631 -0.10110343 -0.26464394 0.16891597 -0.33528268 -0.41811097 0.41134852 0.73832595 0.12263057 0.30279905 -0.15245692 0.32817447 -0.25733432 0.15612587 0.07628708 0.49299318 -0.17860949 -0.29282683 0.302508 0.17693955 -0.33833212 -0.094126776 -0.10671735 0.03051874 0.5748329 0.33129445 -0.27521428 -0.18204378 -0.9414543 -0.03313178 0.16675314 0.3941452 -0.025127798 0.110995114 0.112745285 -0.22991803 -0.29240662 -1.2348175 -1.0365376 0.4149554 -0.022607785 0.023679398 -0.767122 -0.15323965 -0.61861724 0.18719065 -0.07088968 -1.1510525 0.41344947 -0.48456445 0.088662386 -0.043250702 -0.7628889 -0.23149617 0.5341621 0.5139606 0.31676477 -0.07562946 -0.08823535
98 0.36133742 -0.38346168 -0.5441418 -0.47244185 -0.033880364 -0.09599578 -0.020768233 0.09579834 0.014065623 -0.024528742 -0.4721042 0.056963313 0.32986224 0.7512175 -0.027316704 0.029563578 0.070083216 -0.14616826 -0.7405773 0.19569731 0.063917585 -0.032778732 -0.7805093 0.36472014 0.037866488 0.08305424 0.037408445 0.19384277 -0.010204754 -0.6007643 0.6860359 -0.5008837 0.32666504 -0.09752244 -0.7082923 -0.13177067 0.44072306 0.121865705 0.46356875 -0.6668016 -0.6562215 -0.37921536 -0.5433771 0.1267035 0.30441135 -0.23357038 0.37756586 -0.51561034 -0.19578922 -0.11108366 0.07036926 -0.2484487 -0.69290864 0.6290796 -0.29606593 -0.43186527 0.1568342 -0.3392675 -0.3697663 0.62099 0.09380743 0.6112317 0.3628053 0.8314223
99 0.07370329 -0.54017866 -0.3004018 -0.311935 -0.046907287 0.091165274 -0.5187815 -0.39300156 -0.3029425 0.55765676 0.18873179 -0.8799783 -0.3829807 -0.08606018 0.34894037 0.06768921 -0.46446645 -0.21333015 0.37324616 0.26317686 0.33768803 0.013556825 -0.028158389 -0.1436543 0.2965216 0.5004805 -0.45379502 -0.061486363 -0.22073156 0.18119563 0.28425562 -0.06393196 -0.22531015 0.2001682 0.06972152 -0.4302033 0.025636807 -0.29550147 -0.11709185 -0.019220129 -0.17038043 -0.26787356 -0.05828056 0.17862144 -0.22950466 -0.08593862 0.2002631 -0.114976384 -0.1527808 0.34524828 0.87702537 0.053786658 0.44132942 0.29426584 -0.39308384 0.07565357 0.2881283 -0.24770978 0.23732242 -0.26701432 0.13947244 -0.0053700805 -0.20714085 0.071461126
100 0.049908772 0.00092245266 0.05263427 0.12515114 -0.10917981 0.238763 0.37648505 -0.47985378 -0.09225126 0.57895124 0.11024805 -0.4740456 0.1171394 -0.08506591 -0.09777739 -0.050993264 0.13731447 -0.26989004 0.21959576 0.3249489 0.059056427 -0.14561501 0.0058375243 -0.3256831 0.18744454 0.3140044 0.004174307 -0.22944954 -0.025476798 -0.13813455 0.1948411 -0.1310031 0.44067037 0.32071763 -0.1769092 -0.6010879 -0.10891178 0.3673721 -0.02063626 0.12747502 -0.553831 -0.11760394 0.32341835 -0.8837678 -0.23184568 -0.2594589 -0.2284351 -0.42509747 -0.26421425 -0.059377 -0.002239138 0.5683105 -0.23344274 -0.18876587 0.3844207 0.08849009 0.289739 -0.26012883 -0.14750701 0.0064690225 0.14170082 0.3351726 0.14818677 0.031802002
101 -0.28504968 0.7492553 -0.6224702 -0.0012933705 0.2450532 -0.011618938 -0.014216006 -0.29292485 -0.35818294 0.06910486 0.14521031 0.16702239 0.09504016 -0.07846833 -0.10418706 0.024952546 0.4782837 -0.04626541 -0.1709408 -0.3944139 -0.5692425 0.088634774 0.0015901253 0.56377035 -0.24477348 -0.16376977 0.28437597 -0.28337964 0.14963108 0.74034554 -0.24154744 -0.3519513 -0.14776716 0.21017464 -0.41885728 -0.79157966 -0.17990756 0.30423024 -0.020180143 0.33559376 -0.22928232 0.078925036 -0.12294223 -0.056719854 -0.05700822 0.24930853 -0.42354077 -0.42353755 -0.20822762 -0.34732136 0.71345603 -0.05982548 0.03547662 -0.2995463 -0.00342571 0.013779201 -0.27360478 -0.015151024 -0.35326052 -0.4601086 -0.07613149 -0.693233 -0.2566142 0.56938386
102 0.8921025 -0.08568913 0.12415108 -0.97182137 -0.40919805 -0.018692277 -0.18042701 0.25856876 0.7621095 0.1014356 -0.10262581 0.33232385 -0.3097323 0.49463725 0.105651446 0.08627724 0.43072245 0.3883585 0.4236694 -0.23509347 -0.47686842 -0.47665876 -0.13076158 0.031129412 0.10402522 -0.39448997 0.29339167 0.19899869 0.48507515 0.69587255 0.28278965 -0.08928714 0.35492346 0.26129866 -0.23654068 -0.3497106 -0.35888654 -0.34854305 -0.50157636 -0.20081066 0.21713036 -0.16689555 -0.19605191 -0.34096974 -0.35659996 0.6494691 -0.10391558 0.61304396 -0.32921353 -0.64078605 -0.49861962 -0.36238566 -0.74495655 0.13629071 0.3416339 0.105189405 0.31514487 0.017178986 -0.06523365 0.46606374 0.37049738 0.60047746 -0.2575717 -0.29386404
103 -0.32084763 -0.2417787 -0.5917271 -0.23635739 -0.11203456 0.13980871 -0.026909254 0.051407717 -0.12899941 -1.6689913 -0.29894975 0.6184544 0.09089886 0.163792 0.4681187 -0.037041545 -0.011742303 0.15567075 -0.38628396 -0.37701815 -0.4425191 -0.42613953 -0.38592732 -0.010705842 0.34817982 0.08888387 0.20869642 -0.27940294 -0.21548328 0.24609548 0.07786673 -0.100751355 0.5114474 -0.04492268 0.13855767 0.02343683 -0.34068835 -0.087303296 -0.41500714 0.2567696 0.3398018 -0.77523196 -0.41522416 0.1287413 0.7173988 -0.12843114 -0.3774102 0.64223313 0.049605526 0.6192124 0.4700346 0.16819422 -0.093339086 -0.56086236 0.43473226 -0.58546555 0.1115132 -0.119642645 -0.41153678 0.27063888 0.1600681 0.010218572 -0.09169164 0.1283174
104 -0.39134917 -0.10875232 -0.15889823 -0.00076282024 0.055412665 0.31239936 0.7032551 -0.34084034 0.46146935 -0.26761007 -0.114484854 0.08498831 -0.038044363 -0.49132285 0.19086733 -0.16109559 0.41965905 0.2650861 -0.3023089 -0.1998542 0.12276468 -0.2307135 0.30417326 0.43901378 -0.062199544 0.32748774 0.114883445 0.33971414 0.03517388 0.19741087 -0.24060684 0.3057422 0.1091946 0.44769084 0.17844488 -0.22042894 0.18272045 0.16773163 0.072496496 0.09519602 -0.19122948 0.25011334 -0.35717738 0.19371359 0.48767886 0.2882673 0.31832504 -0.7996293 -0.1757754 0.17943019 0.9644603 -0.08582646 0.029311188 -0.35607523 -0.50715333 -0.12229078 -0.49908394 0.03893479 -0.07835373 0.18042913 0.2589778 0.010838553 -0.25345236 0.6273195
105 -0.11607175 0.11553466 -0.08689405 -0.42364627 -0.49034736 -0.5451617 -0.36382663 -0.60412854 0.91820514 0.034513112 0.40769786 0.28998944 -0.4162372 -0.55659765 -1.1228821 -0.14166813 -0.08950291 -0.5571725 -0.57896876 -0.3291463 -0.34086984 0.103365034 -0.19653074 0.9547073 0.023780711 -0.56215274 0.75057656 0.58592707 0.6317443 -0.24711898 0.5700474 -0.5180162 0.64680535 -1.1495141 1.4515822 0.41417107 0.28383914 -0.13921513 -0.03288784 0.15195875 -0.18413945 -0.652985 0.36322185 -1.150641 0.23910317 0.5815021 -0.26479927 0.7054211 0.032308668 0.26631922 0.2777842 0.15884182 0.8308914 0.12215893 0.21051227 0.046133522 -0.011317156 -0.066337764 -0.06542167 0.15168504 0.4195398 0.16569516 0.1404635 0.6886155
106 -0.11291671 -0.14297797 0.06919333 0.21585672 0.17824933 0.11894931 0.061672993 0.34809488 0.15498018 0.2470099 -0.11792427 0.10663899 -0.11927671 0.18226817 0.03469059 -0.04084319 0.29159105 0.28560328 0.061455987 -0.5088882 0.062276915 0.06579507 0.28543746 0.12550552 -0.29265594 0.09191897 -0.12045734 0.055493224 0.17864403 0.14117245 0.0060620494 0.03706843 -0.43016034 -0.3082838 0.21035787 -0.83434457 -0.053989254 -0.040002093 -0.29055414 -0.004531063 0.7641699 0.092892095 0.18730581 0.50238144 0.3260792 0.1255659 0.18445577 -0.42577633 0.23917598 0.041521117 0.592602 0.12359741 0.5745019 0.36624154 -0.15262517 -0.040905904 -0.14705306 -0.12348766 0.16615796 -0.025450617 0.10179775 0.121563226 0.61362654 -0.044124432
107 0.21214303 -0.8901416 -0.1315661 -0.48434007 -0.081648044 0.33034644 -0.36115077 0.089369744 0.059108406 0.02685799 -0.3401118 -0.24747771 -0.29510665 -0.13716623 0.4069237 0.2932715 -0.46994767 0.06224735 -0.09786592 -0.14893639 -0.33875075 0.42744452 0.2839238 0.4671647 -0.06489605 -0.12283549 -0.18164343 0.46500203 -0.44261393 -0.0120860785 0.034795225 -0.19347116 -0.24053302 0.38406953 0.13309951 -0.054457746 -0.17726982 0.16035765 0.16754182 0.040869385 0.0026592165 -0.43342665 0.18187472 0.1227548 -0.20763253 0.022185396 0.15038723 0.2134623 -0.25959662 0.40010077 0.48812202 -0.17501006 0.67487806 -0.0036614574 -0.24512489 0.3206913 0.35211295 0.11962378 0.030910231 0.23319247 -0.024063058 -0.2620914 -0.27168435 0.1746427
108 0.38689804 -0.106893346 -0.13632299 -0.5324991 -0.049114645 0.27586824 0.10066277 0.55420864 -0.26124093 -0.3258998 -0.6205427 0.005581841 -0.67366946 -0.43328315 0.010512799 -0.4977051 0.5278199 -0.4393084 -0.10736442 -0.0826498 -0.13070843 0.41474038 0.34698603 0.13263954 0.4031597 -1.0723871 0.57055485 0.67610586 -0.22346765 -0.12567368 -0.29692638 0.045464784 -0.17701326 -0.2706443 -0.042885896 -0.14381507 0.1808254 0.08906028 -0.0042161476 0.11052915 -0.0093982145 -0.9086301 0.3445536 -0.05622479 -0.5238769 0.5255177 0.13624491 -0.14120749 0.2090601 0.6868867 0.33363417 -0.22748062 -0.16463888 0.19682774 0.107816234 0.24813864 -0.13472293 0.034627922 0.23028244 -0.3542837 -0.8775089 -0.05716704 -0.17519826 -0.42911822
109 0.13836055 -1.2657285 0.46823105 -0.37579703 -0.75497305 0.2335869 0.0909704 0.15560336 0.71213275 0.10989879 -0.30952674 0.27251765 -0.26768553 -0.49212378 -0.21784855 -0.72091335 0.2508026 -0.4841567 0.5228396 -0.20932338 -0.19925024 -0.016044378 0.024425037 -0.06859206 0.4630832 -0.4381743 0.12648615 -0.114135355 -0.6921774 -0.31254822 -0.27215305 0.23102123 0.70955956 -0.5693537 0.08735245 -0.6484761 0.023818105 0.16896038 -0.20509061 0.2722991 0.38999498 -0.15769479 -0.32002267 0.24742049 0.30247223 0.34734577 0.01747904 0.34437627 -0.3821091 0.88943905 0.149778 0.50116986 -0.026528291 0.040706564 0.4732305 0.03642002 -0.16394717 0.18191668 -0.77651983 0.19399166 -0.6574869 -0.10375534 -0.27355433 0.17479165
110 -0.08931571 -0.47385132 -0.50338626 -0.27589992 -0.49122554 0.4317349 -0.035756737 0.119656235 -0.52630013 0.53682876 0.33368304 0.009699404 -0.035567224 -0.07403037 0.010538865 -0.16672516 0.3240217 -0.07189669 -0.17085442 -0.042609908 0.34998107 0.11939068 0.24268642 0.09353232 -0.0967513 -0.37875515 0.23648816 0.2731672 -0.55191934 -0.38106456 0.008502185 0.24930367 -0.2523656 -0.2361876 0.10495229 -0.26845193 -0.69174266 0.6152152 0.034268543 -0.07709631 -0.12568687 -0.06426352 0.046273433 0.29747078 -0.3833996 0.27751485 0.17028262 0.3584929 0.2595386 1.0553079 -0.1522024 0.083044484 -0.045390517 0.13689576 -0.12566632 0.3486498 -0.23443903 0.017176198 -0.04436025 0.37937582 -0.41440266 -0.54809356 -0.4938188 0.33993453
111 0.23285241 -0.5218719 -0.26991233 0.0871551 -0.52311546 0.4866894 -0.80176425 -0.04042026 -0.14718083 -0.24797966 -0.1358258 -0.37959075 -0.28521237 -0.28680646 0.2953799 -0.19045639 0.08045084 -0.5337619 0.30607295 -0.16771927 0.18727225 0.16980717 -0.48519182 0.27579105 0.32456616 -0.24947682 -0.12561305 0.8640052 -0.40260983 -0.25339064 0.117047764 0.1264411 -0.48265076 -0.306803 -0.144028 -0.71167696 -0.5509086 -0.033988014 -0.093422204 -0.055813413 0.36896086 -0.2609548 -0.045495458 -0.1722738 0.1132822 0.00954454 0.25272316 0.1462681 0.18987532 0.97809744 -0.129915 -0.36149475 0.056963626 -0.019621775 -0.006206438 0.12814707 -0.17308906 -0.045712955 -0.35817027 0.28707945 -0.76150703 -0.5350716 -0.4863081 0.45488936
112 -0.08519967 -0.19843176 -0.32885087 -0.49390897 -0.27941614 0.021954805 0.3030396 -0.18224595 0.27578154 -0.14965889 0.292618 -0.18781081 -0.16054489 -0.31479457 0.15115702 -0.3460377 -0.11163339 -0.33743694 -0.27623153 -0.81128615 -0.1066829 -0.018808872 -0.021365393 -0.020579234 0.12266462 -0.5417115 -0.16682994 0.33641747 -0.24240817 0.41006488 0.36743927 0.34631273 -0.19827893 -0.36480686 0.4219224 -0.33935457 -0.6846847 0.13855083 0.6094996 -0.3814882 0.31275186 -0.53027177 0.24828768 0.2936058 0.3302291 -0.0024055094 -0.34706226 -0.29341614 0.39515322 0.77351695 -0.1769563 -0.26525262 -0.2732079 0.047886837 -0.029084139 0.7955873 -0.14967132 0.5588644 -0.07093055 0.2855733 -0.30117297 -0.022533268 -0.59186727 0.4948645
113 0.1329686 -0.27621976 -0.49232477 -0.2551092 -0.608775 0.6140342 -0.029978007 0.20764875 0.32732168 -0.5856035 -0.37203857 -0.017367125 -0.74793535 -0.29111743 0.037243262 -0.32097644 0.13235179 -0.7874591 0.1996997 -0.4099224 0.36394727 0.37293923 0.20439416 0.29654688 -0.22673677 -0.48071063 0.2760961 0.14596981 -0.5547962 -0.6888194 -0.4271797 0.45371178 -0.07420885 0.06978096 -0.018446987 -0.053219125 -0.39797965 0.30559653 0.08615881 -0.01071699 -0.059810072 0.12837267 -0.17892557 -0.08351644 0.33600387 0.39905462 0.5711866 0.5571077 -0.28735566 0.80421996 -0.025081288 -0.0192247 -0.072095335 -0.24356046 0.8485526 0.16478294 -0.13713837 0.04185207 -0.27096438 0.38232446 -0.52737653 -0.31365275 -0.16604152 0.32230178
114 0.3686428 -0.41079968 -0.00934501 -0.04604736 -0.46413764 0.41833365 -0.32693523 -0.25794256 0.16203478 0.23672658 -0.3569126 -0.46571374 -0.20740154 -0.27247816 0.008294016 -1.1262579 0.11109776 -0.38829678 0.05321701 -0.38181123 -0.30616635 0.12126205 -0.018190727 0.2503603 0.4641314 -0.67411727 0.46146256 0.45712373 -0.17163587 -0.4290933 -0.39385772 0.20773974 0.081694886 -0.11759876 0.38981447 -0.03134574 -0.37657395 0.015876986 -0.17974302 -0.19938123 -0.0004684329 -0.61265546 -0.10797083 -0.2849743 -0.1431276 0.20036556 0.055924647 0.47322676 0.7732034 0.48092687 -0.37738922 0.25497103 -0.23790461 -0.13204046 -0.0963306 0.49072397 -0.82518935 -0.17541519 -0.095299385 0.5836725 -0.4377292 -0.27336782 -0.006764382 0.6585052
115 0.21756741 0.168096 0.12115052 0.33661532 0.06462644 0.25505728 0.00335975 0.0028291573 -0.31613788 0.49291486 0.15032586 0.09203289 -0.08721478 0.39013976 0.13687783 0.44124764 -0.288247 0.11921452 0.11375138 0.20302254 -0.41372606 -0.023499437 0.019755267 0.019547747 0.043599427 -0.019405147 -0.12580064 -0.4010343 0.046330284 0.31950322 0.18191533 0.14923187 0.045929 0.07207826 0.028188568 0.23851535 -0.19025695 0.21047771 -0.121492326 -0.29964283 -0.15393075 -0.27513304 0.037726983 0.8280839 0.2473622 0.24168523 0.5320293 0.03159376 -0.63670856 -0.6958689 0.07206525 0.095900014 0.37207592 -0.06875892 0.14862826 0.24909227 0.5485606 -0.15263185 -0.6266773 -0.13453552 0.28867266 0.14379832 0.045588914 -0.31381676
116 0.03750561 -0.059138365 0.13515666 -1.1168495 0.0905991 0.40607637 -0.61164904 0.12301521 0.1474221 0.5253266 -0.34240693 0.5301092 -0.40720248 0.4024487 0.18996425 0.32247123 -0.4264192 0.86477625 -0.057837974 -0.08031346 -0.2647039 -0.09928461 0.0382671 0.11129632 -0.13335495 -0.11554569 -0.13773072 -0.103604466 -0.45436788 -0.023153022 0.10103745 0.088508174 0.33043346 -0.25427812 -0.3019014 0.29527515 -0.11856044 0.343842 0.11011631 -0.27991086 -0.24958664 0.21229066 0.15423135 0.9429421 0.8422373 0.40411118 0.09346231 -0.27145875 0.4069658 -0.54619294 0.35613918 0.12014046 0.19924708 -0.3763707 -0.1742271 0.055074602 0.38395107 0.3326518 0.29435802 -0.10618314 0.02573838 -0.15031032 -0.14003627 -0.30330625
117 0.37134132 -0.7092589 -0.1312331 0.74439794 0.44909304 -0.17970589 -0.39134222 0.36940187 0.61228776 0.10304752 -0.1358239 -0.19699188 0.18640807 0.37739837 0.029328324 0.08013167 -0.015722439 -0.31804448 0.7654683 -0.37841064 0.40993425 -0.3271282 -0.30170447 0.016932365 -0.4411654 -1.0290831 -0.17345987 -0.0070288815 -0.06306127 -0.5154308 -0.17729896 -0.19053155 0.7187854 0.07022997 -0.37992173 0.5162929 0.15832494 -0.41866446 -0.037707306 0.77440965 0.26988408 0.45157477 0.16418697 -0.059254497 -0.31840375 0.50680923 0.6536082 -0.101628974 -0.5887347 0.06915699 0.7860778 -0.008007094 0.08304978 -0.44384733 0.47523966 0.08958518 0.12549031 -0.005965844 -0.64715594 0.59129465 0.84363604 0.15901248 -0.30926612 0.3481629
118 -0.033106253 -0.048390314 -0.012540188 -0.30504566 -0.15470368 0.6522779 0.3203985 -0.30948174 0.18786165 -0.2686711 0.05131828 -0.576854 0.011837922 0.9329923 0.15069528 -0.22202982 -0.1586345 0.7525774 -0.16537362 -0.113221794 -1.2412711 -0.05158163 -0.54589796 0.4210251 0.09675328 -0.1770548 0.20378254 0.09189732 0.5591999 -0.14987479 0.59875846 -0.25222504 -0.14220262 0.26951486 0.43539196 -0.056753755 -0.228615 0.16371667 0.32867253 -0.95178205 -0.23873357 0.23829666 0.43082526 -0.49091437 -0.30616805 -0.05326782 0.039604574 0.075795904 -0.22023721 0.04518213 0.05637847 -0.46879455 0.13389653 0.11791658 0.24887815 0.5028433 0.5137242 0.16299102 -0.09356354 0.1173716 -0.014076218 0.3447441 -0.7717812 0.5621823
119 -0.107142374 -0.5281424 -1.212292 -0.040448695 -0.3329201 0.34239173 0.46238714 -0.49993572 -0.34772727 -0.04284358 0.33307832 -0.5600285 -0.19978097 0.32287806 0.002368588 0.14150667 -0.08790649 0.17063698 -0.18238449 0.49443495 -0.28778788 -0.21547689 0.19255678 0.52562857 0.3293416 -0.73580307 -0.11384796 0.21716769 0.074464135 -0.0354308 -0.25684994 -0.23603633 -0.742525 -0.47128844 -0.9444429 0.3404812 1.2042304 0.4222463 0.3007686 0.14622891 -0.37630892 -0.88665247 -0.5328279 -0.44484425 0.22787477 -0.3619059 -0.58542645 0.0977494 0.21965487 -0.5735836 -0.060700797 -0.19063526 -0.534338 -0.43039477 0.38119102 0.432187 0.2122058 0.11190227 0.12415551 -0.15329614 0.29553604 0.083200514 0.36280972 -0.36692095
120 0.17688902 0.46651918 -0.49031574 -0.12485455 -0.5037116 -0.50340945 0.16407414 -0.12554842 0.113876864 0.044044025 -0.0474137 0.44667482 -0.33255348 -0.1675272 -0.016054183 0.27624404 0.10568285 -0.40157112 0.27176625 -0.119276956 -0.08002783 0.12516645 0.31529993 1.1003377 0.19696727 -0.3144431 -0.4637512 -0.03482707 0.11862858 0.06275458 -0.0069965497 -0.24223256 -0.85093427 -0.69364756 -0.67624235 -0.05846243 0.7517957 -0.12360329 -0.09187129 0.6482727 -0.29689994 -0.021071922 0.22516628 0.21777979 -0.0041606277 -0.41583353 -0.22144188 -0.5214609 0.064013086 0.2069093 0.06861628 -0.14511383 0.072457165 0.07589742 0.50133574 -0.64971447 0.15076661 0.55065125 0.1958021 -0.06050738 -0.7311189 0.6213809 0.0344247 0.0061332136
121 0.23920906 -1.1029952 0.44579098 0.37126008 -0.016193233 0.22597282 0.08265445 0.3155472 -1.1011046 0.029698452 0.124003924 0.048617836 -0.0050610974 0.41717604 -0.13854584 0.28814057 -0.1904353 0.70829135 -0.26218155 0.19906324 -0.5225766 -0.30594724 -0.18607269 0.27991915 -0.6280794 -0.11964989 -0.33331907 0.48916185 0.36002254 -0.053778686 -0.076577544 0.20196885 0.5514491 -0.74013793 -0.42863727 0.39172247 0.1974843 0.07965724 0.008653542 0.58518684 -0.5783665 0.66028637 -0.14270338 1.0242538 -0.20703577 -1.049559 0.18416621 0.050174892 -0.20080268 -0.78759056 0.27032557 -0.021243379 -0.052431166 0.10658252 0.6896395 -0.06668069 1.0211438 -0.25080654 -0.41121724 0.49646866 0.15261883 0.78319323 0.20004857 0.4977675
122 0.13463049 0.27241156 0.051696658 -0.19684699 0.23749402 0.29288018 -0.15148765 -0.14319281 -0.11842551 -0.09206208 -0.041998252 -0.7227273 -0.08802237 0.24439718 -0.14607002 -0.052829597 0.5777199 0.37320417 0.02659101 0.07055001 -0.16421583 -0.48402208 0.0524067 -0.49236664 0.12284664 0.11882518 0.044656113 0.6007383 -0.35479394 -0.31748867 -0.018648066 -0.1427312 -0.072115615 0.29108784 0.07884149 -1.0119469 -0.88436514 0.41454303 -0.41052982 -0.27539393 -0.40832183 -0.28972673 -0.03465181 -0.07178192 -0.13121139 0.22495674 -0.11741185 -0.12646219 -0.24860446 -0.17046236 -0.42038113 0.41849485 -0.048322603 0.13341948 0.20631172 -0.054639168 -0.108111545 0.29040352 0.06905346 -0.50359416 0.09925252 -0.1825585 0.023003139 0.15011114
123 0.09561436 0.17470893 -0.08594242 0.3086409 -0.01193887 0.4783951 0.14123864 -0.54067 0.045685504 0.18068841 0.0080283955 -0.63480777 -0.41062668 0.4608516 -0.1472755 -0.04973056 0.52906686 0.08213718 -0.14367959 0.08654553 0.105803676 -0.40547842 -0.1782094 -0.27885902 0.11501929 0.048518002 -0.042608842 0.30690315 0.124753825 -0.056785718 -0.032448694 -0.25251693 0.036369458 0.72242206 0.09491703 -1.3506365 -0.9328324 0.05277627 -0.077990994 -0.12822415 -0.308093 -0.26163533 -0.23541525 0.040217344 -0.08560111 0.029068202 -0.07679203 -0.5012886 0.17219633 -0.10052783 -0.6836783 0.3373682 0.023650289 0.19190478 0.38641596 -0.06413895 -0.094815135 0.2957175 0.091302484 -0.15130357 0.26450062 -0.1885352 0.0019719563 0.07460458
124 -0.058311015 0.41056216 0.22818956 -0.11780136 0.2756933 0.2578371 0.021677911 -0.47554344 0.001675373 0.27721274 0.13330746 -0.51968545 -0.17297086 0.13591495 -0.3707788 -0.12719871 0.70349497 0.46798837 -0.18240073 0.34296817 -0.19490394 -0.17057936 -0.05535981 -0.23647657 0.21446897 -0.013680048 0.17705697 0.29407978 -0.08206545 0.08571607 -0.08946689 -0.17138153 0.337625 0.8353636 0.21950476 -1.3475846 -1.1294067 0.17608966 -0.07849946 -0.22537293 -0.70202047 -0.24564067 -0.0508291 -0.37306085 -0.13595252 0.38552183 0.02263935 -0.3582062 0.020150702 -0.16695733 -0.59281886 -0.0056857616 -0.39226523 -0.021574795 -0.046945453 0.1943002 -0.28258678 0.25188524 -0.2623065 -0.316058 0.5365621 -0.35336733 -0.22988492 -0.09363285
125 -0.10316125 0.33509105 -0.13656929 0.13132636 -0.1466825 -0.17185187 0.4357307 -0.20749253 0.37599516 0.16129556 0.08767547 -0.37929994 0.042214602 0.021797568 -0.5406497 -0.20613767 0.58676064 -0.14074457 0.2676942 0.0025292672 -0.39743623 -0.34595212 -0.28403324 -0.11544472 0.05510875 -0.012562901 0.18473476 0.26911592 0.097442575 0.15391187 0.2450124 -0.48566008 0.10611689 0.6468827 0.0069059283 -1.081292 -0.7238244 0.2590624 0.13330449 -0.24599744 -0.70764875 -0.57397157 0.17060436 0.34446204 -0.0805913 0.47693604 -0.5616701 -0.6809356 -0.13541171 -0.32534122 -0.46952105 0.31648892 -0.18907818 -0.043059185 0.11559576 -0.081262074 0.26128063 0.5050392 0.18526343 -0.24370053 0.34783274 -0.16456503 0.21705818 -0.09925484
126 0.11010419 0.25681674 -0.18050839 0.056104824 0.19707549 0.29229248 -0.2341131 -0.45067558 0.1752996 0.05710627 0.66655886 -0.37606195 -0.25566673 0.30819947 -0.25952822 0.107638784 0.69303507 0.001876615 -0.08499542 0.010710109 -0.2232086 -0.44788173 -0.24475364 -0.49938005 0.3762401 -0.3360327 0.03989796 0.32294762 0.17686781 0.31438023 0.26277405 -0.2217779 0.07161315 0.710673 -0.28478783 -1.3728157 -0.72704136 0.1617272 0.03973847 0.18239504 -0.32853132 0.25229618 -0.2907569 -0.051640354 -0.091695055 0.08774105 -0.20820658 -0.44602627 0.17499837 -0.13283853 -0.71720904 0.3609299 0.17268735 0.120993644 0.20504406 -0.3131521 0.2881779 0.5625385 0.2739645 -0.09251355 0.37387317 0.060097344 0.22788784 0.0122577995
127 0.30829692 0.2887221 0.15930523 0.14786781 0.35722518 0.23723346 -0.08296488 -0.416537 0.051522553 0.12347062 0.16203761 -0.34805214 -0.016510762 0.090523295 -0.6930246 -0.28606385 0.42672893 -0.1523908 0.40777087 -0.31910622 0.111994796 -0.56601363 0.20897532 -0.20846933 0.12406536 -0.21785145 0.2921192 0.12823886 -0.11387822 -0.11220186 -0.05171211 -0.42878735 0.21414056 0.8887948 -0.06533824 -1.4703339 -0.63145745 -0.012135461 -0.4024095 0.14731075 -0.7533916 0.3216237 0.3246056 0.11840753 -0.25150448 0.3426776 0.12797737 -0.5418889 0.01508841 0.121036336 -0.6024907 -0.08235349 -0.34661847 -0.29639503 0.5408092 -0.037363388 -0.023575813 0.38152945 0.27341598 -0.56604856 0.50049067 -0.04077425 -0.10210928 -0.17857498
128 -0.10238165 0.46739706 0.19548118 -0.08886528 0.13558629 0.08810272 -0.12130979 -0.23022364 -0.2196632 0.037980504 0.21098688 -0.5874857 0.17326596 -0.20060885 -0.20622152 -0.15592398 0.49668643 0.11831643 -0.023678519 0.034488425 0.21816412 -0.21239851 -0.0943118 -0.2823581 0.2301781 -0.08337696 -0.25277334 0.45238248 0.4032696 0.3468563 0.039752506 -0.30957735 0.4202626 0.06805512 -0.13987432 -0.51789683 -0.44192356 -0.11411922 -0.20423624 -0.36491632 -0.28743008 0.162789 -0.07711269 0.07919708 0.2215376 0.072426125 0.43300822 -0.34257525 -0.098528974 -0.5677533 -0.48632818 -0.013220627 -0.59977996 -0.43660685 0.32070512 -0.02891875 -0.070400104 0.2619031 0.011180289 -0.33845866 0.24340528 -0.11586441 -0.100894324 0.013753913
129 0.87102616 0.1255359 0.17445908 -0.5693864 0.28957212 -0.049031936 0.2626227 -0.110453166 -0.20581314 0.34897524 0.10931627 -0.8346992 0.42589855 -0.14969057 -0.15956193 -0.23541069 0.1808622 0.032752495 -0.2534378 0.37604207 -0.087943695 1.0598625 0.46516156 0.056704953 0.09659101 0.017910123 1.3087801 -0.31221396 0.084716916 -0.9769439 -0.09172321 -0.6344247 -0.11599137 0.29698953 -0.16635174 -0.30232212 -0.08829533 0.26600292 0.18411326 -0.8471976 0.05444015 1.1934383 -0.053766437 -0.016337045 -0.4615238 0.06142361 0.41614607 -0.14580359 -0.76722443 0.56929785 0.3207857 -0.19307254 -0.16884106 0.25261217 0.69375175 -0.73791146 0.016887669 0.81178427 0.28180194 -0.51150686 -0.43927115 0.08626917 -0.64750814 -0.38810566
130 0.26426673 0.18540773 -0.4683233 0.19438091 -0.2153004 -0.33535945 -0.20692146 0.035737425 0.02145727 -0.035884053 -0.05195531 -0.24749225 -0.2374661 0.091807984 0.08336308 -0.1618255 -0.2630836 -0.07012215 -0.10085921 -0.34693113 -0.060018785 -0.0018694531 0.48578566 0.0899076 0.36062914 0.011421792 0.03106263 -0.1440949 0.11327329 -0.3740938 -0.10573641 0.013848297 -0.81992203 0.51570266 -0.55059046 -0.3601181 0.06008207 -0.310831 0.28114575 -0.25584853 -0.49499 -0.46912327 -0.18981934 0.043392465 0.09664056 -0.3669467 0.04024232 -0.054886922 0.048992313 0.08579215 0.1452334 -0.23153037 0.22908726 0.16133262 -0.30689642 -0.17219874 -0.20462647 0.04695356 0.3720904 0.4259746 0.19043359 -0.07792687 0.30378008 0.0056495443
131 -0.6045609 -0.5844197 -0.48277712 0.05657465 -0.14601488 -0.21696931 0.36092013 -0.112546615 -0.068054385 0.3599342 -0.71050584 -0.24003798 0.3522519 -0.30857664 -0.038478166 -0.05833201 -0.8116369 -0.50232756 0.25500193 0.2595975 -0.015724368 1.0067275 0.1356804 -0.22521931 0.3522244 -0.2277469 -0.36639398 -0.5066307 -0.47201443 0.23895207 0.35646623 0.78439796 -0.23928164 -0.19992587 -0.009511597 0.44916883 -0.047901273 -0.6020971 -0.40854782 0.08268811 0.46578005 0.952953 0.4375611 0.12773748 -0.12100559 0.30143124 0.04973425 0.3391577 0.30126125 -0.6974551 0.32958475 0.18880825 0.73360467 -0.12873681 -0.24165326 -0.06792034 0.75339574 -0.6351763 0.38635015 0.10719933 -0.3844919 0.94333875 0.24825044 0.23171315
132 -0.3259781 -0.32238472 0.27117312 -0.10112121 0.2629731 -0.11846052 -0.13787372 -0.34053797 -0.0068940446 0.16070995 -0.03397583 -0.17922102 0.27869633 0.55745447 0.18066932 0.25425634 0.15116248 -0.011555921 -0.37157878 0.084926605 -0.09327096 -0.15913096 -0.096752524 0.2057755 -0.45128542 0.14537653 0.70364356 -0.41596627 -0.23676053 -0.4377877 0.22284435 -0.09653363 -0.53935105 -0.09575394 -0.32745355 -0.13994154 -0.06381612 0.3831593 0.97293514 -0.1054171 -0.22598405 -0.1370157 0.056980655 0.15293536 0.19855508 -0.21157146 -0.44120002 -0.32011068 -0.3107668 -0.28022087 0.71070623 -0.16254535 0.3364336 -0.28130975 -0.15299076 -0.40018445 0.7525474 0.10422036 0.506191 0.23557585 0.24854404 0.16093144 0.09248522 -0.11558228
133 -0.17828809 0.11321421 0.044120282 0.090691015 -0.39884606 0.35478273 -0.71068907 0.032578032 0.2938789 -0.643338 -0.4469076 -0.2835548 -0.24002372 0.009990592 -0.008180171 0.19165133 -0.11216676 0.010364063 0.45758685 -0.28415048 0.025282089 0.4668476 -0.1587449 0.7740407 -0.26867923 0.14368907 -0.02857254 0.17467076 -0.3571812 -0.40230054 0.044703797 0.18582958 0.549232 -0.20950848 -0.9682693 0.57468385 0.22491017 0.15236802 -0.26739946 0.75212675 -0.17360304 -0.4240968 -0.14492097 -0.4685301 -0.43088612 -0.15514809 -0.18152945 0.13219036 -0.353412 0.418328 -0.07931228 -0.2399841 0.03353077 -0.17125726 -0.03882482 -0.02503829 0.42360955 -0.041013006 0.071521476 -0.17523989 0.05406534 -0.022244379 0.22009623 -0.26021484
134 -0.072638996 0.028575152 -0.29513177 0.392946 0.15996566 -0.21276052 -0.10065566 0.52651775 -0.327161 0.20242259 -0.013433851 0.09540534 0.21353793 0.5487459 1.292808 -0.28000814 0.0040637255 -0.08162652 0.22141063 -0.22498721 -0.04998666 -0.3932134 0.56088275 -0.7983343 -0.10388763 0.56976265 0.12799197 0.29581636 -0.2638505 0.0015977577 -0.20132692 -0.15007085 -0.6009328 -0.0065926313 -0.19939242 0.032180116 -0.022821926 -0.39986223 0.0229339 -0.47267646 -0.28051198 0.3497969 -0.09632732 0.17616266 0.6448862 0.23711425 -0.10060712 0.2601083 0.4977294 0.06890415 -0.15936074 0.6752623 0.17392138 0.12857836 0.09425339 -0.017358728 0.20459984 -0.3770165 0.060026664 -0.35065597 0.40393868 -0.57056993 0.47640175 0.34047383
135 0.08208391 -0.24828407 -0.16874287 -0.14440335 -0.4576924 -0.002564244 -0.4091611 -0.24556509 -0.57676274 0.20397817 -0.027611673 -0.7031137 0.14958274 -0.18658996 -0.024187028 0.44658822 -0.12022245 -0.34951648 -0.11326631 0.2859068 -0.5100887 0.7375235 -0.17203963 -0.042057764 0.06255993 0.13928586 -0.33955202 -0.24807122 -0.06684449 0.13627745 0.09686264 0.27138987 0.22013101 -0.28475732 -0.13728534 -0.15853822 -0.5874123 0.3384015 -0.08525914 -0.18330815 0.024247054 0.14204663 0.26077628 0.27532554 -0.32468662 0.19941671 -0.7523737 -0.044652272 0.7156984 0.4482832 0.64023256 -0.20730492 0.35764575 0.39487842 -0.38146192 -0.1342476 0.11877026 -0.5402002 0.11322805 0.039904363 -0.27072862 0.41818783 -0.34212986 0.15149343
136 0.051767856 0.5919374 0.61810875 0.3257566 0.37943184 0.25800452 -0.49242947 -0.32093206 -0.13557081 -0.042118788 -0.29326433 -0.2164975 -0.27485207 0.18310556 -0.09901415 -0.086161114 0.43839547 -0.060272664 -0.04519735 -0.17402232 0.15583119 -0.17625283 0.009450588 -0.20901589 0.08524062 -0.40070546 0.30471417 0.5866676 0.034938484 0.049078114 -0.64861166 -0.31972244 0.31915343 0.64815164 -0.39934656 -0.8920162 -0.38380593 0.14107282 0.009649733 0.28562403 -0.001552105 0.14952506 0.08465688 -0.16531771 -0.0006940514 -0.099737614 -0.1946694 -0.28634396 0.1736148 0.4389687 -0.91017306 -0.1021789 -0.48620954 -0.67792535 0.23368804 -0.003268499 0.2080816 0.48515552 0.23214886 -0.33243722 0.2462408 -0.5079837 0.1340681 -0.44752818
