1754 64
2 -0.57195324 -0.15604687 -0.21992472 0.18933274 -0.12916043 0.33387718 0.12431664 -0.23815984 0.060542904 0.54007685 -0.019333083 0.018927459 -0.48718625 0.23002115 0.5498674 -0.22915995 0.00083681196 0.5567568 -0.21742515 0.29783314 -0.096891575 -0.16018161 -0.3909763 0.10794988 0.12548515 -0.2977655 0.43599826 -0.23661806 -0.006081041 0.19426005 -0.09182843 -0.31960717 0.48983213 0.040225573 -0.12504305 0.19640343 -0.12151045 -0.23740385 -0.48564193 0.19502886 0.45462674 0.3674311 -0.19648664 -0.13835901 0.021873333 0.44010273 -0.42749402 0.1339778 0.0015342049 -0.040723667 0.4575114 0.06375338 0.37478507 0.17943668 -0.12724687 -0.15643638 0.075834975 0.08524265 -0.04579148 -0.059449073 0.18521655 -0.22101614 -0.008012034 -0.009432271
3 -0.38350135 -0.14912277 -0.21373315 0.2213524 -0.181285 0.38684735 0.40499142 0.1046742 -0.62623096 -0.053975157 0.81776196 -0.031318232 0.03990595 0.07432031 0.5622567 0.40221035 0.0059829503 0.13921349 -0.10961267 0.21187152 0.05000058 -0.5152413 -0.05265154 0.028712038 0.10067366 -0.05399815 0.31497988 0.26334885 -0.18401706 0.28367817 0.4405562 -0.27880958 0.13525067 0.14175126 0.16135281 0.31564367 -0.17891364 0.27549106 -0.439275 0.058581155 0.3015491 -0.41941133 -0.3866791 0.37811244 -0.15343638 -0.049828306 0.09569682 0.21926638 0.40672827 -0.8014313 -0.07967979 0.04873143 -0.103137106 0.24067405 -0.15433237 -0.34636515 0.095391385 -0.19028966 -0.13770881 -0.20466676 0.33304614 0.35795805 -0.15747146 0.42871535
4 0.25917983 -0.1301496 -0.032311868 0.33924428 0.080947876 0.4909291 -0.19167352 0.3074718 0.10834752 -0.3546174 -0.102336176 0.16254452 0.20464265 -0.400276 -0.29728064 -0.046952344 -0.21202487 -0.29721582 0.21824381 -0.72222346 0.52537996 0.095745094 0.36863613 -0.17696165 0.09737585 0.20406993 -0.15898797 0.14706655 -0.3109664 -0.17705469 0.47553727 0.1794499 -0.3661257 0.15702522 0.026091494 -0.049832273 -0.06060588 0.0070478395 0.13958913 -0.015125097 -0.28263292 -1.7168173 -0.013169894 0.2575352 -0.020741738 -0.28022316 0.19481242 -0.08557235 -0.02436179 0.10312311 -0.31136492 -0.13089266 -0.22458214 -0.16529241 0.0728476 -0.018861856 -0.008591725 0.17128623 0.006210369 -0.0006118901 0.15241925 -0.010273229 0.2246818 0.07987571
5 -0.12299247 -0.13444802 -0.20553961 0.33164576 -0.39203095 0.41627982 -0.014359534 0.25090754 -0.13610077 -0.010145027 -0.07753576 0.15730953 -0.0823873 0.21511179 -0.17639408 -0.3193909 0.0897167 0.31784624 -0.15028132 0.16506855 0.19190304 0.37860182 0.28643873 -0.14847834 0.17284748 0.18450572 -0.09567663 0.27836424 -0.22703716 0.0012242943 0.26899168 0.10676823 -0.12015467 0.2667601 0.032779433 0.046063684 -0.011104375 -0.02891072 0.05572391 -0.079546794 0.29205418 -0.5696775 0.17258403 0.19902234 0.10152099 0.12540677 -0.16618098 0.21490924 -0.05799949 -0.2553416 0.17429677 0.0844995 0.07351939 0.005894188 -0.16845965 -0.09843932 -0.05533247 -0.06821015 -0.0065173022 0.030042775 -0.05940862 0.19841816 -0.045265675 0.13209695
6 -0.029618036 -0.26050466 -0.33236557 0.1854367 -0.58221763 0.4332009 0.051360644 0.26772368 -0.16488591 0.18872634 0.32377702 0.21348509 0.07257177 0.09516793 -0.05833845 -0.16306274 0.2766755 0.054489493 0.010410592 -0.11620898 0.21625224 -0.08532342 -0.3638739 -0.00511026 -0.03514152 0.089032985 0.052415416 -0.07875529 -0.062819645 -0.1123528 0.10994244 0.14370415 0.10858341 0.12485311 -0.15218523 0.003191717 0.19732487 -0.13789992 -0.6187664 -0.24847762 0.26779276 -0.6614776 -0.0078014135 0.22437367 0.026783947 -0.27992034 -0.12823357 -0.14700823 0.16775686 0.037134692 0.15814099 0.16665173 -0.009767622 -0.3249206 -0.22154921 0.1283929 -0.06548008 -0.020550333 0.114176735 0.09080687 0.06838778 0.079305075 -0.08289488 -0.06498812
7 -0.6563842 -0.013622396 -0.5402739 -0.18131998 -0.32900947 0.673815 -1.7183075 0.9133683 -0.25338805 -0.24581078 -0.28357005 0.19972572 -0.66398996 -0.14932448 0.39971006 -0.48958302 0.41960523 0.8638274 -0.027579337 0.3204632 0.39860323 0.2558859 -0.688119 0.08295578 0.088638514 0.1683334 0.4360006 0.40829688 0.21883169 -0.3642094 -0.2505633 -0.37243056 0.5362919 -0.19869937 -0.060157504 0.26057518 0.14352141 0.21694008 0.40396792 -0.046310626 0.55821294 0.12779807 0.25827694 0.0104070455 0.08517509 -0.60123944 -0.46671373 -0.016409043 0.20554042 0.24261037 0.08596228 -0.7137169 0.39707112 0.29498142 0.5230551 0.9335027 0.3057935 0.6501087 0.3188912 0.046835408 0.08167468 0.2919514 -0.3668824 -0.14202595
9 0.05792156 -0.06924365 0.010589361 0.18742698 0.3077668 0.0698204 -0.30489612 -0.028667342 -0.052277744 -0.22679316 -0.012378057 0.18624711 0.35552698 -0.5018682 -0.4034014 -0.1944461 -0.04293795 -0.0818066 0.07840736 -0.5383156 0.26423287 0.24921224 0.15585461 -0.15410629 0.18397297 0.11721857 -0.19597737 0.2594966 -0.19757761 -0.20591731 0.12140623 0.4045844 -0.19150767 0.023352876 0.060095888 0.12074513 -0.057866503 -0.026714804 0.13877957 0.13670468 -0.03584194 -1.0504749 0.088389285 0.34889537 -0.1418145 0.18912297 0.15264393 -0.08009274 0.094407074 0.3329931 -0.35744992 -0.29864365 -0.744788 -0.057316326 -0.18952012 -0.0014869552 -0.09780975 0.14718144 0.021792836 0.33316633 0.10733405 0.1250709 0.27179796 0.14089832
10 -0.45344824 -0.344657 0.024756815 0.43021262 0.07960992 0.20068455 -0.06591613 -0.18476366 0.054308176 0.09402273 -0.12338548 -0.068306655 0.009281717 -0.047505915 0.4479677 -0.16274074 -0.37424436 -0.11975669 -0.109465316 0.09651293 0.30611044 0.3447925 0.056745633 0.055977315 -0.0017523542 -0.17173356 0.019365802 -0.038877897 -0.4087481 -0.064458705 0.25573832 -0.12780671 -0.059813708 -0.19598828 0.18313906 -0.18908861 -0.20235245 -0.123841606 -0.024317198 0.28501195 -0.27229357 -0.47268116 -0.079047665 -0.21137181 -0.32728422 0.31586018 -0.15642875 -0.06063765 -0.3063802 0.17107397 -0.0054396987 0.16566128 -0.048399717 0.30977178 -0.11868238 0.033229455 0.26102 0.24360381 -0.5151113 0.07001823 0.49071348 -0.2366773 0.24246417 0.03605588
11 -0.07191814 -0.3881087 0.080176346 0.2133514 -0.07545832 0.25793493 0.18869752 -0.066085145 0.14084446 0.08620852 0.050758682 0.038784236 -0.0023345836 0.10799949 -0.15277389 0.13798244 0.26567042 0.12228744 0.10381928 -0.36716816 0.14776573 0.4681651 0.35482836 -0.22256035 -0.14723511 0.449156 -0.53278375 -0.19660014 0.14083087 -0.08908624 0.13759696 -0.11681347 0.3213812 0.28749886 0.20618731 0.095802 0.043263037 0.13595407 0.2917652 -0.74301046 -0.14909332 -0.71829635 0.047567695 0.43341655 0.011631861 0.10510298 0.09497232 -0.03375365 -0.062422086 -0.25081146 -0.37566733 -0.09026254 0.33824304 -0.87302697 -0.22865014 0.33950034 -0.016524265 0.014789317 0.5192273 -0.19242826 -0.5605382 -0.033841617 0.7932584 -0.3587034
12 -0.15793546 0.48763257 -0.0953182 0.60841036 -0.1568712 0.70167977 -0.7679876 0.71894 -0.37683555 0.24901572 0.48505184 0.77254856 0.1508424 0.2848045 0.07403801 -0.6068206 -0.4153066 -0.19934383 0.11354462 -0.16672683 0.5063638 0.09554806 0.3946088 0.00823804 -0.025929987 -0.11425999 0.27747908 -0.54379725 -0.026937425 0.84945285 0.23873438 -0.039211657 -0.0055901427 -0.20937422 0.36469653 -0.40329024 -0.02120988 0.06701974 0.26013058 -0.26203036 -0.0217368 -0.39370933 -0.078243166 0.44841677 0.060104836 0.3135991 -0.27690992 -0.33586854 0.21189857 -0.01633364 -0.005350992 0.13538998 -0.33328828 0.13925102 -0.12767081 -0.0118988305 -0.11659223 -0.13440484 -0.01747673 -0.13218728 0.20952627 0.0032519996 -0.389274 0.1475447
13 0.22915898 -0.2155903 -0.013281085 0.07338794 0.32241327 0.2959554 0.017302632 0.07148932 0.0601568 -0.018258601 0.15844984 0.010960113 0.14776352 0.006645173 -0.2249569 0.1297459 -0.11338828 -0.1703242 0.10981901 -0.45646802 0.3370087 0.11473409 0.34989887 -0.27070144 0.1651881 0.16111022 -0.1946464 0.37027487 -0.027416259 -0.10773229 0.26181567 0.032223113 -0.21104647 0.099499926 -0.07938021 0.034061506 0.008325433 0.0222701 0.24904022 -0.196286 -0.17221294 -1.2516582 0.0055884086 0.18775906 0.06609546 -0.18206154 0.16550997 -0.10994244 0.012399837 -0.14138791 -0.20616034 -0.056019835 0.120236635 -0.32800677 0.24972087 -0.11246249 -0.025582815 0.24610199 -0.012920031 -0.13319182 0.056905337 -0.026839627 0.024716794 0.1041036
14 -0.3979293 -0.13767573 0.21746078 0.28434667 -0.1425453 0.21416742 -0.10243959 -0.07585166 -0.01590006 -0.021071002 -0.043424502 0.061445028 -0.35730338 0.17142443 0.25479245 -0.33468238 -0.16872954 0.02744753 -0.12433921 -0.07649368 0.020963185 0.17838019 -0.17610633 0.060842488 -0.13742045 -0.0047003105 0.2554852 -0.09397087 -0.0728907 -0.018420562 -0.00028299913 -0.21516263 0.30325145 0.0026429184 0.064951025 -0.036514066 -0.04545583 -0.33450916 -0.4781139 0.20162764 0.16321379 -0.10622592 -0.0049544126 -0.095495775 0.15122968 0.16685995 -0.09175134 0.082109846 -0.11229626 -0.03136922 0.13762121 0.2463178 0.17896473 0.044521153 -0.041577075 -0.33823484 0.30290225 -0.35623842 -0.04689414 0.06526774 0.23070571 0.14844686 -0.071657136 -0.3274783
15 0.39308396 -0.18022133 0.31983665 0.25373736 0.27747908 0.13819012 -0.31205803 0.12309883 0.19753799 -0.3400731 -0.1113205 0.11485939 0.30991745 -0.35410172 -0.27112287 0.10901632 -0.47061586 -0.39243314 0.21836239 -0.8024932 0.28757668 -0.10995859 0.37417835 -0.07286826 0.18896346 0.073447324 -0.118088774 0.17566058 -0.31170154 -0.2858515 0.3749302 0.05890949 -0.3117105 0.33601326 0.06627644 0.15160325 -0.036215257 -0.12559958 0.26458213 -0.12333891 -0.27977982 -1.2631342 0.23809691 0.021924779 -0.10295929 -0.386362 0.39343977 -0.27337435 -0.22313693 0.21863377 -0.5469966 -0.14386003 -0.37929806 -0.15664832 0.1767663 -0.04782667 -0.13809608 -0.10529469 -0.058143742 -0.006534092 0.105040774 0.12440572 0.23824123 0.018383017
16 0.257698 -0.122025296 -0.08291978 0.4420366 -0.05596716 0.70701957 -0.15305617 0.37640715 0.08497225 -0.30587587 -0.058891326 0.23818694 0.123900265 -0.3210121 -0.32827666 -0.0315194 -0.12186757 -0.24753092 0.23651919 -0.90109926 0.71650964 0.16639249 0.45106143 -0.19835427 0.083982214 0.2894937 -0.23560187 0.17098041 -0.31116974 -0.103678755 0.55529 0.20902671 -0.33702707 0.22393282 0.018342607 -0.045525435 0.007303356 -0.0044054803 0.19313525 -0.040992312 -0.17786327 -2.1228437 -0.06511809 0.41221917 -0.06793584 -0.34499925 0.15334387 -0.10332339 -0.035459213 0.09251485 -0.2994247 -0.14706363 -0.097453296 -0.18820676 0.11476046 0.08435613 0.0013623778 0.16537094 0.06210316 0.13267778 0.16185087 0.020776182 0.16538379 0.08827409
17 -0.005881861 0.064439505 -0.035726056 0.1842623 0.13607301 0.2655108 -0.08573634 0.07167624 0.06602098 -0.26503322 -0.18573889 0.020088047 0.15152477 -0.40092188 -0.12507777 0.12207462 0.033293292 -0.12941913 0.12415558 -0.43441886 0.2497172 0.21331544 0.29206586 -0.19078386 0.21316838 0.20342106 -0.3709281 0.3512817 -0.2861599 -0.026541166 0.23576052 0.025441375 -0.34264833 0.10722637 -0.17987597 -0.07120149 0.027503306 -0.15934113 0.07029341 0.040813982 -0.27539688 -1.1659622 0.06629242 0.03464268 -0.14314732 -0.13483341 -0.05926071 -0.09877553 -0.012083363 0.14227256 -0.19718702 -0.21086627 -0.12211309 0.005936414 0.23023379 -0.106183685 -0.14407869 -0.10091029 0.31191343 0.030360274 0.18289244 0.11295348 0.24317425 -0.12325455
18 0.072610945 0.055748902 -0.23422651 0.39110747 -0.32648367 0.68745863 -0.20004159 0.49272838 -0.12347176 -0.083963804 -0.0997143 0.3429391 -0.025247483 -0.09369357 0.016324468 -0.20840368 0.0503062 0.00026885234 0.1517484 -0.44560793 0.55170125 0.0709451 0.37646255 -0.09322719 -0.048351638 0.17174873 -0.24220607 -0.062801585 -0.18451646 0.28030828 0.34511212 0.23543951 -0.057419572 0.20425877 -0.018079028 -0.04374761 0.024680525 0.10706419 0.1257719 -0.015681922 0.02480821 -1.147087 -0.141761 0.40773326 0.0323928 -0.14421983 0.031684175 -0.24609429 0.16759092 -0.050679076 0.011592666 0.0141472295 -0.0076822303 -0.16543122 -0.17315984 0.17722972 0.07243875 -0.07555249 0.04037037 0.014168913 0.13920745 -0.012176556 -0.12508287 0.13147406
19 -0.11356063 -0.0063408315 -0.30534962 0.2233731 -0.05060055 -0.0023700595 0.21502274 -0.21940467 -0.1333698 0.75234497 0.25135472 -0.11558624 -0.30225945 0.29740614 0.46721864 0.06591101 0.28560197 0.5016854 -0.089803696 0.1523433 0.042497516 -0.2120266 -0.13040605 0.0788205 0.05201563 -0.032936648 0.583074 0.1606449 -0.16195674 -0.27890152 -0.01040107 -0.57154596 0.5141187 0.09582475 0.23732539 0.16982843 -0.015212625 -0.35218173 -0.026513517 0.03021352 -0.19542466 0.23522569 -0.14029291 -0.046112552 0.0025355294 0.50165933 -0.0067933947 0.035756186 0.057104602 -0.09782813 0.31800884 0.3394501 0.31176472 0.117961705 -0.2186845 -0.39923325 0.09220415 0.028335355 -0.03208618 -0.044804364 -0.07904883 -0.016077444 0.15099427 -0.2139343
21 0.1315731 -0.016935624 -0.20809135 0.40785435 -0.30009252 0.73707443 -0.22549152 0.423852 -0.027120546 -0.18175314 0.022420842 0.3397802 -0.013880432 -0.0989254 -0.14276373 -0.1649716 0.024919223 -0.011946181 0.14960594 -0.5965529 0.61938095 0.1050978 0.30144998 -0.053929623 0.0560399 0.19326946 -0.20527974 -0.04423575 -0.16231242 0.12156701 0.37904176 0.16805829 -0.110637695 0.1434434 -0.056093384 0.02735106 0.052054234 0.0751751 0.13687202 -0.18023899 0.029391631 -1.4761024 -0.19250533 0.4336108 0.07672865 -0.0567162 0.018494513 -0.042245824 0.111795075 -0.12623243 -0.03995678 0.020243471 -0.1641075 -0.09500891 0.031979416 0.1375616 0.012478075 -0.015700065 0.05614339 -0.0023524612 0.10853455 0.0012369808 0.01498052 0.09759576
22 -0.45545587 -0.2765761 -0.107722536 0.37531134 -0.193123 0.27501783 0.046148174 -0.36937577 0.12600416 0.40190923 0.23730482 0.05926416 -0.2188282 0.2495619 0.5655294 -0.40002543 -0.12539311 0.289903 -0.10416791 0.3343896 0.05450666 -0.12879744 -0.22385931 -0.087623626 0.12106683 -0.3430629 0.24899131 -0.32855052 -0.063596 0.19570883 -0.02510839 -0.41728455 0.36471823 -0.07858803 0.042757235 0.21695946 -0.3294339 -0.37980282 -0.2554579 0.35396248 0.15860546 0.39504585 -0.0872232 -0.10773242 -0.22286081 0.51292324 -0.27427608 0.14025322 -0.09716514 -0.0688049 0.5733428 0.034864992 0.20968634 0.28755146 -0.24782258 -0.19643489 0.11326508 0.2194889 0.16928266 -0.17443383 0.15490343 -0.23585816 0.09071122 -0.35216156
23 -0.30236942 -0.046145763 -0.08812408 0.37662435 0.003329888 0.48026127 -0.2094441 0.23728028 -0.11336258 -0.059938096 -0.20863023 0.12637046 0.15260388 0.19929136 -0.018090373 -0.15243863 0.40014657 -0.1447409 0.23243485 -0.42286366 0.33041683 0.22070166 0.17699869 0.20285909 0.023766188 0.067337796 -0.02548254 0.0727522 -0.3702352 -0.23021574 0.113412805 0.1391992 -0.15110104 0.50972843 -0.1644277 -0.16808644 -0.02594686 -0.021990519 -0.20757474 -0.13416387 0.26046577 -0.54784805 -0.32253838 0.2571966 -0.038216505 0.058188234 0.07599549 -0.1287544 -0.19593903 0.13158803 -0.18549964 -0.0043245945 -0.24536182 0.11449756 -0.13559496 0.3090497 -0.07721096 0.14943969 -0.12965922 0.32746875 0.22407499 0.03167341 -0.13138305 -0.1517448
24 -0.05139347 -0.072482266 -0.27762306 0.14389971 -0.4964056 0.39851457 0.12756169 0.10133437 -0.046856288 -0.11852339 -0.02822382 0.12381868 -0.1725466 -0.069271 -0.11768078 0.13464023 0.09431748 0.027689915 -0.00046999753 -0.47195977 0.30011144 -0.33087462 0.2540247 -0.10505277 0.24662691 0.09894931 -0.25350806 0.12436774 -0.029453851 0.06684542 0.1574872 -0.076839134 0.0540386 0.03310816 -0.016052887 -0.10522607 0.19658649 0.04564262 -0.23841189 -0.2422351 0.15568945 -1.0176675 0.10413655 0.39063168 -0.019766796 0.12976708 -0.047148347 0.0056020725 0.2205644 -0.12579648 -0.11306016 -0.24923049 -0.15460925 -0.042147093 0.26059887 0.16248146 -0.06455475 0.31667483 0.12381573 0.12295959 0.12031905 0.010312337 0.037726246 0.048869364
25 0.12512335 -0.30436653 -0.24242613 0.11139618 -0.29990074 0.48920217 -0.24221009 0.047519505 -0.019978255 0.005289348 -0.3075478 0.23958996 -0.19284064 -0.04862073 0.11037736 -0.14572923 -0.04159525 -0.009363439 -0.01615442 -0.12055372 0.45277333 0.00010959618 0.28046837 0.0053146877 -0.119587995 0.06337054 0.0040557086 -0.2350916 0.077960454 0.14693747 0.25515854 0.3684038 -0.016887799 0.19565496 0.07958701 0.06942657 0.08070694 -0.04656013 0.0217833 0.24948463 0.05173326 -0.7391826 -0.30120975 0.1666191 0.07421205 0.15169743 0.109397314 0.071930386 -0.0098714605 -0.024047945 0.10811122 0.25986427 0.2368808 0.11011123 -0.09964684 0.020882834 0.033286452 -0.15834819 0.014157493 -0.17327926 0.068125926 -0.023819227 -0.17440003 0.060575373
26 0.11163518 0.14102568 -0.09661544 0.198403 -0.25187063 0.4224563 0.17997167 0.06632544 0.06282658 -0.07294824 -0.09958662 0.31545484 -0.09693138 -0.049986713 -0.18708858 0.027068496 0.3672256 -0.18417309 0.1522817 -0.38554338 0.35290426 0.07454988 0.21332738 0.018104099 0.25125107 0.12085076 -0.10529858 -0.22675665 0.15001333 -0.13624823 0.26897535 0.15799102 -0.061620507 -0.23575681 -0.36243153 0.05713799 -0.020452114 -0.25809082 0.17509526 0.17216323 0.07548172 -0.87467045 0.050052166 0.3829788 0.07585652 -0.15435597 0.012756083 -0.055468112 -0.07577236 -0.09046358 0.16692533 -0.11148284 -0.021320157 -0.027358096 -0.087804966 0.09056558 0.14118561 -0.046891965 0.16969337 -0.24370593 0.18006021 -0.11763978 0.1560703 0.3032757
27 -0.016812827 -0.56095654 -0.05569858 0.1272271 0.45700145 0.49999744 -0.8250197 -0.5535265 0.31438833 -0.08488822 -0.17737809 0.09378837 -0.394439 -0.08761723 0.06927839 -0.34561324 -0.05711195 -0.20506954 0.020763591 -0.3132082 0.27663937 0.08199448 0.27583444 0.022342034 -0.49894622 -0.1257184 -0.18068913 -0.17370847 0.268433 -0.82121533 0.196713 0.14181791 -0.1870432 -0.34747854 0.19811398 -0.53795236 -0.035399407 -0.006713259 0.25489178 -0.55151707 0.1809381 -0.66073763 0.010947 0.50013727 0.51983654 0.055173233 0.63378596 0.1796169 -0.6515822 -0.37413436 -0.0521543 -0.5353195 0.5443123 -0.20726286 0.32941246 -0.17489043 0.55991256 -0.34734115 -0.08659437 -0.4001131 -0.3353179 -0.31427974 -0.068050414 -0.02527218
28 0.234854 -0.23408553 0.11840466 0.31241202 -0.0356842 0.09397288 -0.22057256 -0.060360335 -0.05718635 0.10089825 0.22270876 -0.027940396 -0.056152537 -0.46304995 -0.13864946 0.26028383 0.00799714 -0.17687824 0.27159005 -0.7230481 0.33925426 0.038557928 -0.061388984 -0.091704175 0.24255699 0.031651787 -0.09187021 -0.25523096 -0.15949629 -0.019538581 0.32631856 0.18212979 -0.2026059 0.13978678 0.20039973 -0.03689221 0.031761695 0.06501507 0.52049804 -0.24652253 0.022006363 -0.97875386 0.11750664 0.31221774 0.072068185 -0.3955034 -0.100836396 -0.32008877 -0.34731 0.185009 -0.33228433 0.058441654 -0.2421925 -0.27358812 -0.04302196 0.13516432 0.07654112 0.14572304 0.11044229 0.29870933 -0.13701925 -0.10663246 0.030730933 0.11784556
29 0.38674504 -0.43394595 0.10426141 0.26241994 -0.8627568 0.14229907 0.43022525 0.31592417 0.08835242 -0.105038024 0.54242194 0.029378034 0.6651782 -0.04856459 0.42893928 0.20406179 -0.03544551 0.08503289 -0.15890762 0.6189575 0.39147422 0.045925044 -0.36683306 0.15157679 0.59396607 -0.182635 -0.3809908 0.17932202 -0.772329 0.07389912 0.0043269694 -0.11109628 -0.5888873 0.27108532 -0.09824574 -0.6476914 0.53187865 -0.6138928 0.37594593 -0.13928989 0.15252724 -0.3645549 0.045179747 -0.36065525 -0.3559915 0.49478006 -0.09158416 0.38250563 -0.09815101 -0.076602176 -0.4040033 0.61710393 0.91515666 -0.46098956 -0.18614905 -0.016615395 0.35157526 -0.12692854 0.045440476 0.27578765 0.04464665 -0.049195386 0.16628757 0.7231401
30 -0.001772143 0.038990323 -0.2552017 0.30322176 -0.1671406 0.5570447 -0.12975132 0.36277273 -0.13208269 -0.07747149 0.19846325 0.27757934 -0.21618792 -0.09639348 0.06142018 -0.12056321 0.057451192 -0.008713249 0.07332283 -0.3855946 0.39411697 0.14771563 0.25630048 -6.229058e-05 0.19007161 0.059352845 0.06737263 -0.14312968 -0.21735713 0.039373666 0.34267923 0.014163852 -0.031100858 0.18613723 -0.038934804 -0.1188955 0.018648604 -0.004210215 0.08769643 -0.15620306 0.19116177 -0.98921275 -0.15769379 0.13778938 -0.013584614 0.0067511126 -0.111168034 -0.17881894 0.11884053 -0.115140624 -0.024367057 0.09217152 0.0040459167 -0.0069007427 0.038377058 0.14245705 -0.002997174 -0.18289773 0.065660544 0.096750215 0.053980462 0.009490607 -0.10038267 0.047506135
31 -0.19556785 -0.05033142 -0.09487514 0.37221 -0.273816 0.11635646 0.07112908 -0.12780432 0.41701326 0.6051496 -0.047743604 -0.124941275 -0.13587403 0.2312141 0.37724704 -0.26839975 0.3233976 0.42174453 -0.21755657 0.1841825 -0.009360373 -0.057354473 -0.37847957 0.08113815 0.104944795 -0.30864522 0.96747136 -0.087707624 -0.009345936 0.66173255 -0.2894752 -0.062200174 -0.010205507 -0.10298145 -0.20338689 0.26589325 -0.21293953 0.04252276 -0.63914275 -0.0427586 -0.14518192 0.00987263 -0.06497114 -0.007603802 0.008820124 0.5575088 -0.21223134 -0.04868546 -0.13823998 -0.28729784 0.48779228 -0.21173728 0.28917712 0.28664446 -0.206693 0.015569136 -0.057381622 0.2772209 0.21039441 0.030675378 -0.22233774 -0.115167096 -0.0004582852 0.025511682
32 0.01895 -0.07563127 -0.08532002 0.14000733 0.25403208 0.3232672 -0.23509029 0.026102036 0.11748889 -0.05290793 -0.1702443 0.06759887 0.4476087 -0.21026301 -0.5925547 0.07580055 0.12528448 -0.29728338 0.16470708 -0.39947936 0.4245361 0.29835555 0.23605746 -0.22817343 0.23870054 0.11732042 -0.3601067 -0.07335389 0.1272866 -0.11376331 0.39600277 0.25747204 -0.16815366 -0.14468685 -0.2868518 0.090548195 0.07017932 -0.06883102 0.0025470555 0.14175731 -0.13278973 -1.0218713 -0.0606321 0.37200147 -0.21214993 -0.28953367 0.25497198 -0.13128208 -0.12374987 -0.059444323 -0.003240332 -0.03040304 -0.05898346 -0.260024 0.18668395 -0.0429716 -0.02723619 0.1320757 -0.012427164 0.5212223 0.18099657 0.13809398 0.28514218 0.32051125
33 0.20085007 0.16552684 -0.54332906 0.021055132 0.0889965 0.17952503 -0.19521257 -0.026716366 -0.008428201 -0.053162135 0.35871962 0.184501 -0.36437294 -0.5516132 0.30143374 0.0933192 0.053840946 -0.061220855 0.013198759 -0.012970462 0.14405267 -1.0112027 -0.00760559 0.17446707 -0.029145302 0.39624506 0.38272202 -0.27823704 0.14580496 -0.21260256 0.05891033 -0.29681522 -0.101904 -0.16504031 -0.048504207 -0.12952335 0.092643335 0.44170362 -0.12840474 -0.29541522 0.3600578 -0.49357888 -0.26011154 0.3817971 0.21144065 0.6442214 0.20610337 -0.055746835 0.34800714 -0.21695039 0.44465175 -0.5962859 0.32736424 -0.26588637 0.09360192 -0.31581384 -0.14494376 0.19524816 -0.105479375 -0.6090538 -0.43206713 0.06742001 0.18121567 0.17453498
34 0.24358141 -0.095376655 0.096566215 0.26089498 0.083186805 0.3693385 -0.17706165 0.19319867 -0.051885962 -0.31649014 0.08112519 0.20507059 0.23182863 -0.1104405 -0.33738083 0.05849261 -0.16770728 -0.1637243 0.1831149 -0.5345153 0.37502223 0.25824925 0.28460094 -0.023268431 -0.018822394 0.19585676 -0.13354582 0.05413022 -0.07354334 -0.04306017 0.28245974 0.016000494 -0.2191022 0.02449467 -0.07932532 -0.061787046 0.025998754 -0.035098407 0.1770145 0.042388085 -0.11614603 -1.2876823 0.010781895 0.29487318 -0.10264649 -0.31744584 0.10356837 -0.29184538 -0.044373527 0.11701374 -0.3121214 -0.11860352 -0.26222903 -0.17586906 -0.05876551 0.037173036 -0.12808582 0.16957882 -0.005719347 0.23766881 0.024034575 0.0008820044 0.2319468 0.027452512
35 0.4700747 -0.113881916 -0.09150324 0.19834094 0.15672906 0.35630432 -0.27806842 0.12835738 -0.007829174 -0.19514799 -0.01562681 0.0581797 -0.026817665 -0.41897017 -0.36654314 0.078126036 -0.23227984 -0.24667677 0.1813684 -0.6682341 0.37643903 0.43092132 0.351491 -0.22924286 -0.07022716 0.068793066 -0.17098014 0.104557246 -0.2188954 -0.077384636 0.33022597 0.16695009 -0.31553727 0.05899642 0.019169953 -0.16193414 -0.0011054259 0.10071404 0.1460568 -0.07051019 -0.20949239 -1.2583113 0.0066143926 0.0046359003 0.21042293 -0.44474268 -0.03900425 0.06487623 0.086695544 0.12924078 -0.0843904 -0.46482116 -0.2805808 -0.13596052 0.2649453 -0.027695313 -0.072952345 0.21611664 0.18994096 0.038904704 0.16416264 0.058667004 0.19403794 0.14027466
36 0.22392535 0.14750637 -0.29501292 0.11834693 -0.28892714 0.34986857 -0.110416204 0.28496197 -0.10067487 -0.090143085 -0.2354129 0.08614327 0.27719176 -0.05614455 -0.3043938 -0.21285008 -0.36043468 0.0340449 0.074718885 -0.5050857 0.330772 0.16195151 0.21496382 0.15767999 0.1527165 0.17730725 0.050152257 -0.17735222 -0.36262426 0.19356722 0.08823635 0.1716522 -0.04995551 0.10724857 -0.001408644 0.05446958 -0.120322324 0.044844266 -0.33580443 -0.009674914 0.050977897 -0.7551976 -0.00034320354 0.23692775 0.11164038 -0.44849518 -0.14658894 -0.2594275 -0.21754366 0.070231095 -0.109445274 -0.22484085 -0.018061545 -0.12324998 -0.13002288 0.110965 -0.25098535 0.19433863 -0.11543396 -0.070380904 0.1267692 -0.028172141 0.024275484 -0.30170384
37 0.042318203 0.11441433 -0.22276235 0.4759663 -0.32035926 0.6726951 -0.25698432 0.39301318 -0.10078176 -0.14948696 -0.04289186 0.30629408 -0.08032371 0.10090081 0.04164306 -0.24076745 -0.12276881 0.0004249066 0.09487287 -0.29176298 0.5287725 0.005788617 0.22321776 -0.0098115625 -0.13502398 0.110252276 -0.18264425 -0.08827884 -0.13315028 0.2658773 0.34642437 0.0446237 -0.004567856 0.16059208 -0.13764788 -0.0034420835 0.0073416755 -0.019969177 0.22856209 -0.21695544 0.054251194 -1.0298018 -0.219914 0.52851176 0.1353321 0.021187266 0.06164153 0.033777997 0.13097313 -0.03301764 0.05891259 0.03736211 -0.042331986 -0.15491995 -0.11318591 0.11930873 0.0089876205 0.033219334 -0.011147164 -0.10807665 0.1326285 -0.003994655 -0.10535061 0.27560285
38 0.38850164 -0.28642106 -0.2769442 0.2121981 0.277536 0.35818022 -0.14795981 -0.33026582 0.4936065 -0.10915044 -0.24283569 0.29116845 -0.066853784 0.345848 -0.23155531 -0.21612981 -0.08089652 0.13480882 0.06286953 0.013314718 -0.11392146 0.08184947 0.4872072 0.36461967 -0.19197822 0.028406788 -0.06248204 0.18222919 -0.56523687 0.09036347 0.28502762 -0.17188811 0.06285459 0.10666778 -0.21817556 -0.012314413 0.13298549 0.0509585 0.5078467 -0.11477912 0.20586535 -0.30833375 0.013302222 0.046983585 -0.14390603 -0.058147743 -0.110633224 -0.029604733 0.13349035 -0.14686993 -0.10320504 -0.7396407 0.013733134 -0.269732 -0.07078103 0.020378787 -0.42025456 0.06757727 0.116564706 -0.24775276 0.10065463 -0.50363266 0.092853025 -0.33100182
39 0.061922356 0.14524919 -0.23045626 0.42240784 -0.31787392 0.7160567 -0.17394717 0.4133391 -0.15758091 -0.102535725 0.046769794 0.33639333 -0.010304893 0.21863973 0.072325855 -0.29385427 0.12582812 0.04653789 0.08847127 -0.33906013 0.5400057 -0.007943422 0.22787444 0.037601262 -0.13094792 0.14787558 0.034872234 -0.08209395 -0.022000227 0.33779168 0.3322613 0.20312643 0.015126598 0.22583365 -0.08315959 -0.009609891 0.07373377 0.13482279 0.0750098 -0.09226754 -0.021362495 -1.0939511 -0.23100413 0.4692203 0.09015266 -0.033540208 -0.14236286 -0.116904624 0.08758943 -0.06670485 0.043421343 0.10362141 -0.11821273 -0.13740729 -0.029491648 0.15790413 -0.064533934 -0.051434703 0.08881405 -0.0014520865 0.07336402 -0.06702647 -0.13007858 0.08065909
40 -0.029434085 0.24889378 -0.31788602 0.24878865 -0.42163897 0.5949241 -0.008346656 0.36784062 -0.035193637 0.14980924 0.15192512 0.34523046 -0.24781018 0.21122438 -0.020422015 -0.1926399 0.27362883 0.21213587 -0.004756877 -0.34816504 0.43012974 0.03369385 0.0753537 0.11886008 0.010072961 0.16197436 -0.20806944 -0.03661579 -0.047778178 0.24847698 0.16400911 -0.057551175 0.117108196 0.19857877 -0.24978757 0.07346969 0.17537154 -0.059883744 -0.02741211 -0.18028817 0.14114115 -0.82473177 -0.14120762 0.25759962 -0.00077947974 0.08070747 -0.042304836 -0.11308745 0.15574081 -0.24453731 0.034396518 0.1607194 0.014285803 -0.19947676 0.05405206 0.24148457 0.07702054 -0.1504196 0.008501992 0.06548801 0.019667916 -0.03297999 -0.035723984 0.090402626
41 0.13428475 -0.44487178 -0.014675185 0.47236747 -0.56801873 0.5518607 -0.15327469 0.17375964 -0.014026352 0.41609105 -0.5199019 0.059745096 -0.9407903 0.114811935 0.44564384 -0.24738824 -0.5507888 0.44744325 -0.055699073 0.003747834 -0.03240545 0.13380557 -0.07102001 -0.31433097 -0.36254257 -0.10394629 0.37756884 -0.3314014 -0.09682875 0.3939482 -0.07361665 -0.09642138 0.10556105 0.025528198 -0.06576902 0.08278166 -0.0869277 -0.21170354 -0.22929801 0.18976095 0.100643426 -0.0619514 0.014551252 -0.04959864 -0.036715213 0.21781172 -0.16903996 0.14351709 -0.23476443 0.29848957 -0.03698358 -0.20568854 0.28123778 -0.13595715 -0.22388196 -0.57976097 0.24141209 -0.13834818 -0.034013 0.23994398 0.47296318 0.016619317 -0.3858034 -0.23834361
43 -0.12001555 0.15990147 -0.23391318 0.5594083 -0.13491675 0.6332149 -0.2437103 0.42322838 -0.30222693 0.25455534 0.4280599 0.5573953 0.11550651 0.40958402 0.19395328 -0.36332452 -0.02989591 0.0046655834 -0.061380286 -0.26243538 0.6153394 0.15781447 0.3656445 -0.028211087 -0.45723587 0.056492336 0.13507628 -0.9321213 -0.091884285 0.5437003 0.25291786 0.017683443 0.1557385 0.11618381 0.34586576 -0.26144254 -0.1456056 -0.060986258 0.4133567 -0.12327337 -0.014918879 -0.329538 -0.6145989 0.33709463 0.2849815 0.1963578 -0.026677206 -0.30085653 -0.049028933 0.27094465 0.23793593 -0.3638339 -0.09549112 0.4028772 -0.30703837 0.15392505 0.02693226 0.01622287 -0.013211824 -0.013200775 0.13570051 -0.0601708 0.3303268 0.18824808
45 0.14598846 -0.10098014 -0.49553788 0.057290584 -0.27608725 0.3719301 -0.115343876 0.43600228 -0.39717695 -0.28951252 0.013147365 0.14248228 -0.11683738 -0.054871216 -0.17020962 -0.17081541 0.57120955 0.11288631 -0.06428243 -0.57025784 0.36119914 0.29289073 0.3577398 0.049909152 0.12275758 0.23748785 0.3715653 0.23177522 0.459251 0.2526108 0.22110099 0.21067967 -0.060455415 0.5239525 -0.25619215 -0.047072172 0.16142732 0.1587344 -0.15706448 -0.07471765 0.07961865 -0.6061596 -0.10605493 0.42232537 0.008171253 -0.0397538 -0.13459297 -0.03631281 0.10021747 -0.0035761893 -0.2267242 0.028737152 -0.03730474 0.05229108 0.11181859 0.079266354 0.16265371 0.013421968 -0.1592302 0.03649598 0.23076671 -0.14617172 0.045212083 -0.2980359
46 -0.45766068 0.04118256 -0.06731069 0.34408292 -0.26361123 0.29374078 0.03255445 -0.060424328 -0.0066568553 0.22151178 0.06603966 0.16385579 -0.15933514 0.14766437 0.24352472 -0.38418534 -0.018595226 0.3496997 -0.09911735 0.13201544 0.09015996 -0.16080344 -0.1319491 0.11741088 0.01497742 -0.2815705 0.1787086 -0.22388354 -0.02594355 0.13334838 -0.11945981 -0.16247573 0.36036813 0.030701175 0.016908623 0.11391098 -0.11176929 -0.19739093 -0.102466136 0.029397491 0.20198764 0.07357143 -0.24492179 0.1218212 -0.049198624 0.31736597 -0.31468233 0.14651757 0.085923046 -0.112027615 0.29084322 0.1448492 0.09421341 0.22926697 -0.24851234 -0.0047178566 0.037408978 0.021548605 0.13242243 -0.031059876 0.1143739 -0.093906306 -0.115123235 -0.14797641
47 0.13765526 0.00404384 -0.1741438 0.22445266 -0.34416783 0.5637106 -0.19274782 0.30212143 -0.13157141 -0.06482139 -0.011912942 0.26273367 -0.074972734 0.067715555 -0.090049185 -0.040907457 0.08382345 -0.0042054784 0.11436572 -0.6000853 0.5719289 0.21139047 0.17573822 -0.012495618 0.15604609 0.21306033 -0.21284519 -0.0018395344 -0.034780696 0.061745875 0.16261211 0.026293084 -0.069289975 0.27926862 -0.15187204 0.00498153 0.1159264 0.06105096 -0.016975828 -0.12330591 0.08448148 -1.2006197 -0.12192057 0.3298512 -0.003365986 -0.06931886 0.096954726 -0.033548295 0.16493931 -0.04825319 0.07481665 -0.11036196 -0.041776735 -0.32934022 0.19129401 0.15211768 -0.07219745 -0.23692368 0.114112526 0.1032217 0.08810797 -0.022065392 -0.040368594 0.055517077
48 0.35188872 -0.34078786 0.0713032 0.37757608 0.31633827 0.48854008 -0.27534437 0.2242243 0.19899961 -0.4502106 -0.018285595 0.15672746 0.29842418 -0.51234484 -0.38752422 -0.03147667 -0.37884575 -0.48004225 0.28178096 -0.95055294 0.59121716 0.13248643 0.59167534 -0.23187107 0.10361381 0.14762148 -0.24703702 0.25384775 -0.44064572 -0.29613656 0.62157416 0.26822546 -0.6000096 0.15143353 0.09468409 -0.088322 -0.20017985 -0.14553934 0.39481953 0.020287836 -0.42733246 -2.0933154 0.059253365 0.23818336 -0.15157422 -0.42225218 0.2071725 -0.2444507 -0.17928557 0.32793516 -0.4159644 -0.2502964 -0.29566637 -0.07926272 0.07495125 -0.07930823 0.039376274 0.35492718 0.0146191185 0.077062294 0.21456648 0.09570706 0.20953459 0.11695732
49 0.2651915 -0.13336447 0.010419317 0.22299136 0.075387895 0.38220674 -0.13564557 0.3783878 0.054515548 -0.25732958 -0.11152206 0.23588099 0.03681828 -0.21384731 -0.2790612 0.0068906685 -0.137476 -0.18389904 0.17479414 -0.6869381 0.40927124 0.13331246 0.31199694 -0.022152856 -0.084742494 0.13806447 -0.13084847 0.28454304 -0.21840398 -0.027712323 0.26370504 0.11129591 -0.2953544 0.1346958 0.043118 -0.1345938 -0.0012853816 0.085383885 0.1527331 0.003787987 -0.16242504 -1.3111422 0.016393894 0.20596205 -0.08505495 -0.3263076 0.023859605 -0.10162443 0.043902513 0.26945037 -0.21970952 -0.09670515 -0.031272843 -0.036343247 0.25801796 0.0683378 -0.017000332 0.031720407 0.0725977 0.043380294 0.027390486 0.016206192 0.082160324 0.026083931
50 0.43480662 -0.45190352 0.27953255 0.26551843 0.5734752 0.18711524 0.08538929 0.003609836 0.15031062 -0.18718138 0.25563452 0.00569921 0.26211765 -0.61132896 -0.37292662 0.042762194 -0.32803696 -0.3627643 0.15198803 -0.77123636 0.26289693 0.1874761 0.5379022 -0.119749084 -0.010362498 -0.038181767 -0.087741174 0.34312013 -0.45335853 -0.361053 0.3759354 0.3355956 -0.56999296 -0.10464749 0.036934935 0.010652363 -0.29307213 0.015411433 0.356274 -0.0026972853 -0.39432198 -1.2850887 0.11048168 0.13975966 -0.23451948 -0.3719094 0.4983537 -0.27026626 -0.05357261 0.2901188 -0.3262242 -0.25651112 -0.32169724 -0.23219547 0.012945337 -0.28868073 0.12343766 0.335254 0.16826361 -0.3360143 -0.06792881 0.23908685 0.17095394 0.09728758
51 0.2132575 -0.57825726 -0.40473711 0.017335854 -0.3063056 0.38065428 -0.45552772 0.4546933 -0.38417944 -0.111778945 -0.064063 -0.044597566 0.17933789 0.5419148 0.04813805 -0.7596042 -0.15589799 -0.33638564 -0.5239853 -0.46784616 -0.23937124 0.58017355 0.4523768 -0.34726128 0.564912 0.036079496 0.80689925 -0.32213777 -0.13163157 0.009784862 -0.08417042 -0.11679234 0.108518824 -0.24107969 0.17550486 0.19824718 0.3147335 0.34316546 0.31019583 -0.090969145 0.014960367 -0.747895 -0.14557204 0.27783337 -0.35202843 -0.26237833 -0.9586007 -0.5562977 -0.08976135 0.15790185 0.48519486 0.45768926 0.24826513 0.25099933 -0.020437734 -0.10254044 0.62775916 -0.11944496 0.26591408 0.9005237 0.0991795 -0.073549315 0.18703873 0.18627773
52 -0.022425588 0.06798138 -0.29798585 0.5603453 -0.47539 0.93776804 -0.1797327 0.51598185 -0.13483515 -0.077100724 0.07370278 0.44855803 -0.16329657 0.10789074 -0.016545735 -0.33542383 0.08420403 0.09429377 0.1106293 -0.4645117 0.7337437 0.04471821 0.27722433 -0.020954207 -0.04353822 0.16917664 -0.123885304 -0.14449003 -0.19692549 0.30550736 0.4019855 0.14341007 0.045247518 0.24816355 -0.0034609362 0.049330022 0.07656262 0.062220156 -0.0047389716 -0.049978293 0.1737248 -1.4483609 -0.2675365 0.49173936 0.025155868 0.004844902 -0.121738926 -0.08734804 0.15255634 -0.20695835 0.04924209 0.034859758 -0.036263004 -0.101065494 -0.012706431 0.12546135 -0.0016400579 -0.0047401316 0.025426887 -0.0012633847 0.16338289 -0.0393823 -0.10190009 0.22913894
53 -0.11309887 0.40288612 -0.48683062 0.22863819 -0.5023403 0.6658395 0.031224266 0.44775394 -0.14539215 0.020937368 -0.05956118 0.2974811 -0.28519976 0.27604032 0.062042203 -0.12524095 0.6245004 0.38698792 0.021383284 -0.2547106 0.43693215 -0.13856505 -0.006717082 0.08441526 0.1769514 0.16078173 -0.040197298 -0.09939521 -0.119072534 0.23729311 0.16030124 0.02154772 0.21226832 0.20323557 -0.07829326 0.09400087 0.22686693 -0.004560858 -0.10106276 -0.106688835 0.44471142 -0.86546284 -0.17965434 0.5239902 0.12110472 0.12623182 -0.15240946 0.14528845 0.28597468 -0.38373584 0.033815086 0.20494685 0.0020156503 -0.31594515 0.2170531 0.12855011 0.0787248 -0.19796312 -0.042819038 0.12761554 -0.11628495 0.10369022 -0.13691089 0.16422415
54 0.35660636 0.027814483 -0.017870277 0.027643561 -0.22044528 0.25546807 0.22842258 0.20178212 -0.10046421 -0.08091012 0.3368121 0.22042921 0.029998384 -0.13797337 0.22118741 -0.0071317796 -0.13799751 0.20528194 0.1760627 -0.3784027 0.26943827 0.17379892 0.29877287 -0.13751504 -0.37391597 0.17512462 0.13821073 -0.10661769 0.060343213 0.0039322674 0.16476169 0.18369292 -0.21059194 -0.044660963 0.15777035 0.029974084 -0.21337071 0.12257827 -0.058312386 0.0845166 -0.110861145 -0.8680982 -0.29893792 0.63703716 0.22321928 0.34425107 0.21624145 0.010062989 -0.4176891 0.21199536 -0.29827172 0.0005067196 -0.37832952 -0.2704051 0.14045972 -0.15512992 0.049384773 -0.32877117 -0.08759642 -0.04735522 -0.238794 0.16322188 -0.2572409 -0.019059975
55 0.32134235 -0.42361432 -0.38432065 -0.02675505 0.15788211 -0.11320922 0.02423965 -0.14550912 -0.11839846 0.22083713 0.35592645 0.37234867 -0.19912027 -0.7010796 0.4232961 0.25837094 0.49097097 0.3613519 0.29831636 -0.34197742 0.13012785 0.5577002 -0.15611842 0.7762326 -0.4710873 0.29341587 -0.52552986 0.06262466 -0.495393 -0.48517632 0.11820409 0.5720066 -0.081844375 -0.77697957 -0.15777054 0.093697295 -0.09764789 0.77161705 -0.0798441 -0.49254984 0.20071056 -0.4305661 -0.32226202 -0.16433564 0.23354182 0.72057277 -0.1528869 0.07123241 -0.5320543 0.037008595 0.04122759 -0.10267749 -0.05280736 -0.25350016 0.15030363 -0.70316124 -0.20924196 0.8086325 -0.033656538 -0.36269554 -0.14051394 -0.2716563 0.4338473 -1.069929
56 -0.23444717 -0.06246248 0.10929957 -0.023672849 -0.2025037 0.41549605 0.21312974 0.46744013 -0.083565846 -0.43987504 0.025069162 0.396958 0.23818856 -0.056256417 0.03248372 0.3747192 0.09434121 -0.20265694 0.12754932 -0.47484887 0.1604858 -0.28489304 0.10138583 0.036754213 0.33999467 0.03183247 -0.021478526 0.20665187 -0.025394594 0.29318866 0.41598573 0.16733468 0.1308853 -0.6518092 -0.02500604 0.32085782 0.082398616 0.8632062 0.13178644 0.33932564 -0.057802875 -0.5939882 -0.11958682 -0.32171512 0.18091977 -0.058962878 -0.17537768 0.3345006 0.15707621 -0.13954853 0.21637732 -0.28772104 0.35572308 -0.49386358 0.82939553 0.44842649 0.3922832 -0.14974394 0.34668472 -0.32132822 -0.34142408 -0.03572816 0.1550881 -0.39105856
57 0.11628526 -0.12496292 0.0050078253 0.2026495 0.071250975 0.36447263 -0.07343644 0.19486552 0.16313773 -0.3174533 -0.011163747 0.09335078 0.044611383 -0.23046175 -0.31227118 0.03719087 -0.012092497 -0.24393553 0.1921222 -0.6672101 0.402176 0.24274564 0.24434035 -0.1689366 0.1132715 0.22971533 -0.17861411 0.19656886 -0.18603277 -0.13843599 0.4004155 0.1342119 -0.25761405 0.1419031 0.053432487 -0.048752125 -0.032960348 -0.027102014 0.068894215 0.1005345 -0.2498535 -1.4218559 -0.03693049 0.29316035 -0.042266555 -0.25044358 0.1701678 0.025884658 -0.18126799 -0.027096245 -0.26120907 -0.08718804 -0.3218161 -0.23281783 0.11638166 -0.007970892 0.015712364 0.01150731 -0.063259654 0.06575693 0.09578336 -0.03541056 0.16126494 -0.04565059
58 0.1758241 -0.15105015 0.38449562 0.08786051 0.34028748 0.12989871 -0.089724734 -0.06177356 -0.023375854 -0.566318 -0.3431801 0.065298796 0.208754 -0.50527954 -0.46021107 0.099698335 -0.3246225 -0.5627848 0.09274576 -0.48997915 0.12243131 0.30515146 0.40587786 -0.27144176 -0.058672026 0.337372 -0.0736706 0.6248888 -0.22469047 -0.11417918 0.49295098 0.10588507 -0.31898898 0.00670268 0.14015663 -0.14577757 -0.09119783 -0.2857714 0.24572214 -0.25694743 -0.38347083 -1.2035224 -0.07690768 0.024328504 -0.23081604 -0.14664783 0.07789243 -0.043313816 -0.18466394 0.34895396 -0.36517262 -0.10796281 -0.19138587 -0.13829768 -0.1341998 -0.002573751 -0.074958175 0.22605611 0.12059043 0.41511524 0.0512617 0.13268273 0.1672659 0.038813718
60 0.03125134 -0.22152898 -0.22009058 0.3016957 -0.08766095 0.51206404 0.09299551 0.11274528 -0.0396685 0.17635413 -0.15101548 0.27348 0.097598225 0.25810766 -0.00620348 -0.42790192 0.22466719 0.0054831654 -0.056895643 -0.16012618 0.3558068 0.3887732 -0.060366824 0.060157727 -0.287966 0.014781425 -0.100700244 -0.37966055 -0.046795543 0.5311867 0.004930377 -0.1314435 0.1417937 0.020769902 0.057710312 0.29488015 0.01703793 -0.08318365 0.2128072 -0.2554795 0.15731911 -0.40133885 -0.22417226 0.4294063 -0.09967105 0.26432234 -0.2316466 0.21955436 0.18232518 -0.06045203 -0.14365312 0.091142476 0.18490045 0.29204535 -0.058605433 -0.019585717 0.17505819 0.009680238 0.27717233 0.0494499 0.08400102 -0.1149146 -0.25293863 0.23191446
61 -0.53852385 0.49743208 -0.19977973 0.1334038 -0.14845048 -0.1782774 -0.21029836 -0.29213774 0.35216323 -0.40258306 -0.19553341 0.28589448 -0.41175824 -0.05311248 0.70034266 0.44318473 0.3895266 0.5910523 -0.3123517 0.609345 -0.110419095 -0.015690655 0.21004912 0.38984263 0.15699649 -0.04797279 -0.26032823 -0.045765735 0.18724328 0.14289156 0.056487493 -0.060982246 0.16321963 -0.6082764 -0.18871203 0.8999685 -0.44729063 0.2975918 0.17222896 0.29281154 0.66834354 -0.21665221 0.2336899 -0.4705191 -0.52871925 -0.5903951 -0.41216207 -0.06400796 0.4834437 -0.4504797 -0.5020023 0.45856047 -0.09017362 0.13242178 0.6119388 -0.29432908 0.12920204 -0.26719406 0.42307734 0.12525508 0.15095735 -0.069520764 -0.14828849 -0.043031193
62 -0.041852437 0.106696494 -0.4183376 0.43186057 -0.4113466 0.783033 -0.2545312 0.44883618 -0.11277844 -0.027473472 -0.21977565 0.4147205 -0.18415426 0.14118768 0.04043399 -0.29704452 0.09851409 0.15864357 0.07260972 -0.39022216 0.5484169 -0.015389394 0.14513199 0.05458126 -0.033503182 0.07159624 -0.11797602 -0.2123183 -0.07903897 0.31482208 0.3358034 0.044121243 0.065430574 0.1916978 -0.030440804 0.06359254 0.042743713 0.067844436 0.040829625 -0.050760627 0.03631535 -1.0920585 -0.29836297 0.53358406 0.1725105 -0.0020174645 -0.1961245 -0.033213187 0.14823437 -0.08057559 0.09241756 0.028868217 -0.01491722 -0.11866573 0.02988987 0.084635496 -0.021091297 -0.10606903 0.035439305 0.04087991 0.07280692 -0.08009332 -0.09272784 0.15250678
63 -0.49092644 -0.24456044 -0.46362436 0.24034846 -0.2766238 0.45272487 -0.41072947 -0.19196703 0.27608964 -0.2724606 0.6196644 0.6031096 0.49047562 -0.19613516 -0.04842259 -0.1563988 0.28956115 0.1958754 -0.3915657 -0.45700055 -0.022892848 -0.18876088 -0.124195516 -0.85230434 -0.11972742 0.35861003 0.57238084 -0.30662793 -0.1233252 0.11088083 -0.36290696 0.275635 0.2868132 0.2622895 0.03488298 0.2029294 0.04702112 0.09918156 -1.07053 0.19578533 -0.28527886 -0.11427433 -0.30677795 -0.3760189 0.0076437537 0.07293424 -0.13386233 0.084174156 -0.059054445 0.36688188 -0.08777538 -0.43481392 -0.21689655 0.22679293 -0.46894434 -0.022813281 -0.10777841 -0.44910288 0.12523425 -0.43153372 -0.17041638 -0.060395345 0.051713943 0.55596954
64 0.2991146 0.06740121 0.025432132 0.26246595 -0.11908539 0.49677563 -0.14769018 0.29440913 0.043832794 -0.13576983 -0.15600568 0.15102383 0.055022117 -0.1638001 -0.22251593 0.038282394 -0.02608438 -0.14193606 0.18940365 -0.6655208 0.50812745 0.038320836 0.27257326 -0.097295515 -0.0054360144 0.23583788 -0.20732874 0.12514392 -0.05409676 -0.0319885 0.36934882 0.13248216 -0.22218394 0.14985558 -0.085773334 -0.08950978 0.047031537 0.07348226 0.06853065 -0.12067137 -0.10926134 -1.4591359 0.01465524 0.35125205 -0.01792502 -0.23608956 0.18667234 -0.061079066 -0.070408806 -0.02063391 -0.1693814 -0.17187023 0.15657693 -0.16532989 0.010992259 0.10976165 -0.045866586 -0.0073590465 0.037311304 0.22804716 0.07562653 -0.06105125 0.03083114 -0.031543005
65 0.1896275 0.11969568 -0.20989637 0.21461804 0.021309339 0.40343142 0.05948659 0.20154849 0.09376354 -0.049009368 0.17880341 0.15466622 0.14154255 -0.122506104 -0.24417186 0.030146083 -0.14173208 -0.1643635 0.13377528 -0.4836494 0.3782184 0.15053721 0.38122225 -0.080724806 0.38181925 0.16725023 -0.1634188 0.26003325 0.040914223 0.018978886 0.25936902 0.21545398 -0.073107906 0.025396891 -0.056255702 -0.060435027 0.056620732 0.06995413 -0.0946139 -0.20694831 -0.10768049 -1.157385 0.0048268866 0.012337267 -0.011989516 -0.0681315 0.07240866 0.037000116 0.029503144 -0.05403587 -0.1209871 -0.111080796 0.1440121 -0.34133786 0.13089725 0.052882858 -0.025697825 -0.067456745 0.14947368 0.09814575 0.023213224 0.06928562 0.12355304 0.110786065
67 0.02350723 -0.42244655 0.3109083 0.15570173 0.5510803 -0.02859366 0.30485106 -0.06572818 -0.44869822 -0.69086975 -0.61418265 -0.3085261 0.015558772 -0.71000195 -0.6194812 0.20162895 -0.51422054 -0.6477269 0.24916461 -0.26132852 0.18270554 0.59576386 0.30919462 -0.05468324 0.015856778 -0.12301192 0.24599954 -0.36898637 0.004086606 -0.12268346 -0.12475845 -0.5371474 0.0071704984 -0.2782084 -0.10043972 0.21214026 -0.27182645 0.0074447654 0.09925466 -0.04083526 -0.41758898 -0.86346316 0.27976283 0.26742056 -0.08939591 -0.42970273 -0.10104392 -0.120463595 0.26472634 -0.33375493 0.12898555 -0.35567936 -0.17135103 0.44446492 0.19059102 0.18245995 -0.1632092 -0.30995902 0.32464084 0.32550523 0.07794483 0.08448047 0.25642598 0.19998887
68 -0.19267398 -0.049036503 -0.055893227 0.28721648 -0.21655841 0.3157409 0.09885097 -0.16360119 0.15670621 0.27448568 -0.074747756 0.14613721 -0.19905436 0.066459365 0.22203116 -0.10146204 -0.0011112615 0.19001067 0.06123828 0.11469247 0.1230904 -0.050883316 -0.12897055 0.0014636591 0.2880692 -0.08583988 0.055713102 -0.114391826 0.0046810955 0.15721633 -0.0175702 -0.24134102 0.22633505 -0.03149718 0.107709005 0.21762232 -0.1624579 0.026675254 -0.25308675 0.16858472 0.18813959 -0.20260774 -0.15305753 -0.030264946 -0.09684253 0.17503777 -0.38802248 0.11736252 -0.0024128854 -0.1867261 0.10892946 -0.0459556 0.21994735 0.08481023 -0.042400133 -0.20462476 0.082862034 -0.07510232 -0.06277624 0.08011716 0.043072034 -0.23868127 -0.18998036 -0.1769267
69 0.27883345 -0.24049255 0.02710235 0.3342917 0.15776004 0.48199365 -0.10824918 0.22519746 0.1504191 -0.33723357 -0.08094165 0.14281248 0.22773096 -0.37211072 -0.3191026 0.0005783159 -0.2889698 -0.34591895 0.24516872 -0.84419906 0.5659596 0.1553947 0.4205496 -0.20715825 0.0806644 0.20722637 -0.17595403 0.18948211 -0.33171105 -0.20212638 0.5058186 0.14542125 -0.4007629 0.2369633 0.041985054 -0.11987599 -0.070792995 -0.06887969 0.26868427 -0.013678036 -0.3305974 -1.8561467 0.0032075625 0.2326805 -0.1282181 -0.39517328 0.21076766 -0.10194907 -0.1279818 0.16337419 -0.34944737 -0.20850615 -0.083884396 -0.15454856 0.117104985 -0.009808626 -0.011228977 0.22342066 -0.013084015 0.083680674 0.1769332 0.03397105 0.20078196 0.0027146041
71 -0.3386719 0.5061011 -0.41456285 0.0108977035 -0.1329234 0.17498232 0.12297394 -0.15461543 0.07913768 0.4652606 -0.52209723 0.15489767 0.0073390305 0.11686358 0.11206603 -0.017263323 0.35888147 0.2746845 -0.36131302 0.080314144 0.027209781 -0.64001715 -0.107278064 0.091930516 -0.46818036 0.008053869 0.3096282 0.091037184 0.19101462 -0.30885085 -0.097017646 0.14175901 0.44616097 0.2032713 -0.29217872 -0.17873618 -0.09915781 -0.3025527 -0.430077 -0.065266915 0.57652783 0.09133071 -0.10370619 0.11763284 -0.06824094 -0.14716208 -0.4935791 -0.28332245 0.07153051 -0.0070645213 0.12416327 -0.14403461 0.11338246 0.15963754 0.27063566 -0.63381016 0.32917055 -0.44475177 -0.3207125 0.41236526 -0.13017298 0.62663925 -0.15522122 -0.27789104
72 0.09040333 0.058431312 -0.19091345 0.18996608 0.32252347 0.2418794 -0.22011599 0.26074493 0.2349561 -0.19695714 -0.32849753 0.057016533 0.23974061 -0.17821532 -0.11009307 0.017731246 -0.19443625 -0.21858005 0.21463135 -0.56282645 0.17858441 0.3963505 0.13741294 0.029350162 -0.13000348 0.11911772 -0.19677246 -0.06801142 0.08546786 -0.18553841 0.45863977 -0.06451839 -0.31879508 0.041564383 0.017704275 -0.16099575 0.10389606 0.24376363 -0.2841234 -0.022167742 -0.26180232 -1.0425116 0.18581977 0.24287474 -0.101923205 -0.4339748 -0.2673303 -0.13008912 -0.1833194 -0.08867107 -0.42463714 -0.16524857 -0.35615835 -0.21718106 0.11192263 -0.11678736 0.23605113 0.1968934 -0.11206243 0.14677241 0.12716635 -0.027006872 -0.028647617 -0.041488044
73 0.36443466 -0.012387864 -0.4754032 0.39897487 -0.5856327 0.19724289 0.10962187 1.1034116 0.022931486 -0.2180188 -0.706784 -0.032732055 -0.11922752 0.44609448 -0.0959021 -0.2419375 -0.020309433 0.36392772 0.038093284 -0.09667228 0.4707682 0.39326367 -0.095439084 -0.2202537 -0.2941038 0.22285655 0.37137017 0.5316266 -0.046249833 0.092213124 0.2738393 -0.0064310543 0.49970222 -0.5644101 -0.03779583 0.1631906 0.20065495 0.2978782 -0.12583949 -0.14622496 0.101487905 -0.42537093 0.31725037 0.05924563 -0.0015332326 0.29141095 -0.08869568 0.19477731 0.29887176 0.19537295 0.5363223 -0.22322272 -0.18268025 -0.24425869 0.10269238 0.12237973 -0.39714098 0.07434039 0.35049573 -0.3171053 0.3692835 -0.079207286 -0.0653074 0.6465244
76 0.042851727 -0.070301525 0.25661346 0.05851303 -0.036433123 0.19137676 0.33624953 -0.058532692 -0.108601764 -0.36121207 0.015752655 -0.115613274 -0.0794557 -0.12096179 -0.6642289 -0.06738422 0.29426202 -0.1519463 0.12428689 -0.15188546 0.1866027 -0.04029695 -0.216165 -0.17682438 -0.21486655 0.31813625 0.40985078 0.20404613 -0.18907325 -0.11528398 0.10350598 0.1362729 -0.20254213 0.2035254 0.22550587 -0.061608627 -0.024920277 0.0029814113 0.11565972 0.42138374 0.068053044 -0.81111455 0.038830925 0.47276723 0.002574563 -0.300893 -0.004518375 -0.0910388 -0.114279434 -0.32530457 -0.028167397 -0.15965861 -0.16169584 -0.22798166 -0.33910492 0.20893437 -0.1523211 0.15395251 -0.20390475 0.06537283 -0.1033845 0.055364095 0.02479817 0.37386337
77 0.13420932 -0.059398323 -0.16475898 0.3056219 -0.055606756 0.060481355 -0.053836692 -0.030683696 0.09245821 -0.17856772 0.5256869 0.021856692 -0.3257487 0.39451382 0.009809077 0.044099927 -0.09499988 -0.2649796 -0.015875757 -0.15598555 0.3020472 -0.008916024 0.20241797 0.16858189 -0.51504654 0.14613119 -0.079307646 0.68264973 0.40698338 0.20028861 0.24607 -0.17156038 0.31158692 -0.37977126 0.013324296 -0.19430797 0.025660135 0.14576015 -0.29587364 -0.68175167 0.41908717 -0.46794954 0.07137956 0.074769065 -0.12932625 0.11295019 0.30078697 0.20798111 -0.059892707 -0.01883617 -0.05865097 -0.31776142 -0.3395032 -0.40556574 0.0333631 0.3122423 -0.20313378 0.02097759 0.042750634 0.06292705 -0.40873188 0.29575494 0.0028809495 0.28795797
78 -0.31240544 0.24629518 -0.34916338 0.40005744 -0.13735719 0.4509527 0.043203898 0.19050914 -0.08833343 -0.17920448 0.329076 0.1748611 -0.33170485 -0.13365047 0.36851197 -0.48587406 0.035703912 -0.15364403 -0.027069693 0.049913853 0.28681508 -0.08876511 0.19699839 0.020183632 -0.15134828 0.03519236 -0.21733266 -0.5319062 0.46817327 0.116365515 0.0011905953 0.49509987 0.113362 0.32122052 -0.16474925 0.28888413 -0.22582006 0.1934149 -0.4002195 0.14032489 -0.21131024 -0.47907165 -0.35553977 -0.077388674 0.11915205 0.24839027 -0.08904393 0.015725432 0.048735168 -0.2585871 0.081153035 0.062277265 0.11458458 0.50933814 -0.009321987 -0.07574509 -0.04325122 0.20211971 0.08970255 0.2361404 0.27064133 0.17645809 0.07273752 0.07616441
79 -0.116863884 -0.020823821 -0.23522404 -0.054067463 -0.32367858 0.48831916 -0.20697819 0.51974815 -0.21367127 -0.23889512 0.15831499 0.18775669 0.23303774 0.3957095 0.12727478 -0.1822176 0.19807407 0.23782341 0.16822281 0.34860158 0.09266953 0.52994955 -0.01226449 -0.22468519 0.18483126 -0.088763624 -0.49941063 -0.6877819 -0.60106146 0.39590186 0.013902962 -0.0153016 -0.31426713 -0.7336679 -0.30826285 -0.36171496 0.26613364 0.42407122 -0.4947205 0.11093673 -0.06755313 -0.1577636 0.022232749 -0.21452564 0.035997756 0.19332993 -0.6128584 0.30855855 -0.073158406 0.13289249 0.90738034 0.3803966 0.6412348 -0.017986342 -0.26267916 -0.05516419 0.33684245 -0.1484769 0.45431498 -0.9677469 -0.25527883 -0.15731987 -0.592267 0.12880713
82 -0.25963992 0.06126716 -0.36219102 0.1839259 -0.24754404 0.49057144 0.25633222 0.12448734 0.076296434 0.04050374 0.34790576 0.18366046 -0.5361117 0.3143013 0.42016876 -0.22453736 0.2388136 0.24054156 -0.15103331 0.03422321 0.30674726 -0.023526998 -0.3086599 0.052018162 0.046658944 0.04487755 0.116402686 -0.21016574 -0.026691526 0.046958715 0.093681544 -0.093266845 0.25349876 -0.07939349 0.041889556 0.24755478 0.08213862 -0.050879993 -0.49602324 -0.122899786 0.3696904 -0.40529382 -0.21840419 0.32849258 0.04735087 0.1341305 -0.25082934 0.15602362 0.12005968 -0.2970566 0.24958996 -0.05233656 0.2990363 0.014083156 0.076245286 0.100177206 0.14578114 -0.09018071 0.2522868 -0.15373862 -0.009884549 -0.30813962 -0.06735559 -0.10361111
83 0.33192545 -0.16959342 -0.3006889 0.1712411 -0.06705475 0.34301728 0.13148767 0.16711277 -0.22626625 -0.12020859 -0.4165625 0.41265708 -0.11596202 -0.04085104 -0.13307817 -0.10825382 0.21292579 -0.16396037 0.07782208 -0.37615496 -0.024756223 0.4194627 0.09909874 0.16355202 -0.016904669 0.3173006 -0.17128876 -0.29292586 -0.1487486 -0.22560984 0.22801548 -0.24020787 -0.12801257 0.076323226 -0.14262061 0.43920526 -0.2352073 0.15873343 -0.037333176 0.3435141 -0.026035178 -0.877841 -0.2073275 0.8475127 0.25222328 -0.24685231 0.2859225 -0.045981515 -0.1375571 0.14902855 -0.12192844 0.033740953 -0.2654573 -0.07833356 0.048657835 -0.11973604 0.053878333 -0.06961393 0.09289013 0.23683208 0.26049682 -0.12094127 0.07220653 -0.08682125
84 -0.17549367 -0.49503538 -0.24565578 0.07551725 -0.41277152 0.46685866 0.0065409765 0.3656459 -0.14671512 0.15287907 -0.032491274 -0.0740664 0.040747613 0.008316338 0.1947416 -0.23520777 0.1424288 0.026073992 0.04105097 0.022080913 0.34987587 0.43981862 0.41058207 -0.09812436 0.29392964 -0.07220484 -0.12828134 0.31935912 -0.14058644 0.1515897 0.37728167 0.097192034 0.29631668 0.18391596 -0.021911647 0.076690614 -0.1382953 -0.077117704 -0.31829128 0.31788915 0.29791874 -0.5539752 0.02840259 0.117585056 -0.1090381 0.04360538 -0.15760949 -0.1435602 -0.13084061 0.40142542 0.5019997 -0.06988151 0.22886121 -0.13567795 0.32084945 -0.015305832 -0.04005574 0.20813528 -0.106472425 0.29042765 -0.06744266 0.10550002 0.094683185 0.20012173
85 -0.080090515 0.24511334 -0.16964644 0.3653307 -0.36596078 0.68045014 0.037266858 0.30031785 -0.2252551 0.058940396 -0.13787203 0.33662844 -0.30667838 0.10770784 0.18856819 -0.31794798 0.06643857 0.21354786 -0.0040736715 -0.148464 0.52580357 0.039023913 0.04508473 0.0032416594 -0.16129223 0.05310213 -0.17978674 -0.22157711 -0.08396532 0.31322098 0.20520659 0.07051374 0.03477774 0.05992095 -0.1600556 -0.070103526 0.05646688 0.085365206 0.09033357 -0.06128879 0.09431309 -0.81855905 -0.20572178 0.27862749 -0.17530887 0.11222925 -0.10064871 0.11735857 0.124787524 -0.11076394 0.073111854 -0.019748464 -0.1283428 -0.10048171 -0.12013641 0.2653948 -0.013879339 -0.0069619715 -0.180959 0.14555164 0.18441999 0.013424717 -0.13942085 0.07875778
86 0.099766076 -0.07039869 -0.031588838 0.3116525 0.16362497 0.36798307 -0.25002322 0.095409 0.01155398 0.10651165 0.13227624 0.076443724 -0.08714879 -0.070592225 0.12741652 -0.38425827 0.27735847 0.088985704 0.06826917 0.046349302 0.16168949 0.025780525 0.08242434 0.39170605 0.34625536 0.008548902 0.05086485 0.16110656 0.034939982 0.008858293 0.046372935 -0.25152683 0.12432751 -0.012345381 -0.15230374 0.09387891 -0.047689468 0.05048018 0.4154256 0.18748994 0.075576976 -0.40203846 -0.22803299 0.20957558 0.10077913 0.20905042 0.06493901 -0.06927182 0.15716891 -0.06868173 0.14092728 0.12498264 -0.009404365 0.17640074 0.17602953 -0.16299991 0.13554136 -0.033290938 0.026484054 0.12631956 -0.056856252 -0.044491865 0.0929583 0.22301194
87 0.37697622 -0.39643294 0.09339376 0.21366554 0.31783766 0.28863007 -0.13806105 0.09595829 0.209611 -0.36543936 -0.17912376 0.091487736 0.22231528 -0.51915586 -0.414546 -0.022290114 -0.37188527 -0.42864504 0.19523516 -0.75247294 0.43206722 0.44500804 0.43214923 -0.31870598 0.02194149 0.13926303 -0.19072741 0.048032537 -0.30487153 -0.2750987 0.5636692 0.13723406 -0.47165287 0.0466353 0.22879116 -0.0897559 -0.12515546 -0.021909498 0.18559821 -0.064253315 -0.38947195 -1.6277951 0.083067596 0.14297064 -0.11154917 -0.22825198 0.27399266 -0.07227776 -0.24408495 0.3555384 -0.31932372 -0.242502 -0.19768947 -0.027060196 0.024290014 -0.12017982 0.06780635 0.26695842 -0.015571478 -0.0011457987 0.18138407 -0.068512514 0.1414588 0.088244036
88 0.3954774 -0.075138085 0.058612406 0.20454338 -0.32342172 0.25192958 -0.36098316 0.13814318 -0.12718594 0.5477903 0.07708256 0.24386677 -0.21215287 -0.03858804 -0.37519732 0.18252787 0.05925528 -0.17413029 0.15893257 0.092608646 0.12090817 0.025728349 -0.14409435 -0.0068128677 -0.12368604 0.15649912 -0.1695576 0.10869326 0.040327337 0.09381581 -0.3719242 -0.19511285 -0.25711977 -0.18138912 -0.10665586 -0.007606115 -0.15489668 -0.3166559 -0.011158351 -0.20910975 -0.26216847 -0.47313926 -0.11625692 0.50773823 0.080134556 0.81618106 -0.2551415 -0.11736035 -0.14924783 -0.17076097 -0.07767041 0.34656405 0.0076534785 -0.034175944 -0.35860217 -0.0190031 -0.36463636 -0.16346255 0.15282829 -0.15086299 -0.36375794 0.49867892 -0.06763154 0.2935325
89 0.032485496 0.28047484 -0.20485625 0.20207323 -0.167096 0.47905642 -0.0381091 0.4328176 -0.11728269 0.22233716 -0.03305581 0.33353883 0.21450134 0.39452332 -0.013524629 -0.13174096 0.27344915 0.21459225 0.0054181553 -0.116287455 0.31702843 0.11439539 0.07258427 0.0012152791 0.22522469 0.17445315 -0.14179373 -0.091148704 -0.078798 0.19302464 0.024051413 0.10637276 0.17619586 -0.08253354 -0.26737955 0.12180063 0.06835707 0.2800557 -0.18934909 -0.027186599 0.21037304 -0.6256998 -0.14272971 0.45221126 0.06347233 -0.20946933 -0.17974675 0.09808086 0.21866426 -0.25053248 0.11936015 -0.04527136 0.03984589 -0.22197665 -0.14957951 0.08956406 -0.09714399 0.020930782 -0.265624 0.21586478 -0.016101096 -0.27169403 -0.15661377 0.15886572
90 -0.0013707429 -0.20690082 0.54015166 0.25684646 -0.027968165 0.23137766 -0.043534808 -0.07377131 0.18451118 -0.016478732 -0.0033839233 0.06496195 -0.07480287 -0.4217144 -0.2461275 0.3255599 0.11968653 -0.31679893 -0.057833895 -0.22027086 0.40765375 0.008654177 0.19270468 0.163276 -0.5680261 0.15998472 -0.22144961 0.0923091 -0.4106391 0.0974042 0.4201535 -0.070928246 -0.18532267 0.1304783 0.049170695 -0.00788419 -0.025930688 -0.20436317 -0.25278246 0.19926348 0.0015696883 -0.9161489 0.03843541 -0.1631051 -0.25683364 -0.25985852 0.18221103 0.04009418 0.057079814 -0.07544502 -0.077663615 0.011995055 0.50903064 -0.105327666 0.055752967 -0.07586764 -0.09412249 0.09596749 0.20507836 0.23671725 0.2796419 -0.09345785 0.19685206 -0.19679308
91 -0.099157766 0.22004813 -0.1763559 -0.0064991266 -0.7370234 0.4240273 0.22214246 0.24970941 0.11096757 -0.006235755 -0.52425325 0.13623017 -0.2087565 0.06195349 0.035288185 0.019752204 0.28641102 0.24463594 0.037926007 -0.30951622 0.49675626 -0.18948445 0.042025484 -0.090751626 0.23760149 0.1939612 -0.3483361 0.0052244514 -0.057864696 0.2618375 -0.0153099 -0.117441 0.14285503 -0.26216516 -0.012514681 -0.21602736 0.14508863 0.084540814 0.03384913 0.061036423 0.23149782 -0.7326274 -0.08124062 0.24646884 -0.07022427 0.316622 -0.043603763 -0.010762319 0.042480744 -0.32997534 -0.17914839 0.074196324 0.15272737 -0.083378695 0.00059076166 0.12123958 -0.13237506 0.025026746 0.00021339208 -0.12039335 -0.20257357 0.17444414 -0.3267124 -0.02861242
92 0.20240507 -0.04918106 -0.08138191 0.274338 0.012014829 0.5235771 -0.15899365 0.37480617 0.024625454 -0.12746659 -0.07288612 0.25174695 -0.025148295 -0.20340525 -0.22261697 -0.025766488 0.09701948 -0.17884174 0.22659309 -0.73443407 0.51052463 0.24605313 0.36787987 -0.08680348 0.10620926 0.22851744 -0.33717364 0.04874321 -0.1642945 -0.121881075 0.4344506 0.21001221 -0.25234905 0.101495326 -0.078212045 -0.08277774 0.042165004 -0.001595132 0.24933223 -0.1323508 -0.14634828 -1.4618843 -0.02682025 0.44934252 0.013210754 -0.26340002 -0.07390384 -0.06688883 0.04738431 0.027052045 -0.19697322 -0.06759138 -0.29817826 -0.29020807 0.070879504 0.14131168 0.03258709 0.028681587 -0.00929467 -0.053668134 0.032652017 -0.11895073 0.07721299 0.07575687
93 0.3855477 -0.2775893 0.045808658 0.2671834 0.23339117 0.38879478 -0.14781207 0.2104364 0.20622167 -0.32715446 -0.08303538 0.092750184 0.16021606 -0.46381035 -0.40552986 0.12539227 -0.19130424 -0.40580657 0.2316847 -0.9036468 0.50981045 0.16551492 0.4438377 -0.21539077 0.114319384 0.23441063 -0.21757902 0.24784955 -0.32944006 -0.28322083 0.50382483 0.17613389 -0.45413256 0.18283546 0.03803594 -0.10879218 -0.06733489 -0.029654589 0.1806109 -0.08455327 -0.34954968 -1.8689927 0.06902627 0.24740557 -0.10855326 -0.41497332 0.26683098 -0.12596515 -0.12969464 0.24476735 -0.39539993 -0.23209971 -0.21299547 -0.17857629 0.10870573 -0.06265287 -0.07406956 0.17613527 -0.08600088 0.097790115 0.12562847 0.01625328 0.21328664 0.037975017
94 0.02176033 0.039117403 -0.022520695 0.06765375 0.3297624 0.12348853 -0.09801437 0.12741296 0.12498201 -0.3827926 0.2712866 -0.12959749 -0.20880389 -0.16658089 0.051468045 0.016588537 -0.05640071 -0.22066489 0.20993827 -0.14649272 0.3073792 0.41319937 0.19427082 0.22699347 -0.7467576 0.16667575 -0.07395553 0.46163476 -0.106269024 -0.40498465 0.30594507 0.017808296 -0.10535951 0.3523767 -0.23610933 -0.27688217 -0.054697946 -0.0063348487 0.23026514 -0.16152057 -0.039704364 -0.780094 -0.24621153 -0.28193074 -0.2743362 0.19226466 0.22674957 0.020763142 0.17000464 -0.5603672 0.28326735 -0.05963689 0.37396282 -0.2565053 0.071658544 0.14390612 0.16572016 0.36073112 0.11011855 0.2591735 0.22621818 -0.076023735 0.23143134 0.23873581
95 -0.33725974 0.21029276 -0.5508505 0.20354497 -0.31895489 0.282386 0.93589616 0.15778124 -0.75526565 -0.22974357 0.8480276 0.2782905 -0.12523982 1.0653932 0.88955206 -0.06606277 -0.2068223 0.8688359 -0.28007612 -0.025048107 0.6733866 -0.44139794 -0.88473684 0.8480406 0.21524239 -0.8460469 -0.7054372 -0.052786008 -0.18702364 0.34643596 -0.017060965 0.54987985 -0.031140536 0.3437947 -0.9266327 0.269412 0.14976308 -0.45183924 -0.29318142 -0.369847 1.2979009 0.02420567 0.035360426 -0.046370387 -0.2704047 0.5079487 -0.38889465 -0.11960057 0.31341454 -0.4368042 0.028146952 0.77544355 0.4924736 0.29363185 0.31089053 0.088112906 -0.5332162 -0.081015155 0.62929595 0.51486105 -0.1745986 0.36255917 -1.0405767 0.109717436
96 -0.18942226 -0.41169414 -0.36979467 -0.012013078 0.13304701 0.13097057 0.11801293 0.01884497 -0.12357579 -0.015705079 0.44129068 -0.0014086738 -0.1289887 -0.29193226 -0.29310364 0.14774682 -0.20714997 -0.23856443 0.21635705 -0.43877897 0.29470307 0.19492944 0.29963005 0.03817507 0.16717717 0.17403042 -0.18385938 -0.16990158 0.109785855 -0.30350903 0.3389134 -0.050701335 -0.1538211 0.46100527 -0.13119468 -0.3623451 -0.08869663 0.18655029 0.31355876 0.27825373 -0.3038895 -0.84570086 -0.017480485 0.0061215535 -0.49044016 -0.2639769 0.2756428 -0.08243423 -0.19487731 0.13817641 0.07937063 -0.31054822 0.12506165 -0.32927844 0.60445404 -0.11759961 -0.23134235 0.10672662 0.16117634 0.10668333 0.026997112 0.23149943 0.06907895 -0.35813284
97 0.013180932 0.1261475 -0.21515921 0.39021665 -0.30444595 0.64644426 -0.09704858 0.30242318 -0.112418324 -0.0006875377 -0.026118174 0.28421074 -0.11046675 0.086964756 -0.1495228 -0.091563776 0.1513707 0.15737155 0.12665002 -0.37729394 0.47640896 0.083981104 0.1704494 -0.021320118 0.17976052 0.15641771 -0.14026669 -0.04569214 -0.17357703 0.17130853 0.25907445 0.09115881 0.076337464 0.18676656 -0.03195373 0.13535777 0.03693879 -0.0002651296 0.016282536 -0.17678587 0.08091298 -1.1241568 -0.16370323 0.41325024 0.06828828 0.026393067 -0.08281581 0.066299 0.11484139 -0.24157391 0.084461614 0.073662445 0.20259787 -0.13874398 0.02267847 0.10114483 0.047792144 -0.05274042 0.01551291 -0.029322775 0.12970288 -0.036690544 -0.0391723 0.10243413
99 -0.7402768 0.21520826 0.8909574 0.6078724 -0.24007963 -0.14854234 0.9451461 -0.43033847 0.31315446 0.03143591 -0.33759254 0.11163972 -0.3046279 0.22903419 0.3191917 -0.63177663 0.5919245 0.5670707 0.1923928 0.101503484 0.18388522 -0.1437351 0.48178577 -0.9336597 0.30397272 -0.36313266 -0.0814075 -0.11604558 -0.33629805 -0.46457627 -0.1510924 0.3135915 0.020143084 -0.5832561 -0.057967998 0.12964872 -0.09752643 -0.3582167 0.056273006 0.5473248 -0.32247388 0.022895917 0.3095278 0.32919222 -0.098839425 -0.02162736 0.3440223 0.3528426 0.33821225 -0.6040583 -0.23550753 -0.0030731894 -0.3137937 -0.089170754 1.1911142 0.6871489 -0.3534276 0.51173675 -1.0083004 -0.61518335 0.15457596 -0.27639 0.27333823 -0.19648221
100 0.035980776 0.030409232 -0.2790118 0.3282295 -0.32674947 0.5846547 -0.00916818 0.29676917 -0.13601932 -0.09875643 0.054357916 0.21963933 -0.2040436 -0.13077435 -0.06548591 -0.081137046 0.20972133 0.048939936 0.07411639 -0.5604436 0.5437649 0.20732349 0.22759888 0.066007644 -0.10682934 0.2427616 -0.041786544 -0.06378837 -0.100307256 0.17447282 0.3412223 -0.015230149 -0.09847215 0.17663212 -0.048560005 0.05732586 0.12773925 0.17270046 0.104164116 -0.08712771 0.13457419 -1.1168841 -0.12323128 0.3017218 0.1459865 -0.10518428 0.04919158 0.057786882 0.09144248 0.010554865 -0.02319849 -0.032994885 0.08237401 -0.31774664 0.04121379 0.13993639 -0.010881022 0.028576702 0.14125592 -0.12610902 0.02643186 -0.08644422 -0.08764861 -0.059541814
101 0.38672823 -0.29681388 0.19471094 0.1903535 0.50870967 0.23723564 -0.2621545 0.09752693 0.2348595 -0.43715662 -0.018575557 0.040149353 0.5241802 -0.4726755 -0.43587792 0.10188888 -0.3443002 -0.4759244 0.21921152 -0.79331994 0.40675366 0.12570533 0.64468265 -0.24282897 0.24435216 0.089353606 -0.25076273 0.28058392 -0.3920154 -0.24416134 0.4666282 0.23562753 -0.642469 0.22062984 0.061900195 -0.12052469 -0.1736589 -0.08448581 0.4144626 0.096462145 -0.4720932 -1.7070218 0.12617247 0.05811152 -0.11292021 -0.65881693 0.3106451 -0.29513386 -0.15298456 0.44406983 -0.53190917 -0.37777317 -0.2296623 -0.0016918927 0.040775143 -0.110863745 -0.041906197 0.27735907 -0.004882953 -0.04472146 0.15409717 0.17736198 0.076668985 0.02522878
102 0.20093875 -0.11178822 0.10144862 0.13899156 0.004973445 0.3113679 -0.06842352 0.17300002 0.10650004 -0.243449 -0.104859486 0.013473701 0.09361621 -0.25024766 -0.20922628 0.26534048 -0.29551664 -0.17912751 0.17388153 -0.72530293 0.4261873 -0.0049132854 0.3487404 -0.24509992 -0.040089637 0.18540661 -0.022855267 0.30601627 -0.04719366 -0.3122151 0.32901162 0.14235353 -0.19979843 0.03322012 -0.033376925 -0.032323506 -0.013619555 0.10319518 0.3680356 0.11593562 -0.27668417 -1.2821596 -0.12119358 0.122961804 -0.119957976 -0.13138622 0.094691835 -0.10134601 0.046933047 -0.04261329 -0.32889092 -0.18482623 0.12956882 -0.09043516 0.0905806 -0.12775254 -0.011180233 -0.030954957 0.14031596 -0.111669615 0.10628787 -0.018821007 0.28619337 -0.061645698
103 -0.12507984 0.36109725 -0.053565726 0.12855718 -0.018609494 0.3254299 -0.12004424 0.32633042 0.13678825 0.2259298 0.20282903 0.16406256 0.0139080435 0.48505133 0.44616437 -0.0829966 0.54905605 0.18516631 0.06270397 0.1519788 0.15167272 -0.113674775 -0.13899505 -0.029424362 -0.04635858 -0.11419082 0.0027654879 -0.12184235 0.1175061 -0.024402097 0.0074828677 -0.17204517 0.14207976 -0.069712974 -0.0550586 0.36188567 -0.046120428 -0.025707453 -0.27822033 -0.0024825903 -0.09060471 -0.17569226 -0.21079865 0.11592784 -0.24302828 0.205772 -0.3890521 0.19825095 0.015028983 -0.2235173 0.27585888 -0.028753027 0.22932756 0.0072058327 -0.07221006 -0.027799584 0.014348218 -0.31300792 0.019107424 0.12404381 0.011433775 -0.28924328 -0.06969563 -0.27574447
104 0.016706511 0.1377642 -0.37323457 0.4102816 -0.3002374 0.56848407 -0.08751124 0.30392075 -0.17267768 -0.039299447 -0.18645091 0.3284068 -0.08972165 0.050659113 0.18696518 -0.35283506 0.09386189 0.086099155 0.041362908 -0.27380756 0.39295477 -0.087218314 0.037193894 -0.06993425 -0.059708983 -0.0408781 0.009168584 -0.38763654 -0.011748215 0.41558522 0.110804394 0.062305182 0.049465552 0.282183 -0.15419586 -0.19127634 0.09418514 0.14605416 -0.12341928 -0.18548217 0.12843248 -0.65063596 -0.085215434 0.09392673 0.09428563 -0.07010042 -0.12200183 -0.23798522 -0.061900876 0.09083573 -0.0047352836 -0.16470508 -0.14653337 -0.0026007127 -0.19937667 0.27563515 -0.016496591 -0.012796443 -0.34664825 -0.14112616 0.24630281 -0.0582083 -0.15369815 0.10947128
107 0.060002834 0.02448539 0.017513901 0.2943589 -0.35487342 0.51394475 -0.15765622 0.25234148 -0.11259486 -0.0030428693 -0.2727753 0.192979 0.0045260005 0.016859632 -0.06528399 -0.10857499 -0.018102065 -0.07451631 0.09185684 -0.3694059 0.39936468 0.06156971 0.27811578 0.04554542 0.0150195025 0.15266064 -0.0845844 0.032447178 0.14225373 0.078553274 0.14026621 0.22010553 -0.06098418 -0.008394346 -0.12412656 0.23668042 0.13299587 0.11112715 0.07574047 -0.037194878 0.031232864 -1.0435398 -0.14535484 0.59511083 0.074525125 -0.103538916 -0.018573936 0.08087875 0.07678964 -0.04689913 -0.11849876 0.005344417 -0.011140833 -0.2561714 -0.06440449 0.14785552 -0.041364595 -0.16166806 0.0931772 0.02179351 -0.0022095293 -0.043442287 0.032873873 -0.04447691
108 0.3508854 0.1379188 0.054291066 0.1493733 0.15799375 0.26751557 0.10180836 0.15105626 0.17121965 -0.18791594 -0.07283008 0.17548895 0.019663237 -0.12855692 -0.3123727 0.11374377 -0.29696554 -0.33704388 0.21218923 -0.6739133 0.3543788 0.11806029 0.2293571 -0.17160153 -0.0294782 0.28585234 -0.19491139 0.17459355 -0.20357732 -0.27845925 0.40896448 0.12400965 -0.39903057 0.06545144 0.055557445 -0.30356506 -0.048880935 0.2982278 0.17148905 -0.10751714 -0.1588668 -1.3127328 -0.058914986 0.33966795 -0.064663135 -0.38816795 0.2679277 -0.131109 -0.013640631 0.21470279 -0.42104822 -0.28228873 -0.12326415 -0.18518093 0.115001954 -0.0931088 -0.0030700415 0.21129966 0.056323946 0.16884172 -0.021686323 -0.0070886165 -0.04482545 0.08195607
109 -0.3316485 0.103452995 -0.18090998 -0.005411729 0.14145589 0.30767766 -0.19847332 -0.13113083 -0.11383435 -0.14613368 0.04702278 0.0434146 -0.31734413 -0.168737 -0.3014083 0.3428972 0.1476755 -0.08530199 0.07955836 -0.7640052 0.25048113 0.063809246 0.09794358 -0.10592199 0.24768615 0.19770202 0.17935902 -0.13708635 0.21530941 -0.08303228 0.339657 0.25715023 -0.18086761 0.22308072 0.17966786 0.16444132 0.07408449 -0.051653363 -0.2544418 0.23410529 -0.07624935 -0.8031605 -0.35189912 0.058148682 0.07362786 -0.21139343 -0.24204233 -0.32070425 0.16353552 0.23817639 0.022492543 -0.16478571 -0.16777155 -0.19344677 -0.17681606 0.15492928 0.2919087 -0.13535006 0.07230032 -0.13354146 -0.033031404 0.26549998 0.035148274 -0.017602637
110 -0.2311532 0.26005873 -0.15755904 0.52275807 -0.20678514 0.6896628 -0.36116293 0.42749593 -0.2761484 -0.0028729532 0.12521975 0.5359778 0.18175352 0.45339894 -0.0011874065 -0.59644115 0.04555165 -0.0030208305 0.036769204 -0.25170767 0.59822667 0.04279817 0.3413854 -0.0982431 -0.2180208 -0.050675165 0.11245446 -0.50659513 0.17478302 0.6485874 0.53502506 0.12587482 -0.010066942 0.11326798 0.02419949 -0.2218794 -0.15576163 0.15541068 0.066997275 -0.34077978 -0.123562746 -0.47709244 -0.36172166 0.51374036 -0.06411235 0.008395486 -0.07130559 -0.5947033 0.13034709 0.1372184 0.28170803 -0.08053814 0.008893758 0.188329 -0.048382178 0.1004362 -0.16332014 -0.11049512 0.24720335 -0.19038656 0.09423379 -0.18548003 -0.32112205 0.31676084
111 -0.18776143 0.07234849 0.16190244 -0.11807722 -0.20101185 0.4779553 0.36813492 -0.11432122 0.430638 0.0498897 0.09391612 0.4515432 -0.60894287 -0.046367943 -0.15745838 -0.34761012 0.2021343 0.40448272 0.32122886 -0.012685403 0.26827383 0.1875412 -0.05283037 0.054585174 -0.1139456 -0.01868245 0.2852992 -0.36082417 -0.35457274 -0.26876765 -0.034658365 0.68647707 -0.05329725 0.022153702 -0.13323803 -0.60505444 -0.19173886 0.14660811 0.12846358 0.045925498 -0.21008664 -0.38344672 -0.16803443 0.08830902 -0.097467035 -0.08944324 0.03890695 -0.43197682 0.7025796 -0.031288825 0.17670874 -0.069102325 0.34641033 -0.06770551 -0.354851 0.22726117 0.31486905 0.121759094 0.24450482 0.098134756 0.87420255 0.11418692 0.21675417 0.19458774
112 -0.32735667 -0.019928738 -0.31547487 0.20271593 -0.34483868 0.5923619 -0.32775822 0.30203518 -0.30445188 0.077119656 0.3837663 0.13929752 -0.30408612 0.4063191 0.40764958 -0.26289055 -0.116814345 0.4619569 -0.13597004 0.19865978 0.19771366 -0.027298853 -0.108307645 0.25204378 0.23033558 0.034369223 -0.397187 0.110349104 0.020920362 0.4756919 0.19731833 0.03596245 0.25636822 -0.009511016 0.12320995 -0.13675204 0.10643487 0.119122185 -0.10949922 -0.17608352 0.29548925 -0.348063 -0.26291353 0.67168075 -0.10613926 0.22486858 -0.23070638 -0.024463056 0.17703056 -0.16798544 0.052387804 0.6508532 0.85221946 -0.08663905 0.12023117 0.13805506 0.066299535 -0.17114782 0.38814208 0.117173254 -0.0552791 -0.12195668 -0.37170613 0.29974955
113 -0.090209186 0.054415733 0.13714637 0.26851362 -0.4802838 0.3856602 -0.037265733 0.554855 -0.31919456 -0.117640875 -0.15095773 0.022245511 0.38146544 0.33192557 -0.17021349 0.08214787 0.09337654 -0.029542595 0.4301625 -0.24397175 0.17721955 -0.00041115098 -0.1551058 0.15367892 0.42189533 0.053164396 -0.02333732 -0.08083721 0.11142675 0.3051659 -0.25135395 -0.10358052 0.12155133 0.3581267 -0.19569726 0.08228682 0.11631482 0.7129439 0.3221663 -0.40781856 0.07561721 -0.47946817 0.089796856 0.10312188 0.33109635 -0.19049996 -0.57975906 -0.46387395 -0.053524196 -0.24831502 0.041140124 -0.053381324 0.1911547 -0.34642413 0.15549448 0.15569137 -0.0726051 -0.69014466 -0.28601408 -0.28631008 0.12795623 0.09889344 -0.49585482 0.15040061
114 -0.26419497 0.15724245 0.6154192 0.57231635 -0.21437335 0.21167555 -0.2335814 -0.3088125 -0.57369405 0.8028468 -0.19031483 -0.42258286 0.25115392 0.24154928 -0.7395066 -0.13562475 -0.7970344 0.46303523 0.5585853 0.43410143 0.1365158 0.2956816 -0.036973156 0.055061832 -0.30126944 0.12986317 0.54296696 -0.18232122 0.33317974 0.27631617 -0.1232298 -0.24553856 0.23461288 0.84746265 -0.53319395 -0.26806933 -0.38143975 0.014021248 0.22904882 -0.2776111 0.20415267 -0.50958633 -0.82282186 0.5143433 0.11905287 -0.044895373 0.4150479 -0.38818857 -0.7062698 -0.10387045 0.3654344 -0.20796873 -0.09423318 0.10999287 0.041327596 0.26890218 0.09402162 -0.24617991 0.57236236 0.06859735 -0.33844265 -1.0589205 0.28335792 0.11840017
115 -0.15155631 0.089187406 -0.46950397 0.16974342 0.22873019 0.3313266 0.07176988 0.04204917 -0.07438842 0.13145609 0.5037746 0.020657793 -0.03567624 0.17600718 -0.2238455 -0.19457684 0.15643668 -0.0042616725 0.2073141 -0.34632978 0.17464492 0.13872789 -0.100149885 -0.27535662 0.1508375 -0.012467839 -0.12150534 -0.24552605 -0.47593778 0.096857205 -0.030178018 -0.45790938 0.18290362 -0.10431898 -0.3235011 -0.25246298 -0.07727602 -0.092752956 -0.068403944 -0.27388373 0.0631676 -0.5864637 -0.1039763 0.4456349 -0.26182944 0.07428158 -0.16419539 0.009765543 0.061870225 -0.49668998 -0.044824384 -0.10839448 0.25112998 -0.43605828 -0.06516938 0.13804477 -0.09762193 -0.19933069 -0.6372068 0.2156192 0.16209143 -0.09074503 -0.21329616 0.18549082
116 -0.09470269 -0.12570174 -0.1713126 0.27573615 -0.13272451 0.40021124 0.0028840452 0.4906054 -0.039419316 -0.2640762 -0.013187656 0.27651963 -0.080331996 -0.061776828 -0.005593909 -0.077121 0.04755381 0.14363126 -0.01792406 -0.16804132 0.23854372 0.21252456 0.21815373 -0.043629877 0.015916789 -0.13812232 -0.028118785 -0.1082411 0.05762072 0.090558745 0.2486889 0.3737322 -0.09772415 0.27714044 -0.23791023 0.063481726 -0.07805139 -0.0006163996 -0.11878563 -0.012473743 -0.01848428 -0.6378417 -0.1649757 0.15249152 0.12491542 -0.03442821 -0.1219291 0.10614589 -0.2741167 -0.3233043 0.07030349 0.006939085 -0.24549028 0.12440729 0.05186348 -0.15892793 -0.1324101 0.19388576 0.13594885 0.18016577 0.034953725 0.1133214 0.11301955 0.092193924
117 0.346762 -0.3601948 -0.38663968 -0.013379365 -0.05223398 0.23656887 -0.68439883 0.32004088 0.24348588 -0.24490091 -0.12534216 0.18832469 0.094703205 0.5095899 -0.30363366 -0.1721065 0.49704707 -0.15424961 0.031171536 -0.45383537 0.10015932 0.2599954 -0.07482298 -0.15254225 0.14509691 -0.034784943 -0.5556724 -0.028999208 -0.03171021 0.13690452 0.20603299 -0.16810864 0.031638585 0.42310023 -0.021469366 -0.24519402 0.037356317 0.35289937 -0.027656458 0.21914753 0.2689884 -0.4332772 0.16143133 0.29441488 0.21092875 0.10012181 0.051861748 -0.3330879 0.34602857 -0.36404747 -0.6247488 -0.17233148 -0.35503948 -0.059491523 0.36319256 0.4608363 -0.14712289 -0.3830774 0.0032200143 0.36821795 0.36497903 0.08901983 0.532904 -0.11700272
118 0.070420705 0.20999254 0.05323544 0.23214741 -0.12907642 0.504417 0.007567279 0.18649392 -0.18212898 -0.094033964 -0.05215701 0.24256894 -0.33064488 0.28249785 -0.12683833 -0.072424814 -0.0067561865 -0.056212142 0.082834505 -0.3713864 0.35306317 0.21421984 0.17816788 -0.05620216 0.12875 0.15881091 -0.37533242 0.012459308 0.18054292 0.090223506 0.15214598 0.07940372 -0.013538903 0.13210124 -0.04815215 -0.026210343 0.07733 0.02225557 0.18469782 0.20059316 0.19871144 -0.8719796 -0.1060512 0.3458489 0.024669945 0.06275079 -0.07758449 -0.021637289 0.12445013 -0.079547465 0.08990617 0.037858903 -0.013638157 -0.26692337 0.05562232 0.07191762 -0.23396732 -0.058769546 -0.018422086 0.1833547 0.1683866 0.06733114 0.026499905 0.1394969
120 0.22679012 -0.096268736 -0.059605222 0.5576132 0.14166194 0.6368543 -0.29415122 0.2999971 0.010221287 -0.33091563 -0.02083284 0.3211797 0.34833813 -0.1852225 -0.1934609 -0.28915316 -0.3527981 -0.35406598 0.20820001 -0.7054784 0.6178246 0.15477541 0.5565027 -0.20021538 0.0017426014 0.030458037 -0.12371506 -0.14524396 -0.24152035 0.11176066 0.603268 0.14530684 -0.38984483 0.1500358 0.09454415 -0.17075704 -0.22648802 0.021834554 0.46741265 -0.092765085 -0.39516953 -1.595066 -0.06682616 0.32341442 -0.11687071 -0.25778934 0.10689462 -0.32581693 -0.08157066 0.34679285 -0.18169792 -0.18923917 -0.20148051 0.111227155 -0.10483822 0.013187512 0.06294026 0.32454112 -0.0038843844 -0.06717804 0.22696252 0.04444459 0.067941934 0.15991294
121 0.08654462 -0.16399652 -0.15380661 -0.006919302 -0.32387072 0.2838389 0.21088047 0.3523906 0.07093698 0.13186191 -0.07946488 0.15641621 -0.30136412 0.17101339 0.07722046 -0.003371507 0.17219917 0.17595218 -0.025524085 0.044018626 0.16114485 0.20784625 -0.115224235 0.12876913 0.11723053 -0.031236887 -0.29265365 0.14660688 0.10819752 0.09977795 -0.2260895 0.10608229 -0.0032965466 0.0058787446 -0.26392466 0.19973868 -0.067965135 0.0049690194 -0.009910796 -0.06128667 0.0230816 -0.31748092 -0.1885159 0.18476105 -0.106746815 0.17053954 0.036650136 0.14634936 0.030114137 0.12769502 0.023220195 0.07887185 -0.010874044 -0.14032924 0.19889912 0.2900284 0.08949362 0.02713947 -0.28611967 0.099658 0.047639277 0.09564264 -0.25509587 0.17138804
122 -0.35192132 0.07813029 -0.407377 0.6282884 -0.4491444 0.5073613 0.24635115 0.35099304 -0.02658017 0.14515285 -0.017795512 0.22322282 -0.22356609 0.10849309 0.32191148 -0.26764858 -0.013399467 0.19501488 -0.0124534 0.1512109 0.3020823 -0.05206295 -0.20630577 0.099555835 -0.040521394 0.05743295 0.3372735 -0.16518122 -0.017515263 0.08909882 -0.06332464 -0.11913855 0.30379835 -0.29477578 -0.04138061 0.24695584 0.16055161 0.07300177 -0.2649842 0.36466742 0.5564285 -0.36040896 -0.10998794 0.28592288 0.26615703 0.5738905 -0.33215737 0.37936068 0.31119603 -0.45691806 0.2563 -0.037219852 0.33046633 0.17143688 0.022708457 0.13045265 0.012529807 -0.28771603 -0.08349 0.18748654 -0.06832634 0.13812312 -0.060686745 0.2094481
123 0.22435588 -0.34448758 0.33430353 0.18938604 0.31735617 0.13439707 -0.12035542 0.04607799 0.024971634 -0.2306064 0.19763103 0.008237015 0.22498436 -0.5693294 -0.33837858 0.132387 -0.17416301 -0.40500596 0.09534543 -0.5170822 0.3135083 0.12812085 0.41634595 -0.20865548 -0.19732022 0.23254868 -0.10297565 0.5279269 -0.42365187 -0.3282598 0.3951865 0.081700414 -0.48820382 0.37119675 0.05349405 0.014910102 -0.20257062 -0.3636258 0.23986915 0.046707936 -0.37054938 -1.3231966 0.226612 0.075295694 -0.097209126 -0.6194805 0.4818948 0.006372854 -0.22584732 0.16101447 -0.44251025 -0.023164853 -0.49882066 0.013843901 0.051207066 -0.09536836 0.00038663857 0.45238388 -0.15517616 0.26803857 0.014208451 -0.013071418 0.39036274 0.038456738
125 0.09169908 -0.056613393 0.198905 0.076435365 0.06904079 0.33337563 0.0050065145 0.29112265 0.14391956 -0.25356644 -0.064730555 0.15682982 0.12748112 -0.41130877 -0.30947587 0.11320192 -0.07400825 -0.29562578 0.1998527 -0.66501313 0.23961733 0.21948713 0.35215622 -0.011939101 0.035829164 0.21151502 -0.209044 0.3039594 -0.28729138 -0.2426081 0.33876896 0.39261672 -0.29327065 0.081192926 0.06692906 -0.109480366 -0.029498372 -0.061181836 0.098741576 0.19091967 -0.12611112 -1.2802826 0.01644453 0.095458284 -0.18342368 -0.18562254 -0.01695925 -0.33224657 -0.01785395 0.020816214 -0.1963642 0.018428892 0.08673841 -0.13815637 0.14919214 0.061936434 0.12870327 0.27922034 -0.08808161 0.10146806 0.050769836 -0.07157395 0.15299988 0.111787066
126 -0.038185775 0.17694104 -0.6159133 0.06319603 -0.38577434 0.425875 -0.0751663 -0.47978246 0.2579451 -0.56899047 0.056324676 0.79704 0.18703023 0.5785843 -0.13520013 0.05650258 -0.36826545 0.4880237 -0.42604312 0.47982734 -0.053500414 0.2513216 0.23025456 -0.10407743 -0.56874245 -0.5978972 0.56082016 -0.5374804 -0.6456674 0.54738194 0.18886207 0.6649612 -0.18680511 1.0459489 -0.4491232 -0.303449 0.051924467 0.34815302 -0.70967376 -1.1798563 0.4182392 -0.056560166 -0.54565966 -0.1851104 -0.37568128 -0.36309454 0.19068223 0.12526914 -0.018604666 0.23504283 -0.23217243 0.2932886 0.3692642 0.5793078 0.074100554 0.043158494 0.44230354 -0.38859785 -0.7449978 0.18358172 0.25466412 -0.21282516 0.12033598 0.30324984
127 0.22970729 -0.08839874 -0.06773657 0.3301068 -0.05225902 0.474357 0.07953444 0.23192349 0.080191255 -0.25041956 -0.22102122 0.16998482 0.055664293 -0.021982148 -0.3538965 0.0104808835 -0.04694899 -0.047787778 0.1625479 -0.50652826 0.481972 0.20746863 0.2197112 -0.11864441 0.052259833 0.19753747 -0.17328952 0.18987215 -0.27108184 -0.060698643 0.35489833 0.16316545 -0.17186403 0.22128147 -0.13260463 -0.094036974 0.02085624 0.00077528507 -0.09340388 -0.0053831358 -0.05209487 -1.3758273 -0.014822263 0.22734292 -0.054352373 -0.13057342 0.2751121 -0.007672796 0.026219876 -0.008976348 -0.1813645 -0.117056794 -0.10444589 -0.23122415 0.011641979 0.093135595 -0.08677726 0.016351424 -0.058522023 -0.102101505 -0.022595301 0.03228147 0.11298055 -0.0077947825
128 -0.008606458 -0.11973798 -0.2732408 0.6301523 -0.41995755 0.97349757 -0.21661323 0.46360314 -0.019284617 -0.04594796 0.0006422866 0.36471206 -0.20101814 -0.011617427 -0.06668072 -0.30014318 0.022000281 0.21347679 0.16199227 -0.54265314 0.7319815 0.09694819 0.14516622 -0.10013263 0.09327169 0.13766937 -0.087251544 -0.04747255 -0.3466999 0.14807327 0.38689053 0.06282514 0.051119894 0.25955898 -0.05596674 0.14453672 -0.009903619 -0.16154282 -0.048410047 0.004863829 0.14924698 -1.7252946 -0.29510972 0.45850372 -0.017976215 0.04151268 -0.15764707 0.018085089 0.08429389 -0.24430656 0.0642206 0.0330322 0.053874854 -0.058113873 0.020413157 -0.024351746 0.07431682 0.05962625 0.06387781 -0.0201927 0.22726732 -0.028022695 0.03384153 0.13690042
129 -0.0979948 0.18819433 -0.43144923 -0.006402135 -0.16084445 0.45150796 0.24334924 0.40147617 -0.2460469 0.29676923 -0.097073644 -0.029739961 -0.27283913 0.047646955 -0.3173907 -0.20073022 -0.16894773 0.19867466 0.067608565 -0.3583465 0.09829688 -0.02862171 -0.22149724 0.057364106 0.34107757 0.16094957 -0.08730884 0.000755189 -0.04764582 0.22310655 0.24341634 0.07708166 0.19463761 0.28139988 0.39255357 -0.16984485 0.17688431 0.13429931 -0.72069365 -0.43789586 0.4725539 -0.59001297 -0.03847804 0.1728785 0.31302854 -0.06796245 -0.052295327 -0.16898537 0.07399148 -0.28175947 0.26956603 -0.31275004 0.2360765 -0.14036578 0.028978482 -0.006808266 0.09930867 0.06419577 -0.15504225 0.24380541 -0.37821764 -0.1295569 0.058656093 0.15635702
130 0.3083982 -0.009000719 0.033098064 -0.059556663 0.31172684 0.21760811 -0.056955956 0.15432501 0.276101 -0.1151992 0.2153104 -0.23687553 0.005892232 -0.5180595 -0.002230987 -0.009602994 -0.4413176 -0.20915762 0.12178906 -0.3762954 0.31242812 0.23002785 0.3722249 -0.20423687 0.065243945 0.17024629 -0.28621644 0.4445988 -0.33214808 -0.120816626 0.18606943 0.2546352 -0.41196042 0.015143488 0.21645255 0.08017963 -0.32079768 -0.121991836 -0.056300536 -0.29494554 -0.043089435 -1.028226 -0.16431391 0.2778458 -0.09061851 -0.31007543 -0.029535338 -0.08135651 -0.29135662 0.54003763 -0.35294312 0.05243969 0.07111217 -0.23710468 -0.32231978 0.18601489 0.33139476 -0.11907783 -0.27634874 -0.020899348 0.07156698 0.31339797 -0.08432281 -0.35050425
132 0.12387511 -0.13543284 -0.4235866 0.16034321 -0.032549754 0.31587207 -0.08336322 0.21333395 -0.15354183 -0.15417257 -0.0289476 0.16643675 -0.1947124 0.21778747 -0.18752635 0.1252448 0.16348624 0.030300882 -0.025223374 -0.42911357 0.33487663 0.2831133 0.0031869262 -0.20303605 -0.43458158 0.24370977 -0.33541462 -0.13379842 0.13778064 -0.10970409 -0.06299965 0.14213313 -0.047857516 0.20813578 -0.11493732 0.062158685 0.11486436 0.37065774 0.011190824 0.38785076 0.21456707 -0.7480982 -0.28195062 0.11983456 0.042076394 -0.18246116 -0.23536542 0.20318545 -0.036277693 0.09737297 0.17199478 0.06646891 -0.76496917 -0.56739455 2.2366643e-05 0.086969756 -0.31805012 -0.23085584 -0.034825914 0.026665993 0.14234507 -0.012025022 -0.18055122 -0.19665271
133 -0.099062085 -0.1293192 -0.3131944 0.3553052 -0.30196515 0.37851188 0.14646533 -0.15533122 -0.012678828 0.09441604 -0.38089707 0.091562875 -0.20848921 -0.022965293 0.048471987 -0.17961964 0.06567347 0.22392377 0.10206056 -0.35688004 0.22413953 0.0116760135 0.043185223 -0.09486696 -0.31488997 0.10398974 -0.13628316 -0.053451948 0.20765102 0.21428478 0.32384294 0.041008182 0.06854309 0.10796422 -0.19505085 0.035082128 0.069505125 -0.08399071 0.012215123 0.06877041 0.050018854 -0.7201874 -0.057815634 0.25483006 0.011938805 0.19057652 -0.22598523 -0.2918038 0.15297946 -0.17189097 0.040311426 0.13256036 0.14280404 0.06404506 0.03261897 0.19152933 0.12905023 0.058003478 0.3878144 -0.28213373 -0.033906724 -0.15774871 0.03274703 0.2153411
134 0.23326622 -0.31675905 0.0032353005 0.482346 0.11759 0.6064609 -0.1957523 0.23225121 0.19305696 -0.29811817 -0.044791874 0.15135793 0.13150458 -0.4193157 -0.28237584 -0.12711076 -0.38620162 -0.31726056 0.23612502 -0.8044777 0.6492685 0.22833556 0.4578197 -0.2779331 0.10727044 0.18033463 -0.19624338 0.15878919 -0.44595122 -0.1893187 0.55495113 0.16552354 -0.3733877 0.19119582 0.11022282 -0.06447523 -0.124171026 -0.13428989 0.20480315 0.02096919 -0.27827618 -2.0413146 -0.009114299 0.24418177 -0.16623062 -0.32818127 0.12433917 -0.13653177 -0.17064135 0.20040955 -0.29580215 -0.17342992 -0.08859657 -0.026379576 0.03194648 -0.07159934 0.02209873 0.36834028 -0.012223482 0.039437026 0.3164656 0.039652277 0.2592841 0.06660681
135 -0.01953645 0.13174236 -0.60633576 0.25650236 -0.41893318 0.4823212 -0.17871892 0.07079093 -0.059343837 0.05879301 0.025157616 0.14631736 -0.037843242 0.27475676 0.35933554 -0.24529313 -0.20210744 0.38437057 0.008228194 0.046928577 0.19553806 -0.029069688 -0.14362824 0.043899443 -0.0534333 0.1385645 0.007854134 -0.3133825 0.034412496 0.13243121 0.15086578 -0.21617012 0.29665124 0.1526854 -0.15819272 0.0032010376 0.06784377 -0.19197007 -0.022371411 0.03392419 0.060983658 -0.4658686 -0.16040358 0.32502392 -0.021884363 0.12851357 -0.17417929 -0.109825015 0.01675786 -0.32526648 0.1978651 0.19054067 0.30783796 0.17392945 -0.22161902 -0.011224996 -0.05121032 -0.12804559 0.118184865 -0.061619718 -0.07167737 0.074570626 -0.19247533 0.32371488
136 0.27536777 -0.18904135 0.24193934 0.2825692 0.4592183 0.14154051 0.018110596 0.21898761 0.16834652 -0.23246826 -0.018466653 0.09256098 0.19590342 -0.38892475 -0.09253277 0.1339455 -0.15342337 -0.085715964 0.12704444 -0.61607456 0.28470752 0.31371868 0.391122 -0.009022638 -0.06754043 0.2611696 -0.20692246 0.32217997 -0.59805655 -0.33995688 0.44080508 -0.18314324 -0.40666866 0.5228056 0.02888024 -0.15573028 -0.10393658 -0.053763516 -0.1874451 0.10209482 -0.15088326 -1.1046393 0.0055192783 0.23415294 -0.08630993 -0.36681587 0.2228305 0.060599186 0.13623853 -0.07570945 -0.48068392 0.121684924 -0.20265783 0.29348215 0.18609048 -0.041738283 -0.22898483 0.34786224 -0.35676578 -0.03448019 0.09205188 -0.22818166 0.2974525 -0.04334645
137 -0.21131021 0.03205088 -0.296678 0.42067787 -0.4323315 0.72921085 -0.08420962 0.34375963 -0.09247823 0.056003097 -0.0667828 0.24370171 -0.19656941 0.1404171 0.070701286 -0.28220463 0.20060945 0.26798233 0.055212796 -0.26687345 0.4813869 -0.024741057 0.043846235 0.030995378 0.047805093 0.055539005 -0.063953325 -0.15373571 -0.1440248 0.24423043 0.23257083 0.057574484 0.16706651 0.18498419 -0.063244596 0.124000415 0.021286001 0.017185824 0.055907518 -0.094550505 0.22307296 -0.90719146 -0.26849696 0.24188696 0.11930241 0.16107911 -0.2109285 -0.004548173 0.12866852 -0.18397677 0.17590289 0.13051815 0.2068615 0.053757504 -0.09161837 0.043681562 0.026735095 0.021371432 0.025870603 0.034788683 0.1091449 -0.07587973 -0.0381196 0.035550103
138 -0.34876972 0.09227209 -0.18234992 0.3292175 -0.3739175 0.61635154 0.053892165 0.09331787 0.026317712 0.048790164 0.10868659 -0.037674174 -0.08294645 0.16426398 0.25683373 -0.0072256476 -0.07444461 0.3965152 -0.07138415 -0.18679073 0.40538275 -0.013618879 -0.011367869 0.053522322 0.09260747 0.05712149 0.014641423 -0.19677955 -0.23977813 0.0984308 0.21171704 0.09128203 0.22900069 -0.14539695 -0.1261018 0.28302318 0.10062448 -0.20191428 -0.30385888 0.1522797 0.36394507 -0.5203562 -0.28892386 0.1586227 0.10908224 0.093747675 -0.28854626 -0.016451169 0.11026643 -0.27038673 0.21728106 0.16913415 0.164082 -0.042091105 -0.03388691 0.13622974 -0.07936858 0.12966077 0.2662366 0.06097552 0.123651735 0.007982597 -0.0671376 0.2289782
139 0.105275154 0.19545445 -0.2596953 0.109861724 0.39006275 0.25282753 -0.03547412 -0.30010206 -0.12673911 0.008761335 0.5785016 0.1587031 0.028042845 -0.11541476 0.23068322 0.29021725 -0.40877056 -0.049476616 0.054388784 -0.47952992 0.2867503 0.026715169 0.33839986 -0.3717152 -0.3475152 -0.23683758 -0.6838639 -0.13074386 0.06853698 -0.1885309 -0.031663552 0.106995195 -0.25461036 -0.20380582 -0.24344335 -0.23728509 0.074097514 0.08636878 -0.073108256 -0.41903517 -0.09508945 -0.48852795 -0.06439476 -0.61568695 0.30312845 -0.5882818 0.045549653 -0.050629698 0.40209827 0.03427083 -0.15199327 0.13479176 -0.54443777 0.18815942 -0.077898785 0.6854593 -0.32417464 -0.29698646 -0.5016566 0.5646429 -0.13176224 0.037570328 0.000564578 0.28277284
140 -0.36311072 -0.46842155 -0.039429933 0.2421071 -1.0053627 0.15304443 0.27633363 0.117086105 -0.35490733 0.30482095 0.21798708 -0.039900556 -0.9323466 0.1628683 0.89303243 -0.33439776 0.37437052 0.28355706 -0.13681431 0.08468248 0.166445 0.096690014 -0.4142762 0.032036945 -0.31949505 -0.0012027323 0.525663 -0.37635365 0.3725983 -0.08066188 0.40932736 -0.102718875 0.31606412 0.35367563 -0.43001512 0.22647238 0.21320462 0.03573002 -0.64233196 0.35016313 0.47082084 0.26037514 0.14282826 0.070662044 0.35024926 0.4612506 0.2965951 -0.3057381 0.076844215 -0.16206107 0.20732069 0.3695875 0.5848657 -0.3529431 0.05035641 0.27841502 0.24509259 -0.30822316 0.23470801 -0.08810584 -0.15476899 -0.42969546 0.073149756 -0.54696167
141 -0.47754455 -0.31066078 -0.44012707 0.23757909 -0.12137911 0.049596135 -0.028048284 -0.1058827 0.039970882 0.01409848 0.11610829 -0.1573259 -0.20952266 0.039655656 0.080828875 -0.22422227 0.16557759 0.15197745 -0.277496 0.23443572 -0.0707696 0.018093146 -0.102611095 -0.008497328 -0.024341648 -0.2848989 0.19849536 -0.111215584 -0.035490848 0.29802445 -0.06572893 -0.120038666 0.18147063 -0.18601407 -0.14217553 0.11313072 0.11459315 -0.18810351 -0.17314361 0.18313587 0.23191139 0.276066 -0.06016266 -0.18140179 -0.01757477 0.23285662 -0.19623904 -0.07876011 0.032762907 -0.04477087 0.37924302 0.49222964 0.0868904 0.058913507 -0.37858444 -0.21879652 0.22775137 0.15736926 -0.0012265146 -0.04062599 0.19192691 -0.04079385 -0.076667376 -0.2841198
142 0.118559405 0.46470004 0.2210551 -0.22483642 -0.26089138 0.40098026 0.1475468 0.22302997 -0.055687394 0.09797822 0.261746 0.29593 -0.2931288 0.32409534 0.28210744 0.037115306 0.1673968 0.42878783 -0.12987125 0.14198528 0.5831677 0.1433087 -0.53446615 0.15368254 0.083352 0.032693263 -0.21892498 -0.18129377 0.14149153 0.093951 0.35653937 0.8250256 0.23657437 0.11555362 0.034495503 -0.027398512 0.16309312 0.3159536 -0.031862833 0.2804598 0.50342274 -0.23771286 -0.18760478 0.5045674 -0.21684696 0.11378094 -0.4257582 0.20433898 0.1655448 -0.0044638067 -0.40903774 -0.47604972 0.551147 -0.25427437 -0.023094438 0.27421778 -0.20497929 0.08628635 0.4796607 -0.36241755 -0.24104515 0.3434204 -0.31544203 0.15002368
143 -0.026758399 0.18770984 -0.19123305 0.011029214 -0.13272732 0.37785766 -0.2158162 0.22510523 0.0545118 0.052012235 0.03585904 0.120948434 -0.014164522 0.014313772 -0.2416929 -0.12599863 0.18401599 0.3926133 0.10239489 -0.011436552 0.21851338 -0.06472186 0.2825694 0.2374635 0.19580185 0.12055819 -0.17049551 0.009341724 0.06683003 0.10834982 0.3644907 0.38195166 0.034807436 -0.19145918 0.09653484 0.24648169 0.04073224 0.15892327 0.1568355 -0.049452227 0.106717385 -0.588893 -0.17933632 0.81613016 0.59035605 0.20801517 -0.46776736 -0.074414164 0.11139937 -0.20959523 0.38439485 -0.06430657 0.046341572 0.060490757 0.01047137 0.20111167 0.0584694 -0.21546178 0.2766971 0.37630308 -0.07798468 -0.1624742 -0.16274801 -0.1701248
144 -0.06409438 0.04590839 -0.42424205 0.4779391 -0.39364818 0.7745646 -0.42760468 0.4497049 -0.3283817 -0.21767212 -0.014375601 0.47800317 -0.06062822 0.23740378 0.070873454 -0.36894083 0.2586001 -0.038375918 0.07679889 -0.42757505 0.5747444 0.16016981 0.40633583 -0.025309062 -0.1468646 0.05803968 0.09707018 -0.5055726 0.13271858 0.6077981 0.43041825 0.0702362 0.049967855 0.12429372 -0.08936546 -0.14169769 0.03574671 0.21709222 0.3626889 -0.35677093 -0.04082494 -0.8455977 -0.19100635 0.65332264 0.21350068 0.10958867 -0.0029988699 -0.29470342 0.16538231 0.096730545 0.018675692 0.052836265 -0.2094821 -0.10406881 -0.17002831 0.21666531 -0.12227765 -0.13271984 0.09187505 -0.18039356 0.16368105 -0.1471436 -0.16056043 0.25510097
145 0.052404776 0.27844062 0.15724175 0.2597466 0.3248369 0.23291586 -0.23224138 0.38932613 0.11032042 -0.1662656 -0.19353294 0.10365975 0.27095026 -0.38861394 -0.24420138 0.087432384 -0.14246419 -0.2965378 0.17779529 -0.4779588 0.35863474 -0.05854693 0.48989937 -0.15509836 -0.17959945 0.130763 -0.08048441 0.27884635 -0.2013509 0.017144948 0.36247116 -0.10388489 -0.2409226 0.06779314 0.045737963 0.13973299 -0.10935795 0.18553299 0.12195037 0.19137208 -0.28398222 -1.0466971 -0.15865 -0.008207589 0.12622508 -0.1565698 -0.14454387 0.067292735 -0.12576392 0.28020483 -0.37288344 -0.19012576 -0.22320771 -0.14360532 -0.07070409 -0.016724445 0.18134116 0.10899764 0.24463426 0.07697168 0.24647501 -0.031212822 -0.11419979 0.23573756
146 -0.13380866 -0.48095584 -0.014378643 0.10172287 -0.08015891 0.027636155 0.24120149 0.22087872 0.27454686 0.24926598 0.3411954 0.10188461 0.049690425 0.03669712 0.23933713 -0.0690902 -0.16357404 -0.018672362 0.24306251 -0.28499416 0.07341057 -0.14790145 -0.05796525 0.23043811 -0.67963153 0.30890554 0.12437396 -0.4004231 -0.049678512 0.82430965 0.20506744 0.2278634 -0.22719896 0.046722528 0.06721342 -0.2778858 0.10949979 0.31983453 0.11318168 -0.3215144 -0.14029132 -0.6183798 -0.058267683 0.0016293004 -0.4909643 0.16722068 -0.27254176 0.035852626 0.002565764 -0.19983849 0.012117326 -0.433571 -0.03377119 -0.1495427 -0.1831126 0.34937912 -0.009897327 0.64842 -0.39732173 0.3048465 -0.17478417 0.16665462 -0.34138483 0.23455301
147 -0.24159478 -0.38027328 -0.15480942 -0.10359305 -0.88103265 0.310578 -0.48132592 0.24848945 0.10940936 -0.28032342 -0.06564985 -0.2498794 -0.6496667 -0.47787917 -0.26268834 -0.26477963 0.26264015 -0.12140245 -0.07791606 0.08341168 0.27911684 0.025720296 0.35830456 0.29931667 -0.13854861 -0.12998667 -0.20800978 0.41658673 -0.20973054 0.3560299 1.1036303 0.047913723 -0.24693444 -0.023230128 0.02969819 -0.014716193 -0.1388454 0.009321777 0.5282777 -0.51786476 -0.019738689 -0.35903168 -0.23705807 0.12416511 -0.26948702 0.45823693 0.14750509 -0.47002074 0.40550938 0.38007754 0.007424459 0.09056635 0.0014709458 -0.24270254 0.19564308 0.10325001 -0.22858872 0.3709601 -0.01947597 -0.04340807 0.051360313 -0.03208483 -0.12162245 0.083395325
148 0.3583759 -0.23877273 0.114733994 0.123578876 0.5944064 0.1709328 -0.27932 0.19336213 0.17627509 -0.6216569 -0.24750471 0.03425581 0.2588641 -0.21343777 -0.189386 0.101318195 -0.2622105 -0.4473647 0.3449838 -0.6319313 0.29792824 0.20673558 0.48164955 -0.19319062 0.2559716 0.012255525 -0.0380968 0.48660636 -0.15572196 -0.34189254 0.41720653 0.24885303 -0.5451949 -0.1587173 -0.061978266 -0.08466495 -0.33814377 0.0015179515 0.19044529 0.07056551 -0.40344563 -1.2874355 0.09551379 0.03694676 -0.2922303 -0.65958273 0.45403385 -0.35034642 -0.36075354 0.46480626 -0.27410957 -0.09344025 0.041210443 0.29761758 -0.09160744 -0.15644462 0.0743459 0.3144364 0.21994103 0.1158854 -0.20770459 0.1495931 -0.117368594 -0.0837982
149 0.31580284 -0.056581452 0.24244519 0.14856076 -0.3401366 0.42187285 -0.25422162 0.047850907 -0.12631679 -0.10761298 0.87093616 0.33996502 0.10616241 0.09601449 -0.061005056 0.38728565 -0.30034593 0.26777643 0.08534098 -0.2184194 0.2966028 -0.0353752 0.092079714 0.14352667 0.11539371 0.34593505 -0.33369154 -0.0018449696 0.057996422 -0.00072456896 0.31616104 -0.07655161 0.1108806 0.20900232 -0.0030308142 0.13573465 0.07957279 0.0059220195 0.21226442 -0.2750839 -0.11666566 -0.6034329 -0.19743466 0.064529985 -0.13575138 -0.17464916 -0.08344279 0.18281852 0.03849013 -0.031669423 -0.1765471 0.14493045 0.2911349 0.016955718 -0.006685268 -0.018415362 0.048214864 -0.17649414 -0.03467872 -0.1461716 0.18576837 0.004585566 -0.18710059 -0.13857758
150 0.20593077 0.2630477 -0.31146595 0.1185377 -0.26702276 0.27751818 0.018771507 0.22993636 -0.250324 0.21106832 -0.0273461 0.14409098 0.2766751 0.12614688 -0.04937638 -0.25478005 -0.016411826 0.053907372 0.03821984 -0.2656985 0.33784124 -0.23473136 0.06994107 -0.10959778 -0.018297018 0.17905879 0.028321527 -0.15054964 0.3527733 0.1806832 0.15435565 -0.060989797 0.22190227 0.14774418 -0.18777974 0.020056907 0.099133015 -0.01872614 -0.058006357 -0.16328564 0.22899848 -0.44485041 0.1841369 0.5679643 0.3633672 -0.14264725 -0.08487035 -0.3612887 0.0022809654 -0.20328036 -0.10657265 0.3100314 0.31840873 -0.042936713 -0.28437507 0.18922387 -0.00084684417 0.033378914 0.6649596 0.112725236 0.04854332 0.0760002 -0.44411936 -0.08385266
151 -0.102216095 -0.12516436 -0.103931665 0.41419196 -0.5055852 0.6454467 0.047809236 0.042666256 -0.16761735 0.07479206 0.13071589 0.35446554 -0.16887979 0.19105235 0.15941912 -0.19092208 0.2612097 0.18569252 0.11883213 -0.14817272 0.4923575 0.12938163 0.17334895 0.06682329 -0.29449472 0.15315324 -0.012371691 -0.2702089 0.14036727 0.31146222 0.3678919 0.13636592 0.03706175 0.12891033 -0.03365515 0.08880316 0.047447115 0.10458203 -0.019046908 -0.004525586 0.31531274 -0.6424373 -0.14215174 0.4968046 -0.09157385 0.24612164 -0.23609778 -0.07894529 0.14637896 -0.060434997 0.2068672 -0.054836337 -0.23041373 0.009178363 -0.09420964 0.04423734 0.005923191 -0.028795294 0.007071711 -0.1115289 0.12052809 0.013816312 -0.07873809 0.10577676
153 -0.09602053 0.1648081 -0.35668495 0.38939297 -0.43340462 0.6046404 -0.36929712 0.27098098 -0.09181972 0.32505488 0.0057257526 0.14071804 -0.1922816 0.347882 0.31303304 -0.28245267 0.60398984 0.1727954 -0.04426269 -0.08540133 0.18929502 0.15167728 -0.044909623 0.08937892 -0.3864432 0.044511933 0.0123010725 0.008767188 -0.09260707 0.33361202 0.041683044 0.28295273 0.2372768 -0.1542003 0.12403427 0.359555 0.1622893 0.14080079 -0.25005847 -0.11223116 0.30103946 -0.45451373 -0.32812142 0.50279826 0.14518112 0.37407923 -0.26293722 -0.096415095 0.25453728 -0.02146408 0.16248286 -0.012213632 0.2929467 0.24201567 -0.028201811 0.1524867 0.006789909 -0.042090155 0.027454637 0.051669896 -0.069749266 -0.09893471 0.117985025 0.078592986
154 -0.2783851 -0.25161874 0.1954635 0.27100313 -0.01916466 0.11988947 -0.34083733 0.007963911 0.033846106 0.11509974 -0.3135545 -0.0051195584 -0.19077599 0.05720921 0.060292616 0.53093207 0.016705655 -0.1429865 0.39239436 -0.43005085 -0.05015923 0.23668669 0.06904049 -0.15611511 -0.3854178 0.18145858 0.16367975 0.14374176 -0.12015684 0.2886657 0.28748637 0.16126321 -0.09755135 -0.026062168 -0.3678147 0.10869469 0.2246265 -0.3369585 -0.17161442 0.16117567 -0.118174054 -0.86753863 0.14868629 -0.14788824 -0.15777904 -0.06905451 0.22931398 -0.30829528 0.074317634 -0.31928712 0.10752466 0.50669986 -0.10570662 0.26217616 0.41223735 -0.27510905 -0.095232286 0.11985019 0.22344692 0.23973408 0.12376133 -0.15364964 0.416045 0.19331895
