1013 64
0 -0.1488774 -0.118937515 -0.20968187 0.026750172 -0.76343167 0.22855087 -0.31733817 0.097783476 0.45970112 -0.15152924 -0.026333274 0.76977456 -0.5905401 0.010978727 -0.17879449 -0.4777802 0.8574453 -0.07423377 -0.91540164 0.07403323 0.2856754 0.21653824 0.51170295 0.41731104 0.5724582 0.10329573 -0.2725488 -0.0957184 0.019939052 0.15358554 -1.5333599 0.32275712 -0.15345715 -0.065663554 -0.3368308 0.30727562 -0.1401017 0.009947032 0.1935221 -0.3929876 -0.07061425 -0.13244073 0.81551355 0.5918757 0.18503857 0.10058326 -0.6348244 0.24815728 -0.37911585 0.12866032 0.7616839 -0.13974611 -0.4474964 -0.3605115 0.23368783 0.44987458 0.18240027 -0.09274254 0.41132393 0.38744068 -0.3737468 -0.7865215 -0.1670461 -0.7418034
1 -0.056750186 0.15959212 -0.22897929 -0.07187185 -0.2919524 0.3571543 0.019166216 0.1683808 0.2032934 -0.39479414 -0.41698283 0.13115759 -0.15090683 0.019879494 -0.39097068 -0.1709068 -0.21242045 -0.112243816 -0.31958738 0.07777035 -0.09377011 -0.1807283 0.53093904 -0.19469444 0.3919114 -0.3019342 0.22596301 0.05645357 0.27716 -0.28664145 -0.0035930309 0.07595508 -0.26682344 -0.075967275 -0.25915933 0.1516207 -0.23612975 0.19893599 0.16823925 -0.13510866 0.5380038 0.69239813 0.011809079 0.48751834 0.058299918 0.22450137 -0.30575314 -0.16360386 -0.2736601 -0.09607533 -0.15829198 0.03438088 -0.44295833 0.17968467 0.061461642 -0.20714323 0.037253387 0.122914076 0.43955594 0.40200946 0.17203903 -0.42497712 0.23832956 -0.2554242
2 -0.03988728 -0.19080333 -0.13058174 0.047744732 -0.35127392 0.5269768 -0.58347535 0.028948396 -0.012920981 0.25476548 -0.08365668 0.10034857 -0.054537777 0.05814911 -0.2088988 0.22014879 -0.0400447 0.012631919 -0.06745042 0.24550441 0.17155972 -0.29786205 -0.018819239 0.26173273 -0.10770339 0.024543643 -0.15484068 -0.04343894 0.13220026 0.09004017 -0.19772483 0.3318291 -0.08086932 0.09482938 0.3501588 0.09594598 0.11857072 -0.21508835 0.44953135 -0.19909862 0.2044193 0.73002404 0.3000824 -0.09824165 0.012502633 0.16238746 0.32717285 -0.71493506 -0.35929278 -0.14316635 0.13136214 -0.09539169 -0.35376918 0.5980377 0.27731273 -0.7790017 -0.37434098 -0.005671952 -0.17076689 0.030752374 0.50308895 -0.08724407 -0.05566721 0.08792061
3 -0.060774107 -0.21229522 0.1658139 0.13888466 0.08206861 0.15363593 -0.47432503 0.2531496 0.11355025 0.26983365 -0.03578668 -0.055694364 0.10281947 0.14131838 -0.13421723 0.056986094 -0.3229762 -0.34018108 0.15144828 0.10317288 0.37576932 -0.09077366 0.068693124 0.3844077 0.06910357 0.17725754 0.068565324 -0.21269447 0.10965115 -0.02053133 -0.36473614 0.469922 -0.0019808263 0.15968084 0.36356568 -0.17518075 0.20308532 -0.15439343 0.33716184 -0.37645903 0.024313442 0.42451984 0.23631415 0.041525453 0.2952963 0.2984433 0.096543685 -0.4473551 -0.11362368 -0.04363837 -0.19273387 -0.06732471 -0.2964724 0.19027367 0.035490017 -0.3790228 -0.12644324 0.10781375 0.0072710663 -0.20012027 0.26192942 -0.14976723 -0.15923801 -0.22637905
4 -0.00079046935 0.017526478 -0.1888068 0.09413695 -0.23995486 0.061152063 0.038152367 -0.19760266 -0.055577405 0.10204078 -0.19366097 0.15667252 0.05400522 0.061403032 -0.32471788 -0.010077219 0.015819266 0.22381917 0.37279192 0.1741656 -0.07689339 -0.021753833 -0.06154778 -0.19337043 0.0028728545 -0.029572453 0.21218249 0.008574237 0.05938925 -0.3384391 0.29897517 -0.108971104 -0.0042475685 -0.17561774 -0.058359314 0.030630752 -0.27152982 -0.03531774 -0.13457312 -0.13338307 -0.047954485 0.167207 0.12239434 0.13067964 0.14410642 0.06746413 0.04800191 0.04752808 0.0033034682 -0.22807904 -0.24589264 0.17544118 -0.13899417 -0.058494583 0.2921156 -0.06860088 -0.30774274 0.2023566 -0.13257048 -0.07900266 0.1053723 -0.16070257 0.17341468 0.017826982
5 0.30511072 -0.4580166 -0.05584611 -0.008248672 -0.19926952 -0.016603269 -0.42627373 -0.081947945 -0.5308437 -0.18470122 -0.17375727 -0.4222617 -0.46237338 0.36499372 -0.029461956 0.17150676 0.13385883 0.41128495 -0.16570133 0.24081542 -0.13145915 -0.49415553 0.22427696 0.017153192 -0.12643832 -0.23521045 -0.2957611 0.16318345 -0.14564274 -0.20603459 -0.3564862 0.38872287 0.01857489 -0.030818699 -0.05028236 -0.18798584 -0.25570634 -0.07512601 0.39054126 -0.0056809303 0.29178327 1.1133261 -0.0767723 0.25676808 0.13359167 0.13964717 0.05387384 -0.29902333 0.04767871 0.47395948 0.0905759 -0.01510369 -0.32949457 0.34618866 0.071599856 -0.26970476 -0.73318815 0.017093774 0.07380156 0.06538985 0.40267846 -0.014885023 0.188954 0.17305292
6 0.37612662 0.33618525 -0.2318171 0.030124716 -0.04116556 0.07901571 0.3317542 0.1470269 0.11863526 -0.07648115 -0.12307606 0.20514673 -0.07364488 0.34674728 -0.2533002 -0.16862878 -0.12006482 0.26776105 -0.17941612 0.28002375 -0.11251074 -0.19870533 0.35342723 -0.18667755 0.104749314 0.06530681 -0.11222193 -0.07007847 0.30924278 -0.30241543 -0.11763021 0.05551757 -0.3967991 -0.000893001 -0.15904778 0.13930959 -0.17978244 0.19101778 0.3175156 -0.07129658 0.41489443 0.5500014 0.072268754 0.4939233 0.31137466 -0.08803684 -0.17836413 -0.12784708 -0.12518246 -0.0025383504 0.06072051 0.04888487 -0.5757595 0.28485346 0.0039106235 0.13959444 -0.045894034 0.11233011 0.14265864 0.17556536 0.14130066 -0.2878601 0.60733795 -0.18556868
7 -0.26589227 0.18808748 -0.081203595 0.12020539 -0.35775506 0.41653717 -0.3827439 0.20975316 0.05628658 0.43399712 -0.0642592 0.45980623 0.20809467 -0.32545966 -0.33352116 0.22188951 0.024931094 -0.088268146 0.042625234 0.079707526 0.06134067 -0.007435322 -0.07314868 0.22083879 0.029652962 0.0368999 -0.21411595 -0.13849199 0.11958391 -0.062697686 -0.21623138 0.118596524 -0.23335692 0.13939303 0.36327007 0.33696875 0.31121904 -0.05784875 0.39195526 -0.25387362 0.2361384 0.47463223 0.23099838 -0.11663896 -0.0117142685 -0.12046918 0.6784546 -0.5416704 -0.40237728 -0.36031997 0.063525446 -0.08608955 -0.38088855 0.38861293 0.18566804 -0.5931105 -0.11010362 -0.03128373 -0.03291312 -0.056785226 0.46534282 -0.09448979 0.051917937 0.062344573
8 0.114949524 -0.20968595 -0.04139927 -0.07766796 -0.3253474 0.28556752 -0.53764117 -0.042867556 -0.2926937 0.025628652 -0.27025402 -0.21961382 -0.27412012 0.16299292 0.015566811 0.06487576 0.011151532 0.28342867 -0.17378853 0.039808065 -0.044452503 -0.4242105 0.022108883 0.0046187937 0.011035755 -0.13669795 -0.27816004 0.16328484 0.05378366 -0.03641689 -0.38461506 0.35065526 -0.13282236 0.047965784 0.23062602 -0.021137526 0.03583095 -0.094137274 0.4350352 -0.052976318 0.3245921 0.83086884 0.15773477 0.16888139 0.06718781 0.07142061 0.22303134 -0.5188356 -0.21475147 0.17537016 0.06925444 0.048508156 -0.33998623 0.4640978 -0.0064309314 -0.48815975 -0.5370117 0.19359197 0.14377645 0.0552456 0.3807221 -0.06209273 0.19125256 0.08436818
9 -0.097919695 0.24364305 0.162902 -0.058578864 -0.16697422 0.40437248 -0.1965694 0.02416037 0.079311416 0.19490138 0.113907754 0.3346962 0.25102717 -0.04429467 -0.08975703 0.073603675 0.0039083883 -0.17740871 -0.016379416 -0.02509018 0.16365938 0.06646902 -0.26623058 0.3667316 -0.07053045 0.055084266 -0.26311493 -0.019327104 0.12964514 -0.038299903 0.059450008 0.042328253 0.19935092 -0.049110845 0.30497444 0.32404822 0.24652967 -0.12858987 0.2666879 -0.1839477 0.2747442 0.3979195 0.3015763 -0.26808926 -0.10080859 -0.21961817 0.3745636 -0.38198483 -0.1651259 -0.0997542 -0.14658208 0.08293803 -0.41695476 0.28744298 0.25136906 -0.32507253 -0.09364601 -0.026552692 -0.35376108 -0.1326513 0.30123964 -0.25139982 -0.07255046 0.1013622
10 0.16981745 0.10198669 -0.143886 0.049661554 -0.27506244 0.055980243 0.3926116 -0.026962932 -0.2870824 -0.42356265 0.071750246 -0.20853402 -0.3676712 0.2466594 -0.09767958 -0.23587172 -0.04050366 0.20230077 -0.23591347 -0.18687838 -0.21466586 -0.30636138 0.31967336 -0.09976625 0.45057017 -0.31555882 -0.28329358 0.25877023 0.16116334 -0.06957873 -0.07650812 0.110558234 0.26061797 -0.5349665 -0.18823607 -0.20568335 -0.105866686 -0.23793519 0.41036195 0.08153538 0.20772335 0.40163195 -0.14729466 0.25187647 0.19130743 -0.06957434 0.026907213 -0.1135076 0.1306969 0.14535877 0.1430456 -0.23372331 -0.23585945 -0.09922251 -0.18475246 -0.10377522 -0.17364645 -0.050726563 0.10668118 -0.0013641864 -0.040750325 0.17487527 0.17728904 -0.2591897
11 -0.2585414 0.13790177 -0.24544184 0.017078925 -0.3652669 0.3361886 -0.3037762 0.006330192 0.1530537 0.3270499 -0.1597853 0.5549423 0.15822586 -0.31093732 -0.4391614 0.12014036 -0.031885833 -0.07461713 0.047769606 -0.009641446 -0.054690927 -0.04129573 0.20238952 0.026853386 0.07808501 -0.1257856 -0.06167525 -0.14986011 0.28228167 0.047654923 -0.08239318 0.19436976 -0.12125822 0.23607382 0.15841228 0.06884363 0.34523112 -0.16407983 0.15766945 -0.22961399 0.2344141 0.55056775 0.33146122 -0.1576432 0.026311718 -0.059898876 0.42299247 -0.5401081 -0.43896362 -0.3433991 0.012174104 -0.016506113 -0.37943435 0.34329113 0.17820536 -0.578087 -0.1437892 0.010328971 -0.05153272 -0.11721186 0.3902478 -0.16324928 0.17544276 -0.03578692
12 0.33377102 -0.44822437 0.06123811 -0.10218637 -0.28301027 -0.12430582 -0.015084296 -0.14301743 -0.60806304 -0.032144353 -0.31672582 -0.26733935 -0.7091747 -0.046748042 0.1393629 0.15455204 0.12926722 0.13775617 -0.31254423 -0.0065284073 -0.23344001 -0.31095445 0.12493334 -0.07974981 0.07946117 -0.3139085 -0.52436864 0.30086058 -0.15174776 -0.25623506 -0.15562063 0.421704 -0.0059622526 -0.061865434 -0.1324802 -0.35554343 -0.07821472 0.23861012 0.04319839 -0.0118819475 0.13901314 0.822893 -0.48219308 0.491282 0.016255151 0.06711043 0.10870045 -0.2542438 -0.073832765 0.51363015 0.24462111 0.03599673 -0.2569052 0.19362503 0.18504182 0.067395814 -0.47383785 -0.07502365 0.089288466 -0.1211568 0.13747357 0.14166579 0.17820555 0.11638957
13 -0.05486565 -0.057603337 -0.16165444 0.05681195 -0.45086956 0.46541688 -0.47013253 0.23866507 -0.08444506 0.1611289 -0.062025167 0.17291752 0.05982613 -0.13834588 -0.23964112 0.2296888 0.04696293 -0.046839993 -0.10446451 0.043153103 0.1668849 -0.16058499 0.07037133 0.18986423 0.0849076 0.007291775 -0.104517885 -0.04061664 0.08874509 0.01085804 -0.28169855 0.29009375 -0.08006452 0.031565234 0.2979192 0.22270423 0.021556094 -0.22452044 0.41285348 -0.24442303 0.27860165 0.66951454 0.25273687 -0.063421234 0.14272517 0.067123696 0.4055772 -0.58436084 -0.373119 -0.1383919 -0.053420316 -0.039971456 -0.45275536 0.47808143 0.25488672 -0.5591865 -0.30648467 -0.03952972 -0.10134834 -0.05318984 0.39029884 -0.12640922 -0.1611519 0.09287636
14 0.092060685 -0.15633497 -0.13348907 0.030042656 -0.2907151 0.43929663 -0.61576563 -0.11142413 -0.038247116 0.19068989 -0.054987878 0.0030915355 -0.060919464 0.006620883 -0.059209116 0.3290597 0.0033723346 0.10206254 -0.20584847 0.16274801 0.027339587 -0.18829727 0.08894356 0.16616532 -0.09713556 -0.0011704424 -0.10539418 -0.038022347 0.2048153 0.089977704 -0.2600484 0.3059327 0.05915322 0.09978553 0.20449105 0.12718152 -0.024977028 -0.25480258 0.4433008 -0.048446268 0.20689231 0.6132317 0.17168227 -0.07392315 0.080190055 0.20284168 0.22733411 -0.7100352 -0.286405 0.0141671095 0.040938333 -0.16056639 -0.32597184 0.6904126 0.089394785 -0.48408216 -0.3220007 -0.02480175 0.084176995 0.026066978 0.28298992 -0.0155270845 -0.007747635 -0.026753325
15 0.080694415 -0.38199514 0.47432137 -0.024432762 -0.47978672 -0.37219253 0.8103255 0.7558048 0.4828959 -0.58256453 -0.8131058 -0.13556172 0.27613273 0.09625635 0.119946785 0.1273198 0.24997541 -0.39660805 0.6778507 0.1229932 -0.26368308 0.3052476 -0.33737212 -0.49899888 -0.4001974 1.311714 -0.1498172 -0.98892015 -0.3194201 -0.6171719 0.059665427 0.080840096 -0.29732883 0.43621263 0.5117417 -0.46531934 -0.06924938 -0.116180554 0.76701826 -0.10345827 -0.43717396 0.36770692 0.55557823 -0.09439693 0.02073747 -0.4293605 -0.22816828 -1.0029105 -0.70138645 -0.16146125 -0.37080824 -0.34058914 -0.10608611 -0.044775277 -0.48802978 0.23374827 0.5554951 -0.015457375 0.48367763 1.1174382 0.013089361 0.33661428 0.2801706 -0.07103735
16 -0.19104278 -0.062793955 -0.09485726 -0.14579289 0.1882341 0.16551644 -0.0007528169 0.2285906 0.12232879 -0.54722667 -0.3863435 0.013121188 -0.08706619 0.16850738 -0.4510501 -0.17352507 -0.44711605 -0.35417026 -0.19361126 0.34712237 0.31676865 -0.28079492 0.4346854 -0.17601982 0.32299486 -0.048571102 0.36108425 0.116012715 0.04839793 -0.08439584 0.16250455 0.041508965 -0.14582199 -0.31716427 -0.285954 -0.058261815 -0.097609006 0.18146315 -0.13194843 -0.14789604 0.08745407 0.2700429 0.15729268 0.16098174 -0.090631366 0.26577428 -0.67791605 0.21196412 -0.009612843 -0.18386878 -0.11119187 0.08837542 -0.04723002 -0.22629735 0.10010346 0.09811619 0.19410989 0.12593767 0.1438022 0.24997662 -0.021784917 -0.29129928 0.21372452 -0.13211702
17 0.22651738 -0.16010816 -0.1055938 -0.16489948 -0.16301757 -0.05135294 -0.0016091764 -0.06205354 -0.20981331 -0.368593 -0.21666166 -0.3670048 -0.32854438 0.49634886 -0.25101122 0.05979413 -0.07668293 0.19669673 -0.25645298 0.2343003 -0.18363878 -0.60150594 0.2361627 -0.19921021 -0.00664829 -0.20812654 -0.1506913 -0.025559708 -0.13561814 -0.3023826 -0.20982966 0.19264895 0.0899121 -0.38669154 -0.15104365 -0.18041551 0.3120806 0.04531125 0.40167385 -0.016049895 0.31572905 0.76053745 0.029417902 0.35779062 0.13788766 0.1860759 -0.033798315 -0.16754274 0.09415417 0.17653075 0.10894668 0.10744722 -0.32729343 0.34151864 0.09143623 0.0059984922 -0.31345463 -0.049156636 -0.011393473 0.14668459 0.37128663 -0.10536781 0.011953369 0.13319072
18 -0.53375715 0.16633537 -0.18373641 -0.052992232 0.26874274 -0.13735446 -0.011899691 0.16933414 -0.043871567 -0.09540324 -0.36565843 0.20569465 0.012785643 -0.003740253 -0.18174845 -0.078312606 -0.2798825 -0.1444529 -0.0013826936 -0.085582405 0.008040577 0.09992431 0.21908197 -0.302578 0.47534913 -0.2167409 0.38906813 -0.0053185974 0.09016833 -0.16816162 0.021404132 -0.02565587 -0.29429054 0.19495982 -0.15743928 -0.16572513 -0.26265278 0.03034851 -0.11612399 -0.082733646 0.002414856 0.13457783 0.018070254 0.0884685 0.014597926 0.37679642 -0.14870843 -0.0023005866 -0.2846989 -0.05764176 0.006192282 0.10881798 0.1576842 -0.101548016 0.105411574 0.10169585 0.25131458 0.070571855 0.085199624 0.23843424 -0.01728269 -0.23285657 0.14919412 0.03846137
19 -0.07809593 0.019092835 0.029098079 0.0077124448 -0.20999801 0.24592029 -0.32199928 0.025419027 0.10170736 -0.01051493 0.09053838 0.27202415 0.1156097 -0.20751438 -0.31919345 0.08331972 -0.123045355 -0.13849452 0.14441046 0.18725821 0.1223361 0.040224962 0.08842256 -0.090243936 0.18613213 -0.15547179 0.048533916 -0.048543815 0.21865107 0.11248586 -0.1605016 0.07055728 -0.10915774 0.05315783 0.1285668 0.07834508 0.2940973 -0.34661132 0.10096419 -0.09781502 0.10649868 0.32671618 0.24584353 0.13068561 0.16737798 -0.14562504 0.24258491 -0.30531812 -0.33973607 -0.2058977 -0.108895056 0.014576804 -0.2953714 0.13062012 0.19215378 -0.34496766 -0.06906312 0.1349641 -0.13391034 -0.14015341 0.28069678 -0.17487739 0.0014257147 -0.013170004
20 -0.28348428 0.22850132 -0.1162719 -0.14191055 0.35690406 0.14113642 0.085908264 0.059498653 0.1832816 -0.41774747 -0.38004452 -0.06455902 0.010619327 0.12149829 -0.57112 -0.12363708 -0.46423045 -0.40840816 -0.09775258 0.14394023 0.09428012 -0.08049504 0.46053335 -0.14844696 0.32074037 -0.12698552 0.52815384 0.17073998 -0.0127940215 -0.1319306 0.2687693 0.0790103 0.053888187 -0.17478576 -0.5015647 0.15949005 -0.115651876 0.21440206 0.10126817 0.035082247 -0.06046927 0.3280525 -0.0064023854 0.14916277 0.00207676 0.24098167 -0.60947156 0.3157078 -0.42858726 -0.11697944 -0.2139875 0.28245255 -0.28801098 -0.31828243 0.08645078 -0.051442392 0.029877529 0.135606 0.10612807 0.31746858 0.002962172 -0.35690674 0.20935777 -0.08392479
21 0.33815944 0.12648389 0.26468775 0.24906869 -0.31474978 0.08109894 0.29825026 -0.066976875 -0.033020355 -0.38667083 -0.3103891 -0.2967695 -0.15535367 0.1059564 -0.2796716 -0.22061166 0.047389887 0.09339136 -0.068541676 0.10530128 0.14833948 -0.35940963 0.64383155 0.011684477 0.15280177 -0.20246775 -0.02863694 -0.2000055 0.33963007 0.011171773 -0.005877465 0.21266095 -0.1630009 -0.03948968 -0.3548303 -0.09083033 -0.15546857 0.1107446 0.38446832 0.19951697 0.33682874 0.40921628 -0.16121206 0.21624479 0.4180488 0.036793977 -0.00028330088 -0.21526608 -0.08191922 0.0008728877 -0.015206868 -0.039620396 -0.3919771 0.017962292 -0.22056457 0.13710205 -0.0883727 0.3921859 0.36959863 0.4373693 -0.10058217 0.03682995 0.19229683 -0.04354152
22 -0.17587364 -0.017769381 -0.16805908 0.041266147 -0.28972784 0.47305986 -0.47052202 0.24391387 0.024142293 0.23659807 -0.03562485 0.24391729 0.09017712 -0.17336746 -0.24620008 0.2762624 -0.004916249 -0.025359787 -0.07551475 0.1713573 0.05960089 -0.1539247 0.018115032 0.23419963 -0.059148073 -0.064829275 -0.11738212 -0.033011623 0.10055638 -0.041788228 -0.2840582 0.21596923 -0.04382375 0.07426611 0.3222772 0.17932674 0.10564759 -0.38386616 0.48350313 -0.18150471 0.2820108 0.7183244 0.2506849 -0.24963178 0.12020837 0.0506844 0.4635026 -0.75150365 -0.23094597 -0.12688491 -0.0040138434 -0.08874375 -0.38380438 0.6364106 0.24621272 -0.60865414 -0.2878079 0.05373261 -0.13418995 0.052271623 0.38830543 -0.119728655 -0.04205881 0.1283737
23 0.45308337 -0.017600983 -0.28289855 -0.616036 0.0047338307 0.002854742 0.04606659 0.060756788 -0.17586431 0.55791 0.08461538 -0.18637761 -0.33734947 -0.008203048 0.16115513 0.32719043 0.3238856 0.06053863 0.3806968 -0.031455502 0.040850956 -0.05086597 -0.21925029 -0.05006458 0.08401378 0.1476516 -0.38426054 -0.06831697 -0.27714485 0.21384864 -0.04689283 0.253246 -0.07954908 0.06373597 0.07817176 -0.4272905 0.115423545 -0.033247955 -0.17584547 0.12942848 0.08668393 0.2616188 -0.15967712 -0.15776287 0.11940491 0.07597421 0.16883215 -0.011204965 -0.064448625 0.2350817 0.17856577 -0.030438151 -0.29982555 0.07794726 0.27149665 -0.10736792 -0.37671313 0.028288886 -0.15494767 -0.30838484 0.082716115 0.33648187 0.22251081 0.355225
24 -0.052344907 -0.05039265 -0.12180466 -0.0713518 -0.18383098 0.3236541 -0.22030944 0.07779854 -0.05465303 0.29030952 0.17095466 0.07146998 0.02056998 -0.091192 -0.21196118 0.34613594 -0.0019789748 0.19914427 -0.03642054 -0.18444756 0.20451197 0.11720219 -0.21554196 0.3314321 -0.14690745 0.051059112 -0.21824676 -0.033451498 -0.26865202 0.09243696 -0.16639364 0.32125688 0.051362514 0.26496428 0.28884465 0.1115248 0.08739252 -0.2626058 0.1827219 -0.15414041 0.17922933 0.3631244 0.18699452 -0.16689482 0.20843242 0.10503648 0.2571015 -0.5773948 -0.34797817 -0.13461378 -0.17012727 -0.104085594 -0.15034702 0.35589248 0.06258604 -0.3143713 -0.23382504 0.12645955 -0.18636896 0.14253464 0.3167294 -0.03412842 -0.13698532 -0.07040061
25 0.24298796 -0.13152513 0.19247626 0.2350631 0.9197004 0.26752204 0.6843606 0.55232733 -0.41353935 0.22316179 -0.33617872 0.09426204 0.14214364 0.045937486 -0.012666717 0.090516545 0.09945807 -0.038829125 -0.27813685 0.10134162 0.014896452 0.6545063 0.17746331 -0.2689137 -0.11627674 -0.06668884 0.12253113 -1.0532901 0.19930133 0.09781445 -0.018206954 -0.13340934 -0.6875766 -0.34208724 0.03820078 0.40856344 0.07908827 0.31884086 0.10713448 0.101416335 -0.25025493 0.32359904 0.52446645 0.5513283 0.8301226 0.3432592 -0.11355662 0.08932462 0.017994836 -0.24989656 0.21538436 0.18992484 -0.12085387 -0.19211866 -0.30810052 -0.6591326 0.23431942 0.024352856 -0.323636 0.15956816 -0.11572079 0.04745099 0.010182798 0.18658951
26 0.22939235 -0.26733837 -0.09987691 -0.14077222 -0.18849227 -0.20757122 -0.20964302 -0.24271592 -0.4955534 -0.026841445 -0.12578857 -0.18943825 -0.48471725 0.076377854 0.08697215 -0.05018813 0.34006178 0.4735324 -0.20527282 0.120589346 -0.4805565 -0.46286166 0.47564933 -0.2427021 0.03791956 -0.43440714 -0.46817505 0.19564392 -0.22234038 -0.13705081 -0.20303029 0.2137698 -0.011226088 -0.010519013 -0.09566909 -0.3320583 -0.33874232 0.28753436 0.12438941 0.07789407 0.25160727 0.81655616 -0.31797943 0.17241217 -0.085310966 -0.041683443 0.20337048 0.00511647 0.012342252 0.5927516 0.308167 0.15293442 -0.298973 0.24669427 0.069627486 -0.03594687 -0.5806203 0.021126065 0.15727513 -0.009965448 0.19526412 0.11788607 0.25047633 0.2330966
27 0.02067821 -0.032135736 -0.07845151 0.05131065 -0.5488625 0.43390375 -0.5508948 -0.10483059 0.15210813 0.25678232 0.019600803 0.15561046 -0.065162666 -0.093723446 -0.145185 0.07226468 0.0055207093 0.09579138 -0.023217266 0.050281808 0.016833633 -0.22392763 0.25379607 0.08710421 -0.18000348 -0.012197645 -0.18071683 -0.136154 0.2699769 0.014072636 -0.19683103 0.2626646 -0.07611202 0.13248546 0.12975995 0.06126267 0.27996892 -0.31688827 0.2982215 -0.30591297 0.31440836 0.55605024 0.33498257 -0.13834873 -0.08788021 -0.01953594 0.15161818 -0.522219 -0.29216066 -0.07181917 0.033378217 -0.034872923 -0.29215398 0.5383496 0.057042483 -0.64830256 -0.34393156 -0.12560853 -0.01754634 -0.105491765 0.3001841 -0.13333674 0.06600854 -0.18546157
28 -0.34697714 0.25350496 0.6674329 -0.23512605 -0.83692867 0.3723335 -0.32002252 -0.4824995 -0.41651314 0.7542196 0.4437539 0.670687 0.0704566 -0.15070647 0.23691924 -0.34870473 -0.41899997 -0.32209587 -0.068458244 -0.19962102 -0.5065521 0.6641277 0.3182898 0.058279045 -1.3015273 0.5458068 0.08707127 0.65716904 -0.13133739 0.38335654 0.52433246 -0.500537 0.7853452 -0.32965913 0.88595533 -0.21462874 0.46973482 0.25426832 -0.5805234 -0.38204527 0.31594855 -0.12066034 0.93182427 -0.26581702 0.12472712 -0.43096283 -1.1180199 0.33879876 0.13761134 -0.7659894 0.3153605 -0.6881923 -0.41117027 -0.9576324 0.7997008 -0.18094015 -0.48213273 -0.57051265 1.086359 -0.47940776 -1.291814 -0.2894014 0.37578735 -0.42050418
29 0.13820818 -0.3785316 0.14953274 -0.16737223 0.04179936 -0.17408226 -0.33452693 -0.044385776 -0.4983846 -0.031826623 -0.08613639 -0.35659492 -0.62089664 0.036678687 0.08789857 0.03553552 0.4036685 0.3805194 -0.062519 0.15925877 -0.17712289 -0.3196232 0.120736375 -0.14187318 -0.2187763 -0.058259472 0.123972446 0.17965788 -0.36200356 0.092392184 -0.19351012 0.3112197 0.13956748 -0.09949765 -0.121766545 -0.35870326 -0.07815855 -0.0053972676 -0.037761167 0.09718521 -0.20031248 0.8086922 -0.2337972 0.1400511 -0.026063826 0.12675354 0.34265307 -0.13478294 0.37117302 0.5694136 0.5377319 0.20259652 -0.23815353 0.23348874 0.12916546 0.09899263 -0.49042577 0.09089688 0.09722963 -0.03432313 0.17117128 0.20796287 0.26380748 0.28914157
30 0.2949215 -0.2560428 -0.06149777 -0.29094613 -0.03656726 -0.4656456 0.14258575 -0.18183708 -0.67045623 0.050973237 -0.17818008 -0.43113324 -0.5273428 0.031208385 0.22024047 0.23356515 0.4007249 0.48664466 0.060853947 -0.1236546 -0.26602736 0.025811158 0.011971496 -0.0875307 0.11146679 -0.4364017 -0.32791018 0.15711175 -0.47226351 -0.07702143 0.0479822 0.33448383 -0.110968605 0.11944796 -0.16177706 -0.35725015 -0.10596821 0.20445843 -0.18136635 0.23083188 -0.0029624328 0.64965314 -0.5791974 -0.14519851 -0.037806697 -0.21279976 0.5571397 0.29413205 0.27567637 0.67756224 0.41568395 -0.11575882 -0.2868454 -0.05052045 0.22623128 0.007993668 -0.5097167 -0.12631246 0.029205877 -0.12424214 0.051569026 0.2987446 -0.046264797 0.48078173
31 0.044571325 -0.17577389 0.055059716 -0.096578725 0.15594053 -0.40078133 0.26936617 -0.1978144 -0.7072588 0.22686768 -0.0218454 -0.45160627 -0.42517582 -0.19160405 0.16067466 0.053704098 0.5496218 0.4324696 0.19186787 -0.06193023 -0.4526171 0.22348903 -0.26807946 -0.1347093 0.19571836 -0.49398437 -0.13030551 -0.005893916 -0.53708094 -0.044942595 0.2771102 0.24081409 0.23713288 0.039655868 -0.14239153 -0.3088706 0.05755349 0.2995317 -0.3865484 0.49424863 -0.43301976 0.29364946 -0.75656015 -0.28085935 -0.21060821 -0.15044604 0.69053507 0.49778944 0.13999474 0.5923715 0.3721452 0.07114801 -0.23282926 -0.084487885 0.15920313 0.27634212 -0.45659274 -0.13675956 -0.1853128 -0.20294267 0.0053678527 0.58894604 0.017495967 0.7396263
32 -0.14190798 -0.15450229 0.07373686 0.011364996 0.25134757 0.33463377 0.19973929 0.34530613 0.55126196 0.07009909 -0.41253543 -0.20049271 -0.21748862 -0.3256165 -0.36040244 -0.21891604 0.15667221 -0.04677671 0.25905827 0.3406906 0.48302305 0.4321136 -0.13867974 -0.28711897 0.26121616 0.018581213 0.01577689 0.0990895 -0.12702088 -0.48125356 0.70887923 0.2593093 -0.21015865 -0.05692656 0.029835694 0.07486001 0.09134029 0.6628116 -0.2579614 0.42073658 -0.14970808 -0.123397276 -0.316979 -0.0468466 -0.13731039 0.21940137 -0.6585539 0.42615086 -0.15531611 0.5535777 0.65629065 0.10959114 0.31054187 0.1106554 0.34454963 -0.566323 0.28201672 -0.050300136 -0.13867857 0.21156345 -0.15408695 -0.07214352 -0.2404978 0.3121508
33 0.3161921 -0.4692661 -0.05592899 -0.15274079 -0.22615817 -0.32734537 -0.23855522 -0.25398022 -0.6599472 0.060575444 -0.20332225 -0.5894999 -0.53874224 0.19483952 0.14156859 0.21619341 0.21481773 0.5959121 -0.1908665 0.17756158 -0.20058408 -0.21896453 0.09396869 -0.11763163 0.0011037104 -0.32340187 -0.3695341 0.21713825 -0.28567886 -0.17630814 -0.10619835 0.31466243 0.035298213 -0.051990084 -0.032345816 -0.3334049 -0.1874155 0.16867566 0.06757469 0.17484516 0.07552037 0.87235457 -0.37529933 0.23278074 0.09861227 0.16295984 0.21637195 0.18512042 0.21456434 0.65600675 0.25978225 0.09714854 -0.2855202 0.27436906 0.065805264 -0.035234533 -0.6924423 0.040275708 0.09853508 -0.0746703 0.11118014 0.2002896 0.2462013 0.32631513
34 0.0051952153 -0.07338207 0.057671025 -0.33855277 0.19763158 -0.36325598 0.024553373 0.18979263 -0.5602949 0.16440222 0.0505635 0.1058957 -0.44906622 -0.24151376 0.52361417 -0.10967206 0.55075943 0.47053796 -0.09743117 -0.078128345 -0.1914345 -0.2583059 -0.47053495 -0.19682093 0.35699242 -0.26974204 0.18719065 -0.066363424 -0.20592429 0.0057847165 0.329167 0.22281395 0.056711875 0.2752489 0.008257948 -0.21259269 0.20511883 0.30004722 -0.85724103 0.23762912 -0.5187522 0.077245556 -0.48669988 0.033509217 -0.0045567006 0.023540437 0.60485905 0.188161 0.2331289 0.48081285 -0.16182062 0.08098439 -0.19009149 -0.36794403 0.15249379 0.46977413 -0.26649663 -0.1562766 0.14273894 -0.23647153 -0.16315994 0.40117738 0.12571067 0.51008075
35 -0.3276437 -0.028883107 0.2682771 -0.012322269 0.40555108 0.16208673 -0.3047407 -0.43192348 -0.2272756 0.1287938 -0.116533116 -0.4320407 0.34191233 -0.36655396 0.17125478 0.24564606 -0.5314158 0.2288658 -0.13948451 0.19937356 0.26922536 -0.0026441142 -0.17850901 0.45199257 -0.07905851 0.011145279 0.37251574 -0.0030818544 -0.22794586 0.49075246 0.07425899 0.18405792 0.7280674 -0.27525094 -0.09192461 0.16132914 -1.2362831 0.16658083 0.6748623 -0.18895172 -0.529454 0.2548875 0.09938003 -0.10132794 0.19996467 0.13625324 0.09566526 -0.23532239 0.05406604 -0.08110909 -0.06844668 0.038760554 0.17440267 -0.062063508 0.12716232 0.14320666 -0.41651195 0.36758924 -0.81901646 0.0057065673 0.30469492 -0.18128806 -0.048951432 -0.2178742
36 0.20535262 -0.2703176 -0.098765016 -0.10533806 0.058745354 -0.4286736 0.35860962 -0.047669694 -0.61892796 0.23854141 -0.36534598 -0.40379012 -0.30212456 -0.10954459 0.17126746 0.1259499 0.3953494 0.42902344 0.09431914 -0.1678297 -0.34337196 0.004714706 -0.27268496 -0.25499386 0.30258226 -0.4436663 -0.32726783 0.16180338 -0.67543936 -0.037318766 0.21567428 0.13993171 0.0055482984 0.0050317347 -0.0609956 0.06984703 -0.23448302 0.32207647 -0.2828813 0.19468698 -0.23846707 0.36763918 -0.7657566 0.06470181 -0.040535957 -0.15731841 0.69851846 0.48547217 0.29310554 0.69524926 0.3879409 -0.089420915 -0.1345005 0.19415125 0.21320368 0.17106095 -0.35007945 -0.11494208 -0.16322789 -0.18105024 0.13474475 0.6347328 -0.10467647 0.6288093
37 -0.07998907 0.10006207 -0.27599868 -0.09392351 -0.18684736 0.20154178 -0.44819373 0.10371913 0.063185036 0.11548425 -0.059531435 0.42813253 -0.047544092 -0.1865069 0.019554593 0.013819933 0.35707605 -0.069108784 -0.46596777 -0.24231926 0.17802615 0.28726438 -0.122853145 0.24952619 0.24421811 -0.04258117 -0.024356179 -0.0125303855 -0.019878983 0.14169633 -0.5711903 -0.05846887 0.12645684 -0.1282931 0.050994422 0.3943621 -0.07307113 -0.1787353 0.29438573 -0.42975032 -0.39689025 -0.10197024 0.21042071 0.010207431 0.1678944 0.1273707 -0.006111764 0.018924037 -0.04829665 0.03372088 0.27669945 -0.22752061 -0.049124386 0.030081436 0.30262202 0.2233685 0.041867726 0.005050853 -0.1233867 0.31553853 -0.17170925 -0.38839263 -0.30710244 -0.3006379
38 0.3410402 -0.3630621 -0.11657295 -0.097526506 0.030950313 -0.46743608 -0.03684245 -0.21503472 -0.8259197 0.22888693 -0.28211844 -0.5005812 -0.57655174 -0.07729317 0.24746338 0.20141822 0.48591465 0.47979987 0.00948731 -0.037325777 -0.3094958 -0.0052698106 -0.13701028 -0.15511513 0.09067668 -0.48990133 -0.38439614 0.23365086 -0.58199173 -0.075959705 0.048166927 0.35933128 0.010763317 0.008546203 -0.20634767 -0.2519362 -0.12367144 0.2951779 -0.31355006 0.34284285 -0.2072196 0.5941607 -0.6977821 -0.05832827 -0.16399573 0.03139269 0.6276504 0.4219561 0.21312477 0.78446627 0.4676151 0.027999617 -0.2207274 -0.019251391 0.13222054 0.16737507 -0.6409711 -0.05043502 -0.078128114 -0.34712505 0.131133 0.4793966 0.0061495826 0.6108095
39 -0.02730976 0.025740433 -3.8467348e-05 -0.06852821 0.17963281 -0.17464533 0.3027025 0.008026093 -0.3962952 0.19285172 0.11416353 -0.1366043 -0.14024468 -0.35068995 0.14574723 -0.07998496 0.26501557 0.28029191 0.13485868 -0.33801025 -0.51387155 0.018513493 -0.29868647 -0.065772176 0.3246923 -0.39731765 -0.15630008 0.010744147 -0.39800048 -0.20030405 0.28804678 -0.023750287 -0.14874062 0.037994567 -0.23958474 0.042088233 0.07766133 0.12893528 -0.30924556 0.005307287 -0.16558982 -0.10363952 -0.6817004 -0.27908736 -0.07598613 -0.05636333 0.6061472 0.13396247 0.024417706 0.4810241 0.21435985 -0.12777719 0.04381665 -0.07728396 0.2387811 0.29924622 -0.25884098 -0.03866499 -0.08383029 -0.32270008 0.017326325 0.3104704 0.11637375 0.5450496
40 0.08483187 0.118398756 -0.6951374 0.27263418 0.3295713 -0.102616996 0.32126883 -0.033974975 -0.6738771 -0.30809644 0.6299768 0.07187731 0.277103 -0.44695178 0.80382705 -0.5109859 -0.5210358 0.20639402 -0.07467256 -0.6438232 0.5288938 -0.18444222 -0.40961477 0.37802157 -0.029656883 -0.2971111 -0.0035396367 0.9811289 -0.17306179 0.23564544 -0.24453305 -0.46162644 -0.026284814 0.4012536 -0.12526967 -0.10068033 0.3168863 0.30895716 0.3018109 0.014812291 -0.35331932 -0.05818353 -0.56529707 0.06634987 -0.0851191 0.22926906 0.82560587 0.25325176 0.14641754 -0.054787353 -0.25982612 -0.24904475 -0.043212272 -0.03672229 -0.38212344 -0.16666521 0.07353166 -0.14988919 0.27900696 0.013683751 -0.5702958 0.68682665 -0.35422486 0.07914395
41 0.19060586 -0.38048536 -0.024557866 -0.17985907 0.2764454 -0.40744928 0.1352305 -0.1763179 -0.6993404 0.19721754 -0.037860118 -0.29877523 -0.40381742 -0.26030806 0.16416077 0.2031575 0.5151073 0.42332494 0.020517096 -0.054640904 -0.36456448 0.014137471 -0.24287161 -0.25577205 0.1399774 -0.5045202 -0.11211637 0.15105692 -0.589901 -0.11676592 0.108832724 0.27198485 0.043101236 0.13453858 -0.10099219 -0.23578466 0.04300147 0.2632133 -0.4684235 0.38258886 -0.43980998 0.29807788 -0.7546966 -0.07116619 -0.14313772 -0.07193129 0.76641446 0.42231366 0.14198673 0.87564397 0.5060518 -0.0027245954 -0.07807967 -0.03595155 0.2477884 0.2250052 -0.5117199 -0.26131392 -0.16483507 -0.3254764 0.08150617 0.48394978 0.03572899 0.8001997
42 -0.17758209 -0.123937055 -0.03008838 -0.32972798 0.24618311 -0.111042395 -0.18688563 -0.28896573 -0.42400253 0.23036328 -0.07304621 -0.41168508 -0.42543167 0.12044371 0.19301566 0.08847404 0.048208416 -0.0049586445 0.4947279 0.09689489 -0.15619859 0.1521907 -0.20285895 -0.039382003 -0.3544924 -0.013664532 -0.05984325 0.2519642 -0.29778135 -0.015213208 0.39420068 0.109113514 0.17000356 -0.0867965 -0.2232176 -0.27016163 0.11148232 0.10220985 -0.32874733 0.23116493 0.24006766 -0.044446558 -0.021347955 0.09853046 0.45543203 0.0693225 0.11342444 0.03276053 -0.21290925 0.44827497 -0.16178076 0.04092741 0.13881889 0.086097345 0.2119208 0.0154178515 -0.45227665 -0.2566851 -0.2873806 0.12882194 0.29614952 0.30715367 0.09386435 0.5842005
43 -0.31639197 -0.16045123 -0.17637593 0.24895307 0.12510231 0.066838056 -0.051985428 -0.42639652 0.108018205 0.065492526 0.28362262 0.13409227 -0.3604323 -0.6502278 0.06903204 0.10471569 0.29009807 0.16437644 0.19500637 0.5969858 -0.08568115 0.9648067 -0.010291629 -0.061119273 0.01769872 -0.42606664 0.40873143 0.08642804 -0.48616827 0.1472036 -0.2703277 0.58102065 0.31583548 -0.4031942 -0.095514156 -0.074886724 -0.24188186 0.56953174 -0.027032375 -0.09419151 0.26227707 0.18150789 -0.40939617 -0.12547547 -0.3750815 0.008562028 0.16562185 0.21391812 0.05879186 0.18070547 -0.055528075 0.5009266 0.04052688 -0.3644414 0.42225194 -0.14730643 0.052928258 0.11465015 -0.049705394 -0.05788236 0.056770965 -0.029137358 -0.11959185 0.58760035
44 -0.054763295 -0.22635657 -0.043447837 -0.24136099 -0.08270766 0.14918001 -0.18225396 0.064497575 0.044725858 -0.05409409 -0.03686391 -0.23167434 0.025238909 0.27892035 -0.11971876 0.24193728 -0.3167255 0.12926874 0.07919337 0.19207346 0.024421245 -0.03739129 0.13759694 0.023562662 -0.025157847 -0.07871843 -0.07568444 0.07999216 -0.1616044 -0.08152659 0.03934128 0.40362757 0.27593267 0.091168165 -0.05777073 -0.007091202 0.017766597 0.064957246 -0.029839724 -0.19243613 -0.17572957 0.45741278 -0.18716046 -0.009339381 0.014577225 0.16346236 -0.060433324 -0.119411364 -0.19018185 0.037526023 -0.1507859 -0.017273545 -0.04602421 0.07920341 -0.2048359 -0.20064057 -0.047355447 0.16107783 -0.1234657 0.030836962 0.19630474 0.045153014 0.09493773 0.081506684
45 0.18586372 -0.5530688 -0.16593057 -0.12271061 0.038346134 -0.4909335 -0.087081626 -0.09471839 -0.677806 0.2679904 -0.17028964 -0.5593416 -0.4399067 -0.074668914 0.25166276 0.11900936 0.46670035 0.4069905 0.217971 -0.06500545 -0.26443172 -0.08906381 -0.110047564 -0.13506635 0.03339168 -0.44509086 -0.16883092 0.07509538 -0.47189316 0.105609395 0.03860339 0.29372376 0.18421796 0.10652869 -0.094644055 -0.45403892 0.05942955 0.088526145 -0.27552766 0.30748507 -0.29389578 0.43863636 -0.68639094 -0.048186645 0.09452973 0.034103375 0.5278484 0.37035674 0.11555356 0.80948746 0.36863697 0.18512921 -0.11314783 -0.12367819 0.1462296 0.27948433 -0.5366715 -0.40616214 -0.10439884 -0.36669302 0.15713464 0.4635596 0.008640209 0.59039986
46 -0.28087726 0.2856503 0.23406197 -0.24217142 0.27365705 0.17017144 0.05503215 -0.1001538 -0.10134561 -0.122586735 0.0766817 -0.1979932 0.5480337 0.17872426 0.0569636 0.06745636 -0.673626 -0.05444313 -0.14398608 0.021382838 -0.09453541 0.47650322 -0.105917655 0.32012606 -0.19109817 -0.0041573644 0.19091935 0.08410607 -0.09534591 0.22294796 0.067635626 -0.04945627 0.19976446 -0.37324655 -0.21039158 0.056882307 -0.14663339 0.17967758 -0.031227553 -0.35697192 -0.49381268 0.007556117 0.15526466 0.11233439 0.07191389 -0.088793114 -0.101212785 0.5940297 0.064014524 0.15888764 -0.65565056 0.1826128 0.061506644 -0.29820898 -0.038085293 0.01729156 -0.012265623 0.12136801 -0.47759807 0.1611256 0.085064605 -0.1373841 -0.008003423 -0.15951991
47 -0.22059926 -0.033489134 -0.061818168 0.004471019 0.46556848 0.16832209 0.00055254065 0.064382926 0.25820175 -0.40626335 -0.31722254 0.12980604 0.0431692 0.18257336 -0.4090193 0.19468772 -0.58004993 -0.11734787 -0.014191434 0.18360901 0.23313896 0.010659033 0.34325925 -0.004831016 0.19098762 -0.1013892 0.3065942 0.15158731 0.22105396 -0.17603484 0.120045155 -0.040526435 -0.027758604 -0.001827985 -0.34615582 -0.05141872 0.028417036 0.24384786 -0.06273346 0.056989126 0.112509206 0.33654836 0.09051716 0.2998276 -0.04944308 0.4602505 -0.6953936 0.14049771 -0.07461963 -0.18074095 -0.18566848 0.101077765 -0.20982505 -0.13603254 0.1261914 0.045506664 0.15527824 0.31636047 0.06392669 0.48976484 0.04836847 -0.40490085 0.21053332 -0.13291913
48 0.060402185 -0.22274037 0.15945712 0.29176772 0.3179902 -0.42808962 0.023599133 -0.0020345822 -0.6021116 0.21323752 0.16426803 -0.29478407 -0.22214678 -0.21663201 0.009456158 0.17968123 0.36589316 0.3111489 0.006546486 -0.18725343 -0.0244001 -0.15873311 -0.26327336 -0.17920831 0.10802141 -0.044085562 -0.05440113 0.2586799 -0.4325223 -0.3962977 0.10484965 0.35780627 -0.27234018 0.3192313 0.27543986 0.088306084 0.09472348 0.30245095 -0.25736192 0.30462432 -0.32336733 0.35555336 -0.52181 -0.038552552 0.03581254 0.05173688 0.60965943 0.34514105 0.4545716 0.47291023 0.022049218 0.028639212 -0.27379358 0.063405275 0.32031697 0.3203385 -0.6282414 -0.3628282 -0.29714972 -0.3985259 -0.30768913 0.40370926 -0.22311366 0.89061344
49 0.025661748 -0.33520538 0.37903205 -0.02415119 -0.4724143 -0.05111643 0.43671143 0.7299839 0.2975547 -0.24080776 -0.60257125 -0.027624004 0.3743318 -0.1457776 0.08645819 0.2244221 0.27719826 -0.2662704 0.57871866 0.118256584 -0.21392295 0.15758419 -0.5398064 -0.26021925 -0.38664022 1.0842047 -0.31326127 -0.89068186 -0.25380766 -0.40418938 -0.053807624 0.19153754 -0.27862537 0.46213195 0.75475276 -0.36584005 0.10958779 -0.22544527 0.77613205 -0.013774812 -0.30582494 0.53417337 0.42222732 -0.2620834 -0.0082343 -0.2672851 0.21520266 -1.1443477 -0.6950145 -0.23174427 -0.23649421 -0.36831823 -0.3220354 0.28046906 -0.35752416 -0.1171815 0.3718895 -0.0898193 0.4008742 0.9068495 0.13725182 0.4074737 0.1254559 0.08070208
50 -0.21665287 0.061172917 -0.1370827 -0.20321634 0.2910235 0.22397971 0.19242604 0.064546704 0.17043956 -0.48564965 -0.36847448 0.035234272 -0.03810404 0.26578638 -0.3044793 -0.13761328 -0.4480557 -0.4053146 -0.12452458 0.2714895 0.12335232 0.11708978 0.5204242 -0.34386992 0.33151403 -0.21118018 0.539174 0.20504129 0.15809698 -0.20565641 0.13064453 -0.047203064 -0.13023955 -0.22066195 -0.27347937 -0.016706932 -0.20165871 0.20681924 -0.10584836 0.00043693557 0.3248338 0.34826538 0.02879969 0.24152942 -0.14673102 0.36050346 -0.51979035 0.15498334 -0.07678729 -0.19311696 -0.20316534 0.24210188 -0.13567278 -0.16207108 0.014486115 0.03977536 0.23399356 0.13429596 0.20214495 0.39983234 0.06388119 -0.34686112 0.1863377 -0.11337593
51 0.014530197 -0.32798818 -0.27340618 -0.41532302 0.3765008 -0.3182544 0.36048627 0.23226199 -0.44274825 0.1623087 -0.25781482 -0.3525995 -0.38812473 -0.016725108 0.3089496 0.3046282 0.58022374 0.446764 0.065255165 0.16272373 -0.26311588 0.24909341 -0.37242413 0.055729076 0.04946267 -0.42467123 0.09980798 0.08734377 -0.1363833 0.13424745 -0.020040147 0.07384249 0.17533182 0.063866414 0.18990467 -0.25169456 0.3342123 -0.07310866 -0.412651 0.5002894 -0.17785768 0.36262363 -0.62329036 -0.28142014 -0.13825655 -0.091907136 0.55011415 0.4864053 0.40608418 0.56077886 0.31040865 -0.09674048 -0.3522584 -0.11629568 0.07805514 0.30776268 -0.3839037 -0.25406936 0.11877213 -0.056850404 0.37530804 0.46365157 0.19476599 0.6646323
52 0.12388571 -0.21676765 -0.16660081 -0.24020281 0.10397348 -0.21799254 -0.16255592 -0.020007856 -0.49931088 0.26605806 -0.3360607 -0.3705681 -0.3664224 -0.19892645 0.11326567 -0.13750504 0.10800865 0.27028543 0.10796464 -0.020114273 -0.1518869 -0.11968752 0.006231338 -0.22941177 -0.010480307 -0.3855939 -0.1056657 0.3141663 -0.3261869 0.10792142 -0.0126546435 0.22206141 -0.07885619 -0.10810843 -0.16065034 0.13003205 -0.2527301 0.19521284 -0.15269683 0.2643401 -0.2784564 0.6185874 -0.2718653 -0.2619803 -0.10852258 0.31710604 0.3299628 0.35445714 0.18820524 0.6036236 0.410051 -0.17497788 -0.12521222 -0.040717468 0.23677345 0.14480531 -0.44993514 0.19687337 0.010221764 -0.039251424 0.052117813 0.5164875 0.1407734 0.54455847
53 -0.31056324 0.22276835 0.59070367 -0.24853775 -0.7242655 0.33257577 -0.3756419 -0.46128398 -0.43645427 0.72235024 0.4673705 0.57045054 0.07306416 -0.11580182 0.2584974 -0.37617406 -0.42056432 -0.28499115 0.029453453 -0.20854007 -0.46656913 0.634016 0.2878271 0.0469001 -1.2234846 0.50567245 0.09604907 0.6390218 -0.1290137 0.3994891 0.4870479 -0.46664375 0.7089727 -0.3617084 0.82086843 -0.20609105 0.45998177 0.22865127 -0.5463956 -0.32538974 0.27456638 -0.14885119 0.84700155 -0.32054126 0.09906641 -0.3221956 -1.0931145 0.27744555 0.1543447 -0.7021749 0.29306328 -0.6530741 -0.32203215 -0.8546956 0.73007894 -0.2571933 -0.435215 -0.58183604 0.9905901 -0.40837654 -1.21797 -0.20561586 0.33173043 -0.36245286
54 -0.23557794 0.44272274 0.09140442 0.051688507 0.25226432 0.21898897 -0.042410705 -0.02532373 -0.0017810538 -0.1461213 -0.23321268 -0.28323457 -0.06339747 0.17844062 -0.27965897 -0.06196221 -0.41537744 -0.1497314 -0.17042796 0.15145922 0.27772194 -0.0014416389 0.12766995 -0.017609283 0.1076439 -0.11040607 0.15058239 0.14528568 0.11984071 -0.01736831 0.39278328 -0.03309948 -0.02920223 -0.29447067 -0.23452501 -0.10591976 -0.004687138 -0.08121648 -0.18507466 -0.075619616 -0.029768288 0.25248238 -0.039588753 -0.008982658 0.115905635 0.2056219 -0.24345574 0.28971523 0.31004614 0.38948432 0.0592978 0.13125864 0.13465832 0.055684865 0.089326225 -0.09101061 0.21791196 0.0642723 -0.23058218 0.055473052 0.008271625 0.105875276 -0.084762946 0.14559698
55 -0.81219816 -0.4552588 -0.33386028 -0.3722981 0.027322024 -0.1967231 0.24805306 -0.23301503 -0.2951595 0.017474644 -0.3871515 0.42917475 -0.40194458 -0.46495712 0.14895038 0.028025856 -0.0432793 -0.28201967 -0.027400985 -0.03806463 -0.46848556 0.039833367 -0.36143675 -0.2361705 0.20314476 -0.115374595 0.23594768 0.0105734095 -0.18175471 0.06773107 -0.0016397983 0.36476073 0.19870032 -0.10547069 0.08370925 0.36228853 -0.26384652 0.26636055 -0.16707401 -0.12196484 -0.2585417 0.09081373 -0.049410015 -0.07057835 -0.5182062 0.07800152 0.34675467 0.047121257 0.13459241 0.42260182 0.39709646 -0.5688255 -0.13019349 -0.27599674 0.38500854 0.20240408 -0.008771954 -0.045239583 -0.024412863 0.22027808 0.095675066 0.46357417 -0.059898444 0.017084941
56 -0.34992585 0.27208698 0.1467178 0.2506041 0.18257062 0.22287607 0.118067354 -0.15263736 0.2180603 0.20193058 0.4326118 0.15910856 0.89183974 0.3415876 0.010508635 0.32624173 -0.72739315 -0.2991684 0.3886109 0.41193527 0.606189 0.72097707 0.16120037 -0.056009293 -0.38438502 -0.2130119 0.005485624 0.1393063 -0.089589834 -0.19153678 0.12262752 -0.19089827 0.4769184 -0.23864023 -0.22931506 0.022165097 0.34665605 -0.06485227 0.4940863 0.0035220236 -0.14472787 -0.01870222 0.41770598 0.2517443 -0.007911377 -0.41066176 0.05339102 0.3894444 -0.17027706 0.23033696 -0.19489041 0.3430043 0.2825715 -0.30030203 0.023814589 -0.3624365 0.1099039 0.6126597 -0.720736 -0.03845355 -0.08672442 -0.115786985 0.0006443411 -0.14400654
57 -0.1842509 -0.12761763 -0.0965299 -0.114516355 0.30543932 0.25186744 0.17068866 0.10991066 0.3195987 0.1582646 0.035147477 0.11478324 0.34954572 -0.06347714 0.32593668 0.022307366 -0.2570254 -0.012228072 -0.06266529 0.08401616 0.44831723 0.22865856 -0.14176184 -0.11147344 -0.2386438 0.25951716 0.27002388 -0.2336904 0.42971036 0.15543863 0.23216908 0.32674506 0.28929624 -0.017927524 -0.072776616 0.03873402 0.3500228 0.08534925 0.3446737 -0.29449272 -0.674675 0.045971774 0.36420244 0.17245418 0.48592705 -0.087054834 0.113944456 0.012880877 0.1861056 -0.3561024 -0.253982 0.18098323 0.48307115 -0.19967349 0.10277422 0.1126281 -0.63120234 0.24161822 -0.11884759 -0.04767443 0.026833132 0.18236291 0.2890261 -0.07052321
58 0.13694926 -0.20615266 0.007850483 -0.13832408 0.42758706 -0.1344197 -0.27020365 -0.14924924 -0.21296436 -0.33956963 -0.13645066 -0.3497238 -0.06368923 0.5244903 -0.0715776 0.2497125 -0.42286646 -0.1352628 -0.18536606 0.29220727 0.13038152 0.13607204 0.17032936 -0.030264854 -0.09163776 0.24317542 0.13849993 -0.123867825 -0.13175339 -0.26375866 0.35797864 0.2735061 0.21698149 -0.1729256 -0.12855366 -0.26058108 -0.25031295 0.06477187 -0.07472406 -0.23915267 -0.23021908 0.3855313 0.08112599 0.09722287 -0.23545195 0.12055757 -0.4855258 0.20167373 -0.00010805577 0.33763263 0.04873003 0.07802737 0.08517811 -0.13042945 0.10522698 -0.029206138 0.005497277 0.3076816 -0.40342763 0.10899086 0.049676828 0.064342864 0.30533773 -0.012537107
59 -0.47522306 0.3195759 -0.0012931749 -0.5250658 -0.20003676 -1.4804887 -0.109580114 -0.038165513 0.83528966 0.062369965 0.2435045 -0.13919851 0.5627256 0.10637716 -0.39903122 0.06239057 -0.64307773 0.25272134 1.0128947 -0.5938085 0.32269752 0.6419962 -0.12885556 0.23227696 -0.2646814 -0.4276653 0.2298285 0.05605966 -0.5447583 -0.82187057 -0.6497876 0.4503606 0.23035762 -0.131618 0.4351216 0.50632477 -0.18408482 0.17463583 0.13740064 0.59599864 -0.028052658 0.09880958 -0.18842995 -0.0888706 -0.5925107 0.16904715 0.45576838 -0.1526421 -0.26218128 -0.13289292 0.08350288 0.035234872 -0.16730386 -0.22250624 -0.27951443 -0.20679896 -0.14697686 0.1942512 -0.11799021 0.08771974 -0.14563617 -0.06260666 -0.27377453 -0.32659498
60 -0.29498792 0.119332194 0.28826138 0.26568374 0.21800467 0.048777565 -0.1848377 -0.00047630817 0.035735123 -0.26926187 -0.2435897 0.13961013 0.23192076 0.2675816 0.087233365 0.16567487 -0.15177101 -0.15113331 -0.07716942 0.51007915 0.11464771 0.19832781 0.06787475 -0.06361 0.08785743 0.09941725 0.23854956 -0.007275291 0.292512 -0.2749949 0.38559115 -0.033082608 0.055375822 0.11675584 -0.0129946545 -0.054034397 -0.225973 -0.20214312 0.04003059 -0.25803196 -0.0038233697 0.13998166 0.15634583 0.1027139 0.2915189 -0.27738205 -0.075234756 0.061495274 -0.18617402 -0.33636966 -0.54118216 0.29574338 0.1593923 -0.3454833 0.17725945 0.20926027 0.15568413 0.42033568 -0.24016829 -0.047951862 0.09213873 -0.1117122 0.08938293 -0.29890674
62 -0.078271925 -0.0711346 0.07287751 0.23455073 0.24038908 0.3419889 0.124292426 0.5088362 0.18233755 -0.005437985 0.07086007 0.070444256 0.21721987 0.27384812 -0.14221644 0.038315196 -0.44528225 -0.2290459 0.0438957 0.35949382 -0.08139378 0.22155131 -0.21208805 -0.2538084 -0.026033498 0.27768922 0.19812702 0.30535012 0.20780033 0.21173368 0.5392852 -0.1189247 0.20199962 -0.539872 -0.3736787 0.29320952 0.020858824 0.19331542 -0.17837694 -0.088651106 -0.15530427 -0.079397865 0.19552189 0.2579852 -0.049947634 0.14683953 0.21702276 0.14192876 0.508343 -0.02439326 -0.39137524 0.16035457 0.032837637 -0.115484916 -0.0811885 -0.13123694 0.07425833 -0.11448249 -0.24310449 -0.13182455 0.08720203 0.0632383 -0.004089758 -0.08647241
63 0.3012485 0.07272506 -0.15054604 0.07989349 -0.33038917 -0.35838917 0.18863529 -0.13565977 -0.58018845 -0.32796654 -0.08816138 -0.17938565 -0.41498792 0.31858772 0.15809464 -0.22581536 -0.034496658 0.5641129 -0.2769008 -0.018808156 -0.2839818 -0.48758984 0.4960417 -0.13907653 0.11496922 -0.41937935 -0.17785254 0.40511748 -0.020519905 -0.27905995 -0.1665237 -0.06638722 -0.2615946 0.0412291 -0.34335396 -0.059842926 -0.50009435 0.25046068 0.3050884 -0.19989048 0.29928175 0.9467511 -0.3219488 0.59245384 0.33811396 0.04985842 0.2560432 0.06667503 0.07480258 0.40506712 0.01983137 0.016967822 -0.029148959 0.13040276 -0.38506153 0.057449013 -0.40295 0.1025043 0.46954316 0.15258381 0.10389061 -0.080272205 0.31005517 -0.019599251
64 0.0284717 0.7877097 0.16579007 0.45688188 0.45376322 0.022749208 -0.030640477 0.22888178 -0.5082538 -0.33066708 0.58904386 0.2620878 0.120953724 0.5176346 -0.072503984 0.49282303 0.1042943 -0.027919933 0.46762615 0.19970486 -0.2802552 0.06809339 0.22203386 0.19446865 -0.22336616 0.07467811 -0.24715547 0.046665218 -0.25722486 -0.030195609 -0.61359656 -0.41641015 -0.47681594 -0.29426593 -0.17079629 0.7615944 0.19714464 -0.65931773 0.3310917 -0.15520155 0.6720881 0.7659464 0.39569896 0.20703454 0.119973674 0.45996815 -0.05539791 0.44503504 -0.107075915 -0.559711 -0.5918914 -0.26227283 -0.41482335 -0.25702477 0.39390117 0.39714003 0.7428084 0.60469383 -0.3706293 0.2174062 0.17234147 -0.21597697 -0.050990984 0.32037276
65 -0.08787139 -0.23811768 0.55300593 -0.32216743 0.58221495 0.193366 0.23927769 0.25030547 -0.37644127 -0.013792398 0.25078148 -0.55520153 -0.23393452 -0.2717655 0.62960136 0.17913727 0.07447311 -0.19222087 -0.02116789 0.030777127 0.11766735 0.18466735 -0.093123086 0.34259826 0.34393653 0.11319305 -0.18113148 -0.17864032 0.13551141 -0.11438443 0.010703187 0.21085852 0.2755674 0.044755906 0.25963786 0.29938698 -0.13757722 0.15210694 -0.27346277 -0.17385143 -0.44122192 0.21718505 -0.30098474 0.22043355 -0.3545538 0.19016583 0.09744534 -0.09308512 0.19164464 -0.037454486 -0.11752417 0.22642802 0.18161805 -0.060871363 0.116859004 0.053751867 -0.6502715 0.14277804 -0.6279361 0.76423746 0.2430835 0.12319135 -0.1838195 0.154146
66 -0.12030861 0.10740903 -0.3704801 -0.034163415 0.2888905 -0.034853954 -0.09264561 0.23651737 -0.123634785 -0.11625142 -0.53530645 -0.046769638 0.047481492 0.17023109 -0.7130234 0.09466454 -0.4541028 -0.4341142 0.18718539 0.0011307895 0.27008876 0.17976293 0.34715495 -0.19529782 0.32980204 -0.11316657 0.3466419 -0.08962832 0.28856915 0.1163158 -0.0037003756 0.005406935 -0.12814292 -0.2588739 -0.114202484 0.049761765 -0.148395 0.15938398 0.23278457 0.30769977 -0.11366188 0.3363773 -0.14264353 -0.076896936 0.008942656 0.42572564 -0.34530032 0.08371418 -0.10692248 0.14658926 0.034316577 0.40290958 -0.013048101 -0.37801963 0.0952979 -0.1771484 -0.26941526 0.013258776 -0.12113381 0.1316052 -0.16098976 -0.27983683 -0.053031087 -0.053545043
68 0.051483557 0.20975953 -0.45208973 0.16259478 0.2795606 -0.44447643 0.36958843 0.22500633 -0.9267532 -0.052237116 0.2391021 -0.15041357 0.15472406 -0.52271223 0.76514566 -0.39412853 -0.27921966 0.36838824 -0.05301457 -0.6380551 0.16587986 0.0776414 -0.33785734 0.17389315 0.17206487 -0.6346716 -0.14203124 0.68041885 -0.34113613 0.22347985 -0.032064773 -0.32945335 0.17130306 0.34995493 -0.10875271 0.043481227 -0.098066054 0.38683164 -0.22359039 0.28727198 -0.591855 -0.13062415 -0.7959216 0.025329638 -0.1389772 -0.06166336 1.1042671 0.48505732 0.17243868 0.39838332 0.034307376 -0.027362473 -0.016042475 -0.09595246 -0.2977422 0.19462472 -0.1017059 -0.2266511 0.056204744 -0.13419051 -0.1613394 0.81301063 -0.24831226 0.5002945
69 -0.64764935 -0.00029516593 -0.8758021 -0.052303642 0.13491972 -0.49140185 -0.16076514 -0.041479267 0.19087416 0.16636917 -0.5845615 0.70404494 0.03249369 -0.07076225 -0.7553225 -0.17642945 0.0059733633 -0.1291133 0.25902706 -0.3948506 0.0937542 0.45510644 0.35486722 -0.106114015 0.89299953 0.0007531792 0.14227578 -0.23796774 0.17247693 0.5793133 -0.26643473 0.28755248 -0.16501442 0.3741281 -0.62505555 -0.18896456 -0.15799491 -0.1418992 -0.5717393 -0.07294522 -0.73530453 -0.34303442 -0.034343958 -0.2744371 -0.41373518 0.009330627 -0.26814145 -0.065083936 -0.050695844 0.24078918 0.4991312 0.07589793 0.53453946 -0.44639784 -0.10083248 0.2795121 0.43404615 -0.235461 -0.77043676 -0.09991148 -0.055906106 0.30323014 0.26825073 0.4821563
70 -0.5926157 -0.34436914 -0.85873955 0.60634613 -0.0022761822 -0.4226585 0.096037894 0.41004902 0.33766693 0.28532195 -0.01766017 0.13598125 0.0148130795 0.40757167 -0.45573863 0.39453554 -0.11606251 -0.33798307 0.40026587 -0.26533547 0.23551683 0.57837653 0.50340426 -0.08916925 0.6220575 -0.09622882 0.15508929 -0.55279696 -0.1466676 0.5145438 0.26074314 -0.34480965 0.123064324 0.48539305 -0.3767688 -0.5319551 0.24400961 -0.58554447 -0.067652225 -0.11022848 -0.6923846 -0.19343323 0.14200625 -0.016487777 0.046152756 -0.19039561 -0.11350216 -0.16373694 -0.07437733 0.07370831 0.53269595 0.17409503 0.14210875 -0.077883214 -0.30305463 -0.2914412 0.20646635 -0.47892004 -0.8587533 -0.0142454505 0.0037165843 0.48367208 -0.00029860437 0.38397193
71 -0.12592077 -0.20751 -0.25834134 0.05706743 0.39752144 -0.30268264 0.34907365 -0.34349242 -0.22424684 0.29045933 -0.26818645 0.1235002 -0.291143 -0.061338603 0.23640507 -0.2108038 0.33165234 -0.026841745 0.27321255 -0.12333906 -0.4285646 0.030774951 -0.19769013 -0.06611004 0.44443983 -0.3470535 0.16333582 0.37039754 -0.38650382 0.104340695 -0.27629676 0.064844936 0.16412176 -0.023910098 -0.013868604 0.39188355 0.053861793 0.09262824 -0.4951776 0.2589295 -0.20104955 -0.2937309 -0.48896754 -0.39304137 -0.35135347 -0.4049768 0.56955904 0.25137746 0.10318414 0.38163468 0.2186156 0.08189507 0.029198933 -0.340925 0.19672382 -0.08525279 0.06997313 -0.3290341 -0.33548003 -0.35063744 0.19281287 0.16208002 0.040627327 0.5251072
72 0.13701223 -0.092223585 0.34115502 -0.0846425 0.17061657 -0.13414022 -0.51545364 0.12834573 0.11491154 0.18184242 -0.4656149 -0.4875294 0.12424399 0.15290959 0.4054916 0.364601 -0.36894464 -0.23256554 0.14940509 0.29122093 0.5697303 0.039418124 -0.10398844 0.4042666 -0.2599492 0.33661848 -0.21748747 -0.42411906 -0.03928868 0.077300765 -0.1881606 0.7091446 0.09830108 0.25377467 0.1754863 0.082698494 0.5977484 -0.32819873 0.31690073 0.14194143 -0.41868988 0.11157969 0.22331437 -0.26960683 0.17332087 -0.32353348 -0.12183139 -0.10163526 -0.04995818 -0.08591431 0.01651267 -0.25718755 -0.3490448 0.19026923 0.29367656 0.034861892 0.12044701 -0.12982169 -0.50828636 -0.36774236 0.14716946 0.38824144 0.03215556 -0.17204046
73 0.1167636 -0.7763658 0.17448263 0.28467363 0.3374408 -0.21637392 0.1624007 0.024844766 -0.3490324 0.1676202 -0.13780913 -0.331786 -0.39972246 -0.15478286 0.008727267 0.14916173 0.43085334 0.094499335 -0.17598 0.16985136 0.0409891 -0.17466931 -0.24148525 -0.4746333 0.03176239 -0.34841502 -0.03182966 0.34728396 -0.38847655 0.027539764 -0.022252098 0.34700784 -0.18862301 0.26028377 -0.16523886 -0.26407844 0.04897281 0.46374765 -0.24568334 0.13080215 -0.32998204 -0.044882163 -0.75618726 -0.22076958 0.26594058 0.007163983 0.53740746 0.4724729 -0.077300936 0.5830117 0.28222108 0.35643762 -0.2387186 -0.005516492 0.25703868 0.1270504 -0.12872541 -0.18991274 -0.43196198 -0.5328122 0.29580727 0.43560752 0.09228152 0.47239465
74 0.24392416 -0.11436363 -0.15112229 -0.15240778 0.20167659 -0.50322497 0.33980408 -0.079637066 -0.5788539 0.2206561 -0.030700607 -0.3416754 -0.38074076 -0.31098378 0.24529186 0.110657685 0.32098442 0.32717118 0.18241581 -0.13053648 -0.43269506 0.07620034 -0.30333078 -0.30654418 0.27596098 -0.5835541 0.017255306 0.13772395 -0.40967202 -0.09815627 0.23080733 0.017177414 0.14260085 0.0652619 -0.16704985 -0.13933544 0.013877193 0.3370261 -0.50369537 0.3364592 -0.39496478 0.19886288 -0.84228563 -0.29474783 -0.18367487 -0.1312037 0.725104 0.46337572 0.2725892 0.6172375 0.41621146 -0.054579176 0.011671759 -0.16552831 0.23677067 0.35429865 -0.37493166 -0.21883129 -0.19273932 -0.34875047 0.023777682 0.59287643 -0.0039326157 0.7919935
75 -0.0009324867 -0.38163197 0.15447713 0.37714195 0.28245464 -0.23071337 0.43797854 0.34613585 -0.21911858 0.13807166 0.21971355 -0.1703315 -0.19913615 -0.09897272 0.20771308 0.12201263 -0.057370126 0.010276876 0.32534763 0.09358693 -0.24464595 0.16727255 -0.2193358 -0.2595875 0.38589105 -0.46008843 -0.24985442 0.06128761 -0.104610965 -0.060096722 0.39312005 0.23715016 0.49113646 0.08383241 -0.05776805 -0.15075818 0.14015812 0.035958916 -0.5063949 0.28398144 -0.3261372 -0.20875408 -0.5490157 -0.2809398 -0.2538153 -0.11806375 0.2689917 0.13534859 -0.08797698 0.4319827 -0.10407309 0.20543857 0.029656023 -0.11951755 0.092199326 0.18987842 0.19416818 -0.15491608 -0.045618832 -0.19654432 -0.2849517 0.45955747 0.069787174 0.29174826
76 0.36883065 -0.2927997 -0.060552962 -0.04366914 0.061792474 -0.28074542 -0.14129114 -0.28102303 -0.4610818 -0.3800634 -0.23241055 -0.5230771 -0.4015724 0.39822322 -0.025052061 0.21672377 -0.03421033 0.40086204 -0.13901067 0.19968802 0.038612194 -0.23676005 0.55794466 -0.07883731 0.07257168 -0.25451195 -0.06519665 0.2288971 -0.13172838 -0.12771218 0.044755116 0.25455427 0.029627379 -0.235345 -0.512261 -0.25367975 0.10186949 0.038993675 0.033721566 0.016997261 0.050832335 0.7072795 -0.12497354 0.28508162 0.045898717 0.17216603 -0.24691324 0.011659645 0.35409525 0.40090322 -0.033289827 0.03023582 0.14415827 -0.011664763 -0.02546694 0.08868054 -0.45903313 0.11584655 -0.061343987 0.16558708 0.07397409 -0.06448606 0.23992413 0.0957766
77 -0.13197517 -0.32371426 -0.15461615 -0.14441252 0.15683219 -0.21760827 0.50165683 -0.38060987 -0.5346941 0.3646754 -0.13726786 0.03012754 -0.07441622 -0.4956795 0.3150174 -0.16071051 0.16449004 0.33886635 0.18528758 -0.18730359 -0.3154639 0.18541628 -0.27561596 -0.29913852 0.14225788 -0.4989412 0.4007148 0.1783502 -0.05697289 0.10350872 0.26582938 0.111617215 0.4033229 0.09968406 -0.032834195 -0.019556493 0.094725594 0.42433864 -0.5469925 0.15086603 -0.6678035 -0.06749138 -0.7111706 -0.34795952 -0.38637328 -0.05014979 0.80825806 0.27445933 0.12696813 0.3298387 0.26680362 -0.2899464 0.21999231 0.086398125 0.15106934 0.15010945 -0.06872011 0.0048065186 -0.20269436 -0.173503 0.1573726 0.5269723 -0.23797572 0.52611434
78 -0.45327967 -0.12255282 -0.10591681 -0.6040491 0.5359392 -0.21110454 0.04624109 0.028320244 -0.13747936 0.2340942 -0.10680625 -0.10182191 -0.12844203 -0.45506358 -0.4126856 0.160115 0.02466233 0.22307523 0.16541602 -0.0044225305 -0.17880866 -0.17745587 -0.089647345 0.14057696 0.17301463 -0.4094386 0.55692357 0.08176153 -0.42338172 -0.43980426 -0.13577396 -0.12236379 -0.48107415 0.16705939 -0.2098977 -0.07346383 0.12551458 -0.040727764 -0.20849809 0.12846297 -0.13272613 0.18809065 -0.33639643 -0.27143705 -0.35025775 -0.100235134 0.48362345 0.37749007 0.17207114 0.16478005 0.0877772 0.16076761 0.0009835525 0.08773316 0.48451304 -0.009051859 -0.081694126 -0.1422586 -0.23663238 -0.048499987 -0.22870556 0.20268904 0.015155304 0.12997985
79 0.35175925 0.022421509 -0.3507552 -0.112980075 -0.01705721 -0.3958351 0.44329518 -0.076327056 -0.67907155 0.13824898 -0.016071856 -0.27222916 -0.09085736 -0.21065924 0.14166719 0.20093101 0.25040567 0.26072836 0.1591626 0.02194114 -0.3344653 0.14369205 -0.2254935 -0.0695038 0.2845821 -0.4613844 -0.080514446 0.38911948 -0.49438205 -0.03265907 0.20613804 0.14294405 0.23439392 0.09023994 -0.0933154 -0.3248 -0.016302329 0.2632674 -0.515911 0.38425004 -0.14696187 0.1469391 -0.6458626 -0.1754489 -0.10431548 -0.016852647 0.80985254 0.37311083 0.26060733 0.5011661 0.40322646 0.019123388 -0.21436709 -0.22348842 0.30606672 0.340922 -0.28697357 -0.26812443 -0.024383917 -0.20329747 0.14839402 0.6560846 -0.11759226 0.6931711
80 0.2461475 0.36722225 0.2445357 -0.21992603 0.37434354 -0.05914697 0.5481868 0.116948485 -0.56933165 0.02496858 0.075440794 0.22832906 -0.37164322 0.17115748 -0.042322844 -0.106261075 0.0037809908 0.084360346 0.120558456 -0.38897154 -0.5212566 -0.37326533 -0.04244966 -0.5246499 -0.015930548 -0.13813202 0.20933172 -0.19142027 -0.20478347 0.2834189 0.23707186 -0.7772613 -0.09970485 -0.21948624 -0.27460557 -0.045815088 0.0823036 -0.09750431 0.026046976 -0.06273931 0.3350178 0.3203923 -0.117831856 -0.20060779 0.18174934 -0.08238864 0.14815505 0.26184726 -0.33778918 -0.24066943 0.6929846 0.25001478 -0.653584 -0.7995089 0.36332142 0.24186084 0.4187782 -0.5449012 -0.2016418 -0.13868324 -0.619247 0.15773097 -0.06053323 0.65505946
81 -0.3331499 -0.074639454 0.25231314 0.2503024 0.04228069 0.28742453 -0.04280022 0.13510808 0.16699964 0.11433003 0.35787633 0.13944745 -0.11215496 0.2571233 -0.24471658 -0.15649422 -0.34044772 -0.31134492 -0.046476394 0.18703255 0.030979224 0.07999834 0.030160025 -0.32006526 -0.06575282 0.23292612 0.1723373 0.13340992 0.2010982 0.016185543 0.34934562 -0.43348336 -0.17033227 -0.06760243 -0.06445371 0.25394443 0.18937382 0.16875675 0.02665975 -0.38407096 -0.09262642 0.10011288 0.20930034 -0.068313725 -0.27935362 0.03440684 0.16196728 0.08331912 -0.22030985 -0.14883167 -0.5358646 -0.17302014 -0.219017 -0.38017547 0.10246583 0.21473707 0.10435046 0.5058131 -0.5060946 0.14865142 0.03611377 -0.30204797 0.19450673 -0.2491433
82 0.17907268 -0.316796 -0.11955921 -0.12710302 0.21617131 -0.34896445 0.20468816 -0.035924524 -0.6552117 -0.061682113 -0.03010619 -0.5271484 -0.4587379 -0.11839508 0.1590608 0.17875668 0.13930605 0.20000298 -0.07338431 0.09891126 -0.17543226 -0.11130841 -0.17667972 -0.079431005 0.16649899 -0.42893344 -0.14503765 0.18026456 -0.44614917 -0.07789582 0.21885842 0.10779685 0.14990866 0.07354259 -0.25436535 -0.20747477 0.02840069 0.16319275 -0.30857733 0.30019087 -0.26862723 0.42732206 -0.59298545 -0.13760255 0.004616767 0.049220756 0.6424007 0.361468 0.14033306 0.5938079 0.33432811 0.31152195 0.036215216 0.045128115 0.045554392 0.18625733 -0.39710355 -0.0046630055 -0.21043944 -0.046084657 0.017449474 0.4131446 0.031556334 0.5925952
83 0.10472192 -0.48620576 -0.68010575 0.00031459332 -0.72993374 -0.03606777 0.06434955 -0.3059886 -0.45201007 0.26860508 -0.22258508 -0.7462388 -0.77349097 -0.2940226 -0.18305442 0.3111546 0.65103066 0.0036408305 0.103618205 0.07972111 -0.399543 0.0541711 -0.72987473 -0.74097824 0.09705275 -0.45550403 0.29379755 0.22882652 0.028434709 -0.44918385 0.2163784 0.026820242 0.2614968 0.4649968 0.085921615 -0.38679487 -0.03920123 -0.18434095 -0.17825484 -0.07135996 0.5178731 0.14196987 0.16868673 0.20549233 -0.29585004 0.0075918483 -0.0017634779 0.21477038 -0.30196348 0.932603 0.38210726 0.14006725 -0.34600896 0.596445 -0.6154977 0.048701502 0.014468282 -0.16629189 -0.4063567 -0.31840074 -0.28888226 0.25016543 -0.7801419 0.7828785
84 -0.15902305 -0.36543366 -0.31733945 -0.22194946 0.3178283 -0.02687532 -0.086335264 0.59245634 -0.030586675 0.22924334 -0.39972666 0.24792612 -0.23414466 0.103837416 -0.6114983 0.20611197 0.03570327 -0.33127636 -0.036628615 0.47345376 -0.007952407 -0.095378004 0.42912194 -0.31227213 0.046048075 -0.23457547 0.5885559 0.0775054 -0.06752697 0.12802863 0.053539418 0.010541467 -0.1946048 0.13932599 -0.10196659 0.36284956 -0.14793009 -0.400704 -0.08479598 -0.7664516 -0.015843533 0.2804548 0.1146245 0.6784505 -0.034333922 -0.03139797 -0.25066882 0.13734159 -0.1960203 -0.39258718 -0.41269916 0.47617605 0.091736905 -0.2319156 -0.20854597 0.34678262 -0.22998387 -0.32170942 -0.2082394 0.51406276 0.28902027 -0.041333087 0.5101682 -0.16683136
85 -0.08460489 0.38425088 0.04300809 -0.5125201 -0.026258722 -0.046555057 -0.20459479 0.027045801 0.09875345 0.68648046 0.060344763 0.056975514 -0.2802207 -0.26405638 0.28466934 0.19718538 -0.076066315 -0.46208167 0.10033243 -0.29732692 -0.6829945 0.20746152 0.12335619 -0.4011352 -0.13113165 -0.65385395 0.012040476 0.13763064 -0.32317686 -0.78861624 -0.40824756 -0.17051223 -0.17589048 0.09137231 -0.28533456 -0.16629449 0.113070965 1.2930286 0.20231709 0.1886546 -0.44380045 0.077761486 -0.69544303 -0.05669634 -0.71024144 -0.23105858 0.69456863 -0.1385081 -0.25412354 0.23053584 0.09724665 -0.17704777 0.83982766 -0.16717976 0.11814112 -0.36225024 -0.16441438 0.11099422 -0.1287764 -0.36026222 0.32793 -0.2540818 -0.22716066 0.2159495
86 -0.23725106 0.522884 0.37453467 0.24400915 -0.18725158 0.018243073 0.20150532 0.06364094 -0.35495755 -0.08919278 -0.19595045 0.03239159 0.5263993 0.06781502 -0.04705955 0.058761522 -0.82541263 -0.3655453 -0.23029655 0.61211216 -0.013228998 0.41761678 -0.37955427 -0.19353615 -0.14399973 0.3331359 -0.03467226 -0.0072088614 -0.17186752 -0.047821358 0.33655146 -0.26030093 -0.6056331 0.40339592 0.21361078 0.4386837 -0.4495075 -0.20225894 0.052564763 -0.16443081 -0.05845858 0.09736773 -0.075592324 -0.074130625 -0.11501524 0.17943953 -0.090564646 0.18539163 -0.21442387 0.17353068 -0.15858175 -0.30456892 -0.18509766 -0.09489532 0.17681159 -0.29797614 0.15015419 0.1462474 -0.34300205 0.21364716 0.057960905 -0.1295897 0.22722214 -0.03055992
87 0.06435856 -0.03774497 0.34505415 0.15098211 0.34330684 -0.0030206665 0.16924973 0.18250626 0.123741746 -0.06307848 -0.08635758 0.120654926 0.53832906 0.11859253 -0.3564478 0.047500852 -0.7052572 0.14359094 -0.12128174 0.27964997 0.5885532 0.28009877 -0.22687829 0.102830544 -0.3969475 0.2730103 0.3644595 -0.12374986 -0.16122496 0.07837613 0.67976785 -0.22259107 0.2984646 -0.45931065 0.035157397 0.16568078 -0.14257263 0.117210135 -0.12947485 -0.59841704 -0.5100223 0.14768945 0.073061 -0.094137184 -0.20072873 -0.78859746 -0.105349086 0.42971855 0.13131447 -0.13883206 -0.26452082 0.07659572 0.5349437 -0.47626996 0.0281732 0.28089112 0.056769334 0.107105024 -0.43471217 0.10730205 0.08008917 -0.40822208 0.09829457 -0.19547477
88 -0.76370156 0.5697571 0.26144436 -0.085969225 0.500826 0.20063525 0.073450424 -0.24371079 0.22643632 0.20227294 0.35611558 0.054770634 0.21314181 0.4584701 -0.18834633 -0.20591548 -0.46860766 -0.35009512 0.1100399 0.40482974 0.47214678 0.7877256 -0.084432915 0.110758305 0.037535906 0.33291596 0.09090176 0.28436494 0.16749832 -0.14914045 0.3084295 -0.21601269 0.036447853 -0.18684676 0.0571464 0.07365888 -0.020046249 0.15364173 -0.06039542 -0.17786819 -0.16906238 -0.016569115 0.07190766 0.21645889 0.073881984 -0.2705966 -0.1966174 0.33280247 0.37958318 0.04707606 -0.43593302 -0.3213616 0.55202556 -0.39334026 0.06503146 -0.07037978 -0.09931987 0.033154324 -0.43615845 0.050145093 0.063355334 -0.033811852 0.023152476 -0.21342468
89 0.22418968 -0.33289504 -0.18644297 -0.111153685 0.05151402 -0.41341734 0.01669209 -0.19453734 -0.6779334 0.21365255 -0.2582584 -0.57037 -0.42349875 -0.22885548 0.2202111 0.110652715 0.40751007 0.41769668 0.14608315 -0.023678733 -0.35317287 -0.03824006 -0.1932044 -0.112458855 0.1380212 -0.50116265 -0.18015307 0.16550937 -0.46158308 -0.00011024624 -0.016925361 0.3341978 0.22230825 0.10960178 -0.13965431 -0.308096 -0.1116343 0.15163629 -0.3046928 0.32989895 -0.3039085 0.4722671 -0.68331 -0.05864466 -0.119748525 0.08401209 0.5650218 0.345203 0.18831822 0.77615863 0.54387856 -0.09377324 -0.23118995 -0.10388268 0.25684264 0.25744733 -0.51218134 -0.38719225 -0.111346066 -0.23080985 -0.06865821 0.5578669 -0.003979102 0.61001945
90 -0.20374484 0.062664896 0.002374865 -0.0066608703 -0.2607235 0.6728674 -0.6044311 0.15574439 -0.05807786 0.16324994 0.045072556 0.34883815 0.26625347 -0.105043635 -0.2969518 0.3986956 -0.06915219 -0.12208034 0.04529635 0.08615643 0.2011467 -0.09507795 -0.1677489 0.39849892 -0.18765709 0.11412915 -0.057334386 -0.06280847 0.052376196 -0.062154427 -0.14744112 0.14946912 0.07300184 0.057950016 0.52610105 0.3780508 0.29598173 -0.27866888 0.47906014 -0.30752137 0.20890057 0.7236522 0.40523666 -0.20369005 0.17800462 -0.024264315 0.66230696 -0.60795164 -0.45327953 -0.378623 -0.15582547 -0.04920405 -0.3582459 0.48712283 0.3404726 -0.4660401 -0.13772589 0.06955083 -0.37713227 -0.106141366 0.38932493 -0.19776958 -0.0764899 0.012952367
91 -0.40671912 -0.170152 -0.59946376 -0.08313828 0.19424719 0.24023497 0.10986159 0.0017986 0.18991649 -0.26319376 -0.48209053 0.081606135 0.12864345 0.0850957 -0.38563114 -0.22709383 -0.41018078 -0.52777845 0.12747031 0.098023064 0.013935387 -0.037833214 0.059599936 -0.41902298 0.35035104 -0.3057096 0.23612337 0.27084088 -0.15752465 -0.062138364 0.5467412 0.057017777 -0.19441907 -0.19595356 -0.4425363 -0.030790186 0.0523389 -0.06707226 -0.17446728 0.1420185 -0.22641365 0.19968233 0.017330885 -0.18921979 -0.25914407 0.31455734 -0.50225204 0.15678889 -0.41569066 -0.36372495 -0.20664914 0.026612148 0.23068705 -0.21146175 0.26801395 0.10365556 0.061429672 0.33529338 0.15585347 0.28666502 -0.12141371 -0.23143509 0.2771176 -0.09670243
92 -0.12758015 0.44897136 -0.1371913 0.6579586 0.8287297 -0.28050104 0.10690617 0.042939156 -0.40318334 -0.18346578 0.5499412 0.31667823 0.32973844 0.25212437 0.108771846 0.8643029 0.77580255 0.4043337 0.057335183 0.03472107 -0.09338984 -0.01512092 -0.05256224 -0.26056552 0.005201012 0.0375564 0.10239071 -0.0030854717 0.100348204 0.07874006 -0.10892014 -0.19380988 0.14204876 -0.54602224 -0.0770061 0.41737387 -0.06586023 -0.8271331 0.25588062 0.026513688 0.43611255 0.62903786 0.1835987 -0.023120023 0.3867273 0.28518924 0.00616589 0.25720096 -0.35818204 -0.5135034 -0.53049386 0.20200962 -0.11234206 -0.2062163 0.53486806 0.49722016 0.5433231 0.022897497 -0.16510808 0.104064405 -0.40501273 0.29160982 -0.4117344 0.8247178
93 -0.24838705 -0.10808337 -0.124563456 -0.19842471 0.24393938 0.12569398 -0.1006095 0.24008319 0.25436622 -0.52131826 -0.40485126 -0.0959115 -0.13000298 0.16265143 -0.44363537 -0.0036792308 -0.30601293 -0.07614413 0.057469152 0.28837693 0.015499473 0.17221558 0.37828684 -0.18754117 0.2637863 -0.23268497 0.5552517 -0.032005094 0.089178555 -0.1187436 0.18988442 -0.17270264 0.0029364154 -0.09771771 -0.3824237 -0.036114894 -0.19408977 0.07084434 -0.057340126 0.06944679 0.22123486 0.3484795 0.032635875 0.3804172 -0.07415991 0.35731944 -0.40239006 0.12537496 -0.17879803 -0.20880046 -0.39015645 0.23365283 -0.08130942 -0.3520609 0.06047146 -0.10470331 -0.023761183 0.08004496 0.3205184 0.47803113 -0.1166156 -0.45334664 0.23924813 -0.2558961
94 -0.01462011 0.06172481 0.2604621 0.14839688 0.21054229 0.47944188 -0.44350117 -0.161035 0.0026468989 0.11174943 -0.57368195 0.13298827 0.5013847 0.44804323 0.3588551 0.26473117 -0.6229593 -0.49034253 -0.0020108223 0.18758291 0.2647372 0.30753517 -0.24489136 0.027238965 -0.2542654 0.33789748 0.31531122 0.13058025 0.030875927 -0.006459523 0.06637919 0.10870677 0.018016607 0.28868926 -0.25549966 0.12697518 0.16087498 -0.041660655 -0.42664373 -0.24993017 -0.16855022 0.40630102 0.02352281 0.086501315 0.1353724 -0.18419234 0.0012354627 0.25441563 0.18009254 -0.19861609 -0.6938548 0.10153834 0.26050854 -0.22500482 0.07952509 -0.28847772 -0.20340407 -0.053006932 -0.35776365 0.29473948 -0.16638532 -0.39982697 0.1352635 -0.31985575
95 0.29341358 -0.89258265 0.40820903 -0.3906845 0.10775916 0.20008779 -0.67484987 -0.00287183 -0.2947045 -0.11498624 0.16162479 -0.6224586 0.28775585 0.5498006 0.16945183 0.23053774 -0.18220586 0.25430214 -0.089079164 0.5005084 0.28953615 0.1968966 -0.6703408 0.41542462 -0.2941599 0.248173 -0.2952834 -0.17708504 -0.2657605 0.21978858 0.07189216 0.61885124 0.2933789 0.017284296 0.09283994 -0.14643636 0.23346138 -0.30670673 -0.107316285 0.1863797 -0.4867512 0.36882535 0.25867647 -0.14060906 0.1816239 0.11859907 -0.19834623 0.026613936 -0.1840595 0.13089114 0.14261682 0.0066103414 0.17156199 0.11351841 0.03999898 -0.1806494 -0.51942474 -0.009630173 -0.67002654 -0.118220314 0.3828259 0.4169243 -0.4173444 -0.07251472
96 0.19077359 -0.22933966 -0.20318374 -0.22878997 0.31654957 -0.2592027 0.18729487 0.06992847 -0.14301251 0.11954176 0.11931257 -0.03197536 -0.26166227 -0.07584609 0.1595326 0.09349499 0.0053929314 0.57990885 -0.083369695 -0.16166514 -0.46408784 0.009074591 -0.0678083 -0.32940853 0.29147908 -0.10059075 0.039887697 0.070485935 -0.4505669 0.4983709 -0.054281235 0.26394293 0.20721224 0.07445031 -0.2955152 0.22877175 -0.2306453 0.47980928 -0.19212085 -0.09568027 -0.3681066 -0.087516785 -0.51232743 -0.22127467 -0.49328142 -0.24666283 0.4176571 0.36516848 0.03814497 0.50426924 0.50116074 -0.25587618 -0.169822 -0.057586085 0.4582502 0.15202552 -0.1569949 -0.21778658 -0.35110494 -0.557317 -0.055428475 0.35482135 0.14905325 0.42926806
97 0.24033289 -0.47959563 0.24785106 0.14769813 0.11373879 -0.22902726 -0.7597078 -0.042740338 -0.31574818 -0.059605297 -0.3041824 -0.4440648 -0.37104243 0.32906997 0.21448447 0.022357237 0.09732485 0.12523167 -0.2689461 0.24531409 -0.1995824 -0.35508448 0.28062445 0.06803611 -0.14492388 -0.026172452 -0.31041214 0.044725914 -0.1014186 -0.22574952 -0.1110941 0.3790541 -0.20488492 -0.28598526 -0.28798446 -0.33473963 0.31156147 -0.03653203 0.08126728 0.07803179 0.08721185 0.4959104 -0.10711259 0.064382434 0.29927364 0.09527604 -0.15818253 -0.14178377 0.13937846 0.35589308 0.0020600557 -0.10633629 0.21695647 0.06681202 0.013057655 -0.33147526 -0.38965905 -0.052216277 0.12434082 0.32467866 0.3068726 -0.0063824486 -0.028101388 0.09134354
98 -0.6086018 -0.08637707 -0.7575058 0.0034962595 0.062127843 -0.27128026 -0.3038022 0.026927046 0.2395747 -0.14864638 -0.6311632 0.741917 0.27389723 -0.058174163 -0.71171296 -0.001087971 -0.32747722 -0.270771 0.44105804 -0.53295296 0.17767534 0.13958246 0.4658829 -0.10756768 0.7568338 0.19546685 0.42780948 -0.31846905 0.32492524 0.36997172 0.013309956 -0.16936892 0.019446835 0.45069665 -0.63073444 -0.10844837 -0.11580302 -0.49169758 -0.5199366 -0.1598687 -0.73241603 -0.27476272 0.09421682 -0.26870963 -0.26998505 0.1509262 -0.40954775 -0.20933008 -0.004993953 -0.14960124 0.296219 0.01972428 0.08632812 -0.57589996 0.2187252 -0.08738732 0.29422548 -0.20656738 -0.6135984 -0.40639874 0.057865057 0.2410022 0.40389746 0.3775079
99 0.29690278 -0.42219636 -0.15968013 0.007687345 -0.32608956 0.028826043 -0.1503569 -0.24775499 -0.45439082 0.04149741 -0.30512866 -0.3318225 -0.3606069 0.23164326 -0.021848436 0.06096876 0.2713972 0.38798764 -0.12787272 0.13113545 -0.36693868 -0.46320596 0.15181737 -0.08444896 -0.050774388 -0.2804192 -0.31091326 0.048997015 -0.14254364 -0.29749656 -0.25135335 0.23935823 -0.011717839 0.121358156 -0.16220714 -0.23411101 -0.07603193 0.042039223 0.08819996 0.023659807 0.25167912 0.7078094 -0.20563096 0.25758582 0.08752406 0.19413772 0.24844745 0.07275337 0.11632955 0.5040971 0.29864016 -0.045885805 -0.3950442 0.10532365 0.060759474 -0.21897309 -0.54033566 0.0887073 -0.02209197 0.048659183 0.17587979 0.028447092 0.040979706 0.31644917
100 0.16288207 -0.04454097 -0.5604368 0.11031217 0.044594318 -0.2709236 0.24391398 0.062494427 -0.7976118 -0.38939732 0.35118014 -0.15394917 0.22124407 -0.034497492 0.8032339 -0.5004381 -0.7076948 0.3120984 -0.38632238 -0.26034778 0.6513959 0.066513374 -0.021760434 0.41383675 0.09498935 -0.48428032 -0.14774792 0.84243727 0.045745656 0.17021403 -0.18188137 -0.37953803 -0.013798565 0.358064 -0.14912568 0.03633527 0.03341963 0.3591479 0.36949918 0.070450366 -0.49443424 0.049803548 -0.54961807 0.30517757 -0.09967174 0.17469767 0.63218564 0.24588944 0.18718238 0.036191843 -0.08684941 -0.23008133 0.0349486 -0.024654835 -0.4670271 0.058982532 0.074561924 -0.1382035 0.12794885 0.089894064 -0.30846393 0.46996707 -0.45292622 0.030509492
101 0.23739667 -0.7412273 0.3910331 -0.02541235 0.01535213 0.04227574 -0.6079333 0.15270662 -0.33843327 -0.033242196 -0.012215093 -1.0043427 -0.07644084 0.5984021 0.23001644 0.09417188 -0.3134707 -0.023350388 -0.30504268 0.3450328 0.27387598 0.16281335 -0.4930419 0.4383665 -0.50155485 0.59614396 -0.12080175 -0.37915555 -0.081614316 0.51319706 0.17630823 0.70867115 0.678707 0.013198039 0.3133636 -0.23241591 0.3896164 -0.44621035 0.2842244 0.31195602 -0.18190314 0.19445913 0.061714694 -0.15022363 -0.0151447505 -0.02782078 -0.11022261 -0.1873871 0.265665 0.12930077 -0.045130916 0.017069608 0.11380112 0.23330444 -0.099152185 -0.24670734 -0.6062549 -0.10588466 -0.8222623 -0.026373312 0.47449797 0.5287956 -0.3061453 -0.16514148
102 0.33900094 0.016352572 -0.11351323 0.06645901 0.20747414 -0.5728469 0.41468385 0.104934804 -0.5090829 0.34144866 0.00394848 -0.14800285 -0.2917512 -0.5996824 0.13030897 0.07028078 0.36867282 0.24677324 0.08125513 -0.42965752 -0.39334074 0.1313404 -0.29638335 -0.29685187 0.5786809 -0.5335287 -0.14241357 0.19950914 -0.521502 -0.113841206 0.27864832 -0.041298397 0.13751954 0.2642424 -0.073274985 -0.3198067 -0.061994374 0.07453419 -0.5110178 0.13405327 -0.41806582 0.034110397 -0.7746145 -0.05062864 -0.11386669 -0.28064692 0.72680205 0.5636882 0.099326134 0.5217544 0.39297086 0.12332271 -0.008209519 0.023858577 0.21300367 0.3539402 -0.1799714 -0.44956732 -0.24572673 -0.20383225 0.103299476 0.55595124 0.030680306 0.7436523
103 -0.3024642 0.12781258 -0.09128084 -0.122340366 0.09925898 0.18558183 0.10917215 0.27655226 0.28345335 -0.44683367 -0.15483604 -0.16951612 0.012075715 0.2684393 -0.41491106 -0.116646215 -0.566031 -0.3231612 -0.19585136 0.43686265 -0.001884982 -0.014668608 0.44168723 -0.24844053 0.39742526 -0.11241108 0.4884104 0.07076553 0.10436593 0.037367515 0.0013871938 -0.09366196 -0.11960861 -0.0865314 -0.28889468 0.11492449 -0.064232506 0.31887093 0.05308712 0.13532591 0.110516146 0.23244822 0.12408008 0.4165859 -0.23784116 0.34284824 -0.7443276 0.18564491 -0.04347141 -0.16131559 -0.342517 -0.058148548 -0.06780913 -0.35710102 -0.025060944 -0.20818362 0.16266751 -0.14231306 0.3279275 0.4915247 0.14686194 0.02760017 0.13562492 -0.22324115
104 0.14408106 -0.15590747 -0.4829465 0.10239315 0.2497373 -0.32581708 0.31083763 0.14918636 -0.8006932 -0.01073277 0.26690882 -0.33180758 0.12958886 -0.33864546 0.6413019 -0.41391206 -0.34221202 0.44448346 -0.13918783 -0.42305943 0.23307918 0.11455957 -0.5013735 0.22749773 0.116319686 -0.43060544 -0.2407456 0.6983834 -0.19182506 0.14142072 0.010358848 -0.22631373 0.4095037 0.24373095 -0.13151518 0.0026127659 0.16538024 0.2962456 -0.02418292 0.15813778 -0.50175375 -0.013408303 -0.72253406 -0.12755021 -0.032319892 -0.079920344 0.96024144 0.39749846 0.2638651 0.40836933 0.057658862 -0.0008842945 0.06513235 -0.12886898 -0.31354755 0.16829412 -0.15064193 -0.21968 0.06306525 -0.015722662 -0.3165184 0.74775434 -0.36813983 0.25810605
105 -0.2599197 0.12250131 -0.24733692 0.036812216 0.357438 -0.18574706 -0.31854135 0.15495238 0.24463633 -0.6058029 -0.29846483 -0.28568172 -0.22503135 0.052811578 -0.39978868 0.2429717 -0.3634273 -0.4739573 0.08979988 0.3178351 0.16330862 -0.09216939 0.49691153 -0.27527934 0.10831697 -0.4288513 0.43197906 0.10522446 0.055476733 -0.16330004 0.052109733 0.20474422 0.3485976 -0.13595617 -0.66516995 -0.14112312 -0.24557002 0.20049468 -0.09305525 0.15736514 -0.26669338 0.11764431 0.078520834 0.16012783 0.112793736 -0.013299286 -0.24293453 -0.096606545 -0.13334937 -0.03786448 -0.42048675 0.1103888 0.262107 0.023717642 -0.15267703 -0.06370132 0.11507113 0.2579336 0.08901463 0.19282761 0.08066499 -0.50909513 -0.17693523 -0.07615834
106 0.26766828 0.17954156 0.022137206 0.01066342 -0.49355185 -0.097905554 0.34520042 0.1494047 -0.038941454 -0.33433825 -0.031783465 0.34527785 -0.16954789 0.08638799 -0.008664973 -0.3862028 -0.036247775 0.23240235 -0.24522518 0.032019008 -0.37138426 -0.39426637 0.57006335 -0.3325076 0.026295148 -0.07803662 -0.22405814 0.1832045 0.22273952 -0.3498486 -0.024940532 -0.067915976 -0.35023212 0.062228784 -0.29515186 0.0011881255 -0.36066258 0.11647053 0.3534128 -0.33260477 0.36302 0.71723926 -0.04878993 0.6517335 0.41227975 -0.13711439 0.06033483 -0.16973707 -0.026705477 0.07259939 -0.21359512 0.2551077 -0.015176341 0.21135396 -0.33522522 -0.025558094 -0.08230515 0.34226316 0.4900835 0.19417833 0.27793196 -0.4529699 0.4670592 -0.2083583
107 0.10882329 -0.1124017 -0.45524755 0.08053938 0.11356033 -0.3296443 0.26221418 0.16460748 -0.88300234 -0.11654507 0.21719591 -0.2415941 0.000100165606 -0.21352059 0.69781125 -0.28373522 -0.42757502 0.40387407 -0.12861955 -0.51430017 0.1196847 0.018483212 -0.09754747 0.24713208 0.15480494 -0.51879984 -0.18436348 0.84579486 -0.16367353 0.12531193 -0.21206869 -0.31242192 0.13888782 0.37477207 -0.23546833 0.04543788 -0.07651297 0.2484808 0.28126147 0.114508145 -0.30247352 0.12241379 -0.5837341 0.23500563 -0.109539114 -0.02215212 0.9372356 0.43095475 0.14844456 0.19034213 0.036983453 -0.28771842 -0.014239155 -0.11728157 -0.41575515 0.17803928 0.038927853 -0.1732108 0.16422057 0.045646723 -0.1471344 0.628379 -0.4119091 0.17745739
108 0.28174385 0.25906768 -0.38711882 0.12717047 0.5614422 -0.16335005 0.37796074 0.17945933 -0.34696048 -0.290844 -0.14706993 -0.32235467 0.026776403 0.18029442 0.1430882 -0.48605692 0.79559016 0.349909 -0.09985534 -0.31213784 -0.2842972 -0.14630468 0.1172842 -0.18745565 0.11262022 -0.3806967 -0.17685035 0.2684895 -0.19939114 0.18964785 0.26420128 0.1551063 -0.0072928257 -0.11665266 -0.02068466 -0.34919024 -0.31815583 -0.18232706 -0.4244828 -0.4469878 0.095922515 0.44029996 -0.31456748 0.038397204 0.060168438 -0.08569503 0.19785632 0.22026148 0.14127398 0.5531326 0.33205706 0.035689034 -0.10043132 -0.6158658 0.6246723 -0.007297918 -0.1553049 0.11220445 0.056722254 -0.14219561 0.3981129 0.28412133 -0.73267174 0.5328084
109 -0.13719791 0.07230231 0.06861357 -0.08320324 0.29140884 -0.27475706 0.0599218 0.10823117 -0.51758075 0.40981635 -0.06387416 0.0873142 -0.04907185 -0.4951775 0.5119072 0.11854561 0.20284288 0.24331951 -0.14297193 -0.18074109 -0.12535605 0.18406178 -0.19560988 -0.22849736 0.50501853 -0.5742959 -0.11446809 0.17332853 -0.47781873 0.17790392 0.21177548 0.16426021 0.13719353 -0.08226511 -0.071826406 0.18587011 -0.17215921 0.07065028 -0.47226542 0.31706965 -0.33759344 -0.30010983 -0.6559592 -0.0501018 -0.054427773 -0.5712104 0.7746148 0.033572763 0.26473263 0.09895566 0.11881068 0.10283083 0.21012576 0.12075516 0.21380192 0.10214129 0.2376253 0.19267344 -0.1676909 0.017041832 -0.22986335 0.49141014 -0.022951894 0.6015519
110 -0.509213 0.20460093 -0.88383085 0.44747305 -0.35578945 -0.82025534 -0.31268358 -0.36986822 0.09453863 0.6594597 -0.072009884 0.19205223 0.09408906 -0.049181804 -0.3052154 -0.53060555 -0.025698284 0.29242778 0.44399118 -0.59211546 -0.023305641 -0.07594435 0.52968097 -0.11380539 0.39336416 0.08916373 -0.14762938 -0.38270962 0.41860822 0.6782597 -0.30760682 0.006251827 -0.25833532 0.55112284 -0.5622014 -0.28545475 0.08703768 -1.0020901 -0.35244417 -0.30775708 -0.63678557 -0.122259796 0.39929828 -0.3352164 -0.48966607 0.3980021 -0.13450065 -0.28426954 0.44144347 0.19345972 0.53907394 -0.05598077 0.24251288 -0.31366724 -0.039706595 -0.4890802 0.17800738 -0.54587847 -0.46677825 -0.41917276 -0.050197117 0.5688395 -0.11991999 0.31348628
111 -0.14513864 0.32910392 0.032522198 0.026550267 0.36020908 0.019230943 -0.044826597 -0.23771569 0.08291803 -0.29750395 -0.14403835 -0.031462103 0.010249168 0.02936937 0.13190861 -0.14992878 0.11034637 -0.06342347 -0.0041655824 -0.36798558 -0.13440606 0.10996243 0.11116881 -0.2475858 0.101437286 0.092659265 -0.041938353 -0.32837102 0.1528705 0.08350259 -0.06358285 -0.17104793 0.11407633 -0.0942176 -0.48950392 -0.34078884 -0.16401973 0.38106748 -0.09150594 0.025918864 0.41813588 0.46485943 -0.066489115 0.2556339 0.28253466 -0.27966842 -0.4625951 0.209363 0.12539785 -0.13617434 0.30221847 -0.37200055 -0.02565717 -0.009720905 -0.40726483 0.11656991 -0.10616 0.09758918 0.08053115 -0.12273532 -0.0853388 0.04866311 0.42378956 0.12478468
112 0.30588865 -0.7405921 0.71788716 -0.08012392 0.46607712 0.026160471 -0.54955524 -0.2296035 -0.104463086 0.3167265 0.032871917 -0.6971496 -0.18289873 0.42441544 0.30555218 0.05068952 -0.28766343 0.09748674 -0.06284115 0.83017135 0.43934053 -0.020776277 -0.4279705 0.493365 -0.5281508 0.56429946 -0.037370086 -0.2719115 -0.23572698 0.4069138 0.24664901 0.7301112 0.3084042 0.070475005 0.27032414 -0.41772157 0.5559995 -0.24147674 0.06409129 0.03446871 -0.6297749 0.31835547 0.21875666 -0.009063557 0.028625704 0.13263759 0.047156125 -0.21731727 -0.1270132 0.3932187 0.097021855 0.21984646 -0.0042600706 0.15878904 0.025769845 -0.23728907 -0.29993892 0.13978668 -0.7956586 -0.55072224 0.07006161 0.05030004 -0.28071642 -0.056520272
113 -0.2699588 0.18851057 -0.03558252 -0.1244768 0.24429667 0.031186119 0.13040741 0.11583142 0.16266587 -0.37597618 -0.26930395 -0.039332043 -0.10967152 0.19605263 -0.451556 -0.15136185 -0.46673575 -0.2562625 -0.22395143 0.37161988 0.20625365 -0.018888993 0.5094299 -0.1756475 0.4233383 -0.07352261 0.3707468 0.0004413277 0.052026764 -0.027636804 0.35724866 0.06603726 0.047779545 -0.3231362 -0.20774913 0.122721806 -0.15259956 0.11017301 0.10788521 -0.043262854 0.22231513 0.3584243 0.10304264 0.27260816 -0.1673427 0.04482235 -0.5632831 0.09594992 -0.28394252 -0.107022986 -0.23278062 0.033865843 -0.08257753 -0.24814603 0.05434966 0.033420343 0.20740247 0.24534984 0.16227674 0.5079386 -0.04442011 -0.3669009 0.314638 -0.03748381
114 0.2657382 -0.11081636 0.09111929 0.0006163176 0.1470998 -0.50210714 -0.21996443 -0.11603552 -0.5008454 -0.114881955 -0.039355453 -0.22881654 -0.21070224 -0.09543565 -0.08542803 0.17175603 0.3415615 0.43906704 -0.017827932 0.16654041 -0.2902981 0.055751875 -0.07480969 -0.24673495 -0.06091267 -0.29631734 0.10310499 0.06560336 -0.22509897 0.117038466 0.21839307 -0.20408411 0.15408261 0.038289964 -0.10441066 -0.18534178 -0.041644104 0.23975587 -0.2012416 0.250086 -0.109621234 0.43640462 -0.42361847 0.20852005 -0.073575154 0.12619768 0.36145082 0.34986562 0.19207709 0.4041965 0.3016468 0.008122293 -0.08527737 0.018561259 0.060096238 0.04125771 -0.34492865 -0.21169993 0.07372758 -0.12211552 -0.078688905 0.26285812 -0.13846135 0.48958793
115 -0.20240788 -0.00998123 0.20367035 0.18331306 0.08524667 0.3428812 -0.30291247 0.15828583 -0.062439688 -0.0899616 -0.28212446 -0.28237724 0.10264248 0.29893422 0.029954303 -0.11431365 -0.6849324 -0.08580112 0.03047868 0.39181566 0.0073126256 0.4451318 0.029292658 0.21191889 -0.08814193 0.079078734 0.15223621 -0.27915663 0.23163007 0.36018854 0.37575445 0.22455117 0.74834406 -0.12546939 -0.013485037 0.07916142 0.04462099 -0.15263614 -0.2189811 -0.21326986 -0.5594654 0.104130015 0.2827782 0.06743517 0.15092774 0.09271875 0.14371909 -0.103753686 0.175637 -0.27856737 -0.48081812 -0.44885722 0.14433536 -0.35534507 -0.3606765 -0.1985096 0.13527803 0.111711204 -0.15546633 -0.11266332 -0.08518702 -0.27934748 -0.14370233 -0.24037704
116 0.119069286 -0.15118536 -0.5414049 0.2702641 0.03301557 -0.034498908 -0.004952684 0.33104503 -0.77516776 -0.3855601 0.40465438 -0.020278307 0.39860862 -0.3012387 0.9787599 -0.509151 -1.1187292 0.38815558 -0.18150443 -0.5619686 0.4242111 -0.013997495 -0.16847524 0.61606795 -0.20487201 -0.3970197 0.018558383 0.9021476 0.017725058 0.18935516 -0.34453905 -0.55594665 0.14626858 0.5346114 0.067312144 0.16726133 -0.07149817 0.28327826 0.60439265 -0.03911567 -0.3988611 -0.36524373 -0.3959374 0.26233733 0.2728737 0.21932822 0.86015046 0.17440803 0.15721184 -0.08849554 -0.13782322 -0.1686093 0.2822587 0.022822432 -0.46660453 -0.0022586733 0.31579542 -0.20878597 0.3107153 0.33361244 -0.44544095 0.7154231 -0.7526771 -0.21925369
117 -0.004887432 -0.12808287 -0.1402531 -0.2338146 0.041501336 -0.34703845 0.110422015 0.026269644 -0.35559964 0.21059974 -0.16426025 -0.22301914 -0.16459219 -0.37606072 0.17082742 -0.030231245 0.5222674 0.2415515 -0.023971751 -0.039983295 -0.34137848 -0.015826343 -0.2955276 -0.060001984 0.1273691 -0.4945415 -0.028657105 0.23330474 -0.34071288 -0.06017263 0.19287714 0.17140973 0.028094772 0.057049923 -0.11095895 -0.30045074 -0.069515824 0.20024258 -0.4296217 0.38728616 0.028002344 0.1832926 -0.49954048 0.058828846 -0.22334364 -0.17540623 0.64722 0.26762405 0.15852362 0.5557932 0.48688194 0.14659378 -0.20226179 -0.12199743 0.20061369 0.094919465 -0.32442135 -0.13738564 0.02498911 -0.15149742 -0.037490256 0.34594676 -0.0216605 0.60829496
118 0.3242382 0.21709332 0.30707785 0.31831223 0.061457135 -0.17073433 0.5476454 -0.345471 -0.66601 0.10035446 -0.18362507 -0.29083708 -0.7598764 -0.36262384 -0.08870973 -0.057546094 0.33783546 0.11050896 -0.4204365 -0.7505101 -0.23312181 0.4190874 -0.2827348 -0.75849885 0.43137544 -0.34913617 -0.38811952 0.36875346 -0.083876446 -0.35457614 0.55800545 0.20510834 0.27807528 -0.003134817 -0.12889814 -0.049675122 0.3176971 -0.038036376 -0.40950644 0.09028642 0.08035143 0.16797248 -0.35833722 0.114185125 0.2597873 -0.6238407 0.4782654 0.5194107 0.101433046 0.31053567 0.4987349 0.106337726 -0.1995076 0.51210684 -0.09326635 0.36519843 0.19872627 -0.65871334 -0.3362425 0.023152843 -0.22905894 0.66031045 0.16131374 0.30538318
119 0.26314202 0.18547991 -0.0992658 -0.13411102 0.28622934 -0.20704374 0.14478621 -0.09798418 -0.45963833 0.12113356 -0.09852043 -0.35016125 -0.2591849 -0.2805243 0.25275832 0.14804283 0.22978954 0.16243112 0.1973978 -0.23319979 -0.5770974 -0.044766463 0.0026932769 -0.16416302 0.14600548 -0.24409395 0.27548262 0.07440658 -0.059783205 -0.25686327 0.09497691 0.01982888 -0.105185196 -0.12717818 -0.11721602 0.12814094 -0.10956389 0.14700595 -0.08370395 0.21659376 -0.026325699 0.27300087 -0.40602463 0.12753417 -0.19013168 0.2514158 0.18306655 0.207182 0.38959497 0.72284317 0.08158281 -0.22783718 0.15595342 -0.19664936 0.10791172 0.12499882 -0.3850157 0.100598276 0.09479557 -0.17441179 -0.24301438 0.14257926 0.19300966 0.24886921
120 0.13133766 -0.28887773 0.06976956 -0.12058901 0.13888788 -0.4606238 0.09300812 -0.23981579 -0.6681126 0.02014105 -0.14044856 -0.3846383 -0.6510931 -0.32095554 0.32142776 0.14909808 0.3715386 0.36908102 -0.12699887 -0.065365806 -0.30615652 -0.1766209 -0.2637844 -0.07912995 0.13568294 -0.39806122 -0.00036884844 0.24476215 -0.42417878 -0.06958191 0.084472634 0.41910788 0.11226549 0.055897817 -0.10077545 -0.3990302 -0.033351317 0.32868212 -0.15530214 0.093386814 -0.17353028 0.6274724 -0.4989062 0.036895372 0.005348563 0.0955115 0.52350354 0.31753784 0.18904942 0.71388847 0.31858394 0.057740934 -0.12510338 0.023697788 0.1985042 0.15568724 -0.6105885 -0.21128935 -0.19117126 -0.1200371 -0.058455013 0.47716722 0.210111 0.4942315
121 -0.2432917 -0.34943125 -0.21885088 -0.24194713 0.23397096 -0.2923499 0.36879602 0.01744928 -0.032281876 0.4239562 -0.047055107 -0.08301434 -0.045495305 -0.118548185 -0.06327212 -0.017964512 0.097172424 0.19498003 -0.04843408 -0.29157722 0.019246504 0.15240405 -0.1906625 0.0779807 0.09949736 -0.36967024 -0.2361692 -0.07374312 -0.23650277 0.1439348 0.17768663 0.020402167 0.1077698 -0.35556418 -0.12790273 -0.35474992 0.17450558 0.25698715 -0.36258116 -0.028290465 -0.30532655 -0.18873028 -0.44543573 -0.0023904294 -0.47369033 0.2573677 0.5307688 0.14852376 0.17021601 0.09946321 0.24074884 0.10042873 -0.55571103 -0.7803657 0.20903713 0.3835819 -0.45941103 0.047412604 0.08596681 -0.65102744 0.12058067 -0.279671 0.1381843 0.5105806
122 0.15765671 0.12163493 -0.2831809 -0.18498395 0.2805419 -0.43272847 0.38274926 0.13875264 -0.23417462 0.328718 -0.16155872 -0.26770806 0.107855245 -0.040223435 0.18965797 0.16645157 0.4480875 0.18127882 0.44511124 -0.0388018 -0.25797588 0.4412713 -0.16968127 -0.3452708 0.15959376 -0.48915237 -0.25558442 -0.18004426 -0.35771582 -0.003253702 0.35480946 0.061497815 0.16524449 -0.0481816 -0.0331366 -0.0479931 0.36250585 0.38986868 -0.30875823 0.4139225 -0.14436156 -0.15462613 -0.47737852 0.06803761 0.13303784 -0.19338034 0.42017233 0.32314914 -0.033997737 0.20117787 0.22282809 0.04498051 0.07425288 -0.31635162 0.058107674 0.2850727 -0.0301987 -0.1757788 -0.16518506 -0.16812295 0.0573166 0.28392625 -0.09483303 0.439033
123 0.21999973 -0.44230688 0.22096387 -0.19477193 0.2549608 -0.18598379 -0.5045401 -0.12297854 -0.6018729 0.5521491 -0.17525354 -0.6969814 -0.29417622 0.12174406 0.15671039 0.21984288 0.03681268 0.298896 0.06770878 0.3841499 0.20237803 -0.024253314 -0.6061031 0.12641878 -0.2748211 -0.027856395 -0.07273975 -0.002352111 -0.30754593 0.07536734 0.031882796 0.520704 0.3162872 0.05850371 0.08489691 -0.38139638 0.2594389 -0.17706683 -0.26253724 0.30779323 -0.40478092 0.24362467 -0.24373001 -0.20545442 -0.1682063 0.048406232 0.3247109 0.19118372 0.15165865 0.4803839 0.17988838 0.0316173 -0.13009372 -0.054564178 0.214603 -0.09330009 -0.582899 -0.12019938 -0.4601008 -0.03991647 0.13782589 0.26542795 -0.108121775 0.23707744
124 0.17494498 -0.4434771 0.16850153 -0.13306904 0.14469844 -0.49112654 0.13957778 -0.26691094 -0.52686775 0.23013324 -0.24000672 -0.30334875 -0.40926424 0.07818845 0.16530928 0.17792581 0.5083633 0.14383614 -0.1955606 -0.030434433 -0.10903783 0.09696325 -0.24082492 -0.1575447 0.093639135 -0.17706804 -0.36798972 0.04206343 -0.34893686 -0.14339739 -0.009489059 0.14370811 0.010112375 0.006559599 -0.09031255 -0.16778961 0.26282778 -0.10517192 -0.28097117 0.26717055 -0.31928986 0.20622449 -0.5426592 -0.12569915 -0.2691114 0.07432611 0.6711168 0.40536758 0.18898298 0.63899493 0.44581303 0.15093622 -0.18829696 0.041582398 0.14476317 0.28971025 -0.33762607 -0.17871952 -0.15849307 -0.33365178 0.057312746 0.3758304 0.06260691 0.41486245
125 0.1395159 -0.24214044 0.16046444 -0.11169413 -0.15511881 -0.2578917 -0.012679368 -0.262701 -0.53752345 0.020955645 -0.109085366 -0.3009714 -0.3023472 -0.1764328 0.14846295 0.039079472 0.19336754 0.32321265 -0.12095345 0.23789337 0.10565056 -0.45664677 0.1806454 -0.29630238 0.13668269 -0.4510876 -0.036293827 0.21796842 -0.2395553 0.26065052 0.10128804 0.13927792 0.03706622 -0.08855183 -0.18233286 -0.21033823 -0.29165846 0.16518271 0.27005023 0.0362283 0.24211457 0.42175776 -0.21385494 0.3337239 -0.07013315 0.046529517 -0.0742169 0.22504616 0.034392595 0.5288882 -0.04851251 -0.2160439 0.29755306 0.23793384 -0.021055825 0.18547021 -0.18819018 -0.33359692 0.12931351 0.37996736 0.22949973 -0.25159526 0.17210355 0.09240721
126 0.1418455 -0.41414538 -0.06698929 -0.19834104 0.41196412 -0.12253085 -0.2708503 -0.11103641 -0.24617568 -0.05320953 -0.45489007 -0.44882417 -0.3881055 0.37089038 -0.28508118 0.24308859 -0.24707165 0.63452995 -0.058136635 0.41666934 0.18239227 -0.48512623 0.28367987 -0.029843427 -0.0844244 -0.03125146 -0.047142006 0.12659308 -0.21983752 -0.06379354 -0.09030768 0.5242192 0.056098156 -0.13117394 -0.21521254 -0.13395031 -0.13725752 -0.013003927 0.20109811 -0.034621798 0.06533845 0.5521647 0.02425909 0.52762675 -0.13729179 0.17137696 -0.3980367 0.070554376 0.44779325 0.4148074 -0.18342637 0.07626166 0.07380279 -0.009761989 0.048357956 0.25127214 -0.38246477 0.06335956 -0.10020695 0.00327605 0.15992823 -0.011374481 0.14435871 0.094538674
127 0.4554496 0.18644261 -0.123538665 -0.13764024 0.10922889 -0.5544538 0.16220242 0.05226456 -0.5867964 0.03681916 -0.2399427 -0.0067976415 -0.4158371 0.24643812 0.07496547 0.13603124 0.1371615 0.2031838 0.033262644 0.046635352 -0.2975728 0.1612485 -0.24114425 -0.21468952 0.21145582 -0.21060637 0.15338092 0.11642868 -0.13822079 -0.08280573 0.3452798 -0.03819989 0.023735384 -0.310849 -0.35180774 -0.042924084 0.14696202 0.34829885 -0.25986275 0.28804415 0.099737816 0.36748695 -0.28683037 -0.042476088 0.13853754 -0.061160192 0.29675245 0.44527823 -0.2496387 0.44041592 0.045036115 0.20618914 0.032528535 -0.25898466 0.11844463 -0.19860396 -0.106700815 -0.29101104 -0.33297193 -0.27744576 0.21060489 0.18911678 -0.14530143 0.45659125
128 0.1049296 -0.2565687 -0.08461349 -0.3657304 0.1545663 -0.3355879 0.06067329 -0.090207845 -0.6156768 0.22008148 -0.07355149 -0.2728492 -0.47805518 -0.08340198 0.19379199 0.27346787 0.24444553 0.31258056 0.058082957 0.07105975 0.016778052 0.052720923 -0.29778123 -0.3213333 0.16735765 -0.4046387 -0.040315893 0.25340158 -0.51105547 -0.07184325 0.092848696 0.06695419 0.27374634 0.017283488 -0.31643236 -0.3112167 0.077074446 0.25666595 -0.30518454 0.25476834 -0.28013295 0.2906612 -0.7186537 0.025589429 -0.13229783 0.07311781 0.6869652 0.6644337 0.06417182 0.5987277 0.30125135 -0.11489278 0.0137426555 -0.14953654 0.3224966 0.51263195 -0.34267217 -0.33711046 -0.24279535 -0.30979455 0.12770109 0.47790536 0.2675433 0.695802
129 -0.05678755 0.0833655 0.07041218 0.18622702 -0.083580285 0.2598716 -0.43989286 0.03918556 -0.020602336 0.20315492 0.059991118 0.13851538 -0.001746757 -0.0060248733 -0.2453725 0.26819113 -0.09638454 0.1256116 0.04766132 0.07255423 -0.027483292 -0.23159869 -0.06162551 0.31089783 -0.038156454 -0.009810319 -0.26636982 0.096979655 0.23763949 0.08300062 -0.2521988 0.36023027 -0.14802185 -0.072548404 0.17015849 0.28864682 0.07152226 0.06992793 0.3325848 -0.34387726 0.048857197 0.5378901 0.3037021 -0.39261392 0.109140374 0.10089667 0.5045292 -0.4727872 -0.18688624 -0.14522171 -0.067815945 -0.19161688 -0.18422697 0.2956245 0.074300095 -0.6623846 -0.4060148 -0.046846274 -0.11383612 0.15957944 0.06822458 -0.19927123 -0.11971253 -0.061126053
130 -0.5884648 0.2625285 -0.9540381 0.46930692 -0.520617 -0.9662191 -0.4739862 -0.4766531 0.27493638 0.59863436 -0.115497924 0.32862496 0.13049686 0.026891656 -0.51223546 -0.6371985 -0.09435836 0.395679 0.62403536 -0.6506989 0.032674372 -0.2705475 0.7094725 -0.08061907 0.46241656 0.25709924 -0.2094794 -0.49841154 0.6261344 0.86352634 -0.42395818 0.25214255 -0.38356408 0.6939405 -0.6843626 -0.41545764 -0.007872114 -1.4084209 -0.28389102 -0.39467692 -0.6417888 -0.06390289 0.64985925 -0.33273908 -0.64150834 0.57222617 -0.39018872 -0.45196325 0.50010717 0.10342751 0.5121536 -0.122995146 0.18841253 -0.22124372 -0.13278481 -0.6805289 0.24470545 -0.7305539 -0.5491311 -0.5298185 -0.013552724 0.55902994 -0.094829485 0.22530852
131 -0.103596635 -0.16158113 -0.29616758 0.005974874 0.4119312 -0.24858743 0.4777987 -0.11050256 -0.14908667 0.4138444 0.13044794 0.13989083 -0.14804314 -0.2653327 0.078873165 -0.22590078 0.1321916 0.19273874 0.119469166 -0.43103665 -0.120389774 0.06490427 -0.17159404 -0.1663556 0.44339356 -0.42319047 0.12690204 0.04246596 -0.15235645 0.0075093703 0.13653794 -0.1702761 0.22179352 0.24062361 -0.045733314 -0.4446794 0.26396826 0.45199084 -0.2280916 0.17857909 -0.35450524 -0.24897899 -0.6585434 0.11395034 0.011313871 -0.07979564 0.61393744 0.3946049 0.18461382 0.5444659 0.1530955 0.0781521 0.20137964 -0.16750728 -0.02455604 0.24426903 -0.10240594 -0.38128865 -0.19493383 -0.4014743 -0.12857367 0.47892177 0.16306739 0.5810572
132 0.052569628 0.06430952 0.023192212 0.014351774 -0.2658214 -0.15767732 0.23940791 0.06049799 -0.3903725 -0.2478455 0.15664461 -0.47401822 -0.6271696 0.49764794 -0.17292428 0.13696775 -0.1422146 0.31568626 -0.45458376 0.03606747 0.10347813 -0.21984203 -0.06036684 -0.05177347 0.2889844 -0.21333921 -0.18947303 0.30573383 -0.06165951 -0.24284124 -0.16265136 -0.43679553 0.017016452 -0.19004041 -0.53829753 0.25491747 -0.37299576 0.1594147 0.3415148 -0.49426985 0.19947055 0.70207906 -0.4571055 0.590799 0.41756848 0.5346199 -0.083114974 0.39073354 0.21726361 0.40695667 -0.1808724 0.23315609 -0.0045085847 -0.42661008 0.093164876 -0.16684438 -0.72526115 0.1761666 0.25487062 0.6303723 -0.009158231 0.3352139 -0.14756662 -0.022455797
133 -0.009793639 -0.3509675 -0.03404297 0.08798857 0.09949017 -0.3555981 0.19670458 -0.120483704 -0.5102525 0.24305603 0.038545027 -0.2622714 -0.42075735 0.12896858 0.19881082 -0.027045563 0.19121784 0.24635401 0.28758544 -0.124447405 -0.2539962 0.035477042 -0.051448926 -0.28041953 0.15523084 -0.54501915 -0.042286724 0.08812549 -0.39152405 -0.07504997 0.28058437 0.10514632 0.089888945 0.098035276 -0.18511443 -0.098743446 -0.018705027 0.2472455 -0.37739873 0.09492503 -0.097985454 0.31875873 -0.62829804 -0.20482045 -0.22037737 -0.10768433 0.5101898 0.53132695 0.2837929 0.6129755 0.2399069 0.073973835 -0.12574887 0.20841946 0.090396404 0.060092084 -0.37887767 -0.12855093 0.037356265 -0.13326083 0.09131954 0.4758923 0.07642924 0.49491256
134 0.062207136 -0.34347928 -0.32926053 0.36911055 0.09675194 -0.20540366 -0.01077354 -0.36847427 -0.74234474 -0.2825953 -0.09044567 -0.011568472 0.1396976 -0.10530809 0.45927742 0.40759885 0.28118968 0.35613647 0.6315899 0.34068438 -0.14509334 0.0057123676 -0.20751116 -0.37311894 0.34298378 -0.16366403 -0.21828851 -0.031497225 -0.58462083 0.033864483 0.28594986 0.20512208 0.019986786 -0.13874951 0.014704332 -0.23104748 -0.18621752 -0.088950425 -0.08756736 -0.0138667375 -0.16197976 0.12749442 -0.27649713 -0.29626402 -0.06109053 0.12936996 0.75490403 0.27150035 -0.12937465 0.42537966 0.36139566 -0.15450193 0.047463518 -0.71146995 0.34227446 0.6360607 -0.18913093 -0.5143967 0.34692013 -0.13712645 -0.38257644 0.31600714 0.32820937 0.26704443
135 -0.18469481 -0.202997 -0.33083212 -0.42346394 0.40299535 -0.27259445 0.010526452 -0.50069577 -0.28330237 -0.23346679 -0.10366073 -0.077031925 -0.35155764 -0.06296193 -0.5112386 -0.14980833 0.13021465 -0.09027001 -0.18308243 0.020047247 -0.1813125 0.2787596 0.15954918 -0.23683709 0.24566337 -0.27525663 -0.17852885 -0.12737152 -0.09177683 0.34371486 0.045073412 -0.1887014 -0.18776187 0.34531152 -0.24518722 -0.122113355 -0.16295266 0.47699147 0.121601894 -0.013324566 0.09558521 0.050921917 -0.26404363 0.15573962 -0.8431917 -0.35205373 -0.16427265 0.1412618 0.10937675 -0.1635887 0.014220364 0.04099336 0.14231713 0.05570641 0.1834335 -0.07036848 -0.120517805 -0.57768166 0.29212937 -0.14317816 -0.0016633794 -0.086516455 0.18307652 0.41329896
136 -0.115446895 0.24886233 0.21850058 -0.48462585 0.13823551 0.3082206 -0.023681197 0.41009006 0.2427654 0.2726077 0.17700483 0.15954739 0.26498175 -0.42901456 0.20540348 0.115359396 -0.4254001 0.32186353 0.2768843 0.09141175 0.2924322 0.30673105 0.12861483 0.09336831 -0.45425048 0.082037 0.2044152 -0.09578766 0.122004285 -0.20725732 -0.32117367 0.19653061 -0.38447067 -0.13651757 0.035830848 0.15745467 0.48739758 0.061997328 0.07546292 -0.12606132 0.005427705 0.17050958 0.36407575 0.2293133 0.19572338 -0.0899078 0.21030354 -0.19186227 -0.06905335 0.34638876 -0.4426512 0.3571986 0.37488556 0.20442858 -0.10375454 0.27546096 0.21034321 0.24786267 0.093231186 -0.13738441 -0.32023028 -0.4232856 0.734925 0.12719391
