308 64
0 -0.009332322 -0.80556744 -0.32179767 -0.3804586 -0.025493521 -0.21493456 0.07900707 -0.23977315 -0.097817004 -0.3471754 0.12721741 -0.37477297 -0.06602721 0.9460994 0.16817683 -0.44021574 0.79345983 -0.65885276 -0.24278934 -0.37559742 -0.06566286 0.40792948 0.4223138 0.36672458 0.07000041 -0.021253303 0.14510044 0.28285217 0.42023137 0.32139906 -0.5140737 -0.13146612 -0.08640774 0.24938248 -0.40274096 -0.2557393 0.11988623 0.103790216 -0.054872125 0.5222047 -0.66414267 0.05938146 0.46287483 -0.34586045 0.23079611 -0.9326111 0.5570864 0.10726926 -0.47521907 0.4767442 0.31698197 0.05067604 0.14215554 0.91654515 -0.08857355 -0.62062764 0.028697513 0.122789495 -0.44529155 -0.3514106 0.2740898 0.15040864 0.15776826 -0.044008512
1 -0.13982719 -0.06318051 -0.07586126 -0.1323438 0.52597076 0.011380307 -0.28205568 -0.25476253 -0.07084809 0.17046376 0.34318602 -0.31888556 0.12172578 0.050911557 -0.13917601 0.4109547 0.6294415 0.19059646 0.22364031 0.18580246 -0.24815188 -0.0744738 -0.23723312 -0.3723367 -0.28386998 -0.1398375 -0.08284848 -0.22047023 0.29338163 -0.11424892 -0.1865344 -0.28132108 0.25308228 0.37139922 -0.33760577 -0.27231586 0.09395655 -0.5678324 0.12219973 0.45728663 -0.1978119 -0.24609637 -0.026842047 -0.12548836 0.29171056 -0.068466984 -0.2231468 0.47908583 0.31382573 0.074018724 0.4399082 -0.32514828 0.4958136 -0.61425483 0.5803601 0.5962104 0.016412094 -0.33826566 -0.2745982 0.4041817 0.082290135 -0.5407073 -0.31948414 0.29280353
2 0.5977599 0.10596155 -0.18349166 0.23191339 0.42517227 -0.9370325 0.7112468 1.0101639 0.67145324 -0.29330522 0.26665992 -0.19837716 0.0030877143 0.04178253 0.76803446 0.056402545 -0.09883952 0.44949192 0.30640805 0.10601322 0.22274247 0.1657038 -0.12308844 -0.59427387 0.19754577 -0.35224894 0.23112655 -0.07214278 0.41099566 -0.14393891 -0.32141548 0.40830335 0.28014848 -0.07589772 0.33003157 0.14108688 -0.3823035 0.0011666119 -0.72664523 0.0336117 -0.31722593 0.37007982 -0.39114594 0.65483624 -0.6236086 -0.11890207 -0.25655392 0.41798672 -0.14173058 -0.0024008863 -0.12682562 0.37096262 -0.087579474 -0.04888855 -0.4013641 -0.4030639 -0.11100629 0.002394408 -0.08611834 0.16456836 0.39977282 -0.15830928 -0.076446936 -0.59876174
4 -0.35759264 0.33289465 0.16244158 -0.13578707 0.4294026 0.027808093 -0.23673925 -0.42260903 0.20373714 1.0159779 0.33026916 -0.122502685 0.23845142 -0.37842405 0.13400842 0.0791235 0.4042924 -0.48668694 -0.34766775 0.45042786 0.2739933 -0.01529333 0.01903364 0.14505093 -0.33159697 -0.14070663 -0.3709221 0.04081723 0.68319154 -0.71139777 0.33335972 0.46659324 -0.35652637 0.25241888 -0.9136155 0.39161834 0.09304556 -0.31087115 -0.33217925 -0.008323528 0.39812803 -0.6180135 -0.16811976 -0.46355408 0.19422126 -0.16572902 -0.37698936 -0.0068326592 -0.13400084 -0.23000765 0.6465867 -0.6040557 0.18376158 -0.6448871 0.8199432 -0.11202702 -0.17257792 -0.2321797 0.68220353 0.50325316 0.1142959 -1.2492111 0.097334355 0.07406437
5 -0.054467037 0.47476727 0.116578996 0.3568381 0.41248554 0.0676896 -0.2191663 0.30457842 0.15076625 0.4957349 -0.25016323 0.4771812 0.23675272 0.048939064 0.5795356 -0.2688155 -0.46869755 0.37140498 0.07356821 0.06601532 -0.005689455 0.05487203 0.23018172 -0.16607878 -0.04972893 0.011662813 0.00851059 -0.42063162 0.18935667 0.17441419 -0.08420597 0.4672718 -0.06876451 -0.17604879 0.2539166 0.16544135 0.18387543 -0.14709798 0.16672084 -0.04602617 0.19009143 0.09374972 -0.5209465 0.09234555 -0.3050363 0.34006685 -0.4391346 -0.0538517 0.19292207 0.024774306 -0.2762981 -0.33354354 -0.18653576 0.026901241 -0.38910997 -0.008204155 -0.14297305 -0.5642129 -0.85343575 -0.22571978 -0.22206697 0.33968192 -0.1203717 -0.5069026
6 0.074959874 0.11895405 0.2720718 0.19364531 0.3134548 -0.3125566 0.21692592 -0.17992462 -0.0028843284 -0.017102573 0.10580853 0.28688186 0.2166442 -0.25008398 0.09746691 -0.47058156 -0.5815135 0.2316134 -0.18436098 -0.055947468 0.12206454 -0.7647479 -0.24075775 -0.040155925 -0.1393207 -0.92698497 -0.45391595 -0.10643352 -0.39371306 -0.13077071 0.03775534 0.26306754 -0.07377781 -0.14975664 -0.12394045 -0.24956697 -0.120818004 0.0761351 0.2317116 0.07504426 0.15657006 0.025359109 -0.29021716 -0.06681336 -0.12544055 0.27112016 0.58935547 -0.7062184 -0.21359581 0.14615726 -0.52225256 0.6185512 -0.7257294 -0.29811203 -0.29637703 -0.48265934 0.06278156 -0.10799773 0.21335429 -0.021714851 0.12947434 0.050865978 -0.34260488 -0.054372095
7 0.61184365 0.054929443 0.20800076 0.5840372 0.31173062 -0.24770898 -0.2593599 0.41170844 0.60540736 0.1441829 -0.49173942 -0.22114123 -0.062055763 -0.34250626 -0.27755368 0.032165334 0.4626966 0.7857359 0.46801895 -0.3144491 0.11676845 -0.22795853 0.40245688 -0.012434753 0.34446412 -0.6897907 0.022948898 -0.17772223 -0.43660292 0.11993629 -0.13542017 0.43982583 -0.56268543 0.22417544 0.76019764 -0.56280375 -0.13307357 0.27020437 0.13590862 -0.40671164 0.3953519 0.21534795 -0.7315131 -0.154558 -0.19930911 0.1576832 0.6231276 -0.14519855 0.029167563 -0.6243311 -0.7748015 0.58027345 -1.0927862 -0.09352166 -0.6335462 -0.29680002 0.022174008 -0.482512 -0.19860446 -0.2539718 -0.07979442 0.690637 -0.25839743 0.017374717
8 0.2826138 0.07883064 0.33513916 0.122125015 -0.09907618 0.156324 -0.12930572 0.054139163 -0.0027902275 0.037149727 0.31717303 -0.0405083 -0.1808146 0.44821963 -1.5296285 0.5003131 0.05480314 0.26212677 0.5493165 0.07973913 0.002271898 0.5507419 0.37188697 0.49130037 -0.04786687 0.25077993 -0.10240075 -0.27895263 -0.16572715 -0.06452055 0.43005353 -0.05033412 -0.082995184 -0.08618877 0.32160205 0.04010226 -0.3301662 0.11049132 0.08821599 0.017371729 0.18311214 -0.08301771 -0.2685942 0.3075931 -0.32435605 0.02411483 0.083775416 0.19489394 0.02594386 -0.15949425 -0.4071756 0.2866227 -0.40184873 -0.15050927 0.12671617 0.07954385 -0.40072423 0.18373588 -0.29583645 0.24241063 -0.37186003 -0.1881753 0.04068086 0.17775136
9 -1.357464 -0.65248865 -0.048144773 -0.7295918 -0.18883193 -0.3563893 -1.2862616 -0.27498245 -0.03597869 -0.16986692 -0.17420253 -0.45727113 -0.044626057 -0.6845404 -0.5711969 0.28332004 -0.1171518 -0.59033793 0.24439567 0.554163 0.44017693 0.5591536 0.3609817 0.27064744 0.119731896 0.1266324 0.663967 0.2413657 -0.92845666 0.11867059 1.1146456 -0.44281298 -0.12402245 -0.053337924 -0.6768271 0.25318414 -0.006977003 0.34808147 0.24336904 0.27538288 0.339557 -0.4690067 -0.36298615 0.07270644 0.04027947 0.43841636 0.10246861 0.22025974 -0.96004796 0.44319716 0.6716875 0.1294912 0.56361234 -0.69662017 -1.5436677 0.050036393 -0.09383881 -0.4414949 0.42586425 -0.09330042 -0.58159167 -0.53226966 -0.15888041 0.26367795
10 0.29960144 0.42350152 -0.049188994 -0.010096934 0.1866476 0.0131396055 0.25679582 0.69892794 0.71858 0.023206234 -0.13264729 0.06824536 -0.016892016 -0.19539605 0.7218235 -0.12381795 0.4012473 0.23864952 0.4879367 0.3188001 0.011522811 0.16590354 -0.12158407 -0.45861104 -0.5234082 0.19503726 0.21534245 -0.33179745 0.05935272 -0.5123118 0.35129613 0.9294402 -0.24048461 0.37534344 0.4596108 -0.1720106 -0.2662354 0.14180171 -0.54121995 0.15412726 -0.018716238 0.1285143 -0.36259714 0.15626088 0.049203888 -0.2856832 -0.25850046 0.1279936 0.06482375 -0.10640228 -0.44989592 0.18811277 0.10614008 0.4178745 -0.12158358 -0.051692493 -0.4057049 -0.5015053 -0.48067003 0.020589344 0.17215315 0.29496214 -0.60887516 -0.13860652
11 0.3525449 0.12730306 0.09705111 0.5029165 0.15004073 -0.07227049 0.18672535 -0.97436994 -0.24663208 -0.86025834 0.23938543 -0.28509504 0.11476663 -0.1423213 -0.97594357 -0.6070337 -0.1601777 -0.035758473 0.26489288 -0.44563922 0.08065626 0.44338697 0.39866188 -0.21727878 0.157318 -0.041923646 -0.46984553 0.0005865842 -0.074402586 -0.0761778 0.43323892 -0.45557523 -0.4147743 -0.65714914 -0.087216675 -0.15394762 -0.046932902 -0.69971216 0.34872144 -0.5510232 0.008775294 0.05369513 0.20828041 0.5067576 0.040574625 0.37543795 0.90095794 -0.2633795 -0.06235002 0.17924458 0.003023617 0.34532303 0.1597996 -0.082702205 -0.4370201 -0.6479153 -0.31062934 -0.21414356 -0.16482167 0.078792855 0.3781388 0.054088354 0.3549339 -0.40473527
12 -0.17719303 -0.4057771 -0.23806235 -0.1874615 -0.3654582 -0.0773359 0.63109785 0.10575247 -0.20165023 0.09974734 -0.2663564 0.67369974 -0.14421532 -0.103385925 -0.062461793 0.20194352 0.40762547 -0.22939041 0.65900975 0.3348039 -0.5175144 0.19447368 -0.2578676 -0.059120342 -0.6347331 -0.62043095 0.14890188 0.44051927 0.19596416 0.3444883 -0.14037567 -0.7525852 0.33974847 0.20048878 -0.08016567 -0.18013804 0.18621343 -0.21728396 0.38478798 0.06399238 -0.17036663 -0.35924283 -0.22476396 0.088866055 0.45167866 -0.44434077 0.65370667 -0.58114773 -0.044951588 -0.075939514 0.36312082 -0.44501716 -0.3667377 0.14191717 0.25236517 -0.19848396 0.03245437 0.20223954 0.43067396 -0.11480741 0.39856505 -0.23838703 -0.5409603 0.05901371
13 -0.07746209 0.1216233 -0.042770404 -0.24507377 0.5421602 0.16975969 -0.31701487 0.027642101 -0.01950781 0.66792977 -0.47859424 -0.27516538 -0.3692247 -0.18385336 -0.0019904152 -0.4367171 0.12554955 0.64000356 0.37995738 0.26754412 0.4789502 0.015700653 0.29220015 -0.28966105 0.13872011 -0.8099108 0.29452503 -0.5192957 -1.2138298 0.17194568 -0.051644772 -0.726806 0.059279196 0.41336793 0.3867122 -0.28894016 -0.08605855 0.34131277 0.48530737 0.10354644 -0.034714833 -0.6427734 -0.1556893 -0.09687306 -0.2236394 -0.09219839 0.26299125 0.0747717 -0.20832655 -0.26773843 0.1950195 0.60157704 -0.20553878 0.06985876 0.47081405 -0.21283275 -0.1804991 -0.06769203 0.15547517 -0.34169748 -0.123182915 0.47210038 0.10220525 0.075470194
14 0.20622575 -0.46233797 0.39066523 0.050044592 -0.099990875 -0.108764045 0.18450105 -0.20240095 -0.037279062 -0.2549469 -0.28022188 -0.3627692 -0.0715929 0.34606504 -1.6288254 0.09414856 -0.15797678 -0.26612872 0.56397164 0.14207664 -0.26021808 0.2843714 -0.1568176 0.50593764 -0.46048123 -0.14262703 -0.62704456 0.4379558 -0.42051637 -0.10263933 0.0002005957 -0.059463643 -0.004588332 -0.17291155 0.19978428 0.41746923 0.0821675 0.0011921525 0.61172366 -0.087535314 0.514125 0.04017742 -0.34273696 0.09905396 0.20413403 0.07060957 0.2753169 -0.47636172 0.10928318 -0.22668724 0.32881057 -0.092888474 -0.3078406 -0.19272311 -0.30920267 0.064342245 -0.3636063 -0.33541462 -0.05858732 0.0685769 -0.37766153 0.36721754 -0.12301526 0.063975945
15 -0.44930768 -0.29719165 -0.33635598 0.39447606 0.7526262 0.45577788 0.3859644 -0.79092145 -0.092086226 0.73606443 0.008260965 0.104927994 0.0076563656 0.25350595 0.31021115 0.2533254 0.18875824 -0.7077764 -0.8303131 -0.26979342 -0.97550607 -0.01849653 0.2649934 -0.2742905 -0.028831111 0.08561672 -0.5641142 -0.26802355 0.18105733 -0.4145028 0.028653353 0.10445292 -0.19278654 0.55545753 0.052821696 -0.23477091 -0.20485136 -0.09089976 -0.06384865 -0.033482537 -0.37831777 -0.050587 0.11211656 -0.14715663 -0.34655344 -0.516855 0.20243825 0.5070572 0.3922512 0.4777177 0.18585667 -0.22469278 -0.16451381 -0.62239397 0.5710965 0.3086083 -0.13978063 -0.50740457 -0.042400256 0.49320152 0.24377994 -0.13683099 -0.23518032 -0.34438604
16 -0.14753735 0.17545708 -0.5890114 -0.13534623 -0.07657551 -0.17823109 0.112434216 -0.046262294 0.04483164 -0.07679713 0.24458914 0.11168953 -0.22731243 0.017227605 0.45099854 -0.2342944 -0.056237414 -0.43257234 -0.28723356 0.00883694 -0.015126869 0.23362547 -0.1469759 0.41259977 -0.17068648 0.04298886 -0.25554106 -0.046350047 -0.22507997 0.08934335 0.08975637 0.2191735 -0.1918455 -0.2918489 -0.13247856 0.35902175 0.29092366 0.09890117 -0.2575493 -0.080350935 0.048519596 0.40571582 -0.19959947 0.2464246 0.41272008 0.008210838 -0.024427697 0.13290755 -0.0006156005 -0.022191465 0.09532911 -0.2710244 -0.20400634 0.11291591 0.4071399 0.03429559 -0.037987184 -0.19471592 0.057253286 0.0540789 -0.104992345 0.21835396 -0.08240865 -0.18420249
17 0.18803336 0.38289228 -0.13839099 0.4909016 0.6011223 0.50776494 -0.43123654 -0.4855867 -0.16740346 0.3564107 -0.031668037 0.055129737 0.18184447 0.57175684 -0.4694073 0.4645573 -0.06589859 -0.21394049 -0.40841913 -0.29763046 0.4291366 -0.09999904 -0.14843674 0.098409355 -0.007264875 0.09745894 -0.81252205 -0.17131174 0.034372598 0.687884 0.3677603 -0.0045308173 -0.37136137 -0.30473503 0.079981565 0.10658605 0.27266043 0.22107731 -0.10632081 -0.6008028 -0.20717362 -0.29155952 0.2543651 0.2566066 0.11472714 -0.24440977 -0.19853447 -0.055351466 0.35223883 -0.10111791 -0.07428702 -0.2001716 0.090103336 -0.38922322 0.072277814 0.2224567 -0.30469027 -0.2090203 0.056280117 0.21933058 -0.1216344 -0.51304793 -0.13300458 -0.022989675
18 0.08430267 -0.0059271753 0.13001849 0.13913767 0.21470417 0.047915347 0.30754393 -0.2105307 -0.46921653 -0.000477314 0.08636144 -0.22180423 0.14304435 0.27780247 -1.6732281 0.5747856 -0.03278611 -0.44702905 0.07643953 0.10018544 -0.20458686 0.4867251 0.034040127 0.5882255 -0.22196284 0.34229308 -0.4055162 0.032466047 0.011608377 -0.45288664 0.10576045 -0.37028947 0.25907353 0.05892592 -0.021427125 -0.10731679 -0.14470248 -0.082265824 0.428468 -0.2586723 0.21069233 -0.021461159 -0.17520249 0.38535726 -0.24723443 -0.33704168 0.42389488 -0.052149314 0.008399449 -0.27371436 -0.12953779 -0.26206622 -0.05395869 -0.127039 0.012003982 0.075381696 -0.38643998 -0.2054157 -0.36781728 -0.1667237 -0.24693476 0.18446088 -0.2285123 0.42355293
19 -0.22422583 -0.032735392 0.057946768 0.113723695 -0.19519217 -0.23634815 -0.33083266 -0.29681605 0.24506262 -0.13974975 -0.09709464 0.054613084 -0.04265599 0.12335509 -0.8307068 0.1274723 0.099376485 0.27529213 0.23273157 0.29512548 0.4427731 -0.051921263 -0.026116453 0.14280812 0.016599625 0.34384525 -0.21841595 -0.007778935 0.055134512 0.39931864 -0.35791785 -0.11866574 0.20234309 -0.035882942 -0.06021841 -0.08628093 -0.044996366 -0.04464962 0.018086746 0.17850304 -0.019483462 -0.22989015 0.26829547 0.16386083 -0.33509678 0.04175106 0.1992877 -0.26258546 -0.18314311 -0.053298034 -0.02909296 -0.08046185 -0.0042568743 0.2863173 -0.3851298 0.03261517 0.05351001 0.18467322 -0.007716343 0.055017397 -0.20069309 -0.2514428 0.48122418 0.20110586
20 -0.43475008 -0.17436782 -0.35226405 0.50322264 0.3548729 -0.034356996 0.26323164 -0.72477674 -0.33735728 -0.053648055 -0.83706725 -0.48334298 0.090392515 0.6491064 0.09649417 0.30550647 -0.07018402 0.03645229 -0.017975029 0.5706184 0.15530756 0.12484747 -0.03917917 -0.3789474 0.0944653 -0.18760307 0.20038483 0.11789727 0.07886347 0.33785743 -0.4148511 -0.34776708 0.28094757 -0.14151514 0.20421442 -0.27125427 -0.13145956 -0.16713002 -0.04288049 0.16248935 0.301347 -0.59680295 0.28947502 -0.15527785 -0.33801875 0.2087579 -0.6957127 0.077107474 0.2668367 0.07382096 0.10947513 0.47636837 -0.4949895 -0.026135115 0.1537139 -0.8227538 0.00019606948 -0.3496886 -0.4320546 -0.021583453 -0.035265774 0.05554083 -0.08913323 0.5250751
21 0.30420312 0.014386624 0.13190083 -0.05946053 -0.12650974 0.20588963 -0.08263229 -0.34574392 -0.13446517 -0.4691679 0.028310012 -0.43497467 -0.0025902092 0.45239514 -1.9075488 0.17441396 -0.15695524 -0.21599454 0.34200263 0.27603012 0.1384133 0.4569546 0.093049146 0.6157114 0.010602906 0.14764106 -0.3436966 0.44633144 0.08870751 -0.019805662 0.050795104 0.09883039 0.12204243 -0.06718814 0.09930505 0.13435197 0.055626035 -0.13343124 0.3630075 0.37623632 0.18838167 -0.05666324 0.5147285 0.18386915 -0.22532253 0.28209734 0.049192667 -0.18742506 -0.09302093 -0.21784951 -0.1478404 0.078508295 -0.11298028 0.30543414 -0.021419302 -0.32875746 -0.46926805 0.30128357 -0.08644956 -0.06598789 -0.1668654 0.13630898 0.08644381 0.42289236
22 0.27387172 0.22166868 -0.15229592 -0.0477237 -0.63514715 -0.8064249 0.4722622 -0.34840006 0.07323459 0.124873966 -0.047728755 0.08543177 -0.34223837 0.06314615 0.40190154 -0.6880798 -0.02658661 0.6589883 -0.547297 0.8011881 -0.31981307 -0.05271239 0.49763206 -0.24264422 -0.33306217 -0.18367176 1.4907395 -0.059847936 -0.5101541 0.7965854 0.504581 0.7256374 -0.02517829 0.17503445 -0.07948082 -0.5773882 -0.10551733 0.11784801 0.48994 0.2515473 -0.6494998 -0.29383543 0.16930465 -0.5892117 0.5004898 -0.34080505 0.005777754 0.03778293 -0.1186185 0.5062355 0.45274377 -0.25211453 0.12818354 -0.05569744 -0.54860944 -0.03721519 0.384347 0.20762168 -0.45976877 -0.13636014 0.23022206 0.3825193 0.1818195 -0.47605887
23 -0.018342435 -0.2886303 0.35497168 -0.017915133 -0.35865065 -0.015585678 0.023380555 -0.101421 0.14048065 -0.041633572 0.18643269 -0.4874859 -0.06549618 -0.09387764 -1.542094 0.5345145 0.493086 -0.36694652 -0.13235307 0.12148564 -0.2011344 0.21019107 0.33919448 0.55534357 -0.3440788 -0.046193957 -0.2401748 0.26172557 0.057236876 -0.18717551 0.18939915 -0.089157216 0.1313793 0.036853537 -0.12481496 0.54406536 0.09293251 0.6978136 0.20029634 -0.4863544 -0.46872064 -0.46057534 -0.3535453 0.053953327 -0.07453013 -0.14979324 0.31286827 0.036487598 -0.13659897 -0.020058997 0.22587824 -0.1789355 -0.15869176 -0.15131868 -0.019178977 -0.00259763 -0.26128057 -0.086841956 0.023255557 0.24884248 -0.40938157 -0.2880545 -0.19650745 0.18812263
24 0.643659 0.1412808 0.05629413 -0.21236165 -0.773922 0.10863415 0.48649406 0.547591 1.1317054 -0.04729186 -0.47080177 -0.044507876 0.008016057 -0.39790767 0.09444241 0.45340717 0.648692 -0.37248272 0.30091226 -0.0040124133 0.53152484 -0.6070785 0.032019757 -0.7703865 0.12022341 -0.18957594 0.34664637 0.3555197 -0.21752498 -0.4317647 -0.28963566 -0.23004138 0.04259433 -0.84948957 -0.22136082 -0.26005328 -0.36818853 -0.38771057 -0.3358733 -0.37402394 -0.4783088 -0.20984367 -0.31148282 -0.06639613 -0.35799456 0.13278766 -0.054695353 0.17400524 0.22985354 0.6200694 0.31186798 0.71442646 -0.25336942 0.19677427 -0.2519823 -0.10048491 -0.2554918 -0.059229404 -0.09906373 0.13702622 -0.32955286 0.3424272 -0.1817084 0.21224119
25 0.06319379 -0.036817707 0.011547074 -0.31176743 0.4239763 -0.19078138 -0.0030860119 0.10755902 -0.10542844 0.49022335 -0.21062157 -0.42647234 0.07635852 0.012512952 0.37034744 0.18955085 0.39340392 0.2814169 0.14645109 0.21272194 0.13752706 -0.2083089 0.43631086 -0.20432323 -0.12703016 -0.64287215 0.3333441 -0.049099874 -0.3362229 0.5406557 -0.5398973 -0.29599643 -0.2471019 0.030623794 -0.028590031 -0.25896937 -1.1149037 0.23460756 -0.28560737 -0.25684878 0.17817934 0.053366035 0.014154986 0.20332804 0.30687696 0.4690111 0.082515836 -0.012095484 -0.082789764 0.55745226 -0.106498435 -0.27218324 -0.19129284 -0.6018742 0.14883886 0.463333 0.880018 -0.039180264 0.26458892 -0.124541625 -0.2539701 -0.00931859 0.16313283 0.04339719
26 0.50769717 -0.5253472 0.49120748 -0.09554859 -0.4084139 -0.6389555 -0.63234806 -0.4623686 -0.0052667446 0.55371803 -0.0031124502 -0.36641276 -0.101372115 0.31167334 -0.25139925 0.014886618 0.13860604 -0.52360934 -0.15594795 0.4975896 0.5569191 -0.41740173 -0.062110722 -0.017954603 -0.48708105 0.14406413 0.051634543 -0.08233635 -0.17287846 0.17222273 0.67245805 -0.19159819 -0.28077537 0.28163928 0.2948465 0.23126051 0.29809818 -0.09014125 -0.21290393 0.2124842 -0.7228316 0.22242245 -0.2888796 0.501757 0.41445968 -0.0672344 0.06008676 -0.016705777 -0.5550686 0.4273146 -0.1518012 -0.24228907 0.23420806 -0.28996444 -0.4367137 -0.13026643 0.023511022 -0.51268023 0.047729794 -0.07948493 -0.23593517 0.31547415 -0.079112515 -0.19073829
27 0.20792417 -0.0024684053 -0.42190212 0.0865616 -0.096971065 0.10606673 -0.22336473 -0.37879157 -0.027536333 0.4405278 0.19213018 0.42387408 0.13002071 -0.34684813 -0.08390388 -0.64535886 0.26826704 0.52604777 -0.21525747 0.30965376 -0.31793973 -0.14822443 -0.07534822 -0.21538408 -0.5115034 -0.13362582 0.42367542 -0.181032 -0.0074087605 0.20667015 -0.4504906 -0.14427032 0.30963612 -0.16412817 -0.34764454 -0.31796128 0.13698529 0.5739592 0.262922 -0.19393943 0.23968321 -0.3245213 0.5755489 0.25733215 0.18315765 0.20726648 0.39058888 0.19223778 0.1619224 0.50543916 -0.42055455 -0.062518924 -0.18193623 -0.06881052 -0.35674536 -0.60509884 0.38235945 0.09365181 0.21057956 0.64163744 -0.49882397 -0.0578658 -0.1788137 -0.34846756
28 0.3270635 -0.049066983 0.5928204 -0.26097345 -0.27908066 -0.4820362 -0.081560105 -0.17213368 -0.49970475 -0.3700811 -0.05033721 0.24017847 0.015898243 -0.2786761 -0.8651622 0.11045243 -0.07848925 0.20491515 -0.0402134 0.075762704 -0.3474338 0.2830179 -0.011570866 -0.20046762 0.10831075 -0.29656154 -0.12504189 0.21342888 0.1354115 -0.06822674 0.074611984 0.36791986 -0.11575512 0.24868596 0.01636976 -0.14886753 -0.19037989 0.024227327 0.39643812 -0.18644516 -0.057587087 -0.6652618 -0.530589 -0.049245838 -0.11298974 0.11161496 -0.087640315 0.21265678 0.6367172 -0.1482969 0.2745602 0.0973984 0.40010932 0.24568668 -0.15322232 -0.10522267 0.057821892 0.1642249 0.38675582 -0.12395285 -0.10946734 0.2607832 0.026043467 -0.0065014213
29 0.14882061 -0.113383874 -0.29345924 0.12582976 0.17884088 -0.52408683 0.04498157 0.61569047 0.079752654 0.69863355 -0.059067123 -0.11007377 0.006706819 -0.71394885 0.66208345 -0.57403886 0.041292816 0.20439918 0.35781312 -0.32081676 0.19287258 0.11232242 -0.16211832 -0.2432788 0.05551181 0.19361053 0.39221388 -0.3888588 0.07362297 -0.56513774 0.15299739 0.062043995 -0.57013804 0.6125374 0.44883394 -0.049196005 -0.46540076 0.27034903 -0.56164366 0.0014846921 0.052830517 0.012304645 -0.16481581 -0.14164151 -0.4366791 -0.5815119 -0.2109759 0.07238874 -0.016503196 -0.22350107 -0.18507484 0.9639501 -0.14248289 -0.020403177 -0.14447108 -0.120238915 -0.09103234 -0.44674718 -0.17141163 -0.3650936 0.5270076 0.5094079 -0.37959278 -0.32500526
30 0.32604787 0.09229405 0.18547355 0.03874498 -0.16278595 0.3561537 0.047890056 0.075736195 0.39441025 -0.34302464 0.037051145 -0.11481528 -0.54236764 0.0354293 -1.6020308 0.7563029 -0.026543453 -0.6765577 -0.13816854 0.24655493 0.0075784437 0.13633054 0.007490732 0.36727864 0.27875564 -0.24938783 -0.40225267 0.73423094 -0.32718512 0.5182629 -0.2933181 0.20268953 -0.20592415 -0.3561149 0.6789875 0.10723463 0.0890861 -0.7067579 0.02687183 0.18623447 -0.18637766 0.03941206 0.06899282 -0.1575647 0.00010129734 -0.6144494 0.107773274 0.28234607 -0.18783505 -0.34427184 -0.081287205 0.03975278 -0.012423933 -0.12486668 -0.7864896 -0.1922695 -0.30812973 -0.3377264 0.63542163 0.15495098 0.024055824 0.10716312 -0.390988 -0.48213685
31 0.16109437 -0.22065234 0.014315989 0.20748793 -0.10497609 -0.25888437 0.10390875 -0.075038165 -0.21287614 0.45195064 -0.4423739 -0.14014968 0.22469807 0.02166763 0.15918884 -0.5144968 -0.22525679 -0.42258 -0.3131626 0.15121378 -0.7321422 -0.22401957 0.42436758 0.08097063 -0.18846099 -0.31113216 0.041255686 0.17417172 0.33110198 0.2828016 0.26821816 -0.43294507 -0.22399428 0.46720475 -0.53351325 -0.2726832 0.041469764 -0.1270319 0.65225136 -0.47535145 0.08684829 0.3419571 -0.5115971 -0.11168778 -0.047266304 -0.29087406 -0.022243127 0.15895095 0.21027252 0.4684784 -0.46175748 -0.044643514 -0.3649488 0.39249897 -0.23860103 -0.29557166 1.0938045 -0.100079514 0.593881 -0.032622084 0.4098698 0.13269942 0.04216026 -0.017618537
32 0.2849592 0.12271869 -0.031464532 -0.23987123 -0.50078344 -0.36545706 0.092871346 -0.10887984 -0.475021 -0.123235844 -0.07130246 0.5195656 -0.14800179 -0.29459044 -0.2615701 -0.12703277 0.41937986 -0.7963401 0.32136285 -0.08239452 -0.123544514 -0.55857474 -0.07443547 0.2103084 -0.08824148 0.026985615 -0.4288974 0.054538462 -0.011403248 0.035841808 -0.047500372 -0.49161798 -0.09031332 -0.828454 -0.35537827 0.23554409 -0.035743847 0.3500167 -0.37863588 -0.8296178 -0.5619948 -0.22734818 -0.7466212 -0.28509152 -0.59670544 -0.21418418 0.09049 -0.24928129 -0.36460117 0.35721177 0.10191117 -0.108994566 -0.45965213 -0.13068153 0.40959203 0.26016563 0.4701653 0.5138227 -0.25476962 0.1480351 0.094007835 0.626777 -0.18208905 -0.38509512
33 0.16688052 -0.29784065 0.17143591 0.45656356 -0.4785127 -0.07767327 0.28294733 -0.15279908 -0.18628609 -0.044271965 0.5077962 -0.42394638 0.39818138 0.19296429 -1.6529033 0.1899558 -0.10413751 -0.217177 -0.1503219 0.009295672 0.20645994 0.36153036 -0.5668342 0.43460524 -0.11944797 0.076154664 -0.92026293 0.26582894 0.11922689 -0.2254227 0.16885127 -0.14095609 0.28885308 -0.18689604 0.41096613 0.48530924 -0.29039985 -0.061581552 0.53195065 -0.42785028 0.10889939 -0.19300649 -0.4423675 -0.3173578 0.40409002 -0.17761517 0.63357824 -0.21752095 0.35807532 -0.50819767 0.018893741 -0.6195693 -0.06870955 -0.006731525 0.13844162 0.49760246 -0.717358 -0.061875828 0.027323902 -0.044194356 -0.09832754 0.10312974 -0.30129963 0.416328
34 -0.26070398 0.090543635 0.20324339 0.16855939 -0.10844807 -0.09304133 -0.5098288 0.24635369 -0.19969465 0.35145977 0.51643723 -0.41306716 0.2754637 -0.45827708 -1.0184734 0.9566427 0.44559962 -0.21072456 -0.111121565 -0.30997276 -0.51788604 0.2700333 0.21772194 -0.15738815 -0.31668225 -0.22787172 -0.5406128 -0.41489494 0.32572436 0.04454939 0.32773066 0.32272533 -0.25156683 -0.13968652 -0.041862056 0.06181549 -0.16224328 0.04047494 0.14462014 -0.39120415 0.32997355 0.084962815 -0.3564401 -0.12661758 -0.13130324 -0.2846382 -0.3269 0.6008482 -0.19737759 -0.34873882 -0.04447733 0.588394 -0.16533807 -0.21934804 0.014083076 -0.069984615 -0.4544999 0.034927297 -0.11747639 0.42052424 -0.33114892 0.0014408566 -0.7145274 -0.2046803
35 0.23480499 -0.4936393 0.48897472 -0.5231925 -0.5775669 -0.30077034 0.25617197 0.057492107 -0.1887133 0.2089027 0.008210063 -0.05686879 0.003168717 -0.054583307 -0.16022417 0.73309064 0.1659697 0.009393897 0.30543473 -0.46375054 0.12033765 0.107834 -0.439336 -0.1430797 -0.2637471 0.06916441 -0.08184009 0.56707704 -0.024936393 -0.5824971 0.23136194 0.1839262 0.20457573 0.36616483 -0.3513165 0.020213641 0.5782906 0.20246834 0.0017840862 -0.23340793 -0.47044504 0.5955257 -0.20214304 0.24346447 -0.5191691 -0.38307023 -0.23379257 0.43279088 -0.42826518 0.46042657 -0.19496992 -0.6971551 0.67354685 -0.059346586 0.080700964 0.8653806 0.52787423 0.22613163 0.6575083 -0.24382126 0.02537483 -0.34582788 -0.43579158 -0.559603
36 -0.2697635 -0.14037536 -0.12626202 0.068853535 0.28404453 -0.650954 -0.98601794 -0.060336422 0.31682548 0.07688966 0.43314964 0.5723833 -0.21459027 -0.013235545 -0.3493325 -0.10591301 -0.31369442 -0.20372435 0.64386916 -0.15519235 -0.43299136 0.2894569 -0.49223205 0.3274901 -0.5248276 0.24027711 0.27113742 -0.37473422 0.45745844 0.9021033 0.5267887 -1.0240974 -0.43270588 -0.6111547 -0.5849854 0.5343642 0.18854484 0.4396356 0.2205962 -0.27359748 -0.2112639 0.33374563 0.43406367 -0.08168999 0.046146087 0.06499763 -0.2058852 -0.64349264 0.15622276 -0.4587645 -0.5839137 0.06300701 0.14863923 -0.1633546 -0.30951306 0.5387805 0.24962047 -0.5182415 0.6723466 -0.1935562 0.3350796 -0.34944057 0.2749799 -0.41749975
37 0.054250747 -0.2142071 0.277487 -0.59536874 -0.24348001 0.07778003 0.031632453 0.24804053 0.16774353 -0.23178566 0.14763078 -0.1439096 -0.11791405 -0.087996945 -0.12029422 -0.18850833 0.38131762 -0.1113455 0.0050277095 -0.104426466 -0.33219904 -0.09387474 -0.16327913 0.21854939 -0.28138605 0.013239101 -0.16377038 0.23658389 -0.24568546 -0.5889864 0.13776986 0.008617833 0.27145028 0.027616076 -0.020062111 -0.023453744 0.1367548 -0.08460811 0.011118352 0.13203752 0.06441678 0.166967 -0.13298821 0.023835573 0.43027052 -0.15196052 0.011621334 -0.17683864 0.21717398 -0.10786626 -0.109455906 -0.44604057 0.08458641 0.1165604 -0.423459 0.07002875 0.02633401 0.46651477 0.16458511 -0.10106867 0.06166537 -0.24213247 0.29109794 -0.42620206
38 0.58324087 -0.33006042 0.09549804 -0.069567144 -0.2678448 -0.22694054 -0.47409412 0.05419169 -0.14960265 0.008042537 -0.0054025054 0.17734635 -0.22483012 0.12940148 -0.004532814 -0.12549722 -0.003931597 -0.26851147 -0.31126243 -0.27011144 0.11093274 0.23450468 -0.14277962 0.14651546 -0.0967578 -0.019405276 0.06485629 0.020689696 -0.24382669 -0.01061824 0.018410329 0.05474662 0.34314066 0.21410495 -0.6244817 -0.002609551 0.28650367 -0.31024477 -0.32291377 0.24520755 0.38770413 0.6128686 -0.114691526 0.07247599 0.03653364 -0.43217617 -0.46247303 0.31670856 -0.013011903 0.060449153 0.06998475 -0.45359865 0.2537766 0.22253355 0.25922018 -0.057637274 0.5266681 0.37839952 -0.3059539 0.33915207 -0.043158576 -0.16480687 0.1943123 -0.4369633
39 0.043728814 0.677661 -0.19216193 0.06520952 0.13518593 -0.27532727 -0.39968437 0.6565745 0.29540247 0.015696526 -0.19701497 -0.11668198 0.1614599 0.031868935 0.6267775 -0.14039893 0.1738798 0.53290784 0.39216107 -0.035990544 0.4433706 0.09679026 -0.048752446 -0.12355143 0.13637166 0.5020356 0.48886886 -0.38719362 -0.099656194 -0.4922548 0.24878062 0.90391695 0.004691746 -0.031021893 0.3236799 -0.29636753 0.08517882 0.14418453 -0.24456787 0.2454341 -0.17099331 0.1351238 -0.4045499 0.3050668 -0.3007253 -0.5632797 0.08637157 0.40200153 0.15338801 0.14377464 -0.45961636 0.33972326 -0.16717386 0.1519908 -0.5385684 -0.09433479 -0.3099094 0.04392174 -0.2615096 0.07049185 -0.14495596 0.036996283 -0.18152131 -0.11367589
40 0.027520165 0.12665492 -0.117519066 0.12734872 -0.49726814 -0.3458051 -0.8292835 0.2639976 0.3492984 0.5757218 -0.15589008 0.37131405 0.22302574 0.13799784 0.34398738 -0.11620167 0.05709627 -0.10670337 -0.3397455 0.20385621 0.6402259 0.39988095 0.16594268 0.04102315 -0.10358287 -0.26272422 0.42825994 -0.18575975 0.24414073 -0.32277 0.07970796 0.7384013 0.122783616 -0.29348722 0.1257968 -0.4199595 -0.10098928 0.5748121 0.32394546 -0.68408436 0.47308302 -0.27051434 -0.33725893 0.13154894 -0.08042473 0.14573157 -0.284724 -0.4984671 0.43054193 -0.33361068 0.20005211 0.06450896 -0.7412989 -0.11545972 0.09805304 0.19764645 0.703846 0.37311715 -0.4973856 0.2846867 0.3090507 -0.22080125 -0.2784227 -0.31789464
41 0.38766143 0.45673245 0.20159593 -0.32442117 0.37265867 0.34360936 -0.6756815 0.021182328 0.30336905 0.4731651 -0.49868378 -0.2740163 0.41255623 -0.13328758 -0.3142258 -0.16521382 0.57138395 0.8849496 0.707825 0.4782651 -0.3941211 -0.19451219 -0.022253562 0.027035523 0.19815049 -0.9949361 -0.76269543 0.052348126 0.4444337 0.6628877 0.34122726 0.9287572 -1.1354282 -0.40903848 0.73066247 0.17044628 -0.1601658 0.32243094 0.37785852 0.1898977 -0.3375795 0.038512543 0.8703716 0.3473518 0.25998303 0.25049284 -0.15576588 0.2441011 0.37479758 -0.75531995 -0.63495755 -0.3722837 0.09482335 1.0199705 -0.24534205 0.45387238 -1.1338573 0.33747205 -0.07937077 -0.31757292 -0.5029379 -0.19256848 0.3467223 0.62848127
42 0.5319885 -0.6852497 -0.23277536 -0.4569825 0.39836293 0.5692533 0.5291752 -0.14098111 0.38768512 0.577129 0.2810566 0.5172254 0.3930225 -0.68992686 0.2785067 0.03784726 -0.07318346 -0.6579642 -1.0241699 0.11875585 -0.12970573 -0.122919045 -0.9945105 0.16790606 0.28547704 0.05418823 -0.24265915 -0.07554546 0.6217218 -0.056300126 0.47584403 0.20889942 -0.19021548 0.33707854 -0.39323723 -0.24167034 -0.56992817 -0.055291586 0.20580716 0.073526725 0.24365255 -0.5383052 -0.35832715 -0.07534295 0.23351881 0.37898895 0.023275807 0.20335041 -0.43247467 0.18657225 -0.074875265 -0.0918033 0.08680541 -0.39399683 -0.0010782182 0.4308449 -0.21419217 -0.62302506 1.03094 0.80180466 -0.42363435 0.09912217 -0.5073599 0.36567193
43 -0.5120459 0.20568791 -0.6823263 0.037049294 0.48577797 0.265288 0.37586764 -0.18804029 -0.2142812 0.33709073 -0.17053586 -0.5457965 0.6867513 -0.27576542 0.19684061 -0.38689426 0.41930255 -0.1641068 -0.32242495 -0.38406804 0.42982352 0.10507643 0.40668654 -0.03314293 0.2495966 -0.11129533 -0.037314862 0.17935541 0.21041356 0.460047 0.05318003 0.36063382 -0.20373052 -0.17111619 -0.3267998 -0.6171845 -0.3639413 -0.16559617 -0.34870863 -0.17363977 -0.27811718 -0.5281032 0.42302954 -0.7471931 -0.11291122 -0.1869252 0.05335165 0.4523112 -0.06283812 0.1410801 0.11260112 0.5156769 -0.1642575 0.07758328 -0.30553767 0.14804599 0.46531045 0.28287214 0.44620365 0.23277344 -0.147733 -0.199411 -0.16134779 0.7560417
44 0.06626597 -0.571593 0.12542851 -0.06340635 -0.055952854 -0.49559385 -0.56183 0.23749025 0.10934925 0.14322723 -0.1985096 0.77578306 0.19352871 0.04805164 0.15475504 0.5443376 -0.041802116 0.2794429 -0.25120282 0.010028407 0.3905043 0.0031474382 0.5491671 -0.21842323 -0.10781675 0.33411556 -0.11906551 0.19895202 -0.11882026 0.50986534 -0.06334392 0.08605183 0.065709606 0.24693209 0.2975175 -0.59818715 0.6684918 0.320428 -0.23180765 -1.1070968 -0.068852186 0.09425304 -0.13041112 0.28823423 0.18226863 -0.2675906 -0.6047035 -0.37740353 -0.16304092 0.11982583 0.23334667 0.34549892 -0.62844265 0.24421701 0.0110152215 -0.017385058 0.2764178 0.5094962 -0.012624495 0.3347045 -0.15172286 -0.6976389 0.35709018 -0.26686358
45 0.4759736 -0.16333604 0.62841994 0.11726764 0.38879886 -0.1962031 0.6886392 0.018484604 0.74056494 -0.4414656 -0.24337241 0.20465344 -0.00988242 0.37694097 0.23747373 -0.004156694 0.40827206 0.5275625 0.5549549 -0.036874503 -0.13162334 -0.27707532 -0.1230461 -0.59047395 0.56325567 -0.12573612 0.0148134455 0.13180012 -0.2063388 0.10427132 -0.3911854 0.17005126 -0.077319555 -0.24435645 -0.19968586 -0.32985324 -0.16267161 -0.85112816 -0.15879321 0.4020148 -0.4060385 -0.35671774 0.44053844 0.012769405 0.018122002 -0.40661156 -0.43362337 -0.2624446 -0.8168117 -0.5523076 -0.34481275 0.0065785833 0.25152704 0.36196452 -0.23294595 -0.44653654 -0.40469694 -0.1962725 0.12668806 -0.31168103 -0.3574867 -0.05570102 -0.102037326 -0.18382823
46 0.810652 -0.11484708 0.08561502 0.22821885 -0.23039801 -0.13694853 0.28659832 0.52408487 -0.64873636 0.4989687 -0.6733061 -0.38833877 -0.49972922 -0.16894221 0.72694194 0.1699923 0.80524355 0.83267295 -0.30931506 -0.0887935 -0.8627699 0.267704 0.62755686 0.2738586 0.5679452 -0.28480875 0.47900236 -0.20378435 -0.5068549 -0.3781363 -0.21462831 0.5745557 -0.096055895 0.38699862 0.83998084 -0.27979708 0.046115503 0.47427857 -0.8370263 0.20166948 -0.55317384 -0.06791274 0.15813564 0.13570267 -0.7552571 -0.23949444 -0.5818951 0.25116676 0.25992078 0.31502974 -0.48067552 -0.16686937 0.026184754 0.5011574 -0.13106748 -0.5078111 0.31527653 0.6933119 0.08470496 -0.57417417 -0.5485081 0.57938737 0.3505338 -0.41066784
47 -0.03656549 -0.15207857 -0.19848593 -0.41439754 0.13056153 0.46253917 0.059965663 -0.44153893 -0.25480473 -0.19305271 -0.044294804 -0.5162407 -0.15998234 0.5409416 -0.52468526 0.18784347 -0.42830843 -0.17084052 0.029166847 -0.34986553 0.1607354 0.1294027 0.21336637 0.1335333 0.22508705 0.2494658 -0.07596181 0.25781497 -0.076194644 -0.27907792 0.07857302 -0.064517885 0.39191067 -0.27572447 0.24970609 0.18863061 0.414941 -0.010463387 -0.026478283 0.8803929 -0.1328162 0.27641112 1.0772538 -0.047242217 -0.37432012 0.01947575 -0.79443955 0.19060397 0.059249662 0.46972772 0.116992235 -0.35042125 0.7297428 0.35589418 -0.3794676 0.214941 -0.2886259 0.4926635 -0.09426897 0.088884644 0.0026917905 0.02443777 0.25595424 0.5210817
48 0.42858016 0.29412085 -0.0988626 0.31702822 0.0012641028 -0.2614998 0.14909098 -0.10882533 0.13018347 -0.098943904 -0.44025964 -0.41808343 0.5014598 0.5314838 -1.5232878 0.06987947 0.11892959 0.1031179 0.13377005 0.36803776 0.3789069 0.4242373 0.26247704 0.28040484 0.25577828 -0.30162624 -0.37860835 -0.22235772 0.17626318 -0.21494375 0.062055588 -0.1555748 -0.16315451 -0.119563915 0.05206409 -0.019554455 -0.03430126 -0.099944845 0.42730692 0.12527317 -0.04707949 -0.1936897 0.29859704 0.098930255 0.17652725 0.08956446 0.44113347 -0.1798343 -0.1930838 -0.4817884 0.02840586 0.19195098 -0.23053437 -0.1867526 -0.02276915 -0.06889297 -0.4190226 0.030254751 -0.12804411 0.18203774 -0.07641522 0.17965913 -0.118392095 0.38493252
49 -0.053332165 -0.16472718 0.14614062 0.3417299 0.2188571 0.14818153 0.27036875 0.58967185 0.6250529 0.50480145 -0.21106642 0.17364517 0.0031032234 -0.2732304 -0.25787446 -0.7083107 0.8122858 0.45179525 0.20390609 -0.10328214 -0.022884935 -0.5499544 0.07923624 0.26689088 0.24492791 -0.18606359 0.32453704 0.007456988 0.21749258 0.41356674 0.13169192 -0.090109535 -0.3758902 -0.057431925 -0.17344993 -0.12081474 -0.27784908 -0.103726484 -0.25063556 -0.55623543 0.00410036 -0.5631887 -0.20262867 -0.29868603 0.6763385 -0.3345632 0.53502375 -0.49923375 0.12282024 -0.38180164 -0.2373817 0.7363619 -0.53056264 -0.116603136 0.35767508 -0.33062825 -0.060706917 -0.6038751 -0.20156443 -0.36743838 0.19750062 0.3202483 0.13847272 0.51220304
50 -0.49676943 -0.09274566 0.15718171 -0.035131223 0.056548357 0.067122445 -0.6899514 -0.12043731 -0.15019031 -0.21228656 0.49151832 -0.35465592 0.16759047 0.007155627 -1.7550348 0.16229019 0.23105416 -0.4758608 -0.25944328 0.43895912 -0.06397162 0.36297992 0.21376489 0.7349129 -0.063260674 -0.38553134 -0.593492 0.0106890425 -0.08473952 -0.8999732 0.28353462 -0.097273044 -0.015983377 -0.25336564 0.21689607 -0.06817356 -0.24077028 0.27641356 -0.16709849 0.065800846 -0.00840489 -0.35419008 0.01598546 -0.08399717 0.0601061 0.3225963 0.6484059 0.032253467 -0.28511986 -0.562526 -0.030084616 -0.10431503 -0.5954995 -0.1917517 -0.01718252 0.09527266 -0.7403084 0.14511344 0.035338856 0.05751342 0.124446645 0.21711247 -0.024360701 -0.0034076273
51 -0.1513773 -0.22714955 -0.1608608 0.063251704 0.5268975 -0.016376942 0.16823116 -0.15434138 -0.11743185 0.3706145 0.63452774 -0.070286304 0.3360623 0.11954746 -0.2912802 0.31162804 0.68633485 -0.6987708 -0.27620435 -0.37785098 -0.3329695 0.45590335 -0.021927506 0.014695462 -0.12256585 0.5044733 -0.8001313 -0.25558025 0.59555566 -0.3058684 0.64073706 -0.05357169 -0.23600438 -0.1126916 -0.18284099 0.23921007 -0.10268034 -0.14873381 -0.57796574 -0.2798054 -0.2527644 -0.58687496 -0.41399884 -0.31022647 0.54607224 -0.43870115 -0.037779965 0.55415773 -0.24167825 -0.11998534 0.32620677 -0.7946923 0.07094743 -0.305263 0.23715407 0.84567857 -0.42658406 -0.21834636 0.47929817 0.56099784 0.18471685 -0.12266562 -0.66003114 0.31691957
52 0.14967875 0.26744568 0.51215553 -0.04336953 -0.30106112 0.15139091 -0.045215614 -0.17732395 -0.07045515 -0.15432777 0.29833287 -0.40855628 0.15748523 0.41060364 -2.1267796 -0.12156345 0.5819293 0.033483475 0.31876 0.024313182 -0.30703837 0.20288587 -0.0027728975 0.5453656 -0.09576302 0.029304188 -0.4942885 0.10646531 -0.14568073 -0.299993 0.22891414 -0.035822585 0.1836482 -0.21483865 -0.102596134 0.1194963 -0.092179455 0.052381437 0.22546558 0.07683049 0.2586538 0.20638758 -0.41283482 0.013296545 -0.257704 0.17329177 0.5499738 0.19138877 -0.3189776 -0.2558986 0.044108212 0.008115895 -0.21136388 -0.086323485 -0.073725514 -0.11221948 -0.54325706 0.025650807 0.49330267 -0.33186 0.09871365 0.5324892 -0.109330036 0.43743664
53 0.12540637 0.0063577006 0.046631724 -0.1464662 -0.04589369 -0.07511989 0.07313549 0.2981834 -0.044044476 0.06976691 0.17007506 -0.11833735 0.2673885 -0.05144097 -1.6932578 0.33661976 0.41104388 -0.022940889 0.1668469 0.1995368 0.13922504 0.40569517 0.28811666 0.4047432 0.63491297 0.11595821 -0.34569597 0.0049073785 0.16048019 0.1300579 0.3850224 -0.34974912 -0.06285539 0.05372061 0.22040206 0.04882296 -0.26882726 -0.28857374 0.1915681 -0.43094665 0.09351576 -0.41027564 -0.38588554 0.18021692 -0.5502999 0.23479646 0.40863967 0.1402804 -0.18104014 -0.13192163 -0.022415549 0.03715317 -0.28126296 -0.017530546 -0.03445439 0.07350938 -0.4876357 0.27595735 0.03526489 -0.047545753 -0.3560509 0.55423576 -0.21689588 0.35100052
54 -0.21311502 0.16769798 0.8018373 -0.49682343 0.38302368 0.19477594 0.04647641 -0.34545618 0.070621625 -0.112385824 -0.43431848 0.21186791 -0.17756477 -0.028788 0.13972834 -0.50937045 0.22143684 -0.26947114 0.049594 0.24475387 -0.44714588 0.09149082 0.12748565 0.014367614 -0.44709957 0.22520503 0.27060336 0.36460212 -0.42136192 -0.005227618 -0.044851832 0.1396128 0.19468343 0.096811086 -0.48006296 -0.29681578 0.40465492 -0.059793375 -0.20211962 0.27198043 -0.04361966 -0.34687057 -0.33610398 -0.42018235 -0.2876886 -0.39631423 0.3239002 -0.049313553 -0.22848815 0.61460865 0.07106458 -0.061420552 -0.7920824 -0.07254444 -0.005936019 -0.26407737 0.3118245 -0.35047942 0.00815608 -0.14214669 -0.040175017 0.21250941 -0.65037084 0.030307323
55 1.0007461 -0.19550069 0.6242081 0.29472798 -0.9956272 0.020164922 -0.37735486 -0.16172177 0.27684784 -0.059255328 0.11880043 0.27216822 0.4230674 -0.07703766 0.29746026 0.19624324 0.13316883 -0.43062657 0.1886825 -0.06895031 -0.311378 -0.4113231 -0.5925787 0.013833314 -0.19489177 0.39749163 -0.1531111 0.13188007 0.38904065 0.18421826 -0.20171879 0.60629576 -1.1229627 -0.18944712 0.70500153 -0.30684578 -0.53585243 -0.54191834 -0.069262646 0.33132878 0.02297996 0.045262992 0.22164688 0.3189667 -0.34002417 0.37100625 -0.12218088 -0.15732424 0.5732547 0.0031303167 -0.18705308 -0.3462205 -0.28906608 0.52224386 -0.03714753 -0.01361759 -0.28702903 0.034835424 -0.28509772 -0.31168592 0.6265821 0.02841159 -0.06293843 0.32372501
56 0.001190871 0.033880934 0.27269518 -0.0350329 -0.129298 0.27010307 -0.32053515 0.3111797 -0.2837652 -0.21583316 -0.38765597 -0.4319071 0.08518483 0.65027905 -1.8708836 0.26967704 0.32247478 0.1931908 0.038988322 0.37065354 0.22908163 0.37452126 -0.24860212 0.39966524 0.1274238 -0.029115193 -0.42289704 0.39810222 -0.009378444 -0.2994739 -0.40247458 -0.11192155 -0.036254644 -0.051671628 0.072081074 -0.27929932 -0.38222992 0.007208042 0.4456345 -0.14899652 -0.09481226 -0.3952565 0.10458369 0.22107954 0.09296204 0.3619059 0.27699915 -0.29692447 -0.48598593 -0.17442457 -0.11193684 -0.079544656 -0.35153377 0.23803999 -0.3864394 -0.59957856 -0.6917694 -0.08983855 0.12669477 0.03996925 -0.041140184 0.55578274 0.22214723 0.3121524
57 -0.81449276 -0.19392374 -0.029768944 -0.15833811 0.19747522 0.28526533 0.15449724 -0.77488863 -0.6513908 0.40983143 -0.2080475 -0.60802776 0.010633007 0.11232652 0.07465081 -0.6256567 0.09656444 -0.041389816 -0.038817506 -0.105338775 -0.03193122 0.5098303 0.2589532 -0.53584564 0.06947073 -0.25066537 -0.5480195 0.08643998 0.3224737 0.6457293 0.03639702 0.4162002 0.06298156 -0.41581675 0.26324436 -0.7717799 0.25009125 0.33891118 0.661614 0.04558199 -0.06838501 -0.120704666 0.650362 -0.22986583 0.0945894 0.17336226 -0.12959829 0.27682707 -0.19736993 0.22389053 -0.66663307 0.255055 -0.29101512 -0.37529343 0.31673628 -0.03244508 -0.074583784 0.28209662 -0.4323371 0.56447214 0.0653245 0.491171 0.05150365 -0.061015487
58 -0.004501365 -0.14117073 -0.57654893 -0.19438607 0.32301533 0.046678618 -0.08071133 -0.73362225 -0.048753396 -0.024497386 0.20329396 -0.13707018 0.2603063 0.2146494 0.04074522 0.036003307 -0.184858 -0.45054054 -0.42988276 -0.34633625 0.057459794 0.24675182 -0.32153314 -0.24517488 0.11386196 0.2162041 -0.41972864 -0.19583148 0.4109734 -0.27509588 -0.029218704 0.0918032 -0.05908508 -0.06977795 0.15037005 0.050857846 0.1351212 -0.1294773 -0.22980815 0.44500247 -0.018170234 -0.34881103 0.8917687 -0.25862837 -0.013705097 0.31243134 -0.5446179 0.34881908 0.09507639 0.100311145 0.37008306 -0.0763128 0.035842568 -0.20302668 0.32158875 0.060818598 -0.46700722 0.22704615 -0.22375485 0.36632222 -0.05318149 -0.040481582 0.10147925 0.16594094
59 -1.0930289 -0.86620545 0.32051834 0.8905193 -0.45165747 0.15711302 -0.3059091 0.0045495927 -0.38470006 0.09469682 0.15194643 -0.26784894 -0.20026147 0.39161998 -0.72401094 0.6229612 0.0021806508 0.43874687 0.5154034 -0.31359112 -0.01683943 0.05300808 0.79111004 -0.11396554 2.1061206 1.0316205 0.4476172 -0.64191324 0.34037995 -1.2477344 -0.23295274 -0.48245504 0.8262974 -0.10320384 -0.40711814 -0.43023995 0.5299709 -0.44002515 0.047258493 0.42355806 -0.5247251 -0.31899655 0.5545502 0.037443414 0.57899445 0.48031646 0.082626805 0.4554614 -0.14879866 0.7849193 0.3848901 0.8498781 -0.2087324 0.002349548 0.88137996 -0.3508711 -1.5410923 0.051165618 -0.28148827 -0.5992699 -0.99028707 -0.24611826 -0.2524476 0.16247778
60 0.59607685 -0.16986068 -0.24315019 -0.136262 0.107116684 0.13870934 0.37525806 0.67553806 -0.36956438 0.6676808 0.41622633 -0.63424265 -0.29567683 0.12399907 -0.6455678 0.012251746 -0.3241005 0.11232534 0.437975 0.38490173 -0.68091863 0.45812213 0.047018602 0.36983985 0.4635554 0.45751274 -0.2809542 -0.3835607 -0.58463293 0.36581904 0.35891083 -0.53473747 -0.09435533 0.3724988 0.40325728 -0.07112202 -0.31507993 0.39771155 0.38516647 -1.9410682 -0.24145113 -0.49564165 -0.43061763 0.21801443 -0.32054162 -0.48459917 0.076974064 0.2565069 -0.07614294 0.030388825 0.6272639 -0.34190822 0.3971242 0.97819966 -0.19128719 0.29629192 0.19182086 0.87878174 0.16933015 -0.2001657 -0.5541097 1.1102577 -0.31352592 0.13931791
61 0.3044734 -0.32960922 0.2623079 -0.152623 -0.06710653 -0.21295501 -0.10419306 0.18185002 -0.29221603 -0.09658674 -0.009657428 -0.15266742 -0.4383579 0.14262727 -1.5108862 -0.18693686 0.25521198 -0.20217153 -0.04915844 0.08418844 0.43362182 0.005312696 -0.029981725 0.4874754 -0.30590597 -0.22643185 -0.3725562 -0.261683 -0.16183206 -0.34766132 -0.10864531 -0.5810795 0.5004508 -0.2727308 0.3397516 -0.18237957 -0.5429093 -0.37779424 0.45817882 -0.63403827 0.04643595 0.16226628 -0.43659174 0.5727396 -0.2696458 -0.46583286 0.4737329 0.13639915 -0.30979082 -0.3741423 0.36128616 -0.030805252 -0.23268415 -0.60155153 -0.52922946 -0.61416864 0.19167656 -0.032169126 0.2504549 0.027711391 0.18754722 -0.22468461 -0.6647592 0.026443139
62 -0.6590079 0.0437781 0.16351083 -0.42235908 -1.2677789 -0.5719913 -0.34068185 0.5690917 0.99403805 0.13152875 0.41341832 0.46330476 -0.42575026 -0.27122048 0.036696423 0.5401769 0.3163194 0.18454763 -0.46355313 -0.5100527 0.34620816 0.08116345 0.21096851 0.14965452 -0.43958133 -0.20173386 -0.35682136 0.19022818 -0.043851417 -0.57615376 0.6765052 -0.24626413 0.24547428 0.05784411 -0.12913461 -0.50436354 0.69869614 -0.034005284 0.06979936 -0.07512395 -0.4341292 0.49671823 0.12112674 0.09753853 0.23069301 -0.3757121 -0.3157503 0.39680156 0.6564786 0.0409562 -0.18477102 -0.28956842 0.50056463 0.143306 0.21478292 0.22384767 0.3556757 0.86132854 -0.6898372 0.15265055 0.6232056 -0.7989209 -0.23215011 -0.4921093
63 0.3227449 -0.5382727 0.1955915 0.064992115 -0.27750772 0.041076384 -0.24078344 0.43203092 -0.3216193 0.9984938 -0.14280191 0.35138634 -0.102424175 -0.010968924 -0.3000243 0.3268416 0.73329246 0.49332365 0.3100019 0.7251897 0.06619771 0.20624119 -0.5258325 -0.012912631 -0.3627821 -0.38983154 0.4990805 -0.32128215 -0.37255636 0.30429968 0.2960093 -0.06657251 -0.9135772 0.020478256 -0.16910699 -0.16033208 -0.015581489 0.29727072 0.42870292 0.4597258 -0.25048846 -0.30034912 -0.20011069 0.012111321 -0.101296626 0.35584742 -0.102761105 0.57754296 0.12643555 0.08187431 0.34683678 -0.42179134 0.15214343 -0.35080612 0.3417226 0.5782865 -0.13981761 -0.39030173 -0.31718904 0.063689195 -0.44404733 0.0070717484 -0.46141398 -0.69145864
64 0.5028594 -0.09165524 0.01841966 0.1177288 -0.11295878 -0.45396852 -0.021309365 -0.24260207 0.08013531 0.027644653 -0.2859366 0.1422265 0.31671768 -0.14770441 0.28673926 0.29295892 -0.20652819 -0.3280852 0.32746965 -0.28584993 0.93201905 -0.03617141 0.1631329 -0.49983874 0.07208226 0.047746643 0.005542472 -0.6647529 0.19360033 -0.2828474 0.12956798 0.25054407 0.1613987 0.89657074 0.67653716 -1.0884912 0.67594826 -0.20482436 0.5973153 0.26968238 0.18882193 -0.2880269 -0.13810256 -0.6177446 -0.25079042 0.32062924 -0.038788974 -0.6807396 -0.12803495 -0.56372494 -0.13294184 0.83385426 -0.19196685 0.18191731 -0.6004659 -0.21956903 -0.14442739 -0.88240075 0.043454498 0.64369404 0.10207442 0.5027617 -0.1271085 0.1300902
65 0.9586378 0.45046338 -0.30365553 0.54997516 -0.17010915 0.83064646 -1.0466467 -0.15425894 -0.13942781 0.21178785 0.0140218 -0.010871544 0.7512283 0.39520812 -0.028734252 0.8252077 0.2501542 0.6167637 0.22742812 0.1401293 0.32731777 -0.2292456 0.7050342 0.15689626 -0.111934185 0.6409065 -0.37569737 0.5496038 -0.906235 -0.47892582 0.011837854 0.24695493 0.15972972 0.6836014 -0.09472748 -0.7871756 0.62316024 -0.3753075 -0.831515 -0.16183862 -0.56669354 -0.6132857 0.42507994 0.69930375 0.72233903 -0.19918613 -0.87739223 0.47971448 0.5136485 -0.5156116 0.3054248 0.095262125 -0.2746369 0.1885386 0.54224974 0.5092454 -0.80637735 0.6194454 0.6823305 0.2805867 0.26625192 -0.9610306 -0.009831648 -0.47330368
66 -0.1754929 -0.29970336 -0.25603268 -0.40032697 -0.12992968 -0.39802533 0.34296793 0.06197179 -0.5725012 -0.024076456 -0.0157802 0.2822555 -0.36840984 -0.20549238 0.7738967 -0.7914923 -0.16387215 -0.19695067 -0.4684515 0.1539886 -0.42779124 -0.14272104 0.029850766 -0.20277944 -0.37385577 -0.7442373 0.09188602 0.2831298 -0.23317157 0.29093355 -0.032863025 -0.671734 -0.23616654 0.29701868 0.00791727 0.21827902 -0.031300277 -0.10559389 0.7202448 -0.30590892 -0.06487864 0.03281977 -0.16052552 -0.16249701 0.49283755 -0.04122626 0.27825317 -0.21223746 0.14080596 -0.19868776 0.39046693 -0.19516976 0.12557366 0.28749055 -0.2405918 -0.13183375 0.5443504 -0.37564546 0.5726088 -0.29144216 0.3213172 0.1586797 -0.1260819 -0.01812281
67 0.25702846 0.22014181 0.11265836 0.010774255 0.27879032 -0.646615 -0.30053863 0.29977047 -0.021163404 0.35017362 -0.1783613 -0.22483364 -0.024047438 -0.31273854 3.2640062e-05 0.25062668 0.6804204 0.28175506 0.48275873 0.34843123 -0.3531196 0.2293199 0.37617633 -0.16061005 0.5754239 -0.5247986 0.022853091 -0.5497509 -0.051394686 0.1977976 0.015481815 -0.09773934 0.065545365 -0.39115444 0.7362275 -0.32653746 -0.97495025 0.18826585 0.32396382 -0.5006673 0.5707566 -0.6014124 -0.41418213 -0.064020954 0.010569617 0.35736707 0.12302226 -0.54007506 -0.24189666 -0.028725564 -0.5054424 0.54786247 -0.87208605 -0.045173444 -0.51056194 -0.44001225 0.020951834 -0.7728375 -0.13340446 -0.089383245 0.24517685 0.49850678 0.04116843 0.36904126
68 -0.98570764 -0.029551357 0.28133383 0.21882175 0.1820141 -1.0485286 0.4572964 -0.23530583 -0.36372086 -0.19096574 -0.41606796 -0.15036625 -0.33430815 -0.5532375 -0.008084446 -0.15411493 0.57163787 0.5491391 -0.69536054 -0.7205093 0.0017172396 0.23350178 1.0267987 0.21873622 -0.22821884 -0.42239654 0.57514894 0.5586806 -0.013546687 0.95096946 0.07145795 -0.34392208 0.09668547 0.44935432 -0.40043363 0.2679032 -0.6212936 -0.5871014 0.607424 -0.94445336 -0.031489003 -0.33145615 -0.521999 0.37226278 0.027953684 -0.38783482 0.3474624 -0.74099827 0.68200046 -0.5349923 -0.32496706 0.29646066 0.20765288 0.23566127 0.2912928 0.28499573 0.6209341 0.50699013 0.021305084 -0.009434022 0.6523544 -0.13828488 -0.28031975 0.07951902
70 0.06127613 0.5054853 0.43623295 0.14776433 -0.19084868 0.018081058 0.16672294 0.25169247 0.26722777 -0.32456058 0.15364514 -0.238253 -0.4440565 0.2427676 -1.4342247 0.13734955 0.006499773 0.3993642 -0.09382534 0.13561365 -0.488462 0.17199238 0.35518348 0.45174316 0.18653658 -0.24819611 -0.29142463 -0.06343396 0.09806545 -0.14287823 0.13522215 -0.05403181 -0.046396546 -0.096166976 0.14494458 0.6006761 -0.3300627 -0.7454685 0.40422377 -0.07464023 0.020235226 -0.1135968 -0.18959397 0.10267495 0.19707447 -0.4299681 0.31344393 -0.17464763 0.17556761 -0.13889292 0.049886137 0.36522776 -0.051349334 0.21512827 -0.10576644 0.038676396 -0.687834 -0.21934591 -0.20779581 -0.4643201 -0.45493424 -0.01939939 -0.32535627 0.0051695853
71 0.37892067 0.5033227 0.43800452 0.4671656 -0.12055161 0.12252702 0.30577978 0.17597222 0.31478477 -0.15138637 -0.06344274 -0.7263526 0.08016681 0.5189555 -1.6657937 0.24902588 0.3309539 -0.14216557 0.21117154 0.035632864 0.122302964 0.47751737 0.26023838 0.4365625 0.14603643 -0.09386205 -0.6266702 0.16762483 -0.2632592 0.3335409 0.18588316 0.24242854 -0.3115915 0.31007645 -0.15874931 0.3994438 -0.20770326 -0.1401504 0.48998576 -0.36515185 0.4928532 -0.36901706 0.10672253 0.013187312 0.13530675 -0.49776852 0.1461013 -0.38855037 0.012317792 -0.39855823 0.16714439 -0.35718775 -0.46261585 0.0022508986 0.06958571 -0.16863649 -0.5825843 -0.66410846 -0.3275841 -0.14090177 0.3525836 0.3635733 0.08329509 0.88502336
72 0.4215829 -0.18318677 0.032096874 -0.517953 -0.6975411 0.4521492 0.6271017 -0.41495585 0.19192544 0.3070053 -0.28649285 0.2753482 -0.61012024 0.106717855 -0.043876693 -0.34493703 0.08021252 -0.6264651 0.48622003 0.16582002 0.22629923 -0.9445484 0.483911 -0.62401575 -0.19860305 -0.21421094 0.13250607 -0.002604261 -0.19204886 -0.023982517 0.5359312 0.27931514 0.037832 -0.073820814 0.28394362 -0.18244013 0.52247655 -0.03622725 0.045507215 -0.5782349 0.1353156 -0.021073323 -0.25696337 -0.48118055 0.17209946 -0.25422183 0.32644805 0.080886774 -0.20442711 -0.067603454 0.72783464 -0.22167936 0.38227516 -0.3337137 0.12070046 -0.014295466 0.44269115 0.045762107 0.35471353 -0.05913615 -0.037324794 -0.30621564 0.22509973 -0.11948623
73 -0.24328464 -0.9917629 0.013731003 0.17539516 0.6091593 0.1382657 0.2936005 -0.16580783 -0.20342322 0.88817203 0.11214797 0.17744415 0.74385345 -0.76222074 0.45981115 -0.51194155 0.7462617 -0.5764359 0.091844976 -0.10030255 -0.07656374 -0.5943738 -0.22553283 0.020999342 0.07246643 -0.12554306 -0.6421761 -0.06358716 0.24935962 0.029173732 -0.06872445 0.08840053 -0.11800094 -0.124492556 0.5746177 0.37562737 -0.32485053 -0.49398234 -0.3185594 -0.20504928 -0.61564523 -0.5245876 -0.16260257 -0.5135436 -0.27104765 -0.22822133 -0.024157539 0.5766673 -0.28663516 -0.094055355 -0.10934706 0.06945768 0.15423921 -0.6108944 0.589683 0.37440494 -0.83216894 0.22596526 -0.05174862 0.73432297 0.63369685 -0.17317685 -0.355902 -0.0004158616
74 0.187713 -0.18045554 -0.6286018 0.12617114 0.08178409 0.4471479 0.2189663 0.38274193 0.122020565 0.14376988 0.4816165 0.026610814 0.6535052 0.11262779 -0.05400023 0.5490615 0.22137603 -0.33370048 -1.0569358 0.31147256 0.07563081 0.19357774 -0.18140623 -0.4820567 0.23815304 0.08708958 0.032981485 -0.46634775 -0.39511278 -0.22303316 -0.20817764 -0.37882775 0.03725268 0.6164164 -0.029806271 0.6801251 0.16598 -0.15260367 0.317733 -0.58279324 -0.2481271 -0.19223519 0.033647865 -0.15076205 0.08616729 -0.39962438 -0.5736069 -0.640473 0.43872577 0.10749978 0.18581808 -0.43087816 0.3556363 -0.9961194 0.31731617 -0.0891988 -0.666207 -0.45240104 0.08331269 1.3887072 -0.9575219 -0.32453704 -0.25329536 -0.3998761
75 0.17197837 0.003909722 -0.49500048 0.1899783 0.78252625 0.00902465 -0.20227164 -0.24766299 -0.41383642 -0.1290588 -0.47146714 -0.41566053 0.1675781 0.24916612 -0.005620204 -0.20811038 0.66601276 0.08682613 -0.21803947 0.1086435 0.41901568 0.10066567 -0.6403836 -0.70881927 -0.14174713 0.50701153 -0.15998861 -0.1766679 0.6375886 0.05630921 -0.28292763 0.17923129 0.20880352 0.3612367 -0.038361847 0.31601554 0.07014617 -0.23111396 -0.34375566 0.11279668 0.118043296 -0.58688474 0.83019197 -0.16709548 -0.4243089 -0.28735906 0.17455526 -0.21086931 0.30612934 -0.72708154 -0.4669182 0.023437977 -0.24508041 -0.079626754 -0.36229184 0.19955057 -0.41779608 -0.12571394 -0.03178134 0.53608483 0.2875258 0.00526952 0.066809244 0.71733356
76 0.18830897 0.2889523 -0.66147673 0.18907225 0.57690394 0.4485038 0.62121224 0.24481016 -0.17173815 0.04900469 -0.33611953 -0.011086918 0.18234092 0.09513779 0.38754547 -0.28072274 0.11964266 -0.011468582 -0.29144266 1.1118484 0.34798065 0.11525268 -0.088319376 -0.18285228 0.49449956 0.34096447 -0.23190881 -0.031048872 0.19566089 0.0062678754 -0.44099322 -0.19982037 -0.41425782 0.09001611 -0.30093127 -0.3486337 0.07987709 -0.05095258 -0.0011166204 0.31421256 0.09974429 -0.3542236 0.61716884 0.057513356 0.36028594 -0.43054283 0.6445998 -0.16018009 -0.10290879 0.49798432 0.37270302 0.054023355 0.06996974 0.21982478 -0.19950235 -0.38076437 0.039006025 -0.21309161 0.070655294 0.14280914 0.0064481795 -0.33469263 0.2743375 0.47596636
77 0.08855145 1.105541 -0.87308526 -0.116102666 0.28945035 0.743305 -0.2036716 -0.07567349 -0.018187061 0.2050296 -0.2666769 -0.2639133 0.49817547 0.63046926 0.2854178 0.4127713 -0.2554982 -0.26219893 0.030890021 0.40123445 -0.009992778 0.17185302 -0.17017943 -0.18058793 0.09965424 -0.3894468 -0.18584248 -0.2534412 0.40246338 0.64210343 -0.18028036 0.5331765 -0.036113538 0.18482977 0.19462171 -0.647938 -0.34097204 -0.45308766 0.31885377 0.06468597 0.03507045 -0.52345395 0.86887705 -0.32669997 -0.9634063 0.027714074 -0.2206921 0.2645275 0.37966982 -0.36253005 -0.005368592 -0.2960369 -0.3903863 0.2148427 0.225324 -0.33513522 0.29880875 -0.7961266 -0.27981815 0.1887343 0.5219286 -0.40111548 0.33718124 0.3565884
78 0.5443956 -0.102490276 -0.06589784 0.15920696 0.35758996 0.030771628 -0.3800823 -0.3234831 0.18100312 0.051549524 -0.16322836 -0.19133401 0.30320868 -0.16197875 -0.34009257 0.037171226 0.44745862 0.06932016 0.088327825 -0.084456876 0.416161 -0.36602634 -0.548295 0.032889217 0.13053256 -0.0033697784 -0.11052935 -0.08287711 0.2213282 -0.5168254 -0.11388427 0.018250957 0.046314742 -0.13807692 0.13807124 -0.30105996 0.26323128 -0.336945 0.04072749 -0.26418567 0.31809723 -0.3680549 0.54677916 -0.5595301 -0.8630376 0.12189586 0.11509319 0.18478292 -0.09179046 -0.038763538 0.35591224 0.6107228 -0.011244059 -0.1167205 -0.19080679 -0.43092144 -0.518319 -0.3239845 -0.4381307 -0.28396642 0.12470913 -0.31340075 0.5085479 0.26985675
79 0.23844394 -0.32274905 -0.6677427 0.1414069 -0.14991124 0.015855819 -0.60439795 -0.16581517 -0.061691348 0.6078888 -0.3195365 -0.0106178075 0.21838209 -0.1499632 -0.519168 -0.010522682 -0.6542254 -0.20794146 -0.3776035 0.06814903 0.015516192 0.37655127 -0.0977604 -0.102039166 0.8577471 -0.14488165 -0.284387 0.5234195 -0.11489169 0.3420747 0.13589743 0.5268993 0.11714352 -0.33362535 -0.2727623 0.09218429 -0.53849256 0.7620416 0.02846012 0.6015397 -0.21729076 -0.35842687 0.66536427 -0.02723619 -0.10000418 -0.41726577 -0.47267592 -0.31544417 -0.27330863 -0.2798171 0.054515824 0.12277386 -0.0036886819 0.27026874 0.42758393 -0.086537205 -0.039938465 -0.4331382 1.3087609 0.050683975 -0.17617446 -0.12647974 -0.20027447 0.5754883
80 0.1323134 -0.43141884 0.3405248 -0.17827314 -0.19555552 -0.1444034 0.29025033 0.062484354 -0.035136037 0.3349585 0.94191325 0.6684123 -0.3485725 0.24041058 -0.017894428 0.8462077 -0.05729723 0.011312619 -0.34322417 -0.2458514 -0.62479794 0.30348656 -0.012078777 0.5390074 -0.10164249 -0.4646624 0.25405064 -0.04015541 0.4743925 -0.32531095 0.011061266 0.2145015 0.29396975 -0.29629925 0.46920273 0.3298931 0.2182326 0.46161333 -0.55957377 0.19169347 -0.071923256 0.35283044 0.12710524 0.009790845 0.06512797 -0.5560756 -0.6957314 -0.23170812 -0.40070862 0.22674845 -0.08491537 -0.7136259 0.55586493 0.29254407 0.05605641 0.30409467 0.10854262 -0.21400675 -0.2502577 0.6156393 -0.17453478 -0.3804791 -0.16551127 0.31861043
81 -0.3743384 -0.47044855 -0.03580529 0.34649628 0.12388325 -0.09843626 0.15939416 -0.2156856 0.07205495 0.30509776 -0.12236333 0.0301442 0.054737926 -0.025819737 -0.67964363 -0.04892072 0.1875725 -0.8677037 -0.24686477 -0.15963529 -0.28392395 -0.10965565 -0.29280102 0.17327014 -0.09716236 0.20143874 -0.45270184 0.018822297 0.6868238 -0.14048141 0.04581502 -0.16069049 -0.076183125 0.0029460713 -0.50006115 0.33783606 0.14788307 0.121921964 -0.13209215 -0.062769055 -0.48309672 -0.7304615 -0.27591005 0.06697275 0.44869685 0.5187745 -0.027118031 0.2834092 0.11134962 0.26928324 0.47571528 -0.14030984 0.18387781 -0.45507276 0.5569912 0.18359217 -0.39100415 -0.2538937 0.14582276 0.31532237 -0.08952807 -0.21570103 -0.3155645 -0.15779006
82 0.736143 0.012202591 -0.22203472 0.3773379 0.0043659173 0.08633292 -0.18289016 0.07177911 -0.46466592 0.727745 0.78574 -0.13992706 0.63516223 0.36708605 0.09913295 0.3024327 0.15689401 -0.072984055 -0.36056834 -1.2160728 -0.24677533 0.60673785 0.29891145 -0.15560623 0.08346899 0.6920253 0.03401661 0.36112282 0.97169244 -0.032993793 -0.7589626 0.5074278 0.0044126287 -0.021503262 -0.7976943 -0.08662712 -0.73777926 0.4690482 -0.1387009 -0.11215133 -0.05515836 -0.76488525 0.42186677 -0.038742803 0.23325467 0.4404561 -0.6005149 0.4910456 -0.69089276 -0.2885043 0.6721372 0.47320172 -0.3177118 -0.9147232 -0.072647884 -0.04324332 -0.33508468 0.6483208 0.23226802 -0.27577555 -0.34446263 -0.07260958 -0.9094136 0.022886992
83 -0.087018795 -0.2891538 0.36989373 -0.07537742 -0.3593387 -0.095069036 -0.019732125 0.27110502 -0.7175388 0.037265364 0.375239 0.26523593 -0.04129623 0.33705682 -1.0079118 0.23435633 0.09202179 -0.513376 0.16450348 -0.64768744 -0.07649681 0.1769977 -0.6835455 0.35069513 -0.21570995 -0.041700214 -0.32589114 -0.22475076 0.21536128 -0.613469 0.2684874 -0.049682524 -0.58355093 0.27826306 -0.30731544 0.33983183 -0.361964 -0.5571423 0.05604607 -0.050400317 0.16774279 -0.059292346 0.15469956 0.048142128 0.14605632 0.4609422 0.22454336 0.25501946 -0.0951837 0.09668301 -0.05788356 0.09586835 -0.103347234 0.19468425 -0.28242102 -0.24418399 -0.16534701 0.026647452 0.1611473 0.19880742 -0.31751212 -0.3119464 -0.3383503 0.22309293
84 -0.15771464 -0.41303048 0.29488677 -0.037018877 -0.41593316 0.39158317 -0.12358584 0.5609037 -0.6331852 0.20969933 0.49522305 -0.09106305 0.11092558 -0.54060245 -1.1709336 0.40780628 0.106196865 0.12136856 -0.23469245 0.2713927 0.28084934 0.2572677 -0.11034268 0.3945239 -0.04345294 -0.12652066 -0.37382656 0.47388652 0.19260223 -0.039465845 0.0060008466 -0.24022295 -0.16972603 -0.038228482 0.012561232 0.30115473 0.034428492 0.33791625 0.5026803 -0.32966113 0.08434183 0.29065818 -0.080915526 0.016799126 0.1737566 0.5170825 -0.13105711 -0.114687815 -0.21956064 -0.052479275 0.17728 0.13744628 0.15156779 -0.27963603 0.30828103 0.22907136 -0.23102044 -0.23332632 -0.11252901 0.19049096 0.25758886 -0.7857596 -0.0072351694 0.031189835
85 -0.04310074 -0.07701307 0.34020084 -0.39439017 -0.14795512 0.39954257 -0.25348356 0.2522294 0.38599452 0.14506608 0.85311806 0.31218383 0.17931248 -0.21133186 -0.7717945 0.16364473 0.62309813 -0.5194471 -0.11006951 0.23960468 -0.42080456 0.19752315 0.29604596 0.50977254 0.11684032 0.81391734 -0.80600536 0.48012185 0.22427143 0.25023434 0.21322675 -0.298938 0.5613177 0.26388526 -0.42420274 0.24178112 0.011404067 0.11764926 -0.41600305 0.1673689 0.16538762 0.34059274 -0.5435651 0.08398971 -0.07476859 -0.25560415 -0.46175796 0.26943284 -0.23403421 0.100853436 -0.2319876 -0.68916774 0.30690855 -0.11043429 -0.2237697 0.34184122 -0.12578642 0.5189054 -0.4223017 -0.27331692 -0.24081075 0.016886085 0.24070902 -0.49388146
86 -0.24585885 0.15595883 0.18312477 0.26609847 0.03685099 0.39678288 0.14736871 -0.05768144 0.1566883 -0.2230837 0.13882881 0.025062457 -0.053268958 0.055575047 -1.0309675 0.23763375 0.20616975 0.26781958 0.042901292 -0.15911171 -0.13747588 -0.061935082 0.046926737 0.2162252 -0.12779118 0.30916476 -0.07509996 -0.09027374 -0.27840516 -0.2123993 0.50611097 0.26175967 0.2360416 0.07292204 0.36886275 -0.22899128 -0.19866012 0.23922941 0.012952313 -0.28373185 0.38024253 0.0032651126 -0.47463447 0.40837702 -0.1768422 0.21168871 0.0123395175 0.07062034 -0.08580262 0.13651037 -0.24381188 0.04457055 0.17986403 -0.54007405 -0.22347671 0.21561114 0.05408731 0.04371836 0.4266772 -0.35479322 -0.1724129 -0.57586807 -0.19842532 -0.3356444
87 -0.039800927 -0.1890206 -0.013936296 0.14668238 0.0552444 0.33873633 -0.23442823 0.26592487 0.00030430406 0.40123135 0.47719356 0.19390269 -0.1174383 0.23931704 0.26628667 0.34848645 0.25875926 -0.005445987 0.27165443 -0.185321 0.44468543 0.02101066 0.9797118 -0.27128512 0.1222364 -0.026846826 0.18345895 0.11364603 0.036826625 0.13738258 -0.29973257 0.3638785 0.09882255 0.18811545 -0.2323192 0.44727984 0.19808121 -0.08428398 0.39192894 -0.83861375 0.16346565 0.08660445 -0.16627908 -0.51460576 -0.20364954 -0.678508 -0.2708035 -0.25857344 0.049448393 0.09189944 0.19960293 0.26995718 0.12745681 0.3198021 -0.6019093 0.23208171 0.8857782 0.3795316 0.041461885 -0.040923126 -0.016754016 -0.31448385 -0.053994276 -0.32372868
88 -0.024804868 -0.6170448 -0.17406815 0.085525945 -0.50923824 0.20796767 0.03957411 0.060868442 -0.2136752 -0.37472248 -0.3014188 0.25640076 0.16449581 -0.45867953 -0.6556366 0.70256937 -0.7803321 0.64858747 0.13891792 -0.40608674 -0.2646478 -0.3480134 0.21354048 -0.094026 0.51078856 0.034579143 -0.23740211 0.41404134 -0.046638533 -0.5192347 0.39416525 -0.30863008 0.017618489 0.2304258 0.025072845 0.721352 -0.6050925 0.25943086 0.19442062 0.6652983 -0.33000988 0.13388914 0.45103884 0.44832858 -0.27963185 0.54525137 0.5354698 -0.3268382 0.6563384 -0.5816675 -0.10601571 -0.37436712 -0.24594957 0.5688065 0.2813065 0.19633043 0.008832313 0.5226038 0.055926327 -0.18122162 0.3388695 -0.35665047 0.089575894 0.1176217
89 0.23514938 -0.45794046 0.3500199 -0.3764224 -0.660318 0.10251751 -0.0991528 0.12538664 0.15113345 -0.18280691 0.54288304 0.29120597 0.028243333 -0.16944216 -0.56968236 0.101014644 -0.02568233 -0.36214566 -0.14680116 -0.19235669 -0.031477153 0.16199274 -0.19604719 0.328286 0.028730586 0.20600513 -0.40831637 0.17918848 -0.10770879 -0.45008394 0.507631 0.24758622 0.42609137 0.1705322 0.110132396 0.32096395 0.056371227 0.23423715 -0.120515764 -0.23787674 -0.24023375 0.5438109 -0.12223174 0.26169562 -0.5680222 -0.1843622 -0.25377297 -0.0704711 0.20419316 0.57496965 0.15464985 -0.53159475 0.4174145 0.43727764 -0.1365141 0.36250678 -0.053731687 0.18614843 0.15922073 -0.1341209 -0.22810274 -0.4523385 -0.0030031838 -0.39812565
90 -0.38858777 -0.13186982 -0.07399726 -0.2503997 -0.4372875 -0.09540559 0.11896758 -0.07809642 -0.2437528 -0.416886 0.34696352 -0.049147442 -0.35379964 0.16486971 -0.32683277 0.5678022 -0.4896909 -0.48746264 -0.5224497 -0.40345478 0.028897747 0.39897543 -0.02145391 0.23647894 0.111448936 0.50877553 0.021418512 1.0054603 -0.09551997 -0.32593092 0.047319017 -0.007135302 0.090704 -0.24388279 -0.36467475 0.52778816 0.61399114 0.73120654 -0.227995 0.47043207 -0.30424756 0.29663217 0.13076788 0.19722608 -0.6668652 0.079149865 -0.08773202 -0.19813366 0.036080778 0.3819599 0.28611457 -0.79582775 0.7151878 0.17164387 -0.018697225 0.44420123 0.067382276 0.34007472 0.13870272 -0.40272287 0.43316323 -0.14819087 0.14275831 -0.6288427
91 -0.17804392 -0.24571495 0.031738847 -0.13712172 -0.26659292 -0.023723334 0.0066657867 0.5197088 0.5881376 0.057080716 -0.37715077 0.111747585 0.4941424 -0.012744293 0.80385065 0.4308149 0.38737953 -0.0050774217 0.40107602 0.5751768 -0.45621514 0.43008885 -0.17898448 -0.071011245 -0.732322 0.41756046 -0.18512347 -0.4485663 0.18145443 -0.37605137 -0.2120195 0.2653211 -0.40135258 -0.22814296 0.20220824 -0.21759015 0.34119734 -0.13296875 -0.6166902 -0.0768411 -0.6864314 -0.35092157 -0.17158769 -0.06728438 -0.2742904 0.64924264 -0.55250525 -0.6226905 0.026967222 0.047203425 0.3784964 0.02797315 -0.03209439 -0.3333124 -0.41715872 0.08950489 0.039452136 0.066310644 -0.40976253 0.35067013 0.20899421 0.29883766 -0.16207448 -0.29300565
92 0.6510035 -0.8096166 0.11035223 0.048111856 0.20686293 -0.053235218 0.23013577 -0.1042532 -0.098907806 0.856134 0.24896333 0.1548012 0.6216963 -0.53733134 0.38266408 0.4033673 -0.051644266 -0.35925624 -0.3650008 -0.33814713 0.3133797 0.01961802 -0.23311844 -0.12546769 -0.23514423 0.2910344 -0.4225313 0.06496805 0.8345033 0.39056036 0.20272025 0.18270423 0.07977536 -0.25125685 -0.33277792 -0.078761324 -0.045036137 -0.06510186 -0.090489246 -0.17497465 0.26430738 -0.45760617 -0.36151582 0.26602805 0.061478447 -0.08616759 -0.5212452 0.1066581 0.7818642 0.31007507 -0.3101939 -0.43331763 0.25885466 -0.6539193 0.2808817 0.36597425 0.011253819 -0.061190978 0.04256749 -0.19745806 0.21833898 0.17127924 -0.46154276 -0.6346257
93 0.006227711 0.41772643 -0.08715201 0.476923 -0.5191971 0.73060614 0.09642018 -0.38099068 0.04354213 0.15409437 0.4230883 0.09551937 0.19270825 -0.2159276 0.0987428 -0.6953174 0.736187 0.2946971 -0.5839994 -0.17269424 0.001588352 -0.4049512 -0.2243972 -0.07240234 0.6927042 -0.4431447 -0.6131441 -0.41150823 1.1990035 -0.16816983 0.9506027 -0.089367315 -0.27698302 -0.22225647 0.41959172 -0.8217141 0.35982513 -0.7243128 -0.32974815 -0.5970115 0.3200418 -0.62220514 -0.54513913 -0.49405366 -0.23578978 -0.061249852 -0.09458809 0.056675903 0.078527436 -0.21167275 0.46460062 -0.08032915 0.018033456 -1.0072472 0.93056715 0.3528393 -0.5574702 -0.12778127 -0.075676546 -0.361468 0.002886502 0.4153623 -0.27887687 -0.084028244
94 -1.0369672 -0.16930099 -0.4149625 0.2866977 -0.34502766 -0.7351928 -1.2606472 0.27671236 -0.2654944 -0.347282 0.31683648 0.24975067 0.28374436 -0.058851466 0.05561331 -0.025518715 -0.37245107 -0.4576022 0.725043 -1.3843064 0.77710503 -0.44577968 0.060201913 0.103564575 -0.29539427 -0.37325293 -0.33943355 0.5060702 0.22908276 0.91171217 -0.15938802 -0.13653274 0.6949713 0.23318933 -0.25763664 -0.44110495 -0.17314902 0.8026312 -0.25441584 -0.5444957 -0.35253304 -0.51550484 0.40611768 -0.67406404 -0.5918496 0.10151489 -0.22423172 -0.15695676 0.03677229 0.4087971 0.18289343 -0.5210875 0.44804487 -0.7964209 -0.28066617 0.385109 -0.38478667 -0.017134646 -0.10927055 0.54076195 0.5062215 0.9784726 -0.44403303 0.24574707
95 0.54266196 0.40264854 0.182993 0.6481149 0.08261405 -0.073606715 -0.6359323 -0.05311831 0.046209775 0.8324381 0.4523518 -0.28992665 0.88280666 0.36511183 0.61684483 -0.02243939 -0.06655358 -0.12125713 -0.3514526 -0.12701151 0.2587166 -0.390332 0.011192381 0.13323562 0.2209776 0.16030967 0.013863012 0.70346725 0.17586729 0.027799904 0.51687527 0.32717472 0.0031218305 -0.11391773 0.81254107 0.2386909 0.041931868 0.43192637 0.70168823 -0.5901827 0.06688823 -0.6525531 -0.07374178 -0.5727557 -0.03048484 0.2846661 -0.6905211 -0.48760575 0.3393515 0.62617195 -0.43536943 0.9355575 -0.14972416 0.09926787 0.3624837 -0.35077584 0.28260237 -0.10022455 -0.07178487 0.07527089 0.8698503 -0.3373351 -0.08013502 0.05085057
96 0.14602274 -0.03398338 -0.19602358 0.25119847 -0.01920934 -0.28351602 0.1438788 -0.06542429 0.11986297 0.08284523 -0.55933785 -0.20492129 0.1940123 -0.4142761 0.10973814 -0.5125711 0.3337502 0.3124144 0.112897635 0.41909403 0.5526807 0.12262287 0.49803808 -0.04624315 0.43624926 -0.3420062 0.50618005 -0.4830786 -0.587844 0.39557 -0.13682428 0.10930187 -0.31971675 0.008256674 0.4500382 -0.16887268 -0.26307225 -0.03791398 0.3738184 -0.047043443 0.29461056 -0.2740229 -0.43032143 -0.22793072 -0.0031106472 0.2955841 -0.013072431 -0.506455 -0.100715145 -0.3107921 -0.8918406 0.34311917 -0.33723417 0.033498473 0.0024033636 -0.18783635 0.060335845 -0.1258527 0.08826566 -0.5570776 0.1107429 -0.018271387 -0.22102734 -0.2609192
97 0.043868437 0.101485774 -0.102048516 -0.20226066 -0.17182703 -0.037635624 -0.29202873 -0.34795004 -0.09942617 -0.34606862 -0.02356354 -0.28916374 -0.011619575 0.45817852 -0.35482258 -0.083163016 -0.5617098 0.06392964 0.31056774 -0.300956 0.11704834 0.14544933 -0.043159977 -0.19251984 0.31565475 0.0766187 -0.058975786 0.28262642 0.047369905 -0.22892213 -0.04111869 0.023979884 -0.22511551 -0.050812468 0.36261648 0.07938469 0.6063045 0.19872694 0.068107136 0.7545541 -0.08570723 0.2020156 1.0009692 -0.04048666 -0.15159845 0.14344706 -0.73601156 -0.6134507 0.34351662 0.2525547 -0.128249 0.037802435 0.23691218 0.63336456 -0.2317722 -0.19141512 0.1174445 0.35228932 -0.05649203 -0.002362363 0.19880572 -0.016990412 0.6522216 0.17737873
98 -0.4822891 -0.2239128 -1.0495571 0.23296565 -0.59834456 0.20873675 0.37128648 -0.34719157 -0.5840741 -0.25863367 -1.0697165 -1.4819086 0.16256309 0.4337701 0.25073543 0.7839709 -0.26676762 0.064173125 0.051721632 -0.5399643 0.28763223 -0.08219806 0.20454618 -0.1640175 -1.2012535 -0.32368293 1.4771044 -1.2067759 0.18829861 -0.71464527 0.016121373 0.32910582 -0.35563818 0.45887563 0.65313417 -0.21847796 0.18341503 0.019915864 0.3389721 0.8288461 0.58030885 -0.1483198 -0.31004512 -0.59597313 -0.5100586 -0.3412809 0.48723516 -0.07002782 0.14267184 -0.42364806 -0.39407772 0.4811493 -0.46334442 -0.35377353 0.30492178 0.61617863 1.1924708 -0.80298024 -0.48318332 -0.1844511 0.50871426 0.7433918 -0.65168256 0.2611772
99 0.54931253 -0.6764073 0.044970345 -0.27620593 -0.34911358 0.3885862 -0.17369992 0.80742943 0.4123471 0.60931796 0.2688014 -0.31344604 0.011691047 0.10067849 0.04634898 -0.4330263 1.0582224 0.16837856 0.2758847 0.39981434 1.084943 1.051225 0.21433389 -0.8717088 -0.40013343 -0.65904725 -0.099478394 -0.02815932 -0.06276228 -0.22614253 -0.3774544 -0.03547365 -0.051858515 -0.35394382 -0.26017058 0.39244127 0.70490307 -0.49999368 -0.129188 -0.3552575 0.15978144 -0.42066926 -0.5684508 -1.0181972 0.2590817 -0.405833 -0.086471215 0.12873963 -0.06743468 0.10702242 -0.45062017 0.42886263 0.17281836 -0.37196904 -0.08792196 -0.018832594 -0.32774737 -0.589205 0.023193642 -0.5505311 -0.19232382 -0.17954263 -0.44225657 -0.15064387
100 -0.6657526 -0.70109653 -0.017627109 -0.14511083 -0.1277936 0.79705775 -0.60515296 0.34187645 0.7474935 0.43859866 -0.14935458 -0.37358665 0.035510063 -0.19288105 0.18240225 -0.2687201 0.04980764 0.031044057 -0.42897695 -0.46608034 -0.17315002 -0.44355506 1.3973347 -0.9703754 0.050016373 -0.08006315 -0.55869365 -0.42806593 0.35584396 -0.11962889 -0.34746763 -0.06667353 0.078980155 0.15459898 0.14670558 -0.054901436 -0.6645993 0.013700175 -0.7089251 -0.29514435 -0.5467167 -0.642012 -0.0751282 -0.38336098 -0.12306148 -0.022327617 -0.08511338 0.15765363 0.35307324 -0.7119216 -0.57705253 0.32136902 0.51579714 0.50278336 -0.20074162 -0.1133527 -0.1224162 0.09238346 0.42223126 -0.32136807 0.014688471 0.25463706 -0.51669574 0.34942114
101 -0.43529436 0.09765875 0.14515823 -0.1428582 0.31617635 -0.5070316 0.499511 0.62788284 -0.50273514 0.1993484 -0.12888183 0.48749578 0.19601685 0.1669424 0.80506676 -0.47047135 -0.6892798 0.10508081 -0.59725267 -0.29867396 0.1349556 0.5856293 -0.39080822 0.73724544 -0.22501907 0.17839676 0.5562172 -0.5865249 -0.34217846 0.44728866 0.4136469 0.13502762 0.62620515 0.119595185 0.1013601 -0.65836483 -0.0973955 0.9223243 -0.12500234 0.15289673 0.21217346 0.3628699 -0.53284526 -0.049116492 -0.22697823 0.5118884 0.39014664 -0.33778784 0.7550518 -0.3151423 -0.3389451 0.23995048 0.08617096 0.7810263 0.6398517 0.19144395 -0.3401401 -0.4765931 -0.26618883 -0.045433298 0.27184665 -0.47097147 -0.47990727 0.50738275
102 0.0379965 -0.02310352 -0.062888145 0.32947814 -0.1242677 -0.09058353 -0.25054792 0.14799733 0.40649644 -0.3524471 -0.67620575 0.031392667 -0.28951302 -0.5958863 -0.24458162 -0.16495998 0.4211843 -0.26580918 0.43990803 0.32481936 -0.36892548 0.5432903 -0.00970614 -0.297561 -0.13140787 0.013691127 -0.014572311 -0.21071383 -0.15819012 -0.26618716 0.30845135 -0.2549654 0.121646255 0.38770312 -0.10574421 -0.43686825 -0.894529 -0.2635297 0.11169608 0.012156695 -0.05931802 -0.31335673 -0.12463766 0.769318 -0.02661375 0.14035468 0.55531585 -0.16807659 0.08063519 -0.043917716 -0.85030097 0.15293388 0.07657784 0.20904481 -0.4889332 -0.43525755 0.32897693 -0.1695555 0.39132386 -0.39432463 0.19561155 0.34086847 -0.47804335 0.34646654
103 -0.41556084 0.4874481 -0.10640474 -0.27940404 0.027603358 -0.029180855 0.067587554 0.21145003 0.044245318 -0.2492962 -0.33759266 0.14309287 -0.536192 -0.04878646 0.06598089 -0.5160892 0.035424992 0.76908135 0.11279962 0.423303 0.26709676 0.35350445 -0.061914243 0.1985943 -0.16507216 -0.3459292 -0.15166053 -0.49214548 -0.067164406 0.46753544 -0.22478946 0.78810287 -0.03490339 -0.122270584 -0.60948104 -0.24522847 -0.5489364 0.15004057 -0.32689142 0.088694386 -0.07854989 0.12057772 -0.05524935 0.09587756 0.725016 -0.19212979 0.22430438 0.06582902 -0.17956182 -0.06342897 -0.35809764 0.22945169 -0.112110674 -0.38283727 -0.1194023 0.45447215 0.22663555 -0.23393112 -0.455055 -0.76155317 -0.51731044 0.7089485 0.11310291 -0.16798544
104 0.33110785 -0.15417542 0.16028698 -0.16723993 -0.22708759 0.091409594 0.24587147 -0.016070688 -0.30646372 -0.30863643 0.33775827 -0.26499805 0.0980106 0.20646845 -1.7963412 0.71407247 0.14143525 -0.29247102 -0.22264116 -0.16735539 -0.3062665 -0.011994928 0.29514235 0.5119073 0.040143788 0.2371012 -0.83349925 0.003009975 0.3384583 -0.3903971 0.7044963 -0.28152937 0.17385437 -0.0811109 -0.025824018 0.37044 0.2097664 -0.27494344 0.2108768 -0.16490221 0.25468904 -0.14930731 -0.29427207 0.085161686 -0.08487982 -0.022371128 0.44021112 0.22295976 -0.103231564 -0.15563565 -0.02423997 -0.32945827 -0.22525555 -0.12646797 -0.21581669 0.33807033 -0.4672053 -0.017718576 -0.031244487 0.28787372 -0.3704281 -0.021580888 -0.48140287 0.19320899
105 0.42562956 -0.8381053 -0.5212799 0.8005858 0.45325038 0.16681978 0.396092 -0.30554476 0.54476196 0.15869524 0.058343723 -0.2875774 -0.14008178 -0.09409754 0.60652316 -0.15986621 -0.5062031 -0.108892806 0.14960562 0.12919465 0.008110432 -0.042698264 -0.31312007 0.4851817 0.06942135 0.39562684 0.18314005 -0.7346039 0.27682558 0.70459116 0.9837928 0.8211926 -0.25137162 -0.30680966 -0.08739184 0.25538614 -0.0062303096 0.36872745 -0.64353454 -0.0293151 0.40556586 0.052630164 0.36387438 0.542047 -0.5686549 -0.057353258 -0.271936 0.14904378 -0.085739926 0.07911242 -0.10548091 -0.07565904 -0.48224512 0.35678458 -0.11316784 -0.35871917 -0.072160944 0.29951975 0.20558962 -0.29422593 0.060048096 0.42248628 0.64903814 -0.030047283
106 0.009980537 0.030347368 -0.12725326 -0.2571566 0.40062994 0.1896356 0.1488618 0.1426597 -0.03049533 -0.77522624 -0.2546652 0.21736759 -0.35045 -0.37887698 0.6492478 0.20855626 -0.16457924 0.29325396 0.8376741 -0.22752014 -0.7684325 0.24327546 0.24575487 0.1963136 -0.3610076 -0.18148804 0.33381337 -0.24425043 -0.3438465 0.18300629 0.1529594 -0.12353767 0.68004775 -0.19851881 0.23888941 -0.30424526 -0.43252188 -0.26943344 -0.5978726 -0.21593599 -0.051045194 -0.08166075 -0.023732394 0.16941829 -0.11165155 0.04946233 -0.07363369 0.10822995 -0.40450954 0.6964776 -0.016118042 -0.082901485 -0.34602457 0.45915407 -0.00066941977 0.25396597 0.2827987 0.29075006 0.20345317 0.16559218 0.25696272 0.1574318 0.62083757 -0.1876326
107 0.102534585 0.27416041 -0.22438048 0.14958726 -0.30394042 -0.107647374 0.40825793 -0.4327127 -0.4029745 0.4128002 -0.07082231 -0.2937678 0.78303075 0.22314021 -0.07004417 0.30470508 0.34135982 0.02674546 0.67127544 0.23159699 -0.64832175 0.23372497 -1.3365167 -0.56477636 -0.097526416 0.2586279 0.7926622 -0.06872958 0.3224204 0.39347908 -0.13765912 0.09071192 -0.26378196 0.12272766 0.117744625 -0.20662817 0.3449246 -0.07496916 -0.30889332 -0.7213551 0.74048334 -0.5675625 -0.3865414 -0.20224947 -0.09835091 0.5807763 -0.4211607 -0.49155378 -0.1646235 0.52246785 0.013755091 -0.08592517 0.22913274 -0.11166853 -0.17605004 -0.11155033 -0.47320297 -0.052930526 0.5184399 0.66498756 -0.67848974 0.6004949 0.54440504 0.6475885
108 -0.26154006 0.18233015 -0.14556015 -0.042746134 0.31519604 0.89255935 0.15285493 -0.33603713 -0.41211674 0.63957745 -0.2905091 0.46118662 -0.34337813 0.708552 -0.0849019 0.3591317 -0.18681803 0.31769183 -0.07083839 0.29441544 0.2011936 -0.99513644 0.112060964 -1.1184168 0.7121761 -0.35308528 0.11091991 0.8424612 0.1941292 0.5439966 -0.9080187 -0.62856144 -0.32982898 0.05851911 -0.028716914 0.023987368 0.5085825 -0.7349704 -0.282285 -0.2154646 0.10665171 -0.5110921 0.088569224 -0.36452872 -0.8037497 -0.32782477 0.2881946 0.2208016 0.70620316 0.39149052 -0.183555 0.39672616 0.4499256 0.44567698 0.40186727 0.755183 -0.3957135 0.7808419 -0.029959694 0.29062068 -0.99842626 -0.263591 -0.00011496246 0.06842895
110 0.013818979 -0.36453685 0.20136148 -0.06364017 0.20106673 0.55377054 0.011099789 0.8594629 0.13162814 0.19809963 -0.019347066 -0.36812067 -0.013155911 -0.2219611 -0.077657685 0.16951126 -0.08448601 -0.4166173 -0.04221803 -0.43932998 0.30559266 -0.44679317 -0.16459721 -0.3939856 -0.19750367 0.7305218 -0.45599276 0.036621913 -0.060559686 -0.25776184 -0.6502515 -0.13222168 0.21926038 0.03434751 0.63324296 0.061616085 -0.1712259 -0.064126216 0.13687432 0.19355941 0.03528679 -0.44718215 -0.3342322 -0.02625326 -0.584091 0.42671585 -0.20486571 0.3684777 -0.45533836 -0.16248575 0.0049359873 0.033617057 0.1825983 -0.53328973 -0.06614643 0.23073448 0.07880272 -0.19897005 -0.6526898 0.3194967 0.48753113 -0.46869677 0.7652523 -0.12143578
111 0.17973201 0.17115518 -0.5206418 0.58291715 0.7491662 0.23482996 -0.23649901 -0.5724506 -0.13941342 0.46048027 -0.10852106 -0.1159354 0.14484668 -0.13608293 0.06851417 0.2381759 -0.1499069 -0.3705333 -0.47627738 -0.27834672 -0.15481898 0.41819552 -0.04282573 -0.13753447 -0.3842335 0.64557195 -0.14552853 -0.3137978 0.7747358 -0.14698449 0.21785322 0.28304368 0.21970204 -0.43743047 -0.20838091 -0.28065652 -0.07210128 0.04114309 0.0547442 -0.33663753 -0.38392696 -0.5779134 0.38689497 -0.18445045 0.33876145 -0.2277617 -0.35086957 0.17113997 0.1481099 0.49610215 0.15885696 0.07453123 -0.07584 -0.70039785 0.37648913 0.2239655 -0.6172668 -0.15245973 0.09247943 0.42385557 0.06447676 0.20385052 -0.14243677 0.42795002
112 0.30497763 -0.14633518 -0.19489543 0.34818465 0.73566437 0.73067814 0.1055478 -0.13417068 0.65646136 0.19054459 0.190467 0.36560157 0.11241412 -0.09972609 0.43595845 -1.0109646 0.047147825 0.2465963 -0.34046766 0.007245317 0.080403246 -0.048718467 -0.15932801 -0.3470547 0.08241584 0.15285912 0.05956088 -0.15646975 0.17875576 -0.17259905 0.6355922 -0.75725293 -0.48605168 0.7158742 -0.001225613 0.010204583 -0.119417384 -0.5190691 0.19779575 0.13171366 -0.32354748 0.01837033 -0.05179453 -1.0403281 0.14539006 -0.039563477 0.56066865 0.27521393 -0.053137034 0.3291028 0.38380343 0.31315678 0.15876323 -0.5404575 0.4248721 0.22570625 -0.6723865 -0.1979936 -0.12728228 0.14443271 -0.13661861 -0.23864669 -0.22712971 -0.083639786
113 -0.6077235 0.4650234 -1.077778 -0.33028662 0.58830595 -0.08750521 0.08887997 -0.625626 -0.53256726 0.036616046 -0.1906249 -0.45299402 0.66939735 0.76964426 0.124251276 0.2694347 -0.17138042 -0.24035418 -0.42676795 -0.021533854 1.0665996 0.1447088 0.063351974 -0.32903168 0.052600354 -0.399931 -0.30082422 0.2392366 0.10996723 -0.5862134 -0.30550683 -0.06311117 -0.484904 -0.64296985 -0.062070668 -0.30878967 -0.008009791 -0.43177557 -0.4241401 0.7044389 0.3555242 -0.4460538 0.32979947 -0.036682956 -0.026677862 -0.1581306 -0.4360011 -0.11454986 0.23465626 -0.13143697 0.027186032 0.9481976 -0.49321434 -0.1412389 -0.12393493 -0.2271615 0.113616966 0.17356367 0.20354587 -0.09882042 -0.14676948 -0.6159831 0.43327445 0.076310545
114 -0.4206238 0.0020435601 0.5170312 0.04430955 0.08424835 0.23188403 0.14486343 0.060183316 -0.2384155 -0.22730948 0.22239256 -0.4480134 0.249628 0.073694795 -1.1970567 0.045424804 0.2948572 -0.28048974 -0.081610344 0.122375034 -0.121837355 -0.23932184 0.3437858 0.84504384 -0.19689018 0.4225163 -0.28942665 0.04726449 0.48854315 -0.38143542 0.4253681 0.22120164 -0.050433133 -0.2799844 -0.3447415 -0.12004093 0.14089222 -0.00545464 -0.19256201 -0.43181282 0.15975566 -0.15762788 0.2770464 -0.096824035 -0.4871011 -0.24523383 0.25200045 0.655617 -0.28053635 -0.13562843 0.2433778 -0.21118005 -0.12476588 -0.32139483 0.36090767 -0.27962527 -0.40798348 0.34834346 0.28371298 0.2409654 -0.5237507 -0.21439563 0.19602045 0.3286792
115 0.4409219 -0.26391137 0.6165485 -0.02968704 -0.024119064 -0.28712565 -0.34168068 -0.2515406 -0.13691717 -0.014110923 0.3501817 -0.21843038 -0.0015036054 0.36604437 -1.6269826 0.24673083 -0.282582 -0.17168716 0.39429745 0.18286598 -0.22674134 0.039818287 -0.13313651 0.29691258 0.12449804 -0.1657542 -0.17061312 0.24669364 -0.41716242 -0.15658687 -0.15997916 0.32957518 0.25783482 -0.12975822 0.17076625 -0.1852376 0.13043705 -0.15796295 0.36696422 -0.006090341 0.20682892 -0.23746537 0.0940882 -0.1943426 0.02245231 -0.03520346 0.091202825 -0.1156495 -0.07275526 -0.009429783 0.007851303 -0.12644999 0.12688467 0.13942842 -0.3934502 -0.22437097 -0.35989892 -0.16478576 -0.00016900524 -0.20907702 -0.43692064 0.29850358 0.15437825 0.3999476
116 0.028277047 0.44654736 -0.2917757 0.2075961 -0.27063018 -0.2355619 -0.6584264 -0.47881582 -0.31172833 -0.43388265 -0.07708921 -0.39258826 -0.033674814 0.1782567 0.26905993 -0.43969786 0.40234348 -0.17970993 0.038548507 -0.2943033 -0.4296742 0.2888175 -0.06432826 0.0643789 -0.53338134 -0.56012315 -0.00686308 0.19516793 -0.6497808 -0.2145621 -0.0906449 -0.27922317 0.51704055 -0.22804408 -0.2976874 0.24249832 0.56227446 0.04066948 0.30995637 -0.3892932 0.28889814 -0.09375479 0.30865505 -0.60084885 -0.4130612 -0.64328426 0.17504002 -0.77105355 0.07517928 -0.7471435 0.4720663 -0.13210267 -0.53009206 0.44579965 0.6320944 -0.032986023 0.26278263 0.02937617 0.12795866 0.17267159 0.18510993 0.016723813 0.102045946 0.0921344
117 -0.094653726 -0.5021596 0.13642645 0.49592495 0.45720586 -0.59464544 -0.113011785 0.38633704 0.43720186 0.035072885 0.23736557 0.10591479 -0.023925306 -0.10317415 -0.6514859 0.1327306 0.36484745 0.043926716 0.46865755 0.17525789 0.24639192 -0.19384152 0.2665103 0.32760653 0.17960432 -0.529674 -0.087920226 -0.31021595 -0.31265965 -0.00042752922 0.33966836 -0.09505102 0.33251345 0.14913912 -0.13981634 -0.23455462 -0.15759376 0.048496738 0.28889406 -0.096889615 0.1794518 -0.030351542 -0.6141845 0.1640523 -0.18065314 0.23760916 0.42995274 -0.46584392 -0.27361393 -0.035161972 0.11970121 0.30157906 -0.38312662 -0.28026533 -0.458018 -0.71494234 0.04677172 -0.1923857 -0.081852466 -0.4714772 0.21647081 0.25868642 0.18832384 -0.1369409
118 0.2177665 -0.37636912 0.28405192 0.4299731 -0.051673964 -0.30389705 0.41753888 -0.069576494 0.05370128 -0.7653811 -0.20101978 -0.39734876 0.27736133 0.15920809 -1.5210596 -0.10640222 0.40556312 -0.71491176 0.004536368 0.25407428 -0.057413228 0.5013846 -0.521932 0.4742623 0.46537596 0.32628188 -0.4428633 -0.024645757 0.21341857 0.31757346 0.47278053 -0.636877 -0.1738693 -0.059482597 0.37006098 0.31236643 0.094511226 -0.5313108 0.23014876 -0.36775655 -0.050830707 -0.5533459 0.058045954 0.45164287 -0.37767917 0.7760477 0.40307626 -0.16785352 -0.2732076 -0.13150916 -0.035031736 -0.5367616 -0.71346575 -0.499206 -0.056401476 0.068477385 -0.5602552 -0.04856532 0.00961991 0.4573877 -0.1848496 0.4909705 -0.17514549 0.3700636
119 -0.0131587535 0.07327684 -0.22769755 -0.24316105 0.40075895 0.21414493 0.41566056 0.7353888 -0.061206594 0.23714754 0.047317788 -0.16681463 -0.45975754 -0.04674427 0.31342745 0.14836381 0.2571923 0.36642468 0.4009297 0.34701532 0.49489725 0.11695978 0.030745223 -0.06471437 0.10820016 -0.19568595 0.16087615 0.20340468 -0.04097887 0.6640355 -0.07877119 0.3016749 0.23698652 0.5656438 0.2641589 0.16794269 0.10696587 -0.31101874 0.043641448 -0.3408738 -0.123414665 -0.0046465993 -0.02850525 0.37038732 0.41135818 -0.07143316 -0.9023876 0.049061567 -0.45059276 0.40725952 -0.14363419 -0.26376626 0.15759769 0.0021889433 -0.23691973 -0.17767002 -0.2588205 0.09692604 0.10872574 0.22455935 0.35469157 -0.03892836 -0.03764297 0.2679275
120 0.6178957 -0.23387165 0.46040565 -0.40736046 -0.15294766 -0.381514 0.29841894 0.22827977 0.31363586 0.08489388 0.20340468 -0.574177 0.32213354 -0.1413905 -1.4156766 0.4569654 -0.23325571 -0.12506285 0.28185117 0.70783 -0.20952682 0.13483232 0.070950635 0.30429292 0.23905084 -0.015440334 -0.5385425 -0.34712526 0.42826182 0.22548011 -0.34453785 0.15660624 0.51709753 -0.07727481 0.5527119 -0.04253743 -0.2936027 0.001551453 0.10227029 0.2506015 -0.046746 -0.11327019 -0.3235424 0.66432756 0.16883524 -0.037850104 0.86089706 0.18483585 0.15839839 -0.116646186 -0.51947653 -0.35624743 -0.1719376 0.035572946 0.07407627 -0.5706647 -0.8687985 0.02326037 -0.49227282 -0.21453066 -0.41701478 0.4828164 0.19845346 0.2501272
121 -0.10732922 0.44909775 0.36250198 -0.16479048 -0.22330767 0.4295822 -0.32368946 0.38909855 0.030013554 -0.12108665 0.26704162 0.13223484 -0.34264573 -0.3808189 0.7112096 -0.5480335 -0.19484007 0.6047548 -0.27862424 0.057840325 0.01607782 -0.022258326 -0.19036123 -0.0041691065 0.35064346 0.13320325 -0.21033558 0.061919656 -0.21754152 0.21141566 0.038262613 -0.01349071 0.3558427 -0.11676535 0.37783033 0.28746665 0.082721286 0.1149233 0.16242637 0.16567174 -0.077689365 0.4469149 -0.123259515 -0.3888874 -0.61943483 0.047688335 -0.5609838 0.009931637 0.16360483 0.2409773 0.040602803 -0.2612033 0.091492385 0.3819591 -0.17749235 -0.17678845 -0.15337867 0.00086919963 0.030765126 0.14500901 0.031770676 0.018840738 -0.16295272 -0.23589975
122 0.08336327 0.34013495 0.14011109 -0.29749697 0.010492623 0.22039443 0.23569545 0.26546246 0.20821764 -0.25615564 -0.4497452 -0.66941965 0.032960832 -0.20908248 0.1568388 -0.33502823 -0.23431392 0.01189558 0.2920016 -0.3253481 0.20737 -0.055554718 0.8132682 -0.38651147 0.1737167 0.049135447 -0.29762 0.20674706 0.5016119 -0.5807743 -0.16689801 -0.47969922 0.2110835 -0.3451114 0.76084405 -0.42763287 0.5056299 -0.09105429 -0.3091713 -0.10332015 0.31798884 -0.04804954 -0.25601825 0.43841612 -0.2137892 -0.092326865 -0.0020119278 0.23223469 -0.19386682 0.11577511 0.43250912 -0.6080638 0.35202387 -0.09358889 0.25981885 -0.33220828 -0.09230213 0.1286837 -0.06584174 -0.432553 -0.7169683 -0.17822137 -0.11374432 0.058200732
123 0.31016365 -0.24663074 -0.21834268 0.5336818 -0.055536926 0.6928631 0.5243051 -0.65477395 -0.44007796 0.5789633 -0.34381062 -0.40515584 -0.52786964 -0.0006619841 -1.0906125 0.41936064 0.26108807 -0.12050265 0.06352761 0.33827025 -0.28159755 0.22886494 -1.037175 0.67020667 0.039441764 0.4615801 -0.7210306 0.61164117 0.006115114 -0.24344695 -0.31996965 -0.37101373 0.1836769 0.7979262 -0.6048004 -0.49141145 -0.7103073 0.90192 0.48953313 -0.15436968 0.066933535 -0.13125178 0.4544956 0.020383626 -1.4016912 0.24167836 0.05332899 -0.59695005 -0.7145032 -0.5837761 0.26540875 1.1955909 -0.039768446 -0.887669 0.4925725 -0.13338906 0.5218892 -0.33370373 0.318747 0.29826328 -0.4385433 -0.1465669 -1.1640756 0.19775906
124 0.5859499 0.18125427 0.03104356 -0.03415115 0.030098774 -0.31179023 -0.09473576 0.55701166 -0.6186061 -0.36230022 -0.09829165 -0.17728327 -0.009914856 0.76192796 -0.4545188 -0.5101107 0.78613096 -0.19168931 -0.19164212 -0.17508943 -0.41952643 0.020471968 -0.12775105 0.32053512 -0.04449049 0.34185407 -0.57533026 -0.40368447 -0.493708 -0.2708984 0.10557832 -0.5861667 -0.48984033 0.37489116 0.18345249 0.044491224 0.040585876 -0.09068718 0.3911478 -0.9202012 -0.7117921 -0.3290234 -0.24745144 0.90326715 0.0783929 -0.88854194 0.49930048 0.5836769 0.625306 -0.55610615 0.541614 0.1333034 0.13956171 0.21787407 0.6951676 0.7656425 0.08061385 0.89483327 -0.50703484 0.605757 0.31019437 0.26845777 0.37911046 -0.38825995
125 -0.06733331 0.1108331 0.50956315 -0.33411366 -0.7454529 -0.028859496 -0.21227068 -0.13318554 0.32706782 -0.8560128 -0.16853018 -0.44223508 -0.42337036 -0.0821518 -1.5236249 0.26671228 0.18555269 0.101602316 0.49654305 0.6033433 0.04017152 0.036873266 -0.12594718 0.17730403 0.06615269 -0.30174664 -0.25568366 -0.0048759803 0.20512883 -0.4213042 0.7569152 -0.15600055 0.32980287 -0.5771966 0.40691787 -0.026360184 0.1649315 -0.233436 0.6485103 -0.009911835 -0.23247686 -0.1450554 -0.6313448 0.2795061 0.40944308 0.44137314 0.53428936 0.24950045 -0.35797673 -0.018036336 -0.16974005 -0.20413737 0.14451066 0.30271515 -0.33484277 -0.49703574 -0.5497397 0.3447872 -0.8803164 -0.008709058 -0.22785147 0.11039768 0.39997572 -0.095492244
126 0.5243129 0.07379581 0.07832877 0.087545566 -0.8452031 -0.35202795 -0.16358005 -0.07675192 0.18418059 0.1357506 0.11422335 0.004945606 -0.27032506 0.14172214 -1.7032952 0.18348783 -0.07011366 0.26781628 0.6164374 0.37012115 0.2620087 0.30555063 -0.36750972 0.16648027 -0.220448 -0.35692683 -0.99902964 0.24919318 0.07772193 -0.25346348 0.49596882 -0.00018700678 -0.50312877 -0.11620221 -0.2764574 0.35867304 -0.47425658 0.31248504 0.10892083 -0.903529 0.66946304 -0.37336314 -0.05733135 0.061130203 0.15433231 -0.161758 0.066581964 0.15009254 -0.303457 -0.7371405 -0.44611022 -0.5668425 -0.41704366 -0.06424192 -0.0017623827 -0.5308596 -0.19447875 0.09830167 0.35660538 0.025810182 0.21763219 0.20404899 -0.16262132 0.19151476
127 0.5929231 0.17555228 0.114008546 -0.3165133 -0.17130849 0.09810361 -0.5005307 -0.0827916 -0.05855241 -0.20162492 0.21535121 -0.29462048 0.31340227 0.14673467 -2.0942543 0.2913384 -0.15261929 -0.11147944 -0.06102076 0.43960744 -0.37710255 0.28000575 -0.6146514 0.73236597 -0.2791009 -0.34134895 -0.23776774 0.04734241 0.019557826 -0.2789793 -0.1306293 0.17287916 0.2124896 0.23985717 -0.1564139 0.009529762 0.18258262 -0.14094652 0.23961441 -0.25586346 -0.17133467 -0.27242723 -0.45038742 0.17952165 -0.2738595 0.045293484 0.6374887 0.23669934 -0.43298608 -0.28035203 0.008292049 -0.121670954 -0.1653389 0.5098503 -0.24421161 -0.6071459 -0.50893486 -0.42184934 -0.46319354 0.46524805 0.0804511 0.5782572 -0.26495683 0.3257248
128 -0.14295483 0.2310109 0.41664225 0.4664516 -0.72160965 -0.2956838 -0.5200594 0.67907566 -0.4964149 -0.6511417 -0.011232398 -0.11431418 -0.7468779 0.02329098 -1.3687797 -0.037799783 0.24708056 -0.42494428 0.39681613 0.041300658 -0.06287906 0.35323548 0.109315045 0.30622748 0.5727731 -0.12183037 -0.019136935 -0.24219072 0.062289722 -0.42080414 -0.6633485 0.7733775 0.8974393 0.16012515 0.008598991 -0.15709347 0.235284 0.14866267 -0.2154291 0.24182218 0.1097651 0.17132562 -0.07186748 -0.1462417 0.29424185 0.36969754 -0.07262851 0.27604604 -0.565681 -0.14022477 -0.16650498 0.15863362 -0.48626634 -0.23969361 -0.2909469 -0.634364 -0.31266218 -0.253789 0.17044935 0.04121542 -0.03521096 0.277533 0.41427085 0.43388999
129 -0.90107524 0.7741215 0.01688607 0.12741408 0.20935105 0.11562681 0.66464716 0.2556302 0.8882057 -0.4294744 0.17498703 -0.43584222 -0.23990886 -0.06396714 -0.23557705 0.56700563 -0.14236057 -0.32924816 -0.28449935 -0.011114061 -0.24867871 0.29487798 0.36609176 0.66696864 -0.16831835 -0.39357328 0.031628355 -0.12995222 -0.02365579 -0.2581179 0.03357549 0.5041081 0.03870905 -0.3930901 0.19213775 0.6199353 0.0979055 0.2453491 -0.52649254 -0.71280146 0.60123265 0.13395946 -0.10896011 -0.48587802 0.5748092 -0.537637 0.46220344 -0.53383565 -0.28425446 0.6427702 0.34237233 -1.3057995 0.6037579 -0.2688833 0.7152847 0.1714024 -0.09526503 -0.5014019 0.23721904 -0.45539933 -0.37078214 0.53869456 -0.76054615 -0.081087366
130 0.29436693 0.11701603 -0.40858045 -0.010533709 0.37416 -0.48903596 0.2666098 0.5081421 0.6052671 0.27713108 0.20871836 -0.13156138 0.26476318 -0.3454705 0.56368357 0.2423152 0.29432842 0.77826697 0.39718166 -0.39062136 -0.09839764 0.17426477 -0.2696935 -0.37434492 -0.042620137 0.17829746 0.14507924 -0.50653684 -0.59704345 -0.14257485 -0.41963157 0.59652764 -0.14276963 0.5950965 0.61616147 -0.18162666 -0.13738634 -0.33247885 -0.23283824 -0.045416087 0.14940882 -0.095480524 -0.22489567 0.6042283 -0.0014500469 0.26885685 -0.74998 0.25654438 0.37257054 -0.43516827 0.18673155 0.2370253 -0.4693207 0.68872386 -0.21507242 -0.43186826 -0.4893691 -0.5687219 -0.55131304 -0.1879874 0.10089454 0.24294166 -0.16859463 0.46830773
131 -0.04797779 0.39393413 0.2944739 -0.14057525 0.024735458 -0.33165476 -0.11094171 -0.1695199 -0.028722845 -0.31899568 -0.017399736 -0.36725575 -0.20414948 0.25717446 -2.0017478 -0.0634655 0.028261997 -0.13368963 0.20515019 0.66694987 0.20929022 0.24156569 0.032129142 0.76543087 0.07994884 0.23691107 -0.655395 0.021000698 0.17407233 0.018721059 -0.14983499 -0.16434768 0.14872938 -0.009310482 -0.033904426 0.07534244 -0.24923703 0.24933933 0.51500523 -0.016128883 0.18473831 -0.26600486 -0.15364742 0.17470463 -0.20322627 0.12331244 0.53181845 -0.054341428 0.0067036897 -0.42628446 -0.17485473 -0.21359862 -0.236815 -0.42259064 0.31850424 -0.5770693 -0.07475704 0.004335776 0.14651962 0.11464121 -0.23357889 -0.13265902 0.08719767 0.36130145
132 0.35539064 -0.6490172 -0.096032195 -0.30146468 -0.5395607 0.35735777 0.32498837 -0.13503547 -0.58899355 -0.36273834 0.20725517 0.16117582 0.42017028 -0.15165353 -0.056170374 0.6235775 0.42337978 -0.6156864 -0.6702486 -0.12599768 -0.15721484 -0.25664514 -0.57544595 0.19530359 -0.35885027 0.5209424 -0.2890765 -0.6636033 0.02869305 0.18398274 0.5807644 0.60943234 0.32067847 0.66497654 -0.87282646 0.3657013 -0.7023713 0.16439395 0.090208545 -0.2876394 -0.28259605 -0.035118908 0.40853924 0.21039939 -0.14709207 -0.06380865 -0.31856576 -0.1042355 -0.6124949 -0.46766272 0.10871346 -0.12666245 0.19426817 -0.59434843 0.20390648 0.16409801 0.020931214 -0.41482115 -0.32428718 0.66472673 -0.038251594 -0.4987338 0.058661163 0.56324786
133 -0.160216 -0.24513192 -0.13280493 0.48636207 0.5101171 0.082745664 -0.048522994 -0.40657863 -0.31264254 0.928395 0.13457388 -0.13736437 0.5574193 0.16416986 0.12749003 0.35657895 0.24318591 -0.5569516 -0.38813835 -0.19827086 -0.09031944 0.17353043 -0.43241805 0.15358199 0.05692015 0.2706405 -0.47018847 -0.48944587 0.752012 -0.11477562 0.43786737 0.33461705 -0.2637121 -0.05989763 0.27350155 0.24812117 -0.2123468 0.09267259 -0.07321644 -0.3830914 -0.24644503 -0.48801512 0.050788 -0.49715096 -0.025409266 -0.11464609 -0.3053561 0.07812491 0.14485982 0.4189002 0.18265882 -0.31148323 0.10653682 -0.7911781 0.6600953 0.2776349 0.008294523 -0.68126583 -0.03338547 0.28927222 0.020066217 -0.4287625 -1.1082335 -0.21167296
134 -0.17805646 0.6160635 0.018366084 -0.0035339147 0.27010226 0.0656561 0.66770893 0.131485 0.35841742 0.27258286 0.1289588 0.5542865 -0.28800884 -0.28394437 0.0526071 -0.15607636 0.1970598 0.13456537 0.3281525 -0.5695772 -0.27638084 -0.5239955 -0.050515864 0.32524642 0.16842405 -0.14562681 -0.5521807 0.0388802 0.19384065 0.048753552 -0.095352985 -0.16504826 0.33704105 0.06341644 -0.7518193 -0.3446459 0.2574779 -0.63650763 0.011517473 -0.49467534 -0.20453517 0.21466264 0.05700171 -0.2762035 -0.3786633 0.02807112 -0.39661205 0.8461314 -0.23467018 0.49744716 -0.29861414 0.40283555 0.6976107 0.047231957 0.4520418 0.08313896 -0.028301768 -0.42108685 -0.14459118 0.02330888 -0.40065917 0.09396064 0.5749787 -0.4750581
135 0.22661552 -0.9608966 -0.65629 0.13280354 0.23312601 0.42255116 -0.039810836 -0.64722633 -0.2867326 0.0047530234 0.32260087 0.094972245 0.78988135 -0.65766656 0.22541244 0.18613432 0.58048147 -0.12080881 -0.81559265 -0.995724 0.007563822 -0.28688988 0.0459349 -0.5608105 -0.04061462 0.052777305 -0.7979895 -0.55921644 0.593931 -0.7558135 0.74971354 -0.14655676 -0.4369045 -0.53730375 -0.23897463 0.044804573 -0.3290493 0.16872217 -0.34072858 -0.09571337 -0.029484987 -0.31716436 -0.18047096 -0.19337709 0.03153114 0.041521385 -0.25375843 0.5429962 -0.26175937 0.08204202 0.5829606 -0.38374594 0.091200806 -0.66071826 0.479052 0.44727576 -0.098618165 -0.0913472 0.0870678 0.53659964 0.050277054 -0.07541688 -0.876493 -0.27621025
136 -0.074891254 0.20534855 -0.14228302 0.16796193 0.022521801 -0.22426924 0.37067947 -0.13033833 -0.024129257 -0.49758297 0.41621912 0.14093685 -0.3415413 0.08337221 -0.41545454 -0.32219294 -0.3189293 0.056573898 0.030092314 -0.3404581 -0.30797908 -0.0771046 0.18474352 -0.08901834 0.43573606 0.31550187 0.30472386 -0.09733364 0.2621302 -0.16142812 -0.5536461 -0.0050443187 -0.3903398 0.3871551 0.63369334 0.21327914 0.36635745 -0.052036963 0.03730226 -0.13650474 -0.48468706 0.5856323 -0.092835814 0.3653038 -0.01503971 0.52286536 0.023639068 0.03496226 -0.18493152 0.31820616 0.2112782 0.72326446 -0.74389684 -0.029186038 -0.10454075 0.19406524 0.37751514 0.103110105 -0.1306284 0.20055099 0.06103332 0.13508084 -0.18360531 -0.07275914
137 -0.086445995 -0.50946546 0.009782553 0.25964284 -0.30154422 0.06928573 0.048590526 -0.08274436 -0.14380509 -0.55398166 -0.38557863 -0.24293387 -0.25916022 0.14219418 -0.14197633 -0.12621891 -0.78714544 -0.3358748 0.20035812 0.4519498 0.1569163 0.61302596 0.11891836 -0.47836804 0.25186467 0.6564539 0.20013145 -0.14482048 0.114958346 0.4531514 -0.45534316 -0.2981907 0.57987 0.79218096 0.5281211 0.05156015 0.3321762 -0.15197447 0.20400728 0.45689625 -0.12550008 -0.26475167 -0.014042914 -0.43159175 -0.36880216 -0.08004595 0.3074082 0.1339259 0.19273803 -0.5645213 0.029714152 0.79037154 -0.06432092 0.30526122 0.25046927 0.33776507 0.09071988 -0.24048734 0.20772877 0.1735295 -0.027571924 -0.3749107 -0.60822725 -0.2575542
139 0.37927014 -0.029734313 -0.54796517 -0.52874124 0.4285549 -0.18811348 1.1228592 0.34229898 -0.7377578 0.17714995 -0.6206674 -0.33443147 0.4963333 0.37013364 -0.30058587 -0.23368676 0.21264356 -0.029215684 -0.4971644 0.5843706 0.13099442 -0.6649743 0.3387001 0.41763186 0.5013648 0.107154526 -0.56828415 -0.112631366 0.094385654 -0.13362575 0.51492536 -0.02322724 -0.13743046 0.08867052 0.60775846 -0.5750645 0.29607546 0.61020565 -0.274301 0.31061384 0.20581521 -0.19633031 0.12470788 -0.48135 -0.3524565 0.3808419 -0.029206974 -0.4300324 0.31187683 -0.39665365 0.30051878 0.24185438 0.2657379 0.19321829 0.0707676 -0.13580991 -0.33986458 -0.14308321 0.7490239 -0.017277807 0.3896361 -0.13904235 0.17443725 0.44847786
