72 64
0 0.33848947 0.11807571 0.05025986 0.4930213 -0.21765955 -0.50422215 1.2195045 -0.26872855 0.21726558 0.2166778 0.75973785 -0.24479327 0.59804267 0.16968066 -0.643788 -0.14994696 -0.035717398 -0.2368381 -0.39992547 -0.14720829 -1.0647132 -0.23106104 -0.4119203 0.06281394 0.8826041 0.7441657 0.17258641 0.24606593 -0.08836609 -0.13776846 -0.07859275 -0.528367 -0.8509993 -0.5515975 0.32797503 -0.05946507 -0.386951 0.32535595 -0.2063973 0.15613282 0.17967139 0.5720687 0.77114254 0.281942 -0.53739953 0.6625184 0.34612316 0.3181088 0.8250943 0.5969181 -0.2619576 -0.46127895 0.5060735 -0.63421464 0.8008157 0.18597662 -0.10464916 -0.36334628 0.043755963 0.325921 -0.086854026 0.35206032 0.09198454 0.622195
1 -1.2728463 0.06412768 0.05360666 0.40659055 0.6807342 0.38347167 -0.27467018 0.15448618 -0.6506952 0.29050922 1.1768924 0.06561415 0.3770329 -0.10975581 -0.21330193 -0.33905226 -0.066453844 -0.15420705 -0.40129277 0.38391644 0.5767317 0.13777666 0.7770951 -0.55565333 0.03228104 0.26413366 0.15397318 -0.12719063 0.16180252 -0.5140339 -0.7680334 -0.040126115 0.06949752 0.34573752 0.7498789 0.757581 0.9489763 0.38118702 -0.12550901 0.39043146 -0.29639778 -0.15880412 0.45410818 -0.4206941 -0.32122713 0.25489664 0.08668969 0.118034065 0.7443786 0.48230213 -0.23867145 0.5215963 -0.16588946 0.28219497 -0.020075247 -0.47059882 -0.66586053 -0.036013626 0.048667252 0.18304197 0.6249536 0.09479388 -0.82091296 0.60530967
2 0.075442836 0.27315736 -0.8197587 0.5662102 -0.14792433 1.695493 -0.007325843 -0.32772163 0.021457806 -0.43198448 0.261896 0.59174144 -0.29011846 0.2846725 -0.1480538 0.35914156 0.26898512 -0.45683777 -0.027712643 -0.121090874 -0.36004972 0.06629998 -0.20036525 -0.39943558 -0.12224622 0.8150044 0.3948045 0.7000438 0.7015846 -0.45276266 0.8628551 0.6985271 -0.09282434 -0.06827289 0.028350139 -0.96308714 0.33167267 0.6713631 0.38216704 -0.84752464 0.68655336 -0.008578211 0.4633962 0.57466656 -1.0753165 -0.19001725 0.49044287 -0.5438406 0.59182096 0.3889651 0.29688743 -0.47058398 0.3246376 -0.15879579 0.030184902 0.090174235 0.4962684 0.82852274 0.5647745 -1.0413936 -0.76509273 -0.3111239 0.09616735 0.45235968
3 -1.4204342 -0.4383686 -0.15490404 0.5718369 0.5197385 -0.24446207 -0.18371543 -0.29036167 0.59065676 0.5128921 0.35997325 -0.089241445 0.12141372 -0.5377568 -0.2586411 0.24702093 -0.17177898 -0.17490982 0.19214821 0.07913007 0.335733 -0.08642906 0.2712012 -0.3791948 -0.98745227 0.018391974 -0.3567977 0.24083486 -0.3797742 -0.23544788 -1.3463464 -0.117473066 -0.42498386 -0.13037255 0.34558976 -0.17314732 -0.15099043 -0.24513708 -0.39207914 0.39944816 0.6278632 -0.8022753 0.19251946 -0.56481785 -0.10273039 0.78127 -0.01228662 0.025156021 -0.30872524 0.0361635 -0.086555794 -0.018457074 -0.3424636 0.14533821 0.6542233 -0.7033453 0.36167833 0.14383245 -0.78686976 -0.3237288 0.6501368 -0.7840233 -0.27506375 0.115881935
4 -0.66676486 0.3127952 0.5869247 -0.27618998 -0.100899324 -0.33049077 -0.93458104 0.058955997 -0.113097996 0.24095051 0.6269364 0.24493614 -0.22671309 0.40679643 0.10561537 0.43222836 -0.24400416 -0.06901094 0.3659713 0.20751706 0.86819637 -0.34458545 -0.48562056 -0.38526225 -0.68293023 0.032338265 -0.3705369 -0.18966553 -0.10312821 -1.1239948 -0.48449206 -0.72935593 -0.44738302 -0.15394187 0.83926797 -0.64682573 0.30961484 0.07758858 -0.40297705 0.085449964 -0.027116753 0.08307263 0.19735888 -0.36400926 -0.51116884 0.4244398 0.14498214 0.3430794 -0.17102279 0.32433864 -0.1784544 -0.17355087 0.21168904 0.08787319 -0.066766515 0.33341175 0.533946 -0.76207733 0.07567402 0.22297573 0.039604813 0.15972388 -0.69335777 0.12170236
5 -0.3905888 -0.007203251 0.3479529 -0.22329131 -1.2217524 0.43804026 0.11058308 -0.34633467 -0.113518216 0.1319942 -0.74866664 -0.071788445 0.35883573 -0.53653586 0.1536365 -0.25438446 0.53615344 -0.45409366 -0.5791966 0.18726142 -0.7110652 -0.16344428 -0.7787579 0.42043966 0.46503517 0.006787285 0.16766007 -0.6262909 0.3100088 0.02105321 0.6908548 -0.24091972 -0.04580134 -0.5983359 0.49832687 0.9302883 -0.10264953 -0.2730277 -0.2304562 0.70000017 -0.25395623 -0.80636346 -0.5436655 0.6645384 -0.10357395 1.0362675 0.38817713 -0.8734268 -0.12968343 -0.96784866 0.39683074 0.22360946 0.06657484 -0.71634805 0.01419951 -0.15150556 0.3275723 0.2320197 -1.1732583 0.028164059 0.07182601 -0.34512597 0.07524891 -0.20547256
6 0.5902999 -0.18737839 0.17282264 0.62104964 1.1600674 1.1495885 0.08381483 -0.26658958 0.43831015 0.1365776 0.44999027 0.012226462 -0.97614336 0.2583009 0.036501914 0.74606425 -0.29542062 -0.7985225 -0.39620855 0.4210003 -0.26816186 0.67248607 -0.38248587 -0.44210953 0.30879337 0.08007905 0.2087076 -0.099151 0.3751399 0.3597476 1.3353286 -0.34432805 1.0525205 0.101805344 0.015435275 -0.6953444 -0.15297288 0.015715495 0.16239811 -0.80252373 -1.0797707 0.34182388 -0.05595044 -0.5422667 -0.7833692 -0.46653035 -0.48662004 -0.016025526 0.9851823 -0.13050081 0.88475835 0.2321704 0.06686944 -0.5266699 -0.055570897 0.19137947 0.07479221 0.81935054 -0.53527117 -1.6383004 0.16128765 -0.08874619 -0.5928723 0.4253223
7 0.56109166 -1.1762311 0.68888783 -0.20423335 0.76853776 -1.0417819 0.005282685 -0.3956583 1.9802123 -1.2615507 0.17467985 -0.11035308 1.313875 -0.19896857 0.9828177 0.3605332 -0.67883545 -0.07402183 -0.422199 -0.77351034 -0.16579548 -0.22304858 -1.1639218 0.07335535 -0.82290226 -0.51199627 0.39955062 1.3100555 0.2126258 0.25002396 0.3232205 0.6687385 1.0656719 0.37242413 -0.15309642 0.1557653 -0.1201646 1.102765 0.8917369 -1.4009303 0.25513178 -0.35808492 -0.0141294375 -0.702801 -0.5043167 -0.9567912 0.90952355 -1.0966817 -0.17687978 -0.32222056 -0.5242923 -0.19245042 0.21485603 -0.09581843 0.20286056 -0.67734 -0.45593458 0.10898724 0.6323758 0.7497021 0.2536635 -0.21562164 0.452246 -0.30762863
8 -0.53614175 -0.11299132 -0.4678804 0.07620774 0.19825545 0.27239987 -0.23338169 -0.2540154 -0.17326689 0.5715778 0.7035463 -0.12681931 0.86906123 0.30134958 -0.19346058 0.31049448 0.0043992847 0.63763887 -0.37981805 0.34016386 1.1361082 -0.10649808 0.5127651 -0.5174318 -0.36940563 0.466272 -0.6630568 -0.036784094 -0.13832235 0.41497594 -1.0960469 -0.36653048 -0.7132035 -0.47961614 -0.09382814 -0.19366796 0.15372853 0.07433965 -0.40899074 0.23624381 0.06373554 0.004012808 -0.11273497 -0.26087326 -0.23655199 -0.12014985 0.5128967 0.27100426 -0.23695295 -0.31577337 0.00077074766 0.44394016 -0.047538582 -0.0334004 -0.095713146 0.49437016 0.20107752 -0.45017645 -0.26031914 0.47734973 0.67102027 -0.4917075 -0.58934975 0.21654266
9 -0.12549525 0.27186584 -0.41869822 -0.15695763 0.16574731 -0.21799627 -0.12595013 0.0048932433 0.08669309 0.13847521 0.89711416 0.29964113 0.6966239 0.10551857 0.5777982 -0.4345769 0.2150225 0.1438648 -0.06901981 0.87150085 0.8008797 -0.8565276 0.41701728 0.48137638 0.82646745 0.37018314 0.7000666 0.45661858 0.04736179 0.5373963 -0.40914991 -0.06922268 0.11287886 0.09142155 -0.7121722 0.31806284 -0.6600209 0.06828252 0.21309572 0.1758022 0.69473463 0.66520756 0.9157477 -0.5147188 -0.42391384 -0.007609263 -0.058061946 -0.15130222 0.59957755 -0.6234936 0.33221862 0.0040522665 0.33380318 0.5532648 -0.010881573 0.67158353 -0.04935354 -0.7201747 -0.71135545 -0.23987772 0.20358069 0.39785233 0.0445235 -0.31162664
10 -1.5085444 -0.20930573 0.2367745 0.05308913 -0.28873235 0.1600254 0.01726389 0.21215108 -0.8286104 0.34899995 0.5756669 -0.8152938 0.054112524 -0.40275842 0.19553609 -0.10750526 0.2533594 0.2969142 0.16250907 -0.059607223 0.18544069 -0.032336675 0.51109374 0.11119428 -0.4529446 -0.14038537 0.4192751 -0.4564826 -0.23180565 0.009254228 -1.5801139 0.9367315 -0.050118413 0.20986071 1.0441879 -0.36331445 -0.05695781 -0.015441485 -0.86328506 -0.013232913 0.6261639 -0.6012146 0.6245015 -0.38258597 -0.21383564 0.37297246 -0.3229738 0.24515854 -0.15016648 -0.46580818 -0.6860533 -0.5681462 -1.341855 -0.36942995 0.5513136 0.04891483 0.12625703 0.14918981 0.7928815 -0.5444586 -0.23963448 -0.46209323 -1.4754376 -0.399862
11 0.11194193 -0.6488714 1.3842807 -0.4744763 -0.17229156 -0.091626294 -0.30975807 -0.97277313 0.2880634 -0.90604424 -0.18444863 -0.45472205 0.41093102 0.3077482 0.09873065 0.024909616 -1.0268028 -0.52842784 -0.8996328 -0.34304786 0.5282254 -0.54776806 -1.029907 -0.4676989 -0.40953 -0.19362138 0.43018776 0.22729827 0.5064361 1.0240651 -0.96779025 0.34655514 0.37237206 -0.081754215 -0.108325526 -0.3627389 -1.7335911 -0.0047493875 0.6481584 -0.2483395 -0.30819237 0.28998476 0.1913334 -1.1549399 0.5579363 0.036941573 -0.30704004 -0.09741333 0.01810781 0.25133985 0.4582589 0.19316772 0.5195979 -1.2186863 0.39460835 0.09020209 0.32782942 -0.35972384 -0.049678385 0.77021486 0.819441 -0.5668761 1.0117153 -0.640627
12 0.47790274 -0.3339163 0.4493943 0.3518455 0.2346686 0.03372695 0.3540499 0.17869836 0.66872895 0.062081695 0.57198656 -0.473349 0.37201405 0.87092334 0.7314207 -0.42799038 0.13698135 0.12447274 -0.10073966 0.019746773 1.8320496 -1.0294356 -0.005936563 0.6474518 0.41595948 -0.3947617 0.08728036 0.3121553 0.051936764 0.025036693 0.28776473 -0.29751432 0.907253 0.56124514 0.37846294 -0.5688814 -0.83398986 -0.15431905 -0.33042398 -0.27245292 0.061932042 0.6004485 0.9498756 -0.6751991 1.0549002 0.27924508 0.28785932 -0.6579292 -0.23672377 0.044077322 -0.3266873 -0.0039876252 0.060878083 -0.08521539 0.25321752 -0.15358701 -1.2080126 -0.681039 0.90769184 0.42144847 0.5297042 0.72313076 0.24052012 -0.37091827
13 0.8796109 -0.15503275 0.42253244 -0.08719833 0.23489645 -1.0436434 0.4127988 -0.41775545 0.5817598 0.16139902 -0.47297105 -0.055272684 0.48662317 -0.878615 -0.971442 0.15156099 0.047740817 -0.6001923 -0.14193085 -0.34180248 0.6817829 -0.38148907 -0.30588716 -0.6605272 0.99110013 0.08139507 0.09097569 1.140635 -0.6889469 -0.25728843 -0.81671125 0.15041961 0.2176775 -0.26697558 -0.15108779 0.60614586 -0.037043422 -0.534193 -0.16699791 -0.066624105 0.27047604 0.7188528 0.22070082 0.393797 -0.54679984 0.36994028 -0.048922572 0.065026924 -0.79119444 0.6193652 0.056702644 0.2671674 0.08196586 -0.4905218 -0.5384573 -0.37086162 -0.008236676 -0.75469357 0.31563482 0.9913436 -0.59153 0.7240368 0.16353008 -0.2892467
14 -0.19999069 1.0175791 -0.6087852 -0.91097116 0.94682837 0.30455077 0.16949996 0.28710866 -0.1840527 -0.38775167 -0.31724077 -0.06967567 -0.5028391 -0.3778717 -0.30501726 -0.13760129 -0.38588583 -0.24087243 0.1496399 -0.84586596 -0.4867736 -0.122264765 0.4832152 0.39302886 -0.11558981 -0.4402909 0.32650626 0.8383365 1.340867 0.5845869 0.4868989 0.7543554 -1.1126018 0.033273757 0.7665114 -0.2618177 0.9048758 -0.43030533 0.7109598 -0.47502747 0.030378297 0.32454577 -0.394662 0.892944 0.34277388 -0.90118647 -0.74920446 0.85994387 -0.2594236 0.17385702 -0.20026097 -0.5663591 -0.24553959 0.2674794 -0.094039105 0.05357507 0.0495376 -1.3003381 -1.1858339 0.73977363 -0.4332205 0.25909752 0.22719464 0.15933204
16 0.26772004 -0.20418455 1.0851047 0.56462455 0.2754005 0.545579 -0.5801937 0.3773744 1.0227537 -0.64852196 0.52080536 -1.3497092 0.51588553 0.3233738 1.438071 0.28257263 -0.63438034 -0.7105941 -0.16874304 -0.74926555 1.0553693 0.26701066 -0.44933307 0.60536397 -0.058381695 0.06703781 0.3166865 -0.1906412 -0.003681831 -0.3491681 -0.696383 -0.16511947 0.29396838 0.12496878 -0.8677464 -0.059810847 -0.2948085 -0.2540909 0.60580564 -0.3132124 -0.20517145 -0.09105997 0.6058609 -0.12065381 0.75595635 -0.11512664 -0.008742854 0.38290417 -0.8012494 0.75652325 0.5837053 -0.38393617 -0.049922176 -0.4154536 -1.0139979 0.93722796 -0.124396995 -0.22972594 0.115091115 -0.0012865067 -0.022077713 0.65475845 0.34191683 1.273715
17 0.06597096 0.9997854 0.5800528 0.30685472 -0.5636311 0.66881806 0.11018968 -0.25827137 0.5520157 0.013611764 -0.82676196 -0.11245105 -0.90677166 0.13869567 -1.0672964 -0.34387586 -0.36359787 -0.3957076 0.1626474 -0.07967041 -0.101328954 0.16324447 -0.3085604 -0.28875726 -0.113014214 0.35242108 0.028670736 -0.23347855 0.008424386 0.80892503 0.3760685 0.7118889 -0.24656445 0.32656884 -0.02901376 -0.80832267 1.0158951 0.6262113 0.7155486 -0.63827646 -1.233878 -0.5502573 0.09053323 -0.09842545 0.4441976 -0.18478784 -0.65705377 0.4015268 1.0453227 0.481172 -0.27515912 -0.9975304 -0.27614608 -1.0261933 -0.088232696 -0.13265076 -0.37374687 1.1822238 -0.41791058 -1.0656505 -0.003908068 0.3969686 0.970509 0.24509108
18 -0.04165425 -0.3815108 0.35534537 -0.11951405 -0.070114315 0.10245251 -0.16502278 -0.37450725 -0.050876915 0.37331897 -1.3373351 -0.111587636 -0.47418123 -0.946245 0.5281727 0.42428175 -0.32907084 -0.26650882 -0.6020479 0.59655243 0.14688154 -0.04276551 -0.27072337 -0.23149875 0.74903286 -0.64016247 -0.13973051 0.45039997 -0.42662975 0.07431041 0.45851457 -0.44333035 0.4812135 -0.57924134 1.0574098 0.5514915 0.6681625 -0.07275219 -0.3839196 -0.16257024 -0.12307899 -0.27258 -0.34348252 0.3756053 1.251066 -0.647363 0.27670863 -0.8098203 -0.65917164 -0.5347749 0.16128212 -0.11929824 -0.5150047 -0.6862436 0.5379836 0.27862626 -0.80106694 0.02103658 -0.766347 0.20068645 0.218458 -0.35171375 -0.30994016 -0.1892511
19 -0.5742681 -0.15341403 1.3450369 0.7375496 -0.34623736 0.1571703 -0.73211074 -0.41154435 -0.4148655 0.5394486 0.14310625 0.32117152 -0.60050917 -0.56856066 0.33789536 0.48069346 0.032733172 -0.534143 0.36064565 0.22483078 -0.13447498 -0.08362017 0.2291472 -0.27145094 0.21983251 0.19075066 -0.8425755 -0.27782586 -0.5286329 -0.61810803 0.31360257 -0.57938355 -0.36093715 0.28369218 0.64354366 -0.9962799 -0.10302329 -0.05064694 -1.0588601 -0.34851924 0.5136487 -0.061733447 0.96023965 -0.97185904 -0.6267227 0.64082277 0.37454557 0.5418643 -0.6391922 0.6114904 -0.48176038 0.387532 0.5508741 0.021748908 0.3528504 -0.055785943 0.40536565 0.47429323 0.018073902 0.22955936 -0.18529196 -0.9364848 0.37506926 0.06911249
20 0.0187032 0.0015617907 0.08011296 0.59757054 0.47013527 0.8015342 -1.3307662 -0.16290694 -0.4507488 0.60854965 -0.7150686 0.072996385 -0.10415772 -0.3616432 -0.31600478 -0.4945421 1.1525698 0.038234174 0.37588915 0.2480948 0.38678917 -0.3543887 -0.61013824 1.4256394 0.18390027 0.639323 0.39655727 -0.8603458 -0.24177109 0.50729156 -0.44629177 0.48335618 0.20529756 -1.1299236 0.06931527 1.3279638 0.19131307 0.6840498 -0.078628406 0.7363963 -0.79028875 0.40328783 -0.4952981 -0.586195 -0.13283038 -0.5911386 0.14970036 -0.31070024 -0.7680162 0.5995672 0.18968283 -0.374619 -0.57236683 0.1624724 0.120089665 -0.98889446 0.6442514 0.66036844 0.06477594 -0.15084714 -0.03045664 0.41534728 0.24048156 0.5474188
21 0.07884142 -0.22800656 -0.2981605 -0.04394806 -0.0135224685 -0.5945698 0.59157914 0.13187681 -0.012615114 0.064776696 0.39765543 0.2715916 0.96505874 -0.42110446 -0.33625388 0.63785976 -0.15045671 0.2884195 0.017785124 0.30312157 0.88939625 0.17431104 0.4347222 0.64121747 -0.29690814 0.18658984 -0.4553603 -0.20604606 -0.35602242 0.68314207 -1.320286 -1.0680869 -0.7057353 0.63649786 -0.45395315 0.14950198 -0.39260596 0.2560084 0.087704405 -0.22573304 0.39256862 -0.16844535 0.75106287 0.31014296 0.4351071 0.67339957 -0.39192042 0.76675856 -1.4464389 -1.515773 0.3054187 -0.17525789 0.090345174 0.67128277 -0.41433516 -0.28777254 0.029299557 -0.5188582 -0.46372372 0.19033162 0.17095138 -0.08557838 -0.059283137 -0.439139
22 -0.38124216 0.24478787 -0.5502362 0.52194077 -0.78805065 0.3720764 0.3603522 0.0825856 -0.078530416 1.0744479 -0.057506826 0.41109115 0.7567632 0.90972817 0.56968594 -0.07670796 0.23698999 -0.19558263 -0.21885362 0.26410484 0.12886177 0.42420107 -0.65979725 -0.38624287 0.19618651 0.62231773 -0.83170754 -0.18662488 0.13241954 -0.20898075 -0.70760787 0.036658287 -0.4957236 -0.5034111 -0.9117358 0.100036025 0.02606705 0.095029235 -0.42998528 0.21773557 -0.62702477 -0.34848034 -0.7290896 0.16047364 -0.52819 0.152646 0.33343315 0.87010515 0.30028483 0.5336276 -0.33137184 -0.34042108 -0.4979335 -0.349397 0.11098404 -0.05185394 -0.607754 0.26429734 0.43439603 -0.119398266 -0.19630557 0.4784109 0.6385904 -0.19646992
23 0.17716254 0.309057 -0.46718407 0.22881268 0.44183862 -0.36680022 -0.37326854 0.13442673 0.26039684 0.06888372 -0.7171749 -0.6824014 -0.7428077 -0.85339195 0.71481353 0.069683746 -0.44856104 0.36218768 0.012128241 0.67075217 -0.5007693 1.1859285 0.59253085 -0.6130328 -0.012840435 0.23467754 0.13519047 -0.23473634 0.34397295 -0.48391002 0.08668451 -0.16319837 -0.04791216 -1.2453382 -0.10835996 0.9046778 0.45772853 0.6284617 -0.10048993 0.038139574 -0.78737146 -0.58342624 -1.0997868 -0.49421972 -0.017150588 -0.121530704 -0.11704691 -0.9997565 -0.3062513 -0.04659463 0.17912853 0.33060426 -0.8758546 0.019436419 0.50284594 0.14959341 -0.16293967 0.98344934 0.536271 -0.3244993 0.35297453 0.108159795 -0.73518884 -0.21440966
24 0.6880945 0.40355614 -0.13779087 0.35612866 0.62666404 0.07854217 -0.52507347 -0.34624195 -0.14107285 -0.21905777 -0.39799964 0.04546409 -1.6451416 0.2450109 -0.4642548 -0.11172646 0.01253698 -0.36874917 0.41356635 0.06933376 -0.8001464 -0.48081782 0.09279427 -0.4718913 0.010532051 0.12977576 0.11748615 0.15375052 -0.06269285 -0.64627624 -0.09599143 -0.33167464 0.7629738 -0.66250944 -0.046326973 -1.5962114 0.392888 -0.8449377 -0.29405862 -0.16327864 0.003192082 0.18104237 0.023635387 -1.2742679 0.51539385 -0.67469513 0.12974392 -0.43683124 -0.14021377 1.3028525 -0.095096394 -0.5044369 -0.42914358 0.7200126 -0.11267925 0.5097704 0.25184357 1.6153115 -0.00659474 -1.1542077 0.3485823 -0.41775358 0.03801404 0.56208265
26 0.49583745 -0.45507434 -0.73607177 -0.47692087 -0.17066216 -0.36163193 0.0337561 -0.027978498 0.8288903 -0.3903375 0.9030106 0.24587923 -0.3123515 0.5697582 -0.14878169 0.48006973 -0.097714 0.24110079 -0.49519813 -0.7788379 -0.6192336 -0.6978985 1.1744533 -0.14440042 0.62425303 -0.6055619 -0.18821251 0.5790187 0.55097526 -0.036725998 1.304634 0.30693814 0.42935184 -0.1372045 0.068154424 -0.91168964 0.25635147 -0.22634706 -0.4798181 0.08970255 0.39331365 0.9604475 -0.51413035 -0.42507976 -0.4916783 -0.6428082 -0.35546422 -0.3743589 -0.24468878 0.0050113276 0.04873091 -0.53406125 -0.39611265 -0.35310677 -1.0003641 0.07433084 -0.1732261 0.72520536 0.64420116 -0.6729637 0.29537603 0.09808323 -0.2892759 0.10797727
27 -0.23854774 -1.1344749 -0.28555927 0.20811425 -0.41843072 0.0011611283 0.12603937 0.10985468 -0.08856843 -0.409085 0.1752075 -0.26586872 0.5207204 0.4482085 1.0791779 -0.08496438 0.6453734 0.05018592 0.13956824 0.13890876 0.2521847 0.012933761 0.0037738085 0.49705467 0.3445996 0.25949568 0.7692249 0.17809032 0.20592533 0.5016442 -0.15653 0.0008852333 -0.68486714 0.41175565 0.21237364 0.059648756 -0.06953956 -0.7669435 0.12664342 -0.08399032 0.34853107 -0.38993633 -0.27472672 1.0530766 0.7983215 -0.3937456 0.22726935 0.35011506 -0.95619094 -0.38304085 -0.7264078 -0.4459532 -0.13868052 0.07103573 0.045605876 0.13625793 0.16099411 -0.304908 -1.0626277 0.56012905 0.15983696 0.0055928975 0.09287466 0.881505
28 0.2788616 0.10316534 0.03753026 0.3806873 0.23417898 -0.19227397 -0.0954977 -0.7549472 -0.17013933 0.34270737 -0.14118093 0.18079144 -0.75087494 0.78632724 0.078130454 0.31470755 0.25374287 0.35748157 0.9239944 -0.36578214 0.5599454 0.7221283 -1.3295524 -0.3245557 -0.3741647 -0.08203438 0.49482894 -0.3236338 -0.915624 -0.18417893 0.13739297 -0.36044115 -0.28967634 -1.0036862 -0.70966214 0.048434213 -0.28414595 -0.032993644 0.7607339 0.29948276 0.31536528 0.014936015 -0.0591152 0.27210116 0.04197819 -0.047317997 -1.0977464 0.29073292 -0.47652304 -0.49055195 -0.25637272 0.01001659 0.36791658 0.20715636 -0.3667425 0.21981478 0.26550132 0.4260465 -0.9456825 0.77116764 -0.25662845 0.54027593 -0.13406326 0.3876922
29 -0.23137496 0.067974344 0.19213319 0.48486814 0.52497673 -0.49319118 0.99804956 0.5894416 -0.3881222 -0.49536568 -0.86101997 -0.004916936 -0.09393963 0.44836187 -0.3480504 0.06456204 0.36001128 0.58590674 0.71445984 -0.38902587 -0.34140772 -0.3582031 -0.48627314 -0.09158388 -0.20113376 -0.5269333 0.061895594 0.5239624 -0.9806424 -0.70491034 1.0950383 -0.76872 0.07568325 -0.27907065 -0.66344416 0.5693951 0.62586176 0.29486984 0.34753507 -0.90601766 -0.040265054 -0.37195054 -0.016471893 0.44712812 -0.107920274 -0.07957494 -0.30459177 0.64725435 -0.6566799 -0.06598837 -0.44425446 0.49265265 -0.09144555 -0.29134816 0.6453615 -0.93689793 0.6407947 -0.20179981 0.54803795 0.41895652 0.16069174 -0.5404368 -1.1082457 -0.12901975
30 -0.5857346 0.409113 0.6697109 0.9232248 -0.50000054 -1.2510369 0.43756622 0.32025656 -0.52621126 -0.4397787 -0.870864 -0.21262434 -0.5569193 -0.17510784 -0.24794525 0.10986224 0.08218874 0.19119251 -0.38838542 -0.49759743 -0.36082593 0.7362275 0.055982776 0.0862336 -0.121210724 -0.48418647 0.1458413 0.36821645 -0.35245782 -0.23288691 0.7734902 -0.36323655 -0.8811338 0.37040842 -0.42459607 -0.49690694 -0.9439356 0.41833505 0.39711362 0.15868214 0.82277465 0.13011661 -0.7710102 0.22038743 0.32138193 1.2038884 -0.8567071 -0.21318822 0.61276376 -0.027687354 -0.6894523 0.38906425 0.2883566 -0.745625 0.8149251 -0.99642646 -0.1970561 0.36260584 0.2786041 -0.5066996 1.335369 0.033528753 0.41235614 0.90782964
31 0.26883715 -0.20873547 -0.62343216 -0.25279278 -0.15566036 0.64926296 -0.3834166 0.74521875 -0.81033516 0.34572592 0.9266144 -0.33262023 -0.09941661 0.57753056 -0.3768341 0.26693672 -0.29823887 -0.09054831 0.61527 0.38553149 0.09481214 -0.5816814 0.35190904 1.1557078 -0.57717687 0.036740318 0.81827956 0.3275705 -0.19730961 0.08707136 -0.7030207 0.57241684 0.21156299 -0.1525206 1.6515632 -0.3494709 0.14222509 0.588786 -0.010924473 -0.6273085 0.59049 -0.08924027 -0.35653126 -0.582216 0.4546877 0.21660146 -0.4546954 0.12627378 1.0497758 0.1418701 -0.8947339 -0.19384599 -0.7616545 -0.45986068 -0.46645832 0.18451124 -0.10871482 -0.8055476 -0.5767201 0.09324768 -0.072423905 0.5908653 0.25283828 0.25175866
33 0.07389706 -0.25931752 0.19656251 -0.39012146 -0.25303477 0.6451844 0.094226696 -0.9380875 -0.50404876 0.18459225 -0.0897378 -0.3569563 -0.40847516 0.13918974 -0.32567078 -0.8039077 -0.5262233 0.057251856 -0.4733519 -0.067110695 -0.020196844 -0.014123902 0.62263674 1.1659558 0.46337157 0.94218606 -0.07325446 0.006794896 0.41938567 -0.67033803 0.26084268 0.3320948 -0.07769564 -0.24271145 -0.347479 0.29877055 0.19165097 1.210607 -0.6987274 -0.19450134 0.5956845 0.036381945 -0.31740496 -0.39983094 -1.3176885 -0.45654273 0.15949628 -0.4635735 -1.0273031 0.89765114 -0.32826906 0.120900765 0.5914128 -1.1004338 0.20607504 -0.38837808 0.032496095 0.35389557 0.7670261 -0.55935866 0.1499719 -0.12755206 -0.4072947 0.65546644
34 1.1798596 -0.08940926 0.022516698 0.5688409 -0.44362253 -0.31482196 0.016773075 0.44185275 0.09144692 0.3888737 -0.28339595 -0.41267973 0.3123412 0.7794238 0.3770498 -0.72875684 0.5099608 0.6276132 -0.39202446 0.036734447 0.9412397 0.5543498 0.04594314 -0.05068472 0.97907525 0.21427318 0.74240124 -0.17804968 -0.06832444 0.2684255 -0.21274397 1.3144314 -0.57050097 0.510922 -0.1078013 -0.68037003 -0.90994 0.7618526 1.0197772 -1.2282271 -0.013926208 0.12166181 0.8777499 -0.9858563 0.03351873 -0.13627404 -0.33844844 -0.691231 -0.11561562 0.75317967 -0.16008532 0.51256144 0.34631562 -0.9697368 -0.84283704 0.03819073 -0.002218604 -0.5865314 0.40312728 0.26826358 0.10346767 -0.29167503 1.262842 0.6310204
35 -1.1157072 -0.79990983 0.47310743 -0.72831345 -0.71484756 0.28029877 -1.1061945 -0.2553862 -0.22257657 -0.034666553 1.0315471 0.71912694 -1.0557985 -0.62931895 0.40132278 0.15900204 0.1403588 0.24826995 0.94917554 -0.14317805 -0.081891835 -0.2846739 1.0411962 0.14494565 -0.63845265 0.28740236 -0.3325785 -0.6158689 -0.84659624 0.30555445 -0.37414706 0.06723477 -0.08611227 0.13690695 0.5174783 -0.79289806 0.3480669 0.22306266 -0.29451534 -0.49130043 -0.86777836 -0.44775677 0.7822208 0.014485359 -0.3149768 0.59187984 -0.11397947 -0.108530484 0.33181274 0.3838402 -0.39334562 -0.19600919 0.2156205 0.054649126 0.20714544 -0.2947013 -0.17417926 0.22532491 -0.9071684 -0.41807374 1.3535964 0.16376479 -1.2099496 0.2856499
36 -0.7725681 -0.0971528 -0.03111637 -0.25618646 -0.83539593 -0.44072163 -0.3559736 -0.71455324 0.09605293 -0.24242759 0.71208155 0.6900859 0.16472518 -0.24512577 -0.017230276 -0.33519322 -0.23658755 -0.59625244 -0.97301084 -0.20991805 0.38650417 0.054302365 0.19139232 -0.82448465 0.1736784 0.19351685 -0.57226235 -0.151883 -0.03696239 -0.4896252 -0.6705576 0.19732839 0.069632664 0.324687 0.27706015 0.73204803 0.5921656 -0.2434394 0.81947947 -0.35385293 -0.7901848 0.85116524 1.2431823 -0.13392673 0.42784163 1.06554 0.02363883 0.4772106 -0.788782 0.19756798 0.21313626 0.20112893 0.07454646 -0.6112719 -0.07268636 0.19322538 0.19668661 -0.6027527 -0.09756022 0.22846644 0.90226364 0.32607704 -2.0955553 0.058936365
37 -1.7664666 -0.35992396 0.23473711 -0.45945203 0.19630373 -0.80469877 0.42800468 -0.7779479 -1.1649194 -0.05727315 0.77156335 -0.9197763 0.03853661 -0.2916771 0.29070583 0.59336317 -0.49470752 -0.38363752 -0.12335549 -0.32662392 0.63466847 -0.0668987 0.72401106 -1.0165617 -0.89820915 0.37566173 0.5677486 -0.18956673 0.22981367 -0.108538516 -0.78394645 -0.54627323 -0.22171788 0.6210421 0.6269092 -0.15728506 0.5465406 -0.68798274 -0.6866759 -0.09564847 -0.066957384 0.90897393 0.30303895 -0.7609414 -0.70754266 0.43554524 -0.02458153 0.02263116 0.060173422 0.67925483 0.064302266 0.13228783 -0.0477312 0.05020425 -0.37411675 -0.16643631 0.124449864 0.18855552 -0.018575452 -0.5101024 0.79341394 -0.14575154 -0.8418058 0.24859697
38 0.10213052 1.2739989 -0.61856616 0.38329586 0.8684817 0.64321905 1.4812946 -0.39175266 -0.044295628 -0.5628696 -0.22074589 0.4819634 -0.34528223 0.20195483 -0.10136953 0.3481815 -0.2831976 0.3150823 -0.09594619 0.88116103 -0.2395727 1.152722 0.7416476 0.4517112 0.34743544 0.391249 0.9772973 0.13203984 -1.1592942 0.72081995 -0.0946016 -1.167844 -0.94470906 0.22696702 -0.21137738 0.2492977 -0.5299153 -0.3648255 -0.58347076 1.4877965 -0.36074895 -0.6284861 0.1353006 0.5936493 0.602045 0.20721129 -0.16469973 0.7398253 -0.32952267 -0.3685481 0.5054954 0.38639218 -0.66716033 0.3939916 0.9135553 0.38635635 -0.050869383 -0.47205436 0.21169135 0.370715 -0.5330014 0.2814771 0.45619982 0.39796928
41 0.082491234 -0.105686694 0.10098177 -0.3918762 0.030481488 -0.4291737 0.5705756 -0.22543749 0.055209942 0.7006233 -0.66946113 0.37335706 -0.50709105 0.20522515 0.18399987 0.31507534 -0.67271745 0.41531256 0.04721722 -0.17785051 0.7247357 -0.2953776 0.13080454 -0.5574753 -0.1592196 -0.57028246 0.7026881 -0.11662226 0.861042 0.6602829 -0.076731294 -0.8026589 -0.9294468 -0.027645499 0.1717842 0.060720302 0.53208804 -0.5254775 0.3059356 0.36961228 0.7534047 -0.55750847 -0.051991493 -0.46000814 0.044953413 0.22326235 0.11393814 0.012490451 0.0003535375 -0.9719143 -0.25696492 -0.53247666 -0.19569123 -0.43677482 0.07394295 0.42432308 -0.41259974 0.22354427 -0.24735641 0.06864698 0.17877832 0.2844185 -0.18497638 0.4222939
42 1.0277102 -0.5984407 -0.48794258 0.26552415 -0.027234092 -0.6362308 -0.1484369 0.3302479 -0.80456454 -0.25680178 0.4232593 -0.61853164 -0.41928077 -0.017368942 -0.52944624 0.49532074 -0.46988422 -0.066956244 -0.44329333 0.039313197 -0.6738458 0.36048004 -0.21632168 -0.30041572 -0.12833515 -0.10834337 0.53269076 -0.73567116 -0.3709253 -0.10337824 -0.3396692 0.34205735 -0.08530771 0.4541191 0.3619539 0.004353188 0.21074286 0.027204096 -0.06570787 -0.06620592 -0.0020118654 1.289125 0.43976167 -0.2360614 -0.30589426 -0.08510001 -0.6815636 0.70692194 -0.08439155 -0.05511737 0.45516798 0.3922831 0.105126366 1.251228 -0.70728934 0.19736314 -0.2487078 0.03309983 0.3034748 0.16971418 0.34143123 0.17152834 -0.24724713 -0.07433139
43 0.0071525723 -0.20842677 -0.13799934 -0.115218386 -0.17569381 0.5588809 -0.32598433 -0.21759796 -0.60215014 0.82542926 -1.0949903 0.4791553 0.23844594 -1.243084 0.016620968 -0.60984033 0.7938421 -0.59445965 -0.34612677 0.75947315 -0.17761993 -0.3070305 -0.5913596 0.017764851 0.4473583 -0.12656139 0.04671061 0.24488845 -0.2269659 0.4416353 0.8783003 0.32972106 0.33849633 -0.8137291 0.10964677 0.5990161 -0.26143754 0.45043364 -0.6659032 0.67618895 0.58808565 -0.16172588 -0.073409975 1.37726 0.036034063 0.33139274 -0.09030363 -1.0783875 -0.13808003 -0.03021437 -0.12112865 -0.3088682 0.062691465 0.61057675 -0.54858387 0.47048578 0.5230011 0.3488066 -1.0249751 -0.3592027 0.13508642 -0.38070157 0.056284674 0.41785043
44 -0.0075329244 -0.82643 0.06634389 -0.03433757 -0.17012712 1.2236487 -0.5175696 -0.55032706 -0.8814447 0.13702008 0.06962086 -0.76070285 0.056106865 1.1758324 0.23152435 0.018336393 -0.8786343 -0.18490416 -0.37551796 0.60559976 0.81942767 -0.4663896 -0.41540742 -0.39647374 0.46292973 -0.23802866 -0.38977653 -0.021099612 0.48985845 0.25290385 1.2098918 0.2663429 0.51279134 -0.15474606 -0.1855385 -0.017850488 -0.6185332 0.28279665 -0.33571118 -0.99704236 -0.32714313 0.402731 -0.24176416 0.3694218 -0.83334315 -0.6768997 -1.1320109 -0.26835334 0.3058021 -0.28146347 0.429031 -0.87514627 -1.0453439 -0.78949845 0.0007437095 -0.32497177 0.53281915 -0.08808541 -1.1762576 -0.9615977 0.09781602 1.0032303 -0.56022453 0.9721361
45 -1.2958885 -0.36869437 -0.38941288 -0.32651666 0.123198986 -0.4835258 0.21453345 0.3061797 0.46216047 -0.11508538 0.46724638 -0.42515 -0.6146599 0.10018486 0.16801164 0.7019373 0.5683608 -0.40533754 0.62417823 0.16824058 -0.5129256 -0.044085197 -0.20120126 -0.4448249 -1.0029526 0.074303105 -0.8081321 0.5516323 -0.27160716 0.5262293 -1.1317023 0.22019783 0.1485718 -0.6274972 0.38914675 0.16277063 0.23227023 0.32024544 0.041939065 0.8582677 -0.031733725 -0.7573125 0.54463536 -0.76994264 -0.9980818 0.70378613 0.36656588 0.55832493 0.005294472 -0.22006369 0.26954284 -0.4408698 0.3709452 -0.016977534 -0.43682727 -0.25844407 0.085981 -0.40878198 -0.20695311 0.5362879 0.12249845 0.09566133 -0.48778424 0.1524946
46 -1.4045124 -1.4314569 -0.17359471 0.12624983 0.2745033 0.16729818 -0.60240465 -0.371337 -0.76672614 0.46928212 0.57349855 -0.31254607 -0.069676906 0.00406396 -0.03510395 0.279005 -0.6926633 0.021212801 -0.6929799 -0.28761512 -0.0353207 0.2587785 1.2302983 0.058142558 -0.2670505 -0.22845334 0.19706048 0.11356749 -0.09519247 0.015782576 -0.95595145 0.046350934 0.31045875 0.22195154 1.0082742 -0.13578105 0.9208858 0.1774117 -0.0034051538 0.099055275 0.19230673 0.45706362 -0.22780812 -0.47244614 -0.39717758 0.5460911 -0.3523811 0.105757594 -0.44724786 -0.53445244 -0.80083066 -0.58551455 -1.5910906 -0.41052327 0.8897564 -0.3764005 0.084105134 0.034749016 -0.053704403 -0.034037054 0.4544141 0.3695865 -0.47410393 0.27420074
47 -0.16023687 0.10664564 -0.3070616 -0.18463913 0.5881349 0.32192993 0.31991675 -0.07113719 0.00069771707 0.37745684 -0.05322452 -0.4915388 -0.15246324 -0.22200309 0.76209855 0.011189815 0.35342097 -0.07671912 0.35128027 -0.29840487 -1.1364696 -0.0935103 -0.28383848 -0.67659765 -0.15917408 -0.3550849 -0.49265212 0.79312456 0.82477295 -0.34889856 0.021600477 0.12939279 -0.6348009 0.6995115 0.71205807 -0.72811645 0.8783374 -0.2705744 -0.7371264 -0.27099678 1.0884857 -0.82406354 -0.14020935 -0.14922774 -0.3352942 0.6368915 -0.3170333 -0.30173737 0.6481263 0.74591327 0.69575655 -0.48018086 0.29709673 -0.083649024 0.34587485 -0.83659625 0.29059383 -1.4931203 0.5487983 0.8422127 -0.1595829 0.11487369 0.061101332 0.7471296
48 0.6142626 -0.3540031 -0.25809497 -0.2795507 -0.13126183 0.2025719 -0.089440376 -0.28752217 0.41552877 -0.014709309 0.54830974 0.6599644 0.2482743 0.3071847 0.0062359124 0.3945697 -0.50099325 -0.5614767 -0.052557394 -0.44562852 -0.4623055 -0.36956137 -0.40785834 -0.50439453 -0.87948906 0.5834063 -0.48373526 0.17037396 0.2835301 0.42029566 0.4387508 -0.12383611 0.3942285 0.28173944 0.22138663 -0.18213515 0.6116823 0.37666965 -0.68202764 -0.58742446 0.13250488 0.662755 -0.013714261 -0.11394094 0.14971866 0.70661587 -0.14406264 -0.050296456 0.5872645 0.049207523 -0.5192907 -0.23975442 -0.297068 0.36243087 0.08558152 -0.2727415 -0.23435017 -0.056325153 0.15343861 -0.69114053 -0.6289549 -0.5282538 -0.54884374 -0.21757768
49 0.5098677 -0.09835696 -0.20607004 -0.56672347 -0.15191573 0.066083774 -0.1569758 0.55776805 -0.013427123 -0.48509443 0.2087507 0.29841027 -0.45754498 -0.5100165 -0.38263902 0.55461603 0.679413 -0.15778005 0.045975596 0.07491854 -0.11474948 0.1405645 -0.8912908 0.5606142 -0.48703545 0.21003094 -0.54122376 1.2135255 0.36521962 -0.67197424 -0.042731334 -0.23875651 -0.86074173 0.40552515 0.56960076 0.027594745 -0.0154213905 0.58240855 0.7477966 -0.9305757 -0.12918743 0.3837207 -0.08195242 -0.38623402 -0.9780599 0.17417026 -0.2615481 0.014363959 0.27321076 -0.19676293 0.15532038 -0.4731907 -0.7133106 -0.72131276 0.0036839768 -0.12766251 -0.0052210838 -1.954694 -0.718684 0.040005893 -1.3175855 0.24510196 -1.0471938 -0.38405535
50 0.44135934 0.051010486 -0.26505318 0.65111285 0.430899 0.08640498 -0.499842 -0.23377639 0.47594586 -0.77948236 0.16365197 0.3570457 -0.72648185 0.7077573 -0.08046165 0.2663666 -0.14635229 -0.5544412 0.36218917 -0.8764849 0.02908843 0.97396564 -0.3058958 -0.3474388 1.0135485 -0.097451925 0.07311857 0.28758317 0.06304856 0.21716735 1.6907055 1.0721841 0.34805307 0.58911574 -0.5474521 -0.6355659 0.25193706 0.5871398 0.45754656 -0.9669759 -0.0007004291 0.177217 0.52487254 -0.39118955 -0.22712092 -0.1271474 0.65560323 -0.5275076 -0.45190406 0.06969968 -0.07804608 0.22665983 -0.2992472 -0.5057921 -0.29690257 0.46472523 0.30617097 -0.3336535 0.19325382 -0.9830809 -0.5916658 1.3344163 -0.23891059 -0.17809111
51 -1.0439968 -1.1116662 0.108074255 0.50958765 -0.4061646 -0.12854771 -1.6839086 0.21389744 0.2572174 1.1417043 0.5157574 -0.37565172 -0.72297454 0.4320331 0.49283996 -0.40585625 -0.4273613 -0.5951768 -0.030337844 0.26979578 0.5062393 -0.48082393 0.4350955 -0.5072566 -0.7129466 -0.47314602 0.30062774 -0.33710653 0.22135524 -0.1267511 -0.45169336 0.120753184 0.1400109 0.40638307 -0.0035405457 0.32653132 0.39598957 0.5005364 0.20549342 -0.6858798 -0.041362584 -0.08705015 0.49918184 -0.6946895 -0.6843597 0.4543982 0.5363377 0.13366541 -0.21490268 0.6138923 -0.17119385 -1.287852 -0.13481638 0.5084558 0.87169474 -0.053381607 0.5852983 -0.022202313 0.16976826 -0.45268908 0.41625378 0.15806194 -0.52959543 0.3148855
52 -0.038958833 -0.35193276 -0.9621974 0.42556915 -0.07604207 0.67502815 -0.3478578 -0.017873615 0.40198648 -0.23605168 0.28263894 0.19034266 -0.8169883 0.59419507 -0.056240335 0.27586296 0.52141047 0.38506544 -0.38571 0.06299898 -0.23616156 -0.05204251 0.25744727 0.7197958 -0.14530784 0.28303814 -0.03432194 0.03295032 -0.042858765 0.3405374 0.7631892 0.48419398 -0.6174952 0.34703538 0.16734916 -0.28095916 -0.14879414 -0.68504024 0.0032044621 -0.038418233 -0.0006350726 -0.04944372 -0.38555545 -0.008519016 0.87983143 -1.0998852 -0.32506725 -0.32555154 0.78824115 -0.31978187 0.40051448 -0.5850549 0.5227054 0.1750178 0.030764446 0.30944395 0.7950237 1.0121077 -0.106948785 -1.2782067 0.36878058 -0.8180635 0.1521008 0.27126822
55 -0.5102191 -0.29701155 0.22010748 0.33960253 0.7465666 0.7944491 -0.22119316 -0.7269612 0.31527606 -0.17453094 0.35567373 -0.19980645 -1.0569115 0.5056794 -0.020468742 0.24273413 -0.31575915 -0.6696716 0.29812875 -0.06862705 0.3576001 0.61434716 0.3547414 -0.65097207 -0.16182165 -0.08057569 -0.24157493 0.056397665 0.46308774 -0.27675048 0.5365139 0.3162295 0.16860546 0.41976753 -0.12909469 -1.4566864 0.3931498 -0.048985433 -0.44891095 -0.5323216 0.18919778 0.46086246 0.38339782 -0.75163 -0.5394254 -0.25855005 0.23884812 0.11888483 0.26362395 0.23302688 -0.035084277 -0.22595295 -0.48412776 -0.3801937 0.12174585 0.22821519 0.51435506 0.7640054 -0.1603503 -0.8739778 0.347236 -0.24130663 -0.35340253 0.48583406
56 0.28235787 0.46947756 -0.33127362 0.02550935 0.5930291 0.569935 -0.42117578 -0.2168459 -0.0794228 -0.067506075 0.5168607 -0.29450357 -1.0191658 0.30405682 0.3756895 -0.40101343 -0.06279136 -0.31861466 0.41599143 0.30934018 -0.60767394 0.1559665 1.0217482 0.5840073 0.78470635 0.30329704 -0.23431337 0.26911682 0.068097435 0.050742242 -0.03885013 0.5813039 0.12263386 0.62193835 0.015154168 -1.3466966 0.81472427 -0.0768542 -0.085863814 -0.1389305 -0.105240226 0.21000068 0.4645295 0.24818581 -0.3829955 -0.17513579 0.33489254 0.038636766 0.6911841 -0.07876818 0.39521554 0.6932849 0.5766222 -0.33836025 0.116684675 -0.11776739 0.25690663 0.88342255 -0.16514844 -0.84668595 -0.13034081 -0.21444681 0.53325415 0.90292215
57 0.9608735 0.23106037 -0.22646865 -1.0353676 -0.032324612 0.36139178 -0.030892938 0.8424272 1.0207667 -1.2363079 0.16013438 0.10423656 0.27594346 0.9630322 0.87401205 -0.3623675 -0.53658175 0.7260885 -0.23449562 -0.8694016 -0.79791886 -0.32741004 1.5648162 0.089434355 -0.39220276 0.63907105 -0.58934593 0.028806075 1.0167336 -0.79380596 0.9731175 -0.66677 -0.4586051 0.8553949 -0.2410686 -1.0954425 0.014926285 0.2623042 0.5521126 0.09043872 -0.35664964 0.868999 0.03953767 -1.2749958 -0.32140556 -0.4633803 0.36253247 -0.32058758 0.47234133 -1.0192565 -0.31222203 0.6884393 0.1259269 -0.3286008 -0.39773437 0.22423491 0.72851247 0.59848833 -0.123269476 -0.5357657 -0.5823492 0.5053564 -0.6884216 -0.47193396
58 0.08423215 1.1653908 0.040313914 -0.75702536 -0.93611753 -0.21334597 1.227509 -0.53965783 1.6217163 -0.16377686 0.34111246 0.99187267 -0.027302409 0.11966633 -0.25580424 0.12491912 0.5458931 1.0423298 -0.3538663 -0.123334736 -1.2443261 -0.008116126 0.7145643 0.07720178 0.63038725 -0.06591001 0.7934536 0.2989031 -0.28660622 0.11424866 0.81763345 0.045515515 0.36978093 -1.0881193 -0.88381827 -0.17974597 -0.21062711 -0.5759452 -0.25079912 0.027216911 -0.11822517 0.6328254 0.15274087 -0.3273523 -0.5831096 -0.029694378 -0.21215045 -0.47002992 -0.4327726 -0.07373385 -0.14900412 0.8104135 -0.034490727 -0.27458742 0.80021584 -0.5704984 0.53628725 0.49593914 0.32090268 0.0070780665 0.11799874 0.6462235 -0.18227157 -0.063070014
59 0.6446609 -0.46779507 -0.6304735 -0.6711923 -0.7754922 0.117590904 -0.050152272 0.52721065 -0.094242275 -1.0474173 0.5526216 1.1493566 -0.570124 0.3130459 -0.31884873 -0.46583557 1.0567119 0.59832275 0.24291052 -0.65789855 0.22025385 0.36662367 0.7856817 0.46191245 0.72004604 0.5468105 -0.43082076 0.74638045 -0.58116186 -0.005926639 0.34286076 -0.28575787 0.12324734 0.07815927 -0.8587524 -0.90439975 -0.10351959 0.6363917 -0.732244 -0.009661347 0.15043646 1.0351094 0.5141328 -0.533769 -0.034181297 0.44554186 0.10759776 -0.5829712 -0.21586457 -1.0207591 -0.34763068 0.3333217 -0.07174446 -0.42104855 -1.3093188 0.1543253 -0.59860104 0.29798242 0.6578352 -0.1176461 -0.20138216 1.2308588 -0.02762708 -0.15530634
60 -0.014748152 0.046389252 0.17281565 0.8463392 0.20473215 -0.30468315 -0.82028353 0.8903892 -0.29253623 0.38633442 0.43233323 0.07817881 -0.16867346 -0.090352684 0.41905507 -0.47031474 1.2750473 0.2511825 0.13096277 0.0057587624 0.0077274144 -0.19578981 -0.13157704 0.36500883 -0.56105363 -0.6112998 -0.20589162 1.0234406 -0.2207689 -0.22384565 -0.24977311 -0.18423977 -0.31009915 -0.09066361 0.4139234 -0.26632366 0.65037656 0.16855256 0.4906835 -0.38056102 -0.06958136 -0.4304273 0.07729797 -0.14999008 -1.1851125 -0.18527946 -0.4740697 0.40035018 0.0034147054 -0.33580405 0.7251583 -0.40298685 0.33803126 0.06059183 -0.18605149 -0.96723115 0.7404791 -1.4252715 0.16448918 -0.018617302 -0.4902117 -0.5458567 -0.10488266 0.05401546
62 -0.60655427 0.28837356 -0.35423335 0.015152277 0.22001527 -0.60095966 0.290757 -0.4287327 -0.17500328 0.19953457 -0.12930547 0.809462 0.024203796 0.2608461 -0.0081103295 0.9479742 0.10258545 0.060674936 0.3413176 -0.17316766 0.5411774 -0.1889071 0.023555093 -0.11392462 -0.7723211 0.12436843 0.42217627 -0.4685935 0.15581673 -0.04130561 -0.85775995 -0.990198 -0.45197716 -0.22736563 -0.33730125 0.09343945 0.15308231 -0.5271966 -0.28312534 0.41289747 0.0061016344 0.07087615 0.5164175 -0.068229854 -0.21268629 0.2162673 -0.24157974 0.81602734 -0.00890395 -0.78856695 -0.34435222 0.16159418 -0.017273948 0.47505784 -0.37702075 0.067339286 1.010117 -0.029554829 -0.795756 0.848091 -0.6749653 0.50804204 -0.4370154 0.26358807
63 0.018641759 0.65481687 -0.12689283 -0.46435273 -1.1336255 -0.1542465 -0.35148436 0.1321696 -0.552608 -0.032378834 0.3972243 0.6414298 -0.38536346 0.64318514 -0.031951904 0.10922878 -0.5715762 -0.5493442 0.59821117 -0.011904453 0.22926895 -0.35645545 0.26720124 0.28114855 -0.19858202 -0.1876449 -0.39996293 0.28447738 -0.30734986 0.3865018 -0.1792112 0.043491513 -0.42223734 -0.25587684 0.37932804 0.30665803 -0.2631476 -0.41374186 0.38778257 0.20891002 0.54939467 0.485104 0.54518384 0.46145493 -0.44657594 0.18227084 -0.3973238 0.004038751 -0.057206556 -0.3305592 0.4734852 -0.82717127 0.20202267 1.2047017 -0.0002899766 0.7754597 -0.24482174 -1.5617476 0.41179305 0.7299828 -0.60126495 0.26459706 -0.039018765 0.23611358
64 -0.80411154 -0.08056946 0.68174505 0.09754599 0.063235246 -0.17323078 -0.30201715 0.62879586 -0.16360025 -0.98721266 0.40474698 -0.70867985 0.2268596 -0.39413527 0.46717173 -0.9152627 0.19421825 -0.42425823 -0.15899439 0.37965947 0.8299272 -0.40431452 0.49660578 1.1603914 0.41654107 -0.5769058 0.6538942 0.0394927 0.24504098 0.68549263 -1.1518122 -0.5160828 0.30052233 0.21279648 -0.38968077 -0.10939584 0.25342244 -0.048345324 -0.26643735 -0.6031444 0.45056975 0.22230972 0.57658637 0.47454333 0.49669647 1.3949716 -0.911398 -0.0805667 0.37600386 0.37981963 -0.80645615 -0.5404315 -0.32905373 0.3344162 -0.123834595 -1.0354859 0.29748845 0.2469382 0.29890996 0.1290779 -0.37010276 0.83223176 0.0008558035 0.5795069
65 0.13360545 0.44922 0.26810443 0.39927962 0.9889766 -0.456635 -0.83979446 -0.5623904 0.08317623 -0.028787702 -0.6159562 -0.6144716 0.2698656 -0.87663484 -0.005750306 0.2285817 -0.5755275 1.3956304 0.068605036 0.15817812 -0.780314 -0.6212381 -0.49636823 -0.4850834 0.07806972 0.43924287 -0.33339936 0.21010639 -0.11189161 1.5373354 0.6996523 -0.42482248 -0.038732708 0.36066616 0.19623592 0.6520557 -0.4850811 0.12866642 0.27864712 -0.63922346 -0.50932086 -0.45224875 -0.7048147 -0.04651004 -0.7276455 -0.09084344 -0.38588792 0.81229985 0.42235807 -0.14782399 0.12470257 0.09167309 -0.13562378 -0.75847304 0.08107184 -0.103979826 0.0659516 0.65881294 0.6519047 0.30714822 0.2594667 0.2182563 -0.7556046 -0.077632755
66 0.113306664 -0.16662538 0.0738119 -0.6666959 -0.09585011 -0.82800865 -0.7664337 -0.0028974456 -0.06644198 -0.84850025 -0.7381188 0.15469664 0.053100243 -0.65134525 -0.4981805 -0.86899334 -0.022647448 1.0006047 0.42460123 -0.57897407 -0.19762284 0.072702214 0.29303488 -0.27792868 -0.6620103 0.10056279 0.0117405355 0.47463858 -0.46385494 -0.37994286 0.5130221 -0.86200595 -0.34879035 -0.6561207 0.0018612444 -0.009026997 -0.12928244 0.22958207 0.3697092 -0.4371018 -0.26373038 0.2761376 -0.51490253 -0.109388486 0.04385636 -0.12551764 0.32951504 0.21773732 0.24490121 0.021342251 0.2508232 -0.1440904 0.7205193 -0.7146067 1.0720563 -0.44685534 -0.1620329 0.9208285 1.0106865 0.21764672 0.053268403 0.0086409 0.47447443 -0.10803075
67 0.2301855 0.08470906 -0.098803625 0.28624672 -0.16115834 0.7139857 -0.4111453 0.83835566 0.17511208 0.33596927 -1.0382199 -0.53422815 0.51528263 -0.2884494 0.46155405 0.54435515 1.07521 -0.52292156 -0.2817031 0.9361729 -0.09716321 -0.23100363 -0.91219664 0.5036257 0.3302133 -0.4525288 0.734542 -0.5181629 -0.5895629 -0.45508158 -0.045457423 -0.5040045 0.1016072 -0.2767782 0.20519814 0.5239919 0.37444273 -0.4287497 -0.7936902 0.8068698 -0.51943284 -0.6105535 -0.57069176 1.5143383 1.4038436 0.44914168 0.2990105 -0.8165184 -0.54200274 -0.5810772 0.5518254 0.4413805 1.0748492 -0.31897122 -0.04641261 -0.3901626 0.34260482 0.09311696 -1.3848178 -0.38827652 -0.42971882 -0.37457407 0.10945492 -0.69635177
68 0.19880107 0.930718 0.06668565 -0.20066464 -0.44705507 1.0335435 -0.055421494 0.34510055 -0.7947991 -0.076105006 -1.0477567 -0.36621225 -1.1974478 -1.0569391 -0.5144356 0.49986205 -0.0072596967 0.18369028 -0.37043667 0.11366594 0.030470803 0.8052572 0.73884696 -0.124025494 0.3680786 -1.4675437 0.36818153 -0.09765052 0.5862846 -0.075769804 0.82647336 -0.33536112 0.36446214 -0.22620758 0.627936 -0.24540293 0.4218569 -0.08035703 0.06800184 0.081000745 -0.5278017 -1.5783479 -0.4300356 -0.15431684 0.16171046 0.076413885 -0.510851 -0.2831272 -0.02684939 -0.11630378 -0.6169847 0.3035965 -0.5842993 0.67376244 -0.1214535 0.06541702 1.1418214 -0.4697207 -0.15781474 -0.37978175 -0.24060023 -0.37375474 -0.015865475 -0.24893564
69 0.081727475 0.1906138 0.30458516 0.7280656 0.10067107 0.23533307 -0.67893386 1.7182457 0.4800403 -1.2013564 -0.49340117 -0.33653754 -0.44347894 0.6415793 -0.20457512 -0.7788819 0.21246617 -0.51683235 -0.10349126 -0.242189 -0.2732499 0.11084991 -0.18658742 0.638326 0.28528363 -0.7819635 0.7697901 -0.6530123 -0.11176559 -0.1319652 0.22314629 -0.4274253 -0.17879166 0.26346698 0.34661308 0.57821316 0.327097 0.8144972 0.1457948 0.23669928 -0.060503982 0.45335132 -0.50107396 0.94553256 0.635435 -0.11056713 -0.39071655 -1.3864477 0.027799994 -0.17868489 0.22243637 0.12337714 0.27437088 -0.65360457 0.23510587 0.29391903 -0.54097104 0.55668145 -0.35373122 -0.6294659 -0.6190811 -0.13497536 0.1221766 0.061526883
70 -0.10028106 -0.12886405 -0.458328 -1.2133082 0.3334137 -0.56310016 1.1307755 -0.05430174 0.31968373 0.657849 0.65237665 0.50000304 1.2271377 -0.5920882 -0.709582 -0.3898628 0.5178646 -0.59811044 0.37995204 0.6381824 0.01873669 -0.22616002 0.08561492 -0.112386785 -0.15909371 0.09410207 0.37602177 -0.6763972 -0.5304722 -0.17082642 0.05017318 -0.4626568 0.009956777 0.3344735 -0.116614625 -0.3499052 0.52927667 -0.5108789 -0.25510198 0.06285239 0.11190746 0.44219577 -0.27567437 0.10076238 0.12136515 0.2537746 0.7657345 0.24017036 -0.5084271 0.5789275 -0.07080755 -0.2588964 0.013903014 0.67592925 -0.29385537 -0.06461208 -1.3755426 -0.6010444 -0.09124453 0.36697727 0.22179957 -0.02682747 0.18978745 -0.74935466
71 0.4906542 0.70770943 0.017760921 -0.46857858 -0.8404572 -0.21627964 -0.2834027 0.3557757 -0.40997 0.35085833 -1.0145833 -0.4174293 0.2613869 -0.28570256 -1.0888121 -0.41030964 0.43566206 0.6755392 -0.86561275 0.10181105 0.43434596 -0.35704458 -0.060436472 -0.15876757 0.66832006 -0.036069266 0.19952011 0.03635627 0.45261514 0.2579198 0.27935103 -0.7255504 -0.5574554 -0.07073577 0.3796757 -0.08743909 -0.29053816 -0.8601208 -0.57974744 0.545804 -0.014730662 0.32507733 0.1536499 0.57478976 -0.908288 0.29052112 0.11809176 -0.26584104 0.4013191 -0.27974868 0.61887616 -0.17142795 -0.6742434 1.0438579 -0.44202667 0.33338872 0.21392044 -0.0011862814 -0.6803048 -0.27473623 -0.12586364 0.084842294 0.22504848 -0.5935676
72 0.45160514 -0.36340943 -0.25601393 -0.13452473 0.65013003 -0.79243165 0.370336 0.4002672 -0.5558293 -0.20743042 -0.16383879 -0.19324999 0.37570354 0.05496387 0.070018984 -1.256581 0.6222807 -0.26822558 -0.80560255 0.7892755 -0.31890962 1.0727612 0.62761784 0.7995402 0.6622205 0.049405754 0.8732275 -0.02384045 0.5246581 0.030907996 -0.23492959 -0.13250346 -0.39916712 -0.615792 1.1035103 -0.31666338 -0.89196986 -0.73710537 -0.09808184 0.10043043 -0.7172248 0.40291283 -0.59821004 0.38425842 -0.018269897 -0.6770578 -0.2671204 -1.5102122 -0.23208047 0.6667297 0.576601 -0.22234525 0.1605362 0.043599427 0.17625743 0.018996902 -0.14515296 -0.2889854 -0.25298792 -1.1636052 0.18836531 -0.090808034 -0.4482984 -1.0524765
73 0.20594656 -0.35245648 0.29745322 -0.63425434 -0.60474044 0.28933352 0.50529075 0.13642552 -1.6367897 -0.48222038 -1.1591675 0.9696525 -0.30116206 -0.21320131 0.38020277 -0.3975425 0.6585454 -0.99205965 -1.1295333 0.3105881 0.3572922 0.691801 -0.75764596 0.14670338 0.70701975 -0.23746303 -0.46758363 -0.5288171 0.23202345 0.4730277 -0.3388151 -0.40375957 -0.1943614 -0.27832955 0.12263811 -0.17025086 -0.034755424 -0.9670868 -0.38730353 0.7376684 -0.058356512 0.5020933 -0.07770863 0.6253084 1.028801 -0.09306452 -0.06413491 -0.47845036 -0.10929378 -0.22104087 0.40850133 0.5088707 0.6078358 0.9590244 0.09426177 0.5064322 -0.26154062 0.070304416 0.35790092 -0.32212007 0.014305733 -0.42670867 0.13804722 0.37890443
74 0.6288715 -0.1842844 0.2559572 -0.5111288 -0.72740793 1.0255206 0.15715756 1.9557774 0.34951055 -0.18070073 -0.50490606 -1.2410883 0.22787324 -0.26878673 0.017882595 -0.31531554 -0.6294136 -0.6043612 -0.9633297 1.0410008 0.38444194 0.28923884 -1.2716622 0.92032653 0.4897101 -0.6099119 0.9118553 -0.23384154 -0.30283973 0.15760335 0.20505762 -0.30960828 -0.5236273 -0.4515095 0.8008231 1.609474 0.0679645 -0.16920924 -0.40848196 0.7030817 -0.5459265 0.34079674 -0.41882896 0.35928425 -0.21889742 -0.057504695 0.37870118 -0.732425 -0.47152263 0.3517328 -0.024644807 0.038997993 0.99531746 0.3903255 0.8287337 0.78841746 -0.06754114 -0.0992957 -0.0013974905 0.4877692 -0.063602306 -1.4560993 -0.3821387 -0.23687041
75 0.05493637 -0.2543462 0.061712015 -0.98206264 0.031185761 0.3009856 -0.6619378 1.3883795 0.10099664 0.53942585 -1.1314355 -0.27982384 0.8680178 0.8868325 -0.93116754 -0.2034662 -0.41355124 0.52284586 -0.4620409 1.0802112 0.062774725 0.320875 -0.40670475 0.49363658 0.14301452 0.47904006 0.45456827 0.27471405 -0.69371176 -0.9171329 -0.22280228 0.11323304 -0.2212501 0.74702907 -0.017807007 0.16131225 0.11082861 -0.35644102 -0.20445286 0.34534717 -1.0492827 -0.16072398 -1.0422142 -0.0017161667 -0.037266523 0.67714334 -0.16865267 -0.9545506 -0.003548056 -0.42922908 0.8821568 -0.5353051 0.6558232 0.02638933 -0.72446907 -0.109133065 0.19793555 0.5915327 -0.41412473 -0.2641925 0.35506973 -0.16154858 0.29355824 0.40084732
76 0.84662884 -0.6068571 0.25057322 0.4064474 0.25945917 0.9961311 0.81458914 -1.1019263 0.50949466 0.1533804 -0.0071388036 -1.0409745 0.26869082 1.0544418 1.2455341 -0.45542455 -1.3275986 0.6203104 0.2976418 0.19123887 0.4303596 0.17821957 -1.6499493 0.4188016 -0.23654097 0.584383 0.16483575 -0.72751945 -0.5295025 -0.076011926 0.37512714 0.19541788 0.52466273 -0.88642853 -0.5187837 -0.9123713 -0.6819187 1.0865107 -0.14635544 -0.12717268 0.13288713 -1.2147472 0.14312288 -1.0657457 -0.47520012 -0.6457791 0.25714073 -0.22517225 -0.24111357 -0.46984136 0.0021808073 -0.039339274 0.3169289 -0.36090747 -0.6714873 -0.0321244 -0.8815503 -0.9670662 0.5419473 0.76972234 -0.01241523 0.14539206 0.29519343 -0.3907879
77 -0.23605254 0.33388883 -0.24108015 0.19129053 -0.26861018 -0.59338 -0.008572625 -1.0574443 0.44566607 1.0413557 -0.35771787 0.35354704 0.56456214 0.08966936 -0.43759915 -0.80812967 0.7653359 0.8628246 -0.2913063 -0.18420772 0.043504193 -1.2597902 -0.45497832 0.07279852 0.18448523 -0.43633267 0.30123204 -0.71514624 -0.09602464 0.3733858 -0.03498418 -0.58562297 0.010153905 -0.37126648 -0.1184971 0.43657833 0.2518564 0.37386054 -0.1814121 0.55262876 -0.27656096 -0.57140976 0.31543294 0.1965811 -0.25369084 0.69299674 -0.21403095 0.040253103 0.19023734 0.50433546 0.36011717 0.33791572 -1.2205225 -0.054341372 -0.055540472 -0.5603457 -0.30985597 -0.55201393 0.39928305 0.5461787 0.8180622 1.3968257 -0.69258404 -0.27721038
78 -0.33464703 0.41693592 0.35211056 0.6176983 -0.13469638 -0.23359793 -0.27437705 0.13062753 0.024225391 -0.64209175 -1.2556868 -0.29586864 1.2307826 0.15790203 -0.030306362 -0.42146993 -0.8801187 0.24828845 -0.16277105 0.051567897 -0.64363784 0.26162338 -0.2570165 0.35648707 -0.12833264 -0.4594888 0.3307594 -0.0370345 0.6056889 0.43621004 -0.8785248 0.042000547 0.30853134 0.3480817 -0.42881963 0.3866138 -0.73520327 -0.6758169 -0.11494331 0.2203299 0.43617043 0.31201303 0.14646482 -0.14841655 -0.21111892 -0.29736763 -0.5789727 -0.3060829 0.12811902 0.8187615 0.14076586 0.13694003 -0.15641062 -0.41630477 0.4589634 -1.254597 0.34781617 0.74121183 0.3956618 -0.4072116 0.2813332 0.43807572 0.05787009 0.009232119
79 -0.39303526 0.7212264 -0.8013795 0.44333017 0.39370283 0.002987668 -0.11857822 -0.84040534 0.76431894 0.68313265 -0.29610956 -0.1299636 0.39495772 -0.41201937 -0.8063739 0.5402836 0.72538966 0.059686393 0.34789103 -1.428479 -0.8376143 1.1148508 0.3584198 0.00041767955 0.20786402 -0.016966373 0.7744275 -0.16831815 -0.060800552 0.40089482 0.011132956 0.016314067 0.6158809 -0.3878825 0.10544407 0.46610373 0.35530373 0.9009091 -0.067887306 -0.49094313 -0.21786866 0.681002 0.315762 0.43446475 -0.31757498 -0.13290933 -0.090322964 0.6676824 0.86908066 -0.40790367 0.5088637 0.15638685 0.78680277 0.30533105 0.609051 -0.11981663 -0.39349258 -0.28741524 0.5552545 0.34893894 -1.5732608 0.16622315 0.29180735 -0.4524849
